{"learner":{"attributes":{"scikit_learn":"{\"_estimator_type\": \"regressor\"}"},"feature_names":[],"feature_types":[],"gradient_booster":{"model":{"gbtree_model_param":{"num_parallel_tree":"1","num_trees":"100"},"iteration_indptr":[0,1,2,3,4,5,6,7,8,9,10,11,12,13,14,15,16,17,18,19,20,21,22,23,24,25,26,27,28,29,30,31,32,33,34,35,36,37,38,39,40,41,42,43,44,45,46,47,48,49,50,51,52,53,54,55,56,57,58,59,60,61,62,63,64,65,66,67,68,69,70,71,72,73,74,75,76,77,78,79,80,81,82,83,84,85,86,87,88,89,90,91,92,93,94,95,96,97,98,99,100],"tree_info":[0,0,0,0,0,0,0,0,0,0,0,0,0,0,0,0,0,0,0,0,0,0,0,0,0,0,0,0,0,0,0,0,0,0,0,0,0,0,0,0,0,0,0,0,0,0,0,0,0,0,0,0,0,0,0,0,0,0,0,0,0,0,0,0,0,0,0,0,0,0,0,0,0,0,0,0,0,0,0,0,0,0,0,0,0,0,0,0,0,0,0,0,0,0,0,0,0,0,0,0],"trees":[{"base_weights":[2.7958225E-9,-1.1225105E-1,3.581598E-1,-1.4911449E-1,3.5274588E-2,2.709763E-1,5.992465E-1,-1.7404726E-1,-1.0317419E-1,-7.910649E-3,7.598499E-2,2.0403804E-1,3.7002113E-1,4.6674658E-2,6.964945E-2,-1.7869674E-2,-1.48571655E-2,-1.170468E-1,-8.742461E-2,-3.1181503E-2,8.982143E-3,5.7317786E-2,9.3971245E-2,1.6505189E-1,2.3913898E-1,3.151002E-2,3.8943145E-2,-1.2306004E-2,-1.08968755E-2,-9.288453E-3,-7.4438276E-3,-4.434911E-2,-2.2714531E-2,-3.6218532E-4,2.0227673E-2,3.804227E-3,6.5072984E-3,7.998406E-3,9.920298E-3,1.410488E-2,1.7848577E-2,2.1798862E-2,2.57824E-2,-4.6940274E-3,-2.7469157E-3,-2.4380283E-3,-1.5092466E-2,-3.219399E-3,5.1676817E-3,1.4733641E-2,2.77463E-3,-1.6343978E-3,-7.5648166E-4,-1.2573327E-3,-2.6401176E-4,3.380582E-4,6.610269E-4,1.0314274E-3,1.6359072E-3],"categories":[],"categories_nodes":[],"categories_segments":[],"categories_sizes":[],"default_left":[0,0,0,0,0,0,0,0,0,0,0,0,0,0,0,0,0,0,0,0,0,0,0,0,0,0,0,0,0,0,0,0,0,0,0,0,0,0,0,0,0,0,0,0,0,0,0,0,0,0,0,0,0,0,0,0,0,0,0],"id":0,"left_children":[1,3,5,7,9,11,13,15,17,19,21,23,25,-1,-1,-1,-1,27,29,31,33,35,37,39,41,-1,-1,-1,-1,-1,-1,43,45,47,49,-1,-1,-1,-1,-1,-1,-1,-1,-1,-1,-1,51,53,55,57,-1,-1,-1,-1,-1,-1,-1,-1,-1],"loss_changes":[1.4135661E2,1.4563595E1,1.7472374E1,2.4355316E0,9.429365E-1,4.0217705E0,2.5354614E0,1.3773727E-1,1.5494442E-1,1.0288171E-1,8.7281585E-2,4.6822453E-1,1.4167023E-1,0E0,0E0,0E0,0E0,5.9714317E-3,1.8469334E-2,1.12565085E-2,1.5979778E-2,1.8153429E-2,2.2369623E-3,3.254366E-2,2.0069122E-2,0E0,0E0,0E0,0E0,0E0,0E0,5.476102E-4,5.080998E-4,1.3438377E-3,2.4414193E-3,0E0,0E0,0E0,0E0,0E0,0E0,0E0,0E0,0E0,0E0,0E0,1.767464E-5,2.7024397E-4,5.2416814E-5,1.3296865E-4,0E0,0E0,0E0,0E0,0E0,0E0,0E0,0E0,0E0],"parents":[2147483647,0,0,1,1,2,2,3,3,4,4,5,5,6,6,7,7,8,8,9,9,10,10,11,11,12,12,17,17,18,18,19,19,20,20,21,21,22,22,23,23,24,24,31,31,32,32,33,33,34,34,46,46,47,47,48,48,49,49],"right_children":[2,4,6,8,10,12,14,16,18,20,22,24,26,-1,-1,-1,-1,28,30,32,34,36,38,40,42,-1,-1,-1,-1,-1,-1,44,46,48,50,-1,-1,-1,-1,-1,-1,-1,-1,-1,-1,-1,52,54,56,58,-1,-1,-1,-1,-1,-1,-1,-1,-1],"split_conditions":[2.8942075E-1,1.2450963E-1,6.1661357E-1,4.206876E-2,2.0982094E-1,4.4559324E-1,7.7762634E-1,1.6562423E-2,7.951761E-2,1.7148063E-1,2.5414503E-1,3.7223166E-1,5.10261E-1,4.6674658E-2,6.964945E-2,-1.7869674E-2,-1.48571655E-2,6.6481695E-2,9.8370574E-2,1.5158047E-1,1.8620212E-1,2.229412E-1,2.633878E-1,3.290209E-1,4.1699746E-1,3.151002E-2,3.8943145E-2,-1.2306004E-2,-1.08968755E-2,-9.288453E-3,-7.4438276E-3,1.3879478E-1,1.6180658E-1,1.7823091E-1,1.9827911E-1,3.804227E-3,6.5072984E-3,7.998406E-3,9.920298E-3,1.410488E-2,1.7848577E-2,2.1798862E-2,2.57824E-2,-4.6940274E-3,-2.7469157E-3,-2.4380283E-3,1.7208207E-1,1.5212704E-1,1.82163E-1,1.8924093E-1,2.77463E-3,-1.6343978E-3,-7.5648166E-4,-1.2573327E-3,-2.6401176E-4,3.380582E-4,6.610269E-4,1.0314274E-3,1.6359072E-3],"split_indices":[4,0,4,4,4,4,4,4,0,0,4,4,4,0,0,0,0,0,1,0,4,4,4,4,0,0,0,0,0,0,0,4,1,4,4,0,0,0,0,0,0,0,0,0,0,0,2,4,4,4,0,0,0,0,0,0,0,0,0],"split_type":[0,0,0,0,0,0,0,0,0,0,0,0,0,0,0,0,0,0,0,0,0,0,0,0,0,0,0,0,0,0,0,0,0,0,0,0,0,0,0,0,0,0,0,0,0,0,0,0,0,0,0,0,0,0,0,0,0,0,0],"sum_hessian":[3.514E3,2.676E3,8.38E2,2.141E3,5.35E2,6.17E2,2.21E2,1.386E3,7.55E2,2.6E2,2.75E2,3.7E2,2.47E2,9.6E1,1.25E2,1.167E3,2.19E2,3.98E2,3.57E2,1.09E2,1.51E2,1.37E2,1.38E2,1.78E2,1.92E2,6.9E1,1.78E2,2.2E2,1.78E2,2.47E2,1.1E2,4.1E1,6.8E1,8.3E1,6.8E1,4.1E1,9.6E1,4.2E1,9.6E1,6.8E1,1.1E2,9.6E1,9.6E1,3.4E1,7E0,5.4E1,1.4E1,5.5E1,2.8E1,4.1E1,2.7E1,1.1E1,3E0,2E0,5.3E1,1.4E1,1.4E1,1.3E1,2.8E1],"tree_param":{"num_deleted":"0","num_feature":"5","num_nodes":"59","size_leaf_vector":"1"}},{"base_weights":[6.1038096E-5,-1.0104528E-1,3.2266122E-1,-1.3423696E-1,3.1786084E-2,2.407147E-1,5.310216E-1,-1.5702142E-1,-9.3517736E-2,-7.147745E-3,6.848878E-2,1.8381736E-1,3.2989505E-1,4.1671757E-2,6.275036E-2,-1.608445E-2,-1.3447329E-2,-1.05226055E-1,-7.76359E-2,-2.8174898E-2,8.116297E-3,4.9970444E-2,8.3267085E-2,1.459865E-1,2.1308437E-1,2.8404793E-2,3.47346E-2,-1.1219729E-2,-9.771315E-3,-8.413982E-3,-6.9325673E-3,-4.0091366E-2,-2.0513063E-2,-3.321811E-4,1.8283775E-2,3.7222818E-2,5.9141554E-3,7.296058E-3,9.074188E-3,1.23704E-2,1.5600316E-2,1.941831E-2,2.3251692E-2,-4.445388E-3,-3.0223913E-3,-2.2250034E-2,-1.4355538E-2,-2.9246192E-3,4.685361E-3,1.3323784E-2,2.5070768E-3,3.1782992E-3,4.168697E-3,-6.1557145E-4,-2.244491E-3,-1.536066E-3,-6.9974514E-4,-1.1735107E-3,-2.3809882E-4,3.0650568E-4,5.9933076E-4,1.1113128E-3,1.656209E-3],"categories":[],"categories_nodes":[],"categories_segments":[],"categories_sizes":[],"default_left":[0,0,0,0,0,0,0,0,0,0,0,0,0,0,0,0,0,0,0,0,0,0,0,0,0,0,0,0,0,0,0,0,0,0,0,0,0,0,0,0,0,0,0,0,0,0,0,0,0,0,0,0,0,0,0,0,0,0,0,0,0,0,0],"id":1,"left_children":[1,3,5,7,9,11,13,15,17,19,21,23,25,-1,-1,-1,-1,27,29,31,33,35,37,39,41,-1,-1,-1,-1,-1,-1,43,45,47,49,51,-1,-1,-1,-1,-1,-1,-1,-1,-1,53,55,57,59,61,-1,-1,-1,-1,-1,-1,-1,-1,-1,-1,-1,-1,-1],"loss_changes":[1.14681076E2,1.1806881E1,1.4197609E1,1.9725914E0,7.664209E-1,3.0041313E0,2.341179E0,9.664154E-2,1.3519764E-1,8.399907E-2,7.137191E-2,3.796625E-1,8.8552475E-2,0E0,0E0,0E0,0E0,1.2134075E-2,1.2057304E-2,9.220816E-3,1.3062829E-2,1.241231E-2,5.089402E-3,1.752901E-2,3.0879974E-2,0E0,0E0,0E0,0E0,0E0,0E0,4.6440214E-4,4.1857176E-4,1.106347E-3,1.9887388E-3,1.0691583E-5,0E0,0E0,0E0,0E0,0E0,0E0,0E0,0E0,0E0,2.492778E-5,2.563838E-5,2.4027957E-4,4.3089094E-5,1.1661276E-4,0E0,0E0,0E0,0E0,0E0,0E0,0E0,0E0,0E0,0E0,0E0,0E0,0E0],"parents":[2147483647,0,0,1,1,2,2,3,3,4,4,5,5,6,6,7,7,8,8,9,9,10,10,11,11,12,12,17,17,18,18,19,19,20,20,21,21,22,22,23,23,24,24,31,31,32,32,33,33,34,34,35,35,45,45,46,46,47,47,48,48,49,49],"right_children":[2,4,6,8,10,12,14,16,18,20,22,24,26,-1,-1,-1,-1,28,30,32,34,36,38,40,42,-1,-1,-1,-1,-1,-1,44,46,48,50,52,-1,-1,-1,-1,-1,-1,-1,-1,-1,54,56,58,60,62,-1,-1,-1,-1,-1,-1,-1,-1,-1,-1,-1,-1,-1],"split_conditions":[2.8942075E-1,1.2450963E-1,6.022373E-1,3.5694033E-2,2.0982094E-1,4.5982283E-1,7.6826227E-1,2.0423353E-2,8.1649445E-2,1.7148063E-1,2.5094134E-1,3.6526486E-1,5.184543E-1,4.1671757E-2,6.275036E-2,-1.608445E-2,-1.3447329E-2,5.8355264E-2,8.726182E-2,1.5158047E-1,1.8620212E-1,2.4080344E-1,2.700527E-1,3.2234997E-1,4.0613607E-1,2.8404793E-2,3.47346E-2,-1.1219729E-2,-9.771315E-3,-8.413982E-3,-6.9325673E-3,1.2265467E-1,1.562911E-1,1.7823091E-1,1.9827911E-1,2.1689935E-1,5.9141554E-3,7.296058E-3,9.074188E-3,1.23704E-2,1.5600316E-2,1.941831E-2,2.3251692E-2,-4.445388E-3,-3.0223913E-3,1.4236069E-1,1.7208207E-1,1.5212704E-1,1.82163E-1,1.9363138E-1,2.5070768E-3,3.1782992E-3,4.168697E-3,-6.1557145E-4,-2.244491E-3,-1.536066E-3,-6.9974514E-4,-1.1735107E-3,-2.3809882E-4,3.0650568E-4,5.9933076E-4,1.1113128E-3,1.656209E-3],"split_indices":[4,0,4,4,4,1,0,0,1,0,4,4,1,0,0,0,0,4,4,0,4,1,0,4,4,0,0,0,0,0,0,4,4,4,4,4,0,0,0,0,0,0,0,0,0,2,2,4,4,4,0,0,0,0,0,0,0,0,0,0,0,0,0],"split_type":[0,0,0,0,0,0,0,0,0,0,0,0,0,0,0,0,0,0,0,0,0,0,0,0,0,0,0,0,0,0,0,0,0,0,0,0,0,0,0,0,0,0,0,0,0,0,0,0,0,0,0,0,0,0,0,0,0,0,0,0,0,0,0],"sum_hessian":[3.514E3,2.676E3,8.38E2,2.141E3,5.35E2,6.03E2,2.35E2,1.371E3,7.7E2,2.6E2,2.75E2,3.7E2,2.33E2,1.1E2,1.25E2,1.167E3,2.04E2,4.4E2,3.3E2,1.09E2,1.51E2,1.24E2,1.51E2,1.64E2,2.06E2,6.9E1,1.64E2,2.21E2,2.19E2,1.8E2,1.5E2,4.1E1,6.8E1,8.3E1,6.8E1,5.4E1,7E1,6.8E1,8.3E1,5.5E1,1.09E2,1.1E2,9.6E1,2.6E1,1.5E1,5.1E1,1.7E1,5.5E1,2.8E1,4.1E1,2.7E1,2.8E1,2.6E1,1E0,5E1,1.4E1,3E0,2E0,5.3E1,1.4E1,1.4E1,2.7E1,1.4E1],"tree_param":{"num_deleted":"0","num_feature":"5","num_nodes":"63","size_leaf_vector":"1"}},{"base_weights":[1.1017318E-4,-9.003058E-2,2.936677E-1,-1.2084553E-1,3.0362226E-2,2.372863E-1,5.4012126E-1,-1.4103511E-1,-8.364474E-2,-2.9440909E-3,6.7125306E-2,1.703325E-1,3.187039E-1,4.4378858E-2,5.881837E-2,-1.446475E-2,-1.1974401E-2,-9.4921485E-2,-7.084289E-2,-2.5446137E-2,1.0823516E-2,5.3681817E-2,8.154528E-2,1.3892154E-1,1.9874513E-1,2.8217023E-2,3.4715533E-2,-9.88907E-3,-8.669789E-3,-7.6260255E-3,-6.175898E-3,-3.6182817E-2,-1.8541982E-2,2.3061575E-3,2.417499E-2,4.141837E-3,5.8438345E-3,7.5215437E-3,9.211268E-3,1.220271E-2,1.5211961E-2,1.8249406E-2,2.176603E-2,-3.8294576E-3,-2.242102E-3,-1.8985251E-2,-2.461642E-3,-2.649509E-3,7.220643E-3,1.793354E-3,2.8152273E-3,-1.9855406E-3,-1.3342425E-3,4.0713698E-5,-4.0996002E-4,-5.9555087E-4,-1.4057117E-4,4.248065E-4,1.0041505E-3],"categories":[],"categories_nodes":[],"categories_segments":[],"categories_sizes":[],"default_left":[0,0,0,0,0,0,0,0,0,0,0,0,0,0,0,0,0,0,0,0,0,0,0,0,0,0,0,0,0,0,0,0,0,0,0,0,0,0,0,0,0,0,0,0,0,0,0,0,0,0,0,0,0,0,0,0,0,0,0],"id":2,"left_children":[1,3,5,7,9,11,13,15,17,19,21,23,25,-1,-1,-1,-1,27,29,31,33,35,37,39,41,-1,-1,-1,-1,-1,-1,43,45,47,49,-1,-1,-1,-1,-1,-1,-1,-1,-1,-1,51,53,55,57,-1,-1,-1,-1,-1,-1,-1,-1,-1,-1],"loss_changes":[9.30386E1,9.983297E0,1.1349442E1,1.5969887E0,6.7241675E-1,3.619831E0,4.4735718E-1,8.9357376E-2,1.02413654E-1,8.980742E-2,4.6218395E-2,3.043871E-1,2.1699524E-1,0E0,0E0,0E0,0E0,4.450321E-3,1.2907743E-2,7.483147E-3,2.0413723E-2,5.629301E-3,1.3661385E-3,2.1572351E-2,1.9604683E-2,0E0,0E0,0E0,0E0,0E0,0E0,3.6198273E-4,4.450921E-4,2.7224864E-3,1.2328066E-3,0E0,0E0,0E0,0E0,0E0,0E0,0E0,0E0,0E0,0E0,6.405823E-5,1.5765918E-5,2.2189989E-4,4.2691594E-4,0E0,0E0,0E0,0E0,0E0,0E0,0E0,0E0,0E0,0E0],"parents":[2147483647,0,0,1,1,2,2,3,3,4,4,5,5,6,6,7,7,8,8,9,9,10,10,11,11,12,12,17,17,18,18,19,19,20,20,21,21,22,22,23,23,24,24,31,31,32,32,33,33,34,34,45,45,46,46,47,47,48,48],"right_children":[2,4,6,8,10,12,14,16,18,20,22,24,26,-1,-1,-1,-1,28,30,32,34,36,38,40,42,-1,-1,-1,-1,-1,-1,44,46,48,50,-1,-1,-1,-1,-1,-1,-1,-1,-1,-1,52,54,56,58,-1,-1,-1,-1,-1,-1,-1,-1,-1,-1],"split_conditions":[2.9901037E-1,1.2056997E-1,6.533395E-1,4.7054544E-2,2.1689935E-1,4.5769444E-1,8.231712E-1,1.8648468E-2,7.1553595E-2,1.671311E-1,2.596564E-1,3.8015196E-1,5.7027996E-1,4.4378858E-2,5.881837E-2,-1.446475E-2,-1.1974401E-2,6.877089E-2,9.649864E-2,1.5158047E-1,1.9363138E-1,2.4123602E-1,2.7998087E-1,3.3992714E-1,4.1583985E-1,2.8217023E-2,3.4715533E-2,-9.88907E-3,-8.669789E-3,-7.6260255E-3,-6.175898E-3,1.3879478E-1,1.7640515E-1,1.7823091E-1,2.1076444E-1,4.141837E-3,5.8438345E-3,7.5215437E-3,9.211268E-3,1.220271E-2,1.5211961E-2,1.8249406E-2,2.176603E-2,-3.8294576E-3,-2.242102E-3,1.6180658E-1,1.8373874E-1,1.6916238E-1,1.8620212E-1,1.793354E-3,2.8152273E-3,-1.9855406E-3,-1.3342425E-3,4.0713698E-5,-4.0996002E-4,-5.9555087E-4,-1.4057117E-4,4.248065E-4,1.0041505E-3],"split_indices":[4,1,4,0,4,4,4,4,4,1,4,4,0,0,0,0,0,0,0,0,4,4,4,4,4,0,0,0,0,0,0,4,0,4,0,0,0,0,0,0,0,0,0,0,0,1,0,4,4,0,0,0,0,0,0,0,0,0,0],"split_type":[0,0,0,0,0,0,0,0,0,0,0,0,0,0,0,0,0,0,0,0,0,0,0,0,0,0,0,0,0,0,0,0,0,0,0,0,0,0,0,0,0,0,0,0,0,0,0,0,0,0,0,0,0,0,0,0,0,0,0],"sum_hessian":[3.514E3,2.689E3,8.25E2,2.141E3,5.48E2,6.73E2,1.52E2,1.386E3,7.55E2,2.88E2,2.6E2,3.71E2,3.02E2,5.4E1,9.8E1,1.18E3,2.06E2,3.98E2,3.57E2,1.09E2,1.79E2,1.37E2,1.23E2,1.79E2,1.92E2,1.37E2,1.65E2,2.61E2,1.37E2,2.19E2,1.38E2,4.1E1,6.8E1,1.1E2,6.9E1,4.1E1,9.6E1,8.2E1,4.1E1,8.3E1,9.6E1,1.09E2,8.3E1,3.4E1,7E0,6.6E1,2E0,5.5E1,5.5E1,2.9E1,4E1,5.5E1,1.1E1,1E0,1E0,1.4E1,4.1E1,2.8E1,2.7E1],"tree_param":{"num_deleted":"0","num_feature":"5","num_nodes":"59","size_leaf_vector":"1"}},{"base_weights":[1.5520772E-4,-8.187934E-2,2.6190293E-1,-1.0879239E-1,2.5825182E-2,2.1398456E-1,4.9962404E-1,-1.2721707E-1,-7.579774E-2,-5.806957E-3,5.5644613E-2,1.5373397E-1,2.928786E-1,4.2978402E-2,5.397584E-2,-1.3047014E-2,-1.0957501E-2,-8.6404204E-2,-6.4217694E-2,-2.2920968E-2,6.616386E-3,3.8827546E-2,6.655455E-2,1.20610036E-1,1.7986722E-1,2.6110753E-2,3.1767577E-2,-9.187938E-3,-8.088193E-3,-6.9943117E-3,-5.669131E-2,-3.5968334E-3,-1.824329E-2,8.3903014E-4,1.6505443E-2,2.7760628E-3,4.491302E-3,5.823379E-3,7.398394E-3,1.0518037E-2,1.32569345E-2,1.6104905E-2,1.9706499E-2,-5.9093465E-3,-4.8445775E-3,-2.1450738E-3,-1.4601479E-2,-2.382211E-3,5.1140413E-3,1.2093014E-3,2.0485977E-3,-1.5190091E-3,-7.2077336E-4,-5.34184E-4,-1.2684813E-4,2.3825059E-4,6.394719E-4],"categories":[],"categories_nodes":[],"categories_segments":[],"categories_sizes":[],"default_left":[0,0,0,0,0,0,0,0,0,0,0,0,0,0,0,0,0,0,0,0,0,0,0,0,0,0,0,0,0,0,0,0,0,0,0,0,0,0,0,0,0,0,0,0,0,0,0,0,0,0,0,0,0,0,0,0,0],"id":3,"left_children":[1,3,5,7,9,11,13,15,17,19,21,23,25,-1,-1,-1,-1,27,29,31,33,35,37,39,41,-1,-1,-1,-1,-1,43,-1,45,47,49,-1,-1,-1,-1,-1,-1,-1,-1,-1,-1,-1,51,53,55,-1,-1,-1,-1,-1,-1,-1,-1],"loss_changes":[7.549678E1,7.762512E0,9.450306E0,1.2925148E0,5.0590634E-1,3.282364E0,1.6043472E-1,6.450081E-2,8.90255E-2,5.5643704E-2,4.8054397E-2,3.2369423E-1,1.549778E-1,0E0,0E0,0E0,0E0,4.6327114E-3,1.2064934E-2,6.0572736E-3,8.670307E-3,6.228745E-3,5.9534907E-3,1.9087076E-2,3.9785385E-2,0E0,0E0,0E0,0E0,0E0,4.2515993E-4,0E0,6.56303E-4,1.3479543E-3,7.3583703E-4,0E0,0E0,0E0,0E0,0E0,0E0,0E0,0E0,0E0,0E0,0E0,7.329974E-5,1.7781268E-4,1.3168971E-4,0E0,0E0,0E0,0E0,0E0,0E0,0E0,0E0],"parents":[2147483647,0,0,1,1,2,2,3,3,4,4,5,5,6,6,7,7,8,8,9,9,10,10,11,11,12,12,17,17,18,18,19,19,20,20,21,21,22,22,23,23,24,24,30,30,32,32,33,33,34,34,46,46,47,47,48,48],"right_children":[2,4,6,8,10,12,14,16,18,20,22,24,26,-1,-1,-1,-1,28,30,32,34,36,38,40,42,-1,-1,-1,-1,-1,44,-1,46,48,50,-1,-1,-1,-1,-1,-1,-1,-1,-1,-1,-1,52,54,56,-1,-1,-1,-1,-1,-1,-1,-1],"split_conditions":[2.8942075E-1,1.2450963E-1,6.7015195E-1,4.2003345E-2,2.0982094E-1,4.9366963E-1,8.7238085E-1,1.3955627E-2,7.833033E-2,1.7148063E-1,2.4898261E-1,3.7223166E-1,5.7409054E-1,4.2978402E-2,5.397584E-2,-1.3047014E-2,-1.0957501E-2,6.2854655E-2,8.590414E-2,1.2265467E-1,1.8924093E-1,2.229412E-1,2.6832786E-1,3.326982E-1,4.1116604E-1,2.6110753E-2,3.1767577E-2,-9.187938E-3,-8.088193E-3,-6.9943117E-3,1.0075718E-1,-3.5968334E-3,1.5498932E-1,1.7823091E-1,1.9827911E-1,2.7760628E-3,4.491302E-3,5.823379E-3,7.398394E-3,1.0518037E-2,1.32569345E-2,1.6104905E-2,1.9706499E-2,-5.9093465E-3,-4.8445775E-3,-2.1450738E-3,1.614406E-1,1.6916238E-1,1.82163E-1,1.2093014E-3,2.0485977E-3,-1.5190091E-3,-7.2077336E-4,-5.34184E-4,-1.2684813E-4,2.3825059E-4,6.394719E-4],"split_indices":[4,0,4,0,4,0,4,0,0,0,4,4,0,0,0,0,0,0,4,4,4,4,4,4,4,0,0,0,0,0,4,0,0,4,4,0,0,0,0,0,0,0,0,0,0,0,4,4,4,0,0,0,0,0,0,0,0],"split_type":[0,0,0,0,0,0,0,0,0,0,0,0,0,0,0,0,0,0,0,0,0,0,0,0,0,0,0,0,0,0,0,0,0,0,0,0,0,0,0,0,0,0,0,0,0,0,0,0,0,0,0,0,0,0,0,0,0],"sum_hessian":[3.514E3,2.676E3,8.38E2,2.141E3,5.35E2,6.99E2,1.39E2,1.372E3,7.69E2,2.6E2,2.75E2,3.98E2,3.01E2,5.5E1,8.4E1,1.153E3,2.19E2,3.98E2,3.71E2,1.09E2,1.51E2,1.1E2,1.65E2,1.78E2,2.2E2,1.37E2,1.64E2,1.92E2,2.06E2,2.06E2,1.65E2,2.7E1,8.2E1,9.6E1,5.5E1,4.1E1,6.9E1,8.2E1,8.3E1,8.2E1,9.6E1,1.1E2,1.1E2,1.23E2,4.2E1,4.1E1,4.1E1,5.5E1,4.1E1,2.8E1,2.7E1,3.7E1,4E0,1.4E1,4.1E1,1.4E1,2.7E1],"tree_param":{"num_deleted":"0","num_feature":"5","num_nodes":"57","size_leaf_vector":"1"}},{"base_weights":[1.8844203E-4,-7.295957E-2,2.3840633E-1,-9.7574174E-2,2.6140086E-2,1.8484432E-1,4.107796E-1,-1.1382288E-1,-6.641426E-2,-7.57463E-4,5.448332E-2,1.3820904E-1,2.5060475E-1,3.3776355E-1,4.7817133E-2,-1.169903E-2,-9.4773425E-3,-7.477378E-2,-5.493461E-2,-1.6829174E-2,9.9938465E-3,4.3557923E-2,6.620285E-2,1.1084553E-1,1.5948507E-1,2.2556623E-2,2.7128711E-2,3.0434726E-2,3.7427664E-2,-7.826935E-3,-6.7957654E-3,-5.885489E-3,-4.5476936E-2,-2.3776243E-2,-1.2255941E-2,2.900182E-3,1.9680869E-2,3.0259264E-3,4.6520126E-3,5.816964E-3,7.1763094E-3,9.912035E-3,1.213765E-2,1.4494247E-2,1.7448245E-2,-4.8185484E-3,-3.6670126E-3,-2.7727738E-3,-1.8316212E-3,-1.4471025E-2,-4.629151E-3,-2.5175858E-4,7.033718E-3,1.4611323E-3,2.2910272E-3,-4.0956587E-4,-1.4591789E-3,-6.1067444E-4,-2.2035149E-4,-1.8237869E-4,1.504264E-4,4.4406188E-4,8.171674E-4],"categories":[],"categories_nodes":[],"categories_segments":[],"categories_sizes":[],"default_left":[0,0,0,0,0,0,0,0,0,0,0,0,0,0,0,0,0,0,0,0,0,0,0,0,0,0,0,0,0,0,0,0,0,0,0,0,0,0,0,0,0,0,0,0,0,0,0,0,0,0,0,0,0,0,0,0,0,0,0,0,0,0,0],"id":4,"left_children":[1,3,5,7,9,11,13,15,17,19,21,23,25,27,-1,-1,-1,29,31,33,35,37,39,41,43,-1,-1,-1,-1,-1,-1,-1,45,47,49,51,53,-1,-1,-1,-1,-1,-1,-1,-1,-1,-1,-1,-1,55,57,59,61,-1,-1,-1,-1,-1,-1,-1,-1,-1,-1],"loss_changes":[6.126685E1,6.5642624E0,7.550247E0,1.0835361E0,4.0866813E-1,1.903553E0,7.980232E-1,7.428932E-2,6.700182E-2,4.7858767E-2,3.0534863E-2,1.9889498E-1,7.396698E-2,4.4431686E-3,0E0,0E0,0E0,4.8310757E-3,9.0397E-3,3.2351352E-3,1.1349859E-2,4.0286183E-3,1.3642907E-3,8.466244E-3,1.985693E-2,0E0,0E0,0E0,0E0,0E0,0E0,0E0,5.468428E-4,4.1986816E-4,1.0986961E-3,1.2655508E-3,8.1126206E-4,0E0,0E0,0E0,0E0,0E0,0E0,0E0,0E0,0E0,0E0,0E0,0E0,6.6440552E-6,4.747347E-5,1.5733241E-4,8.76477E-5,0E0,0E0,0E0,0E0,0E0,0E0,0E0,0E0,0E0,0E0],"parents":[2147483647,0,0,1,1,2,2,3,3,4,4,5,5,6,6,7,7,8,8,9,9,10,10,11,11,12,12,13,13,17,17,18,18,19,19,20,20,21,21,22,22,23,23,24,24,32,32,33,33,34,34,35,35,36,36,49,49,50,50,51,51,52,52],"right_children":[2,4,6,8,10,12,14,16,18,20,22,24,26,28,-1,-1,-1,30,32,34,36,38,40,42,44,-1,-1,-1,-1,-1,-1,-1,46,48,50,52,54,-1,-1,-1,-1,-1,-1,-1,-1,-1,-1,-1,-1,56,58,60,62,-1,-1,-1,-1,-1,-1,-1,-1,-1,-1],"split_conditions":[2.9901037E-1,1.3179122E-1,6.3365906E-1,5.097953E-2,2.1689935E-1,4.5769444E-1,8.131427E-1,2.10164E-2,8.386901E-2,1.7640515E-1,2.596564E-1,3.7223166E-1,5.583144E-1,6.6792345E-1,4.7817133E-2,-1.169903E-2,-9.4773425E-3,7.297247E-2,1.0215089E-1,1.5352535E-1,1.9363138E-1,2.3849443E-1,2.724785E-1,3.3992714E-1,4.3007895E-1,2.2556623E-2,2.7128711E-2,3.0434726E-2,3.7427664E-2,-7.826935E-3,-6.7957654E-3,-5.885489E-3,1.12535276E-1,1.3879478E-1,1.671311E-1,1.82163E-1,2.1076444E-1,3.0259264E-3,4.6520126E-3,5.816964E-3,7.1763094E-3,9.912035E-3,1.213765E-2,1.4494247E-2,1.7448245E-2,-4.8185484E-3,-3.6670126E-3,-2.7727738E-3,-1.8316212E-3,1.3440257E-1,1.756955E-1,1.757089E-1,1.8620212E-1,1.4611323E-3,2.2910272E-3,-4.0956587E-4,-1.4591789E-3,-6.1067444E-4,-2.2035149E-4,-1.8237869E-4,1.504264E-4,4.4406188E-4,8.171674E-4],"split_indices":[4,0,4,0,4,4,0,4,1,0,4,4,1,0,0,0,0,0,1,0,4,4,4,4,0,0,0,0,0,0,0,0,0,4,1,4,0,0,0,0,0,0,0,0,0,0,0,0,0,1,1,4,4,0,0,0,0,0,0,0,0,0,0],"split_type":[0,0,0,0,0,0,0,0,0,0,0,0,0,0,0,0,0,0,0,0,0,0,0,0,0,0,0,0,0,0,0,0,0,0,0,0,0,0,0,0,0,0,0,0,0,0,0,0,0,0,0,0,0,0,0,0,0,0,0,0,0,0,0],"sum_hessian":[3.514E3,2.689E3,8.25E2,2.154E3,5.35E2,6.31E2,1.94E2,1.414E3,7.4E2,2.75E2,2.6E2,3.71E2,2.6E2,9.6E1,9.8E1,1.208E3,2.06E2,4.25E2,3.15E2,1.1E2,1.65E2,1.37E2,1.23E2,1.65E2,2.06E2,1.23E2,1.37E2,5.5E1,4.1E1,2.74E2,1.51E2,2.19E2,9.6E1,4.2E1,6.8E1,9.6E1,6.9E1,2.7E1,1.1E2,5.5E1,6.8E1,8.3E1,8.2E1,1.1E2,9.6E1,7E1,2.6E1,2.2E1,2E1,5.2E1,1.6E1,5.5E1,4.1E1,2.9E1,4E1,1E0,5.1E1,9E0,7E0,2.9E1,2.6E1,1.4E1,2.7E1],"tree_param":{"num_deleted":"0","num_feature":"5","num_nodes":"63","size_leaf_vector":"1"}},{"base_weights":[2.2295034E-4,-6.63557E-2,2.1265538E-1,-8.814853E-2,2.1061862E-2,1.6031791E-1,3.5739365E-1,-1.032947E-1,-6.1762117E-2,-3.3111551E-3,4.647081E-2,1.1906279E-1,2.1592006E-1,2.8766116E-2,4.2331256E-2,-1.0574553E-2,-8.913258E-3,-7.071691E-2,-5.2345734E-2,-1.8490408E-2,6.6758916E-3,3.532628E-2,5.607837E-2,9.405553E-2,1.3693677E-1,1.8222246E-2,2.305272E-2,-7.765473E-3,-6.73437E-3,-5.749213E-3,-4.6199307E-2,-2.6297478E-2,-1.3583449E-2,6.819744E-4,1.4886378E-2,2.5936894E-3,3.965192E-3,5.1068496E-3,6.2591783E-3,7.7480897E-3,9.967966E-3,1.2515779E-2,1.4888266E-2,-4.89457E-3,-4.125496E-3,-3.1268334E-3,-2.1473607E-3,-1.39056025E-2,-1.860857E-3,-1.9480557E-3,4.1724434E-3,9.825543E-4,1.8026328E-2,-1.4699146E-3,-9.851538E-4,7.4505806E-5,-3.5363436E-4,-4.2151145E-4,-9.358544E-5,2.0197363E-4,5.176664E-4,1.0510194E-3,1.8757962E-3],"categories":[],"categories_nodes":[],"categories_segments":[],"categories_sizes":[],"default_left":[0,0,0,0,0,0,0,0,0,0,0,0,0,0,0,0,0,0,0,0,0,0,0,0,0,0,0,0,0,0,0,0,0,0,0,0,0,0,0,0,0,0,0,0,0,0,0,0,0,0,0,0,0,0,0,0,0,0,0,0,0,0,0],"id":5,"left_children":[1,3,5,7,9,11,13,15,17,19,21,23,25,-1,-1,-1,-1,27,29,31,33,35,37,39,41,-1,-1,-1,-1,-1,43,45,47,49,51,-1,-1,-1,-1,-1,-1,-1,-1,-1,-1,-1,-1,53,55,57,59,-1,61,-1,-1,-1,-1,-1,-1,-1,-1,-1,-1],"loss_changes":[4.9728382E1,5.1017466E0,6.2983284E0,8.500767E-1,3.314755E-1,1.3919067E0,8.986931E-1,3.7779808E-2,6.240678E-2,4.1660722E-2,2.6071727E-2,1.466918E-1,8.6956024E-2,0E0,0E0,0E0,0E0,4.1081905E-3,9.553909E-3,3.8184635E-3,8.159202E-3,4.007846E-3,1.3392866E-3,6.4458847E-3,1.0352373E-2,0E0,0E0,0E0,0E0,0E0,4.3854117E-4,3.116876E-4,2.3470074E-4,8.98592E-4,9.3523506E-4,0E0,0E0,0E0,0E0,0E0,0E0,0E0,0E0,0E0,0E0,0E0,0E0,7.073395E-5,1.5733309E-5,1.2455958E-4,8.033973E-5,0E0,3.3810735E-5,0E0,0E0,0E0,0E0,0E0,0E0,0E0,0E0,0E0,0E0],"parents":[2147483647,0,0,1,1,2,2,3,3,4,4,5,5,6,6,7,7,8,8,9,9,10,10,11,11,12,12,17,17,18,18,19,19,20,20,21,21,22,22,23,23,24,24,30,30,31,31,32,32,33,33,34,34,47,47,48,48,49,49,50,50,52,52],"right_children":[2,4,6,8,10,12,14,16,18,20,22,24,26,-1,-1,-1,-1,28,30,32,34,36,38,40,42,-1,-1,-1,-1,-1,44,46,48,50,52,-1,-1,-1,-1,-1,-1,-1,-1,-1,-1,-1,-1,54,56,58,60,-1,62,-1,-1,-1,-1,-1,-1,-1,-1,-1,-1],"split_conditions":[2.9095384E-1,1.1148102E-1,6.131278E-1,3.925024E-2,2.1748324E-1,4.3742332E-1,7.9458296E-1,1.3955627E-2,7.6743305E-2,1.671311E-1,2.5414503E-1,3.5784313E-1,5.10261E-1,2.8766116E-2,4.2331256E-2,-1.0574553E-2,-8.913258E-3,5.228237E-2,9.277959E-2,1.5158047E-1,1.8924093E-1,2.3849443E-1,2.7747315E-1,3.2889402E-1,4.0737912E-1,1.8222246E-2,2.305272E-2,-7.765473E-3,-6.73437E-3,-5.749213E-3,1.0515987E-1,1.3179122E-1,1.7640515E-1,1.7823091E-1,1.9827911E-1,2.5936894E-3,3.965192E-3,5.1068496E-3,6.2591783E-3,7.7480897E-3,9.967966E-3,1.2515779E-2,1.4888266E-2,-4.89457E-3,-4.125496E-3,-3.1268334E-3,-2.1473607E-3,1.562911E-1,1.8373874E-1,1.7640515E-1,1.82163E-1,9.825543E-4,2.0396152E-1,-1.4699146E-3,-9.851538E-4,7.4505806E-5,-3.5363436E-4,-4.2151145E-4,-9.358544E-5,2.0197363E-4,5.176664E-4,1.0510194E-3,1.8757962E-3],"split_indices":[1,4,0,1,0,4,4,0,1,1,4,4,4,0,0,0,0,4,0,0,4,4,0,0,0,0,0,0,0,0,0,0,0,4,4,0,0,0,0,0,0,0,0,0,0,0,0,4,0,0,4,0,0,0,0,0,0,0,0,0,0,0,0],"split_type":[0,0,0,0,0,0,0,0,0,0,0,0,0,0,0,0,0,0,0,0,0,0,0,0,0,0,0,0,0,0,0,0,0,0,0,0,0,0,0,0,0,0,0,0,0,0,0,0,0,0,0,0,0,0,0,0,0,0,0,0,0,0,0],"sum_hessian":[3.514E3,2.676E3,8.38E2,2.142E3,5.34E2,6.17E2,2.21E2,1.359E3,7.83E2,2.73E2,2.61E2,3.56E2,2.61E2,1.1E2,1.11E2,1.153E3,2.06E2,3.98E2,3.85E2,1.08E2,1.65E2,1.23E2,1.38E2,1.51E2,2.05E2,8.3E1,1.78E2,1.23E2,2.75E2,2.05E2,1.8E2,4E1,6.8E1,9.6E1,6.9E1,4.1E1,8.2E1,8.3E1,5.5E1,4.2E1,1.09E2,1.09E2,9.6E1,1.1E2,7E1,1.7E1,2.3E1,6.6E1,2E0,5.5E1,4.1E1,2.8E1,4.1E1,5.3E1,1.3E1,1E0,1E0,1.6E1,3.9E1,1.4E1,2.7E1,5E0,3.6E1],"tree_param":{"num_deleted":"0","num_feature":"5","num_nodes":"63","size_leaf_vector":"1"}},{"base_weights":[2.3557918E-4,-5.97352E-2,1.9158426E-1,-7.90818E-2,2.0095881E-2,1.5228048E-1,3.4882897E-1,-9.224033E-2,-5.3847786E-2,-1.7672752E-3,4.1882336E-2,1.1225241E-1,2.0980382E-1,2.949568E-2,3.9732967E-2,-9.473088E-2,-7.6172687E-3,-5.991849E-2,-4.334282E-2,-1.3721679E-2,6.9742124E-3,3.1871233E-2,5.0511792E-2,8.979243E-2,1.3265108E-1,1.8546613E-2,2.2466732E-2,-9.602358E-3,-8.921703E-3,-6.37564E-3,-5.4789926E-3,-4.6209823E-3,-3.6153973E-3,-1.9398823E-2,-9.984884E-3,2.3693289E-3,1.4825989E-2,2.3512319E-3,3.5865896E-3,4.602244E-3,5.6343824E-3,7.9545334E-2,1.021423E-2,1.2000054E-2,1.4549707E-2,-2.2620945E-3,-1.4946079E-3,-1.2346559E-2,-6.0857683E-3,-1.7104112E-4,5.7000765E-3,1.1480274E-3,1.7342933E-3,6.5540173E-3,8.331159E-3,-3.1559245E-4,-1.2493747E-3,-7.569523E-4,-2.1123407E-4,-1.485923E-4,1.2962735E-4,3.5430124E-4,6.652072E-4],"categories":[],"categories_nodes":[],"categories_segments":[],"categories_sizes":[],"default_left":[0,0,0,0,0,0,0,0,0,0,0,0,0,0,0,0,0,0,0,0,0,0,0,0,0,0,0,0,0,0,0,0,0,0,0,0,0,0,0,0,0,0,0,0,0,0,0,0,0,0,0,0,0,0,0,0,0,0,0,0,0,0,0],"id":6,"left_children":[1,3,5,7,9,11,13,15,17,19,21,23,25,-1,-1,27,-1,29,31,33,35,37,39,41,43,-1,-1,-1,-1,-1,-1,-1,-1,45,47,49,51,-1,-1,-1,-1,53,-1,-1,-1,-1,-1,55,57,59,61,-1,-1,-1,-1,-1,-1,-1,-1,-1,-1,-1,-1],"loss_changes":[4.0347233E1,4.1361084E0,5.13216E0,7.105856E-1,2.4918972E-1,1.5260639E0,3.1914902E-1,4.9407005E-2,4.4658422E-2,2.7474506E-2,2.1024406E-2,1.7089224E-1,5.7810783E-2,0E0,0E0,1.3637543E-4,0E0,5.6988E-3,3.9972067E-3,2.161095E-3,5.460662E-3,3.2971948E-3,1.0462105E-3,1.6299248E-2,1.61798E-2,0E0,0E0,0E0,0E0,0E0,0E0,0E0,0E0,2.7883984E-4,5.602441E-4,8.2172395E-4,2.7247425E-4,0E0,0E0,0E0,0E0,3.4195185E-4,0E0,0E0,0E0,0E0,0E0,1.7386395E-5,1.4908705E-4,1.099695E-4,6.2679406E-5,0E0,0E0,0E0,0E0,0E0,0E0,0E0,0E0,0E0,0E0,0E0,0E0],"parents":[2147483647,0,0,1,1,2,2,3,3,4,4,5,5,6,6,7,7,8,8,9,9,10,10,11,11,12,12,15,15,17,17,18,18,19,19,20,20,21,21,22,22,23,23,24,24,33,33,34,34,35,35,36,36,41,41,47,47,48,48,49,49,50,50],"right_children":[2,4,6,8,10,12,14,16,18,20,22,24,26,-1,-1,28,-1,30,32,34,36,38,40,42,44,-1,-1,-1,-1,-1,-1,-1,-1,46,48,50,52,-1,-1,-1,-1,54,-1,-1,-1,-1,-1,56,58,60,62,-1,-1,-1,-1,-1,-1,-1,-1,-1,-1,-1,-1],"split_conditions":[3.0526423E-1,1.3179122E-1,6.4636946E-1,5.097953E-2,2.1212332E-1,4.9366963E-1,8.7238085E-1,2.5148232E-2,8.609464E-2,1.6916238E-1,2.5414503E-1,3.8946006E-1,5.6273156E-1,2.949568E-2,3.9732967E-2,6.374258E-3,-7.6172687E-3,7.0978865E-2,1.0515987E-1,1.5352535E-1,1.9363138E-1,2.3856334E-1,2.7747315E-1,3.588994E-1,4.1583985E-1,1.8546613E-2,2.2466732E-2,-9.602358E-3,-8.921703E-3,-6.37564E-3,-5.4789926E-3,-4.6209823E-3,-3.6153973E-3,1.3879478E-1,1.6180658E-1,1.82163E-1,2.0923725E-1,2.3512319E-3,3.5865896E-3,4.602244E-3,5.6343824E-3,3.085827E-1,1.021423E-2,1.2000054E-2,1.4549707E-2,-2.2620945E-3,-1.4946079E-3,1.3440257E-1,1.7640515E-1,1.757089E-1,1.8620212E-1,1.1480274E-3,1.7342933E-3,6.5540173E-3,8.331159E-3,-3.1559245E-4,-1.2493747E-3,-7.569523E-4,-2.1123407E-4,-1.485923E-4,1.2962735E-4,3.5430124E-4,6.652072E-4],"split_indices":[0,0,4,0,4,0,4,4,0,4,4,0,0,0,0,1,0,0,0,0,4,0,0,0,4,0,0,0,0,0,0,0,0,4,1,4,1,0,0,0,0,4,0,0,0,0,0,1,0,4,4,0,0,0,0,0,0,0,0,0,0,0,0],"split_type":[0,0,0,0,0,0,0,0,0,0,0,0,0,0,0,0,0,0,0,0,0,0,0,0,0,0,0,0,0,0,0,0,0,0,0,0,0,0,0,0,0,0,0,0,0,0,0,0,0,0,0,0,0,0,0,0,0,0,0,0,0,0,0],"sum_hessian":[3.514E3,2.676E3,8.38E2,2.154E3,5.22E2,6.72E2,1.66E2,1.414E3,7.4E2,2.61E2,2.61E2,3.98E2,2.74E2,8.2E1,8.4E1,1.22E3,1.94E2,4.66E2,2.74E2,1.1E2,1.51E2,1.23E2,1.38E2,1.92E2,2.06E2,1.09E2,1.65E2,9.75E2,2.45E2,2.6E2,2.06E2,1.92E2,8.2E1,4.2E1,6.8E1,9.6E1,5.5E1,4.2E1,8.1E1,8.3E1,5.5E1,1.09E2,8.3E1,1.09E2,9.7E1,2.2E1,2E1,4.1E1,2.7E1,5.5E1,4.1E1,2.6E1,2.9E1,2.7E1,8.2E1,1E0,4E1,1.9E1,8E0,2.9E1,2.6E1,1.4E1,2.7E1],"tree_param":{"num_deleted":"0","num_feature":"5","num_nodes":"63","size_leaf_vector":"1"}},{"base_weights":[2.488437E-4,-5.4369815E-2,1.7076378E-1,-7.144894E-2,1.5985135E-2,1.2484126E-1,2.816568E-1,-8.389183E-2,-5.0371762E-2,-4.741207E-3,3.454303E-2,9.381677E-2,1.691232E-1,2.2165803E-2,3.3846787E-1,-8.585867E-3,-7.3491186E-3,-5.8765735E-2,-4.344338E-2,-1.4985023E-2,3.3258223E-3,2.3103204E-2,4.191555E-2,7.3100284E-2,1.08575664E-1,1.3768627E-2,1.8023444E-2,2.995414E-2,3.6440328E-2,-6.5016956E-3,-5.622706E-3,-4.770813E-3,-3.776761E-2,-2.1159356E-2,-1.1099041E-2,-1.7241991E-4,8.513796E-3,1.7757278E-3,2.8126272E-3,3.7051402E-3,4.6333293E-3,6.176947E-3,7.888817E-3,9.815624E-3,1.1670277E-2,-3.954913E-3,-3.2791866E-3,-2.4900679E-3,-1.7471726E-3,-1.2676512E-2,-8.756449E-3,-2.1431209E-3,1.9466841E-3,6.0106267E-4,1.0637069E-3,-2.9981285E-4,-1.2852307E-3,-9.954261E-4,-5.673678E-4,-6.8685564E-4,-1.7545631E-4,6.3060135E-5,2.763753E-4],"categories":[],"categories_nodes":[],"categories_segments":[],"categories_sizes":[],"default_left":[0,0,0,0,0,0,0,0,0,0,0,0,0,0,0,0,0,0,0,0,0,0,0,0,0,0,0,0,0,0,0,0,0,0,0,0,0,0,0,0,0,0,0,0,0,0,0,0,0,0,0,0,0,0,0,0,0,0,0,0,0,0,0],"id":7,"left_children":[1,3,5,7,9,11,13,15,17,19,21,23,25,-1,27,-1,-1,29,31,33,35,37,39,41,43,-1,-1,-1,-1,-1,-1,-1,45,47,49,51,53,-1,-1,-1,-1,-1,-1,-1,-1,-1,-1,-1,-1,55,57,59,61,-1,-1,-1,-1,-1,-1,-1,-1,-1,-1],"loss_changes":[3.2745525E1,3.2010055E0,4.308729E0,5.5779934E-1,2.0055982E-1,8.152981E-1,7.737179E-1,2.1224976E-2,4.3855906E-2,2.0461217E-2,2.2225201E-2,1.0152221E-1,6.1811447E-2,0E0,1.8052101E-2,0E0,0E0,2.0257235E-3,8.872867E-3,2.380425E-3,2.5241496E-3,2.4543814E-3,1.8503666E-3,5.0955415E-3,6.0739517E-3,0E0,0E0,0E0,0E0,0E0,0E0,0E0,4.2280555E-4,1.3060495E-4,1.4397968E-4,3.5496612E-4,2.3369957E-4,0E0,0E0,0E0,0E0,0E0,0E0,0E0,0E0,0E0,0E0,0E0,0E0,2.782233E-5,5.7992525E-5,6.873728E-5,4.234571E-5,0E0,0E0,0E0,0E0,0E0,0E0,0E0,0E0,0E0,0E0],"parents":[2147483647,0,0,1,1,2,2,3,3,4,4,5,5,6,6,7,7,8,8,9,9,10,10,11,11,12,12,14,14,17,17,18,18,19,19,20,20,21,21,22,22,23,23,24,24,32,32,33,33,34,34,35,35,36,36,49,49,50,50,51,51,52,52],"right_children":[2,4,6,8,10,12,14,16,18,20,22,24,26,-1,28,-1,-1,30,32,34,36,38,40,42,44,-1,-1,-1,-1,-1,-1,-1,46,48,50,52,54,-1,-1,-1,-1,-1,-1,-1,-1,-1,-1,-1,-1,56,58,60,62,-1,-1,-1,-1,-1,-1,-1,-1,-1,-1],"split_conditions":[2.8261408E-1,1.1148102E-1,5.963832E-1,3.8828176E-2,2.0502326E-1,4.4556147E-1,7.7762634E-1,8.727267E-3,7.394921E-2,1.7148063E-1,2.4629162E-1,3.5183305E-1,4.8795122E-1,2.2165803E-2,8.906703E-1,-8.585867E-3,-7.3491186E-3,4.9792584E-2,9.151669E-2,1.5158047E-1,1.8620212E-1,2.2974943E-1,2.6771548E-1,3.2889402E-1,3.9486498E-1,1.3768627E-2,1.8023444E-2,2.995414E-2,3.6440328E-2,-6.5016956E-3,-5.622706E-3,-4.770813E-3,9.8340385E-2,1.3179122E-1,1.53849E-1,1.757089E-1,1.9363138E-1,1.7757278E-3,2.8126272E-3,3.7051402E-3,4.6333293E-3,6.176947E-3,7.888817E-3,9.815624E-3,1.1670277E-2,-3.954913E-3,-3.2791866E-3,-2.4900679E-3,-1.7471726E-3,1.4236069E-1,1.6374822E-1,1.5212704E-1,1.8373874E-1,6.0106267E-4,1.0637069E-3,-2.9981285E-4,-1.2852307E-3,-9.954261E-4,-5.673678E-4,-6.8685564E-4,-1.7545631E-4,6.3060135E-5,2.763753E-4],"split_indices":[4,4,4,0,4,1,4,4,0,0,4,4,4,0,4,0,0,4,0,0,4,0,1,0,4,0,0,0,0,0,0,0,4,0,4,4,4,0,0,0,0,0,0,0,0,0,0,0,0,2,0,4,0,0,0,0,0,0,0,0,0,0,0],"split_type":[0,0,0,0,0,0,0,0,0,0,0,0,0,0,0,0,0,0,0,0,0,0,0,0,0,0,0,0,0,0,0,0,0,0,0,0,0,0,0,0,0,0,0,0,0,0,0,0,0,0,0,0,0,0,0,0,0,0,0,0,0,0,0],"sum_hessian":[3.514E3,2.662E3,8.52E2,2.142E3,5.2E2,6.04E2,2.48E2,1.345E3,7.97E2,2.46E2,2.74E2,3.57E2,2.47E2,1.23E2,1.25E2,1.125E3,2.2E2,3.57E2,4.4E2,1.08E2,1.38E2,1.09E2,1.65E2,1.51E2,2.06E2,6.8E1,1.79E2,5.5E1,7E1,9.6E1,2.61E2,2.47E2,1.93E2,4E1,6.8E1,8.3E1,5.5E1,5.5E1,5.4E1,8.3E1,8.2E1,5.5E1,9.6E1,9.6E1,1.1E2,1.37E2,5.6E1,1.7E1,2.3E1,3.8E1,3E1,4.3E1,4E1,2.7E1,2.8E1,1E0,3.7E1,2E1,1E1,2E0,4.1E1,1.6E1,2.4E1],"tree_param":{"num_deleted":"0","num_feature":"5","num_nodes":"63","size_leaf_vector":"1"}},{"base_weights":[2.588163E-4,-4.894826E-2,1.538792E-1,-6.432274E-2,1.43846935E-2,1.2520121E-1,2.9903775E-1,-7.582636E-2,-4.585292E-2,-3.3890593E-3,3.1967867E-2,8.9840405E-2,1.7314428E-1,2.5694555E-2,3.23251E-2,-7.748104E-3,-6.7864056E-3,-5.3455383E-2,-3.911187E-2,-1.3556532E-2,3.924385E-3,2.1780904E-2,3.772791E-2,6.748869E-2,1.0443937E-1,1.5146121E-2,1.8719768E-2,-5.852889E-3,-5.0416677E-3,-4.294089E-3,-3.3969194E-2,-2.124362E-3,-1.0892581E-2,4.953754E-4,9.793841E-3,1.6537808E-3,2.5324284E-3,3.3355576E-3,4.1698376E-3,5.5786567E-3,7.278447E-3,9.371856E-3,1.1682706E-2,-3.4650457E-3,-2.4267063E-3,-1.231277E-2,-7.823514E-3,-1.4409205E-3,3.0653086E-3,7.1978336E-4,1.2132784E-3,-1.3769208E-3,-1.041659E-3,-9.006235E-4,-4.1945526E-4,-3.353569E-4,-7.235241E-5,1.537624E-4,3.7742357E-4],"categories":[],"categories_nodes":[],"categories_segments":[],"categories_sizes":[],"default_left":[0,0,0,0,0,0,0,0,0,0,0,0,0,0,0,0,0,0,0,0,0,0,0,0,0,0,0,0,0,0,0,0,0,0,0,0,0,0,0,0,0,0,0,0,0,0,0,0,0,0,0,0,0,0,0,0,0,0,0],"id":8,"left_children":[1,3,5,7,9,11,13,15,17,19,21,23,25,-1,-1,-1,-1,27,29,31,33,35,37,39,41,-1,-1,-1,-1,-1,43,-1,45,47,49,-1,-1,-1,-1,-1,-1,-1,-1,-1,-1,51,53,55,57,-1,-1,-1,-1,-1,-1,-1,-1,-1,-1],"loss_changes":[2.6578154E1,2.5939188E0,3.5134754E0,4.5184612E-1,1.629307E-1,1.1948929E0,5.9627533E-2,1.2120247E-2,4.0189266E-2,1.9386606E-2,1.4551759E-2,1.2771797E-1,6.3672066E-2,0E0,0E0,0E0,0E0,2.984643E-3,7.2252154E-3,2.0007063E-3,3.0543644E-3,1.383286E-3,1.4909059E-3,6.2268972E-3,2.19872E-2,0E0,0E0,0E0,0E0,0E0,4.3483078E-4,0E0,2.654381E-4,4.8710353E-4,2.5269762E-4,0E0,0E0,0E0,0E0,0E0,0E0,0E0,0E0,0E0,0E0,8.462928E-6,8.669228E-5,7.4412725E-5,3.9683335E-5,0E0,0E0,0E0,0E0,0E0,0E0,0E0,0E0,0E0,0E0],"parents":[2147483647,0,0,1,1,2,2,3,3,4,4,5,5,6,6,7,7,8,8,9,9,10,10,11,11,12,12,17,17,18,18,19,19,20,20,21,21,22,22,23,23,24,24,30,30,32,32,33,33,34,34,45,45,46,46,47,47,48,48],"right_children":[2,4,6,8,10,12,14,16,18,20,22,24,26,-1,-1,-1,-1,28,30,32,34,36,38,40,42,-1,-1,-1,-1,-1,44,-1,46,48,50,-1,-1,-1,-1,-1,-1,-1,-1,-1,-1,52,54,56,58,-1,-1,-1,-1,-1,-1,-1,-1,-1,-1],"split_conditions":[2.929057E-1,1.1148102E-1,6.6792345E-1,3.692322E-2,2.1380545E-1,4.81278E-1,8.6511886E-1,8.7174475E-3,6.584883E-2,1.671311E-1,2.4629162E-1,3.5784313E-1,5.5836433E-1,2.5694555E-2,3.23251E-2,-7.748104E-3,-6.7864056E-3,5.777684E-2,8.373764E-2,1.2265467E-1,1.8924093E-1,2.229412E-1,2.6829574E-1,3.164587E-1,4.1910422E-1,1.5146121E-2,1.8719768E-2,-5.852889E-3,-5.0416677E-3,-4.294089E-3,1.12535276E-1,-2.124362E-3,1.53849E-1,1.7823091E-1,1.9827911E-1,1.6537808E-3,2.5324284E-3,3.3355576E-3,4.1698376E-3,5.5786567E-3,7.278447E-3,9.371856E-3,1.1682706E-2,-3.4650457E-3,-2.4267063E-3,1.5512179E-1,1.6374822E-1,1.6916238E-1,1.82163E-1,7.1978336E-4,1.2132784E-3,-1.3769208E-3,-1.041659E-3,-9.006235E-4,-4.1945526E-4,-3.353569E-4,-7.235241E-5,1.537624E-4,3.7742357E-4],"split_indices":[0,4,0,1,0,4,0,1,4,1,4,4,4,0,0,0,0,0,4,4,4,4,0,4,1,0,0,0,0,0,0,0,4,4,4,0,0,0,0,0,0,0,0,0,0,1,0,4,4,0,0,0,0,0,0,0,0,0,0],"split_type":[0,0,0,0,0,0,0,0,0,0,0,0,0,0,0,0,0,0,0,0,0,0,0,0,0,0,0,0,0,0,0,0,0,0,0,0,0,0,0,0,0,0,0,0,0,0,0,0,0,0,0,0,0,0,0,0,0,0,0],"sum_hessian":[3.514E3,2.662E3,8.52E2,2.142E3,5.2E2,7.13E2,1.39E2,1.318E3,8.24E2,2.59E2,2.61E2,4.12E2,3.01E2,5.5E1,8.4E1,1.084E3,2.34E2,3.84E2,4.4E2,1.08E2,1.51E2,9.6E1,1.65E2,1.65E2,2.47E2,1.23E2,1.78E2,1.37E2,2.47E2,2.48E2,1.92E2,2.6E1,8.2E1,9.6E1,5.5E1,4.1E1,5.5E1,8.3E1,8.2E1,5.5E1,1.1E2,1.37E2,1.1E2,1.77E2,1.5E1,5.4E1,2.8E1,5.5E1,4.1E1,2.8E1,2.7E1,2.7E1,2.7E1,2E1,8E0,1.4E1,4.1E1,1.4E1,2.7E1],"tree_param":{"num_deleted":"0","num_feature":"5","num_nodes":"59","size_leaf_vector":"1"}},{"base_weights":[2.608356E-4,-4.406466E-2,1.386413E-1,-5.7924144E-2,1.2891429E-2,1.0546922E-1,2.4099956E-1,-6.825846E-2,-4.1311424E-2,-3.9612227E-3,2.8042577E-2,7.713875E-2,1.4316899E-1,1.9829963E-1,2.860096E-2,-6.915582E-2,-5.650151E-3,-4.7926724E-2,-3.504866E-2,-1.2352718E-2,2.7080264E-3,1.7834999E-2,3.3417396E-2,5.933216E-2,8.9090854E-2,1.2351255E-2,1.554503E-2,1.7950958E-2,2.2444764E-2,-7.088189E-3,-6.6463198E-3,-5.3117783E-3,-4.541175E-3,-3.8789415E-3,-3.088559E-2,-1.927553E-3,-9.868483E-3,-1.3591615E-4,6.925583E-3,1.3369271E-3,2.1002113E-3,2.9475219E-3,3.7621905E-3,4.7941296E-3,6.3107694E-3,8.038437E-3,9.706658E-3,-3.259375E-3,-2.7076858E-3,-1.1137355E-2,-6.9782934E-3,-1.7504703E-3,1.600091E-3,4.895903E-3,8.6464605E-4,-1.3196425E-3,-9.7233354E-4,-8.448792E-4,-5.529807E-4,-5.604456E-4,-1.4335077E-4,5.595351E-5,2.2436655E-4,3.0107607E-4,5.2731804E-4],"categories":[],"categories_nodes":[],"categories_segments":[],"categories_sizes":[],"default_left":[0,0,0,0,0,0,0,0,0,0,0,0,0,0,0,0,0,0,0,0,0,0,0,0,0,0,0,0,0,0,0,0,0,0,0,0,0,0,0,0,0,0,0,0,0,0,0,0,0,0,0,0,0,0,0,0,0,0,0,0,0,0,0,0,0],"id":9,"left_children":[1,3,5,7,9,11,13,15,17,19,21,23,25,27,-1,29,-1,31,33,35,37,39,41,43,45,-1,-1,-1,-1,-1,-1,-1,-1,-1,47,-1,49,51,53,-1,-1,-1,-1,-1,-1,-1,-1,-1,-1,55,57,59,61,63,-1,-1,-1,-1,-1,-1,-1,-1,-1,-1,-1],"loss_changes":[2.1566357E1,2.1028705E0,2.8708897E0,3.649211E-1,1.3339701E-1,6.7891836E-1,3.4304428E-1,1.0008335E-2,3.2458544E-2,1.3912764E-2,1.4491558E-2,7.367253E-2,4.742813E-2,1.37553215E-2,0E0,9.636879E-4,0E0,2.783835E-3,5.451679E-3,1.7015468E-3,1.6681753E-3,1.0911375E-3,1.8580109E-3,3.5114884E-3,7.4745417E-3,0E0,0E0,0E0,0E0,0E0,0E0,0E0,0E0,0E0,4.6417117E-4,0E0,2.2666436E-4,2.3824263E-4,1.5326613E-4,0E0,0E0,0E0,0E0,0E0,0E0,0E0,0E0,0E0,0E0,3.4734607E-5,1.2919656E-5,4.5715E-5,2.6201276E-5,4.037982E-6,0E0,0E0,0E0,0E0,0E0,0E0,0E0,0E0,0E0,0E0,0E0],"parents":[2147483647,0,0,1,1,2,2,3,3,4,4,5,5,6,6,7,7,8,8,9,9,10,10,11,11,12,12,13,13,15,15,17,17,18,18,19,19,20,20,21,21,22,22,23,23,24,24,34,34,36,36,37,37,38,38,49,49,50,50,51,51,52,52,53,53],"right_children":[2,4,6,8,10,12,14,16,18,20,22,24,26,28,-1,30,-1,32,34,36,38,40,42,44,46,-1,-1,-1,-1,-1,-1,-1,-1,-1,48,-1,50,52,54,-1,-1,-1,-1,-1,-1,-1,-1,-1,-1,56,58,60,62,64,-1,-1,-1,-1,-1,-1,-1,-1,-1,-1,-1],"split_conditions":[2.8261408E-1,1.2450963E-1,6.256568E-1,3.6845356E-2,2.0502326E-1,4.3742332E-1,8.0983084E-1,2.9865496E-2,7.4682385E-2,1.7148063E-1,2.4353011E-1,3.5183305E-1,5.371727E-1,6.7015195E-1,2.860096E-2,4.3925215E-3,-5.650151E-3,5.639973E-2,8.967542E-2,1.2265467E-1,1.8620212E-1,2.221186E-1,2.633878E-1,3.085827E-1,4.029283E-1,1.2351255E-2,1.554503E-2,1.7950958E-2,2.2444764E-2,-7.088189E-3,-6.6463198E-3,-5.3117783E-3,-4.541175E-3,-3.8789415E-3,1.0374808E-1,-1.927553E-3,1.5868646E-1,1.757089E-1,1.9363138E-1,1.3369271E-3,2.1002113E-3,2.9475219E-3,3.7621905E-3,4.7941296E-3,6.3107694E-3,8.038437E-3,9.706658E-3,-3.259375E-3,-2.7076858E-3,1.5512179E-1,1.5212704E-1,1.5212704E-1,1.8373874E-1,1.9039594E-1,8.6464605E-4,-1.3196425E-3,-9.7233354E-4,-8.448792E-4,-5.529807E-4,-5.604456E-4,-1.4335077E-4,5.595351E-5,2.2436655E-4,3.0107607E-4,5.2731804E-4],"split_indices":[4,0,4,0,4,4,1,2,0,0,4,4,1,4,0,0,0,0,1,4,4,0,4,4,1,0,0,0,0,0,0,0,0,0,1,0,0,4,4,0,0,0,0,0,0,0,0,0,0,1,4,4,0,0,0,0,0,0,0,0,0,0,0,0,0],"split_type":[0,0,0,0,0,0,0,0,0,0,0,0,0,0,0,0,0,0,0,0,0,0,0,0,0,0,0,0,0,0,0,0,0,0,0,0,0,0,0,0,0,0,0,0,0,0,0,0,0,0,0,0,0,0,0,0,0,0,0,0,0,0,0,0,0],"sum_hessian":[3.514E3,2.662E3,8.52E2,2.141E3,5.21E2,6.45E2,2.07E2,1.318E3,8.23E2,2.47E2,2.74E2,3.7E2,2.75E2,1.09E2,9.8E1,1.22E3,9.8E1,3.97E2,4.26E2,1.09E2,1.38E2,9.6E1,1.78E2,1.51E2,2.19E2,1.1E2,1.65E2,6.8E1,4.1E1,7.28E2,4.92E2,1.23E2,2.74E2,2.2E2,2.06E2,2.7E1,8.2E1,8.3E1,5.5E1,4.2E1,5.4E1,9.6E1,8.2E1,4.1E1,1.1E2,1.1E2,1.09E2,1.37E2,6.9E1,5.5E1,2.7E1,4.3E1,4E1,2.7E1,2.8E1,1.9E1,3.6E1,1.1E1,1.6E1,2E0,4.1E1,1.6E1,2.4E1,6E0,2.1E1],"tree_param":{"num_deleted":"0","num_feature":"5","num_nodes":"65","size_leaf_vector":"1"}},{"base_weights":[2.6105798E-4,-3.9672896E-2,1.2493146E-1,-5.213726E-2,1.1672228E-2,8.969474E-2,2.0363857E-1,-6.158034E-2,-3.738713E-2,-2.7610736E-3,2.59508E-2,6.7357525E-2,1.20316945E-1,1.6147198E-2,2.4820484E-1,-6.290565E-3,-5.567813E-3,-4.378666E-2,-3.1889975E-2,-1.1042498E-2,3.1957442E-3,1.8550485E-2,3.1184249E-2,5.229212E-2,7.7075735E-2,9.983647E-3,1.2983239E-2,2.2290105E-2,2.7492521E-2,-4.798405E-3,-4.127446E-3,-3.5201968E-3,-2.7787741E-2,-1.5572982E-2,-8.190435E-3,3.9006447E-4,7.998516E-3,1.4363278E-2,2.2265327E-3,2.6905797E-3,3.3399747E-3,4.4974736E-3,5.659913E-3,7.0588714E-3,8.370443E-3,-2.8871798E-3,-2.3090993E-3,-1.8494036E-3,-1.2733317E-3,-9.2354574E-4,-6.3303863E-3,-1.1673311E-3,2.4573046E-3,5.914462E-3,9.871338E-4,1.1256076E-3,1.557067E-3,-3.6907685E-4,-6.88252E-4,-2.788645E-4,-5.604969E-5,1.74867E-4,3.4995444E-4,6.00682E-4,1.6642213E-4],"categories":[],"categories_nodes":[],"categories_segments":[],"categories_sizes":[],"default_left":[0,0,0,0,0,0,0,0,0,0,0,0,0,0,0,0,0,0,0,0,0,0,0,0,0,0,0,0,0,0,0,0,0,0,0,0,0,0,0,0,0,0,0,0,0,0,0,0,0,0,0,0,0,0,0,0,0,0,0,0,0,0,0,0,0],"id":10,"left_children":[1,3,5,7,9,11,13,15,17,19,21,23,25,-1,27,-1,-1,29,31,33,35,37,39,41,43,-1,-1,-1,-1,-1,-1,-1,45,47,49,51,53,55,-1,-1,-1,-1,-1,-1,-1,-1,-1,-1,-1,-1,57,59,61,63,-1,-1,-1,-1,-1,-1,-1,-1,-1,-1,-1],"loss_changes":[1.7504671E1,1.7048864E0,2.3474283E0,2.9618883E-1,1.0744295E-1,3.9614868E-1,4.5415306E-1,6.705284E-3,2.8118968E-2,1.2861333E-2,9.568557E-3,4.6334147E-2,3.5368204E-2,0E0,2.3911476E-2,0E0,0E0,2.0791888E-3,5.203724E-3,1.2808638E-3,2.0450861E-3,1.4067814E-3,5.4214895E-4,1.8036962E-3,2.99263E-3,0E0,0E0,0E0,0E0,0E0,0E0,0E0,3.9236248E-4,1.0459684E-4,7.565785E-5,3.1516104E-4,1.6018818E-4,3.107451E-5,0E0,0E0,0E0,0E0,0E0,0E0,0E0,0E0,0E0,0E0,0E0,0E0,1.5405938E-5,5.3533622E-5,2.4900277E-5,1.3870886E-6,0E0,0E0,0E0,0E0,0E0,0E0,0E0,0E0,0E0,0E0,0E0],"parents":[2147483647,0,0,1,1,2,2,3,3,4,4,5,5,6,6,7,7,8,8,9,9,10,10,11,11,12,12,14,14,17,17,18,18,19,19,20,20,21,21,22,22,23,23,24,24,32,32,33,33,34,34,35,35,36,36,37,37,50,50,51,51,52,52,53,53],"right_children":[2,4,6,8,10,12,14,16,18,20,22,24,26,-1,28,-1,-1,30,32,34,36,38,40,42,44,-1,-1,-1,-1,-1,-1,-1,46,48,50,52,54,56,-1,-1,-1,-1,-1,-1,-1,-1,-1,-1,-1,-1,58,60,62,64,-1,-1,-1,-1,-1,-1,-1,-1,-1,-1,-1],"split_conditions":[2.929057E-1,1.1148102E-1,5.8969986E-1,3.2294992E-2,2.0982094E-1,4.261978E-1,7.765432E-1,7.851219E-3,6.465246E-2,1.7148063E-1,2.4898261E-1,3.480682E-1,4.8795122E-1,1.6147198E-2,9.035244E-1,-6.290565E-3,-5.567813E-3,5.512178E-2,9.023178E-2,1.5158047E-1,1.9511949E-1,2.4080344E-1,2.6294E-1,3.2889402E-1,4.0024257E-1,9.983647E-3,1.2983239E-2,2.2290105E-2,2.7492521E-2,-4.798405E-3,-4.127446E-3,-3.5201968E-3,1.0696409E-1,1.3179122E-1,1.5868646E-1,1.7823091E-1,1.9827911E-1,2.1748324E-1,2.2265327E-3,2.6905797E-3,3.3399747E-3,4.4974736E-3,5.659913E-3,7.0588714E-3,8.370443E-3,-2.8871798E-3,-2.3090993E-3,-1.8494036E-3,-1.2733317E-3,-9.2354574E-4,1.5933362E-1,1.7640515E-1,1.8620212E-1,1.4373295E-1,9.871338E-4,1.1256076E-3,1.557067E-3,-3.6907685E-4,-6.88252E-4,-2.788645E-4,-5.604969E-5,1.74867E-4,3.4995444E-4,6.00682E-4,1.6642213E-4],"split_indices":[0,4,1,4,4,4,2,1,4,0,4,4,4,0,4,0,0,1,0,0,0,1,0,0,0,0,0,0,0,0,0,0,1,0,0,4,4,0,0,0,0,0,0,0,0,0,0,0,0,0,2,0,4,3,0,0,0,0,0,0,0,0,0,0,0],"split_type":[0,0,0,0,0,0,0,0,0,0,0,0,0,0,0,0,0,0,0,0,0,0,0,0,0,0,0,0,0,0,0,0,0,0,0,0,0,0,0,0,0,0,0,0,0,0,0,0,0,0,0,0,0,0,0,0,0,0,0,0,0,0,0,0,0],"sum_hessian":[3.514E3,2.662E3,8.52E2,2.142E3,5.2E2,5.9E2,2.62E2,1.304E3,8.38E2,2.59E2,2.61E2,3.43E2,2.47E2,1.37E2,1.25E2,1.057E3,2.47E2,3.84E2,4.54E2,1.08E2,1.51E2,1.1E2,1.51E2,1.37E2,2.06E2,8.2E1,1.65E2,6.9E1,5.6E1,1.37E2,2.47E2,2.47E2,2.07E2,4E1,6.8E1,9.6E1,5.5E1,5.4E1,5.6E1,5.6E1,9.5E1,5.5E1,8.2E1,1.1E2,9.6E1,1.64E2,4.3E1,1.7E1,2.3E1,4.1E1,2.7E1,5.5E1,4.1E1,2.8E1,2.7E1,1.8E1,3.6E1,6E0,2.1E1,1.4E1,4.1E1,2.6E1,1.5E1,2.7E1,1E0],"tree_param":{"num_deleted":"0","num_feature":"5","num_nodes":"65","size_leaf_vector":"1"}},{"base_weights":[2.6134378E-4,-3.57146E-2,1.1257515E-1,-4.6937298E-2,1.0515644E-2,7.953602E-2,1.8099032E-1,-5.5677336E-2,-3.4010008E-2,-3.1665086E-3,2.2766465E-2,6.070097E-2,1.0688526E-1,1.4422714E-2,2.2390313E-1,-5.6986297E-3,-5.19615E-3,-3.9962962E-2,-2.887304E-2,-9.996241E-3,2.2119617E-3,1.5266212E-2,2.7599366E-2,4.8178855E-2,7.024844E-2,8.991454E-3,1.1544897E-2,2.0500703E-2,2.5445942E-2,-4.3407385E-3,-3.7348703E-3,-3.2224425E-3,-2.5427716E-2,-1.558492E-3,-8.0578E-3,-1.0273889E-4,5.644513E-3,1.168363E-2,1.8636363E-3,2.4361745E-3,3.0543476E-3,4.2706444E-3,5.3979307E-3,6.4245425E-3,7.552724E-3,-2.7251726E-3,-2.2581134E-3,-9.650809E-3,-6.27294E-3,-1.4380827E-3,1.3328188E-3,3.9923075E-3,7.045108E-3,9.725977E-4,1.3056064E-3,-9.850954E-4,-3.7652702E-4,-6.936986E-4,-3.0673295E-4,-2.2228963E-4,-4.7267265E-5,6.8779475E-5,2.2029823E-4,1.4874885E-4,4.127775E-4,4.2293718E-4,7.4554957E-4],"categories":[],"categories_nodes":[],"categories_segments":[],"categories_sizes":[],"default_left":[0,0,0,0,0,0,0,0,0,0,0,0,0,0,0,0,0,0,0,0,0,0,0,0,0,0,0,0,0,0,0,0,0,0,0,0,0,0,0,0,0,0,0,0,0,0,0,0,0,0,0,0,0,0,0,0,0,0,0,0,0,0,0,0,0,0,0],"id":11,"left_children":[1,3,5,7,9,11,13,15,17,19,21,23,25,-1,27,-1,-1,29,31,33,35,37,39,41,43,-1,-1,-1,-1,-1,-1,-1,45,-1,47,49,51,53,-1,-1,-1,-1,-1,-1,-1,-1,-1,55,57,59,61,63,65,-1,-1,-1,-1,-1,-1,-1,-1,-1,-1,-1,-1,-1,-1],"loss_changes":[1.4206714E1,1.3821328E0,1.9137068E0,2.4023342E-1,8.740087E-2,2.9073882E-1,4.0470505E-1,3.2503605E-3,2.5359154E-2,9.095289E-3,9.546861E-3,3.7742257E-2,2.3627281E-2,0E0,2.0586014E-2,0E0,0E0,1.971662E-3,4.595965E-3,1.0552518E-3,1.1049805E-3,1.1103824E-3,8.382052E-4,2.5196075E-3,1.2636781E-3,0E0,0E0,0E0,0E0,0E0,0E0,0E0,6.0997903E-4,0E0,1.7545465E-4,1.6294158E-4,1.01461774E-4,2.3474917E-5,0E0,0E0,0E0,0E0,0E0,0E0,0E0,0E0,0E0,1.2382399E-5,6.8126246E-5,3.2286647E-5,2.1497137E-5,3.3609394E-6,1.9787112E-6,0E0,0E0,0E0,0E0,0E0,0E0,0E0,0E0,0E0,0E0,0E0,0E0,0E0,0E0],"parents":[2147483647,0,0,1,1,2,2,3,3,4,4,5,5,6,6,7,7,8,8,9,9,10,10,11,11,12,12,14,14,17,17,18,18,19,19,20,20,21,21,22,22,23,23,24,24,32,32,34,34,35,35,36,36,37,37,47,47,48,48,49,49,50,50,51,51,52,52],"right_children":[2,4,6,8,10,12,14,16,18,20,22,24,26,-1,28,-1,-1,30,32,34,36,38,40,42,44,-1,-1,-1,-1,-1,-1,-1,46,-1,48,50,52,54,-1,-1,-1,-1,-1,-1,-1,-1,-1,56,58,60,62,64,66,-1,-1,-1,-1,-1,-1,-1,-1,-1,-1,-1,-1,-1,-1],"split_conditions":[2.8261408E-1,1.1148102E-1,5.8267576E-1,3.0902296E-2,2.0502326E-1,4.438516E-1,7.7762634E-1,5.6761336E-3,7.0405595E-2,1.671311E-1,2.4629162E-1,3.6731836E-1,4.9826995E-1,1.4422714E-2,9.1131043E-1,-5.6986297E-3,-5.19615E-3,4.9792584E-2,8.762385E-2,1.2265467E-1,1.9039594E-1,2.2966947E-1,2.6771548E-1,3.4293184E-1,3.9486498E-1,8.991454E-3,1.1544897E-2,2.0500703E-2,2.5445942E-2,-4.3407385E-3,-3.7348703E-3,-3.2224425E-3,1.0142245E-1,-1.558492E-3,1.565867E-1,1.757089E-1,1.9363138E-1,7.7687435E-2,1.8636363E-3,2.4361745E-3,3.0543476E-3,4.2706444E-3,5.3979307E-3,6.4245425E-3,7.552724E-3,-2.7251726E-3,-2.2581134E-3,1.562911E-1,1.6374822E-1,1.789703E-1,1.82163E-1,1.82163E-1,1.9803621E-1,9.725977E-4,1.3056064E-3,-9.850954E-4,-3.7652702E-4,-6.936986E-4,-3.0673295E-4,-2.2228963E-4,-4.7267265E-5,6.8779475E-5,2.2029823E-4,1.4874885E-4,4.127775E-4,4.2293718E-4,7.4554957E-4],"split_indices":[4,4,4,4,4,0,4,1,1,1,4,0,1,0,4,0,0,4,1,4,0,2,1,0,4,0,0,0,0,0,0,0,0,0,1,4,4,3,0,0,0,0,0,0,0,0,0,4,0,1,4,4,0,0,0,0,0,0,0,0,0,0,0,0,0,0,0],"split_type":[0,0,0,0,0,0,0,0,0,0,0,0,0,0,0,0,0,0,0,0,0,0,0,0,0,0,0,0,0,0,0,0,0,0,0,0,0,0,0,0,0,0,0,0,0,0,0,0,0,0,0,0,0,0,0,0,0,0,0,0,0,0,0,0,0,0,0],"sum_hessian":[3.514E3,2.662E3,8.52E2,2.142E3,5.2E2,5.76E2,2.76E2,1.276E3,8.66E2,2.46E2,2.74E2,3.43E2,2.33E2,1.51E2,1.25E2,9.33E2,3.43E2,3.98E2,4.68E2,1.08E2,1.38E2,1.09E2,1.65E2,1.51E2,1.92E2,8.2E1,1.51E2,8.2E1,4.3E1,1.65E2,2.33E2,2.33E2,2.35E2,2.6E1,8.2E1,8.3E1,5.5E1,5.5E1,5.4E1,8.3E1,8.2E1,8.2E1,6.9E1,9.6E1,9.6E1,1.38E2,9.7E1,4.1E1,4.1E1,4.3E1,4E1,2.7E1,2.8E1,2.6E1,2.9E1,3.9E1,2E0,3.3E1,8E0,2.3E1,2E1,2.4E1,1.6E1,2E0,2.5E1,5E0,2.3E1],"tree_param":{"num_deleted":"0","num_feature":"5","num_nodes":"67","size_leaf_vector":"1"}},{"base_weights":[2.5934514E-4,-3.1476136E-2,1.0361066E-1,-4.2113125E-2,1.1348843E-2,8.085898E-2,1.8424031E-1,-4.9102463E-2,-2.8709577E-2,-3.4548325E-4,2.3671774E-2,6.0734708E-2,1.1031152E-1,1.5543081E-1,2.1494951E-2,-5.0488226E-2,-4.0173642E-3,-3.246854E-2,-2.3551267E-2,-7.395626E-3,4.37085E-3,1.8289408E-2,2.833657E-2,5.096616E-2,7.337396E-2,9.602853E-3,1.1803963E-2,1.3356394E-2,1.690554E-2,-5.1906807E-3,-4.8482637E-3,-3.5067485E-3,-3.0461764E-3,-2.5360638E-3,-1.9932255E-2,-1.0440365E-2,-5.390997E-3,1.3238821E-3,8.530636E-3,1.4410505E-2,2.0100424E-2,2.4791057E-3,3.1522792E-3,4.310475E-3,5.6658885E-3,6.6718E-3,7.907718E-3,-2.1036796E-3,-1.594621E-3,-1.3566391E-3,-9.213876E-3,-7.1162387E-4,-3.2932714E-3,-4.485835E-5,3.1173485E-3,5.267492E-4,9.477919E-3,1.6149482E-3,1.1603208E-3,5.484164E-4,2.0213167E-3,-9.364548E-4,-2.120845E-4,-3.794303E-4,-4.0624538E-5,-3.4789377E-5,1.8168408E-4,1.9956425E-4,3.7308736E-4,3.8315853E-4,9.624215E-4],"categories":[],"categories_nodes":[],"categories_segments":[],"categories_sizes":[],"default_left":[0,0,0,0,0,0,0,0,0,0,0,0,0,0,0,0,0,0,0,0,0,0,0,0,0,0,0,0,0,0,0,0,0,0,0,0,0,0,0,0,0,0,0,0,0,0,0,0,0,0,0,0,0,0,0,0,0,0,0,0,0,0,0,0,0,0,0,0,0,0,0],"id":12,"left_children":[1,3,5,7,9,11,13,15,17,19,21,23,25,27,-1,29,-1,31,33,35,37,39,41,43,45,-1,-1,-1,-1,-1,-1,-1,-1,-1,47,49,51,53,55,57,59,-1,-1,-1,-1,-1,-1,-1,-1,-1,61,-1,63,65,67,-1,69,-1,-1,-1,-1,-1,-1,-1,-1,-1,-1,-1,-1,-1,-1],"loss_changes":[1.1532122E1,1.2258508E0,1.5003653E0,2.004745E-1,7.7250265E-2,3.7619162E-1,1.2672424E-1,1.5479803E-2,1.360321E-2,9.209553E-3,6.034836E-3,4.391873E-2,1.7474174E-2,6.3192844E-3,0E0,9.572506E-4,0E0,1.1536181E-3,1.5637279E-3,6.212122E-4,2.0927123E-3,5.814098E-4,7.7747554E-4,7.448077E-3,1.0255575E-3,0E0,0E0,0E0,0E0,0E0,0E0,0E0,0E0,0E0,1.488477E-4,3.9863866E-5,2.2628112E-4,2.3825445E-4,1.6645389E-4,2.2532418E-5,2.4273992E-5,0E0,0E0,0E0,0E0,0E0,0E0,0E0,0E0,0E0,1.6476028E-5,0E0,4.6192785E-5,3.2225074E-5,2.145869E-5,0E0,6.9034286E-6,0E0,0E0,0E0,0E0,0E0,0E0,0E0,0E0,0E0,0E0,0E0,0E0,0E0,0E0],"parents":[2147483647,0,0,1,1,2,2,3,3,4,4,5,5,6,6,7,7,8,8,9,9,10,10,11,11,12,12,13,13,15,15,17,17,18,18,19,19,20,20,21,21,22,22,23,23,24,24,34,34,35,35,36,36,37,37,38,38,39,39,40,40,50,50,52,52,53,53,54,54,56,56],"right_children":[2,4,6,8,10,12,14,16,18,20,22,24,26,28,-1,30,-1,32,34,36,38,40,42,44,46,-1,-1,-1,-1,-1,-1,-1,-1,-1,48,50,52,54,56,58,60,-1,-1,-1,-1,-1,-1,-1,-1,-1,62,-1,64,66,68,-1,70,-1,-1,-1,-1,-1,-1,-1,-1,-1,-1,-1,-1,-1,-1],"split_conditions":[2.9901037E-1,1.3179122E-1,6.3926005E-1,4.506018E-2,2.1689935E-1,4.9366963E-1,8.5873526E-1,2.5148232E-2,8.386901E-2,1.6916238E-1,2.573537E-1,4.0024257E-1,5.4427624E-1,6.7015195E-1,2.1494951E-2,3.930259E-3,-4.0173642E-3,6.4327285E-2,1.0142245E-1,1.5512179E-1,1.9363138E-1,2.4190174E-1,2.724785E-1,3.588994E-1,4.2056984E-1,9.602853E-3,1.1803963E-2,1.3356394E-2,1.690554E-2,-5.1906807E-3,-4.8482637E-3,-3.5067485E-3,-3.0461764E-3,-2.5360638E-3,1.12535276E-1,1.1660579E-1,1.5868646E-1,1.82163E-1,2.0396152E-1,4.9189933E-2,2.2966947E-1,2.4791057E-3,3.1522792E-3,4.310475E-3,5.6658885E-3,6.6718E-3,7.907718E-3,-2.1036796E-3,-1.594621E-3,-1.3566391E-3,1.5212704E-1,-7.1162387E-4,1.756955E-1,1.8599254E-1,1.9039594E-1,5.267492E-4,1.9827911E-1,1.6149482E-3,1.1603208E-3,5.484164E-4,2.0213167E-3,-9.364548E-4,-2.120845E-4,-3.794303E-4,-4.0624538E-5,-3.4789377E-5,1.8168408E-4,1.9956425E-4,3.7308736E-4,3.8315853E-4,9.624215E-4],"split_indices":[4,0,4,4,4,0,1,4,1,4,4,0,4,4,0,0,0,1,0,1,4,0,4,0,4,0,0,0,0,0,0,0,0,0,0,4,0,4,0,3,2,0,0,0,0,0,0,0,0,0,4,0,1,1,0,0,4,0,0,0,0,0,0,0,0,0,0,0,0,0,0],"split_type":[0,0,0,0,0,0,0,0,0,0,0,0,0,0,0,0,0,0,0,0,0,0,0,0,0,0,0,0,0,0,0,0,0,0,0,0,0,0,0,0,0,0,0,0,0,0,0,0,0,0,0,0,0,0,0,0,0,0,0,0,0,0,0,0,0,0,0,0,0,0,0],"sum_hessian":[3.514E3,2.689E3,8.25E2,2.154E3,5.35E2,6.45E2,1.8E2,1.414E3,7.4E2,2.75E2,2.6E2,3.85E2,2.6E2,9.6E1,8.4E1,1.22E3,1.94E2,4.25E2,3.15E2,1.1E2,1.65E2,1.23E2,1.37E2,2.2E2,1.65E2,9.6E1,1.64E2,4.1E1,5.5E1,7E2,5.2E2,1.78E2,2.47E2,2.06E2,1.09E2,4.2E1,6.8E1,9.6E1,6.9E1,4.2E1,8.1E1,6.9E1,6.8E1,9.6E1,1.24E2,8.2E1,8.3E1,8.2E1,2.7E1,9E0,3.3E1,3.6E1,3.2E1,5.5E1,4.1E1,1.7E1,5.2E1,2.3E1,1.9E1,1E0,8E1,3.2E1,1E0,2.7E1,5E0,4.8E1,7E0,1.6E1,2.5E1,2E0,5E1],"tree_param":{"num_deleted":"0","num_feature":"5","num_nodes":"71","size_leaf_vector":"1"}},{"base_weights":[2.5640096E-4,-2.8948503E-2,9.143155E-2,-3.7914265E-2,9.067551E-3,7.0195384E-2,1.6273001E-1,-4.4202227E-2,-2.5855727E-2,-8.700409E-4,1.9529574E-2,5.159748E-2,9.59772E-2,1.334501E-1,1.8977465E-1,-4.54443E-2,-3.6150613E-3,-2.8992852E-2,-2.0848898E-2,-6.6950954E-3,3.389506E-3,1.4773078E-2,2.321393E-2,3.9903652E-2,6.018647E-2,8.416618E-3,1.0511893E-2,1.2006604E-2,1.4811814E-2,1.7487012E-2,2.1822609E-2,-4.688555E-3,-4.3820986E-3,-3.1307873E-3,-2.6970475E-3,-2.2357868E-3,-1.7631585E-2,-8.865951E-3,-4.4046855E-3,7.2647416E-4,6.498679E-3,1.6506197E-3,1.070391E-2,2.12736E-3,2.5523463E-3,3.385467E-2,4.385752E-3,5.4101697E-3,6.567421E-3,-1.8710217E-3,-1.4142158E-3,-1.0498249E-3,-6.984217E-3,-5.3904066E-3,-1.8262416E-3,-3.7143167E-4,1.807083E-3,4.421399E-3,7.778261E-3,1.0853818E-3,2.7285592E-4,9.760723E-4,3.4062397E-3,-5.9200825E-5,-7.1913673E-4,-5.846585E-4,-2.8348697E-4,-2.579306E-4,-6.566309E-5,2.1762055E-4,-5.5321867E-5,8.194309E-5,2.1748294E-4,4.6726465E-4,2.2808822E-4,4.1767658E-4,8.152064E-4],"categories":[],"categories_nodes":[],"categories_segments":[],"categories_sizes":[],"default_left":[0,0,0,0,0,0,0,0,0,0,0,0,0,0,0,0,0,0,0,0,0,0,0,0,0,0,0,0,0,0,0,0,0,0,0,0,0,0,0,0,0,0,0,0,0,0,0,0,0,0,0,0,0,0,0,0,0,0,0,0,0,0,0,0,0,0,0,0,0,0,0,0,0,0,0,0,0],"id":13,"left_children":[1,3,5,7,9,11,13,15,17,19,21,23,25,27,29,31,-1,33,35,37,39,41,43,45,47,-1,-1,-1,-1,-1,-1,-1,-1,-1,-1,-1,49,51,53,55,57,-1,59,-1,-1,61,-1,-1,-1,-1,-1,-1,63,65,67,69,71,73,75,-1,-1,-1,-1,-1,-1,-1,-1,-1,-1,-1,-1,-1,-1,-1,-1,-1,-1],"loss_changes":[9.362253E0,9.080088E-1,1.2801094E0,1.6225696E-1,5.2936353E-2,3.110304E-1,1.290884E-1,1.2508154E-2,1.1034459E-2,6.523461E-3,4.003167E-3,3.626716E-2,2.0845175E-2,1.2589693E-3,3.820181E-3,8.0418587E-4,0E0,1.2764931E-3,1.0088384E-3,5.12857E-4,1.2538125E-3,6.061308E-4,7.544458E-5,2.4854243E-3,3.7930608E-3,0E0,0E0,0E0,0E0,0E0,0E0,0E0,0E0,0E0,0E0,0E0,1.0048598E-4,9.868434E-5,1.3248692E-4,9.914297E-5,1.5167287E-4,0E0,1.3425015E-5,0E0,0E0,1.7866492E-5,0E0,0E0,0E0,0E0,0E0,0E0,3.414275E-5,3.0056923E-5,1.32798195E-5,2.0655261E-5,1.3472512E-5,4.9385126E-6,2.249307E-5,0E0,0E0,0E0,0E0,0E0,0E0,0E0,0E0,0E0,0E0,0E0,0E0,0E0,0E0,0E0,0E0,0E0,0E0],"parents":[2147483647,0,0,1,1,2,2,3,3,4,4,5,5,6,6,7,7,8,8,9,9,10,10,11,11,12,12,13,13,14,14,15,15,17,17,18,18,19,19,20,20,21,21,22,22,23,23,24,24,36,36,37,37,38,38,39,39,40,40,42,42,45,45,52,52,53,53,54,54,55,55,56,56,57,57,58,58],"right_children":[2,4,6,8,10,12,14,16,18,20,22,24,26,28,30,32,-1,34,36,38,40,42,44,46,48,-1,-1,-1,-1,-1,-1,-1,-1,-1,-1,-1,50,52,54,56,58,-1,60,-1,-1,62,-1,-1,-1,-1,-1,-1,64,66,68,70,72,74,76,-1,-1,-1,-1,-1,-1,-1,-1,-1,-1,-1,-1,-1,-1,-1,-1,-1,-1],"split_conditions":[2.929057E-1,1.3179122E-1,6.3365906E-1,5.0299767E-2,2.1748324E-1,4.4559324E-1,8.231712E-1,2.9629095E-2,8.587416E-2,1.7640515E-1,2.5415298E-1,3.7269747E-1,5.5580884E-1,6.732822E-1,9.2403305E-1,3.5495814E-3,-3.6150613E-3,6.0385406E-2,1.0215089E-1,1.565867E-1,1.9511949E-1,6.341551E-2,2.7000478E-1,3.3637556E-1,4.0083978E-1,8.416618E-3,1.0511893E-2,1.2006604E-2,1.4811814E-2,1.7487012E-2,2.1822609E-2,-4.688555E-3,-4.3820986E-3,-3.1307873E-3,-2.6970475E-3,-2.2357868E-3,1.12535276E-1,1.3879478E-1,1.614406E-1,1.7823091E-1,1.9827911E-1,1.6506197E-3,1.6079824E-1,2.12736E-3,2.5523463E-3,2.6771548E-1,4.385752E-3,5.4101697E-3,6.567421E-3,-1.8710217E-3,-1.4142158E-3,-1.0498249E-3,1.3440257E-1,7.7687435E-2,1.756955E-1,1.7208207E-1,1.8599254E-1,2.0490009E-1,2.0396152E-1,1.0853818E-3,2.7285592E-4,9.760723E-4,3.4062397E-3,-5.9200825E-5,-7.1913673E-4,-5.846585E-4,-2.8348697E-4,-2.579306E-4,-6.566309E-5,2.1762055E-4,-5.5321867E-5,8.194309E-5,2.1748294E-4,4.6726465E-4,2.2808822E-4,4.1767658E-4,8.152064E-4],"split_indices":[0,0,4,1,0,4,4,0,1,0,0,0,0,2,4,1,0,4,1,1,0,3,4,0,4,0,0,0,0,0,0,0,0,0,0,0,0,4,4,4,4,0,3,0,0,1,0,0,0,0,0,0,1,3,1,2,1,2,0,0,0,0,0,0,0,0,0,0,0,0,0,0,0,0,0,0,0],"split_type":[0,0,0,0,0,0,0,0,0,0,0,0,0,0,0,0,0,0,0,0,0,0,0,0,0,0,0,0,0,0,0,0,0,0,0,0,0,0,0,0,0,0,0,0,0,0,0,0,0,0,0,0,0,0,0,0,0,0,0,0,0,0,0,0,0,0,0,0,0,0,0,0,0,0,0,0,0],"sum_hessian":[3.514E3,2.662E3,8.52E2,2.154E3,5.08E2,6.58E2,1.94E2,1.414E3,7.4E2,2.61E2,2.47E2,3.84E2,2.74E2,9.6E1,9.8E1,1.221E3,1.93E2,4.52E2,2.88E2,1.1E2,1.51E2,1.1E2,1.37E2,1.65E2,2.19E2,1.24E2,1.5E2,5.5E1,4.1E1,6.9E1,2.9E1,6.32E2,5.89E2,2.04E2,2.48E2,1.92E2,9.6E1,5.5E1,5.5E1,8.2E1,6.9E1,7.5E1,3.5E1,8E1,5.7E1,6.9E1,9.6E1,1.09E2,1.1E2,7E1,2.6E1,2.7E1,2.8E1,3.9E1,1.6E1,4.1E1,4.1E1,2.8E1,4.1E1,3.4E1,1E0,1E0,6.8E1,1E0,2.7E1,3.2E1,7E0,9E0,7E0,2E0,3.9E1,1.2E1,2.9E1,2.4E1,4E0,5E0,3.6E1],"tree_param":{"num_deleted":"0","num_feature":"5","num_nodes":"77","size_leaf_vector":"1"}},{"base_weights":[2.560324E-4,-2.5227597E-2,8.511746E-2,-3.4133993E-2,9.715146E-3,6.916789E-2,1.6118133E-1,-4.054011E-2,-2.4533495E-2,-2.875043E-4,1.9718843E-2,5.069072E-2,9.354347E-2,1.440909E-2,1.8353948E-2,-4.1423477E-3,-3.6912595E-3,-2.7726628E-2,-1.9272728E-2,-5.492027E-3,3.994422E-3,1.5738502E-2,2.4438946E-2,4.2162117E-2,6.0270224E-2,8.316287E-3,1.0235256E-2,-3.0618696E-3,-2.514891E-3,-2.0888299E-3,-1.6420344E-2,-7.5482437E-3,-2.823684E-3,1.4486935E-3,6.955866E-3,1.2330239E-3,1.7543907E-3,2.1647697E-3,2.7441753E-3,3.6627755E-3,4.6618613E-3,5.4124664E-3,6.4907447E-3,-1.7272126E-3,-1.3034436E-2,-1.1400561E-3,-6.7929747E-3,-4.776367E-3,-1.6918638E-3,3.0599145E-4,2.5569026E-3,5.128559E-3,8.123265E-4,-7.3320954E-4,-1.3653527E-3,-7.079404E-4,-4.0104557E-4,-5.048363E-4,1.957789E-5,-2.1804E-4,-1.5477539E-5,3.1746283E-6,1.4675652E-4,1.5529912E-4,3.0033945E-4,3.0485666E-4,5.422615E-4],"categories":[],"categories_nodes":[],"categories_segments":[],"categories_sizes":[],"default_left":[0,0,0,0,0,0,0,0,0,0,0,0,0,0,0,0,0,0,0,0,0,0,0,0,0,0,0,0,0,0,0,0,0,0,0,0,0,0,0,0,0,0,0,0,0,0,0,0,0,0,0,0,0,0,0,0,0,0,0,0,0,0,0,0,0,0,0],"id":14,"left_children":[1,3,5,7,9,11,13,15,17,19,21,23,25,-1,-1,-1,-1,27,29,31,33,35,37,39,41,-1,-1,-1,-1,-1,43,45,47,49,51,-1,-1,-1,-1,-1,-1,-1,-1,-1,53,-1,55,57,59,61,63,65,-1,-1,-1,-1,-1,-1,-1,-1,-1,-1,-1,-1,-1,-1,-1],"loss_changes":[7.6036067E0,8.4185374E-1,9.739585E-1,1.3154197E-1,5.5040583E-2,2.9837155E-1,2.7048826E-2,2.6078224E-3,1.3996184E-2,6.172703E-3,4.7819614E-3,2.891326E-2,1.7915249E-2,0E0,0E0,0E0,0E0,3.2258332E-3,1.1777207E-3,6.6452264E-4,1.1358561E-3,7.189773E-4,4.4526905E-4,3.397882E-3,1.5880466E-3,0E0,0E0,0E0,0E0,0E0,1.3249367E-4,1.2622401E-4,1.15683855E-4,1.0432489E-4,1.07662985E-4,0E0,0E0,0E0,0E0,0E0,0E0,0E0,0E0,0E0,2.2687018E-6,0E0,2.0225067E-5,2.8036418E-5,2.7446702E-5,1.3332761E-5,1.4161749E-5,1.8178253E-6,0E0,0E0,0E0,0E0,0E0,0E0,0E0,0E0,0E0,0E0,0E0,0E0,0E0,0E0,0E0],"parents":[2147483647,0,0,1,1,2,2,3,3,4,4,5,5,6,6,7,7,8,8,9,9,10,10,11,11,12,12,17,17,18,18,19,19,20,20,21,21,22,22,23,23,24,24,30,30,31,31,32,32,33,33,34,34,44,44,46,46,47,47,48,48,49,49,50,50,51,51],"right_children":[2,4,6,8,10,12,14,16,18,20,22,24,26,-1,-1,-1,-1,28,30,32,34,36,38,40,42,-1,-1,-1,-1,-1,44,46,48,50,52,-1,-1,-1,-1,-1,-1,-1,-1,-1,54,-1,56,58,60,62,64,66,-1,-1,-1,-1,-1,-1,-1,-1,-1,-1,-1,-1,-1,-1,-1],"split_conditions":[3.085827E-1,1.3179122E-1,6.620441E-1,3.553672E-2,2.1689935E-1,4.8795122E-1,9.035244E-1,7.194728E-3,7.552298E-2,1.7360614E-1,2.6829574E-1,3.9486498E-1,5.755926E-1,1.440909E-2,1.8353948E-2,-4.1423477E-3,-3.6912595E-3,5.4149695E-2,9.9707015E-2,1.5860808E-1,1.9363138E-1,2.4353011E-1,2.7998087E-1,3.480682E-1,4.2056984E-1,8.316287E-3,1.0235256E-2,-3.0618696E-3,-2.514891E-3,-2.0888299E-3,1.0392136E-1,1.1660579E-1,1.639855E-1,1.82163E-1,2.1076444E-1,1.2330239E-3,1.7543907E-3,2.1647697E-3,2.7441753E-3,3.6627755E-3,4.6618613E-3,5.4124664E-3,6.4907447E-3,-1.7272126E-3,3.621875E-2,-1.1400561E-3,1.53849E-1,7.6027624E-2,1.789703E-1,1.8599254E-1,1.8620212E-1,1.9803621E-1,8.123265E-4,-7.3320954E-4,-1.3653527E-3,-7.079404E-4,-4.0104557E-4,-5.048363E-4,1.957789E-5,-2.1804E-4,-1.5477539E-5,3.1746283E-6,1.4675652E-4,1.5529912E-4,3.0033945E-4,3.0485666E-4,5.422615E-4],"split_indices":[4,0,1,0,4,4,4,1,4,4,0,4,1,0,0,0,0,4,0,1,4,4,4,4,4,0,0,0,0,0,4,4,2,4,0,0,0,0,0,0,0,0,0,0,3,0,4,3,1,1,4,0,0,0,0,0,0,0,0,0,0,0,0,0,0,0,0],"split_type":[0,0,0,0,0,0,0,0,0,0,0,0,0,0,0,0,0,0,0,0,0,0,0,0,0,0,0,0,0,0,0,0,0,0,0,0,0,0,0,0,0,0,0,0,0,0,0,0,0,0,0,0,0,0,0,0,0,0,0,0,0,0,0,0,0,0,0],"sum_hessian":[3.514E3,2.703E3,8.11E2,2.154E3,5.49E2,6.72E2,1.39E2,1.29E3,8.64E2,2.75E2,2.74E2,3.84E2,2.88E2,8.3E1,5.6E1,1.029E3,2.61E2,5.35E2,3.29E2,1.24E2,1.51E2,1.51E2,1.23E2,2.06E2,1.78E2,1.37E2,1.51E2,2.47E2,2.88E2,2.06E2,1.23E2,6.9E1,5.5E1,8.2E1,6.9E1,5.5E1,9.6E1,6.8E1,5.5E1,9.6E1,1.1E2,8.2E1,9.6E1,9.5E1,2.8E1,9E0,6E1,1.9E1,3.6E1,4.1E1,4.1E1,2.9E1,4E1,4E0,2.4E1,5.3E1,7E0,1.8E1,1E0,2.7E1,9E0,3.4E1,7E0,1.4E1,2.7E1,5E0,2.4E1],"tree_param":{"num_deleted":"0","num_feature":"5","num_nodes":"67","size_leaf_vector":"1"}},{"base_weights":[2.4733308E-4,-2.2709325E-2,7.669383E-2,-3.0729562E-2,8.75671E-3,5.8959313E-2,1.325053E-1,-3.5765104E-2,-2.0809937E-2,-2.6130024E-4,1.777567E-2,4.5039836E-2,7.968436E-2,1.0843381E-2,1.5475206E-1,-3.6880918E-2,-2.9470643E-3,-2.3337357E-2,-1.6889956E-2,-5.4817637E-3,3.2310656E-3,1.3348064E-2,2.127072E-2,3.7936673E-2,5.362607E-2,7.002575E-3,8.536119E-3,1.4198275E-2,1.7938873E-2,-3.8431615E-3,-3.5755776E-3,-2.5144645E-3,-2.1836776E-3,-1.7827131E-3,-1.3643496E-3,-7.8031733E-3,-3.955642E-3,9.946175E-4,6.2839855E-3,1.0448182E-2,1.4705952E-2,1.8635116E-3,2.417101E-3,3.1431154E-3,4.1031237E-3,4.8789023E-3,5.7767127E-3,-9.019216E-4,-5.792424E-4,-4.672974E-3,-1.4865696E-3,-1.1229089E-5,2.3120649E-3,3.896268E-4,6.976343E-4,1.1816614E-3,8.283656E-4,4.0507465E-4,1.4787489E-3,-1.914253E-4,-4.9204606E-4,-2.0935833E-4,-5.419813E-5,-5.7358196E-5,6.140233E-5,1.4456335E-4,2.7896522E-4],"categories":[],"categories_nodes":[],"categories_segments":[],"categories_sizes":[],"default_left":[0,0,0,0,0,0,0,0,0,0,0,0,0,0,0,0,0,0,0,0,0,0,0,0,0,0,0,0,0,0,0,0,0,0,0,0,0,0,0,0,0,0,0,0,0,0,0,0,0,0,0,0,0,0,0,0,0,0,0,0,0,0,0,0,0,0,0],"id":15,"left_children":[1,3,5,7,9,11,13,15,17,19,21,23,25,-1,27,29,-1,31,33,35,37,39,41,43,45,-1,-1,-1,-1,-1,-1,-1,-1,-1,-1,47,49,51,53,55,57,-1,-1,-1,-1,-1,-1,-1,-1,59,61,63,65,-1,-1,-1,-1,-1,-1,-1,-1,-1,-1,-1,-1,-1,-1],"loss_changes":[6.1704125E0,6.8266416E-1,7.9589653E-1,1.068995E-1,4.473784E-2,1.7469287E-1,8.7644815E-2,8.942485E-3,6.8184435E-3,5.04968E-3,3.9716214E-3,2.0653665E-2,7.565737E-3,0E0,5.6746006E-3,7.352829E-4,0E0,6.441921E-4,6.3605607E-4,3.62379E-4,1.1271473E-3,3.3462606E-4,7.1145594E-4,2.877593E-3,5.066693E-4,0E0,0E0,0E0,0E0,0E0,0E0,0E0,0E0,0E0,0E0,5.2898657E-5,1.1526223E-4,1.2856549E-4,8.853921E-5,2.9481482E-5,1.1341646E-5,0E0,0E0,0E0,0E0,0E0,0E0,0E0,0E0,2.676656E-5,8.612744E-6,2.0042491E-5,1.3346653E-5,0E0,0E0,0E0,0E0,0E0,0E0,0E0,0E0,0E0,0E0,0E0,0E0,0E0,0E0],"parents":[2147483647,0,0,1,1,2,2,3,3,4,4,5,5,6,6,7,7,8,8,9,9,10,10,11,11,12,12,14,14,15,15,17,17,18,18,19,19,20,20,21,21,22,22,23,23,24,24,35,35,36,36,37,37,38,38,39,39,40,40,49,49,50,50,51,51,52,52],"right_children":[2,4,6,8,10,12,14,16,18,20,22,24,26,-1,28,30,-1,32,34,36,38,40,42,44,46,-1,-1,-1,-1,-1,-1,-1,-1,-1,-1,48,50,52,54,56,58,-1,-1,-1,-1,-1,-1,-1,-1,60,62,64,66,-1,-1,-1,-1,-1,-1,-1,-1,-1,-1,-1,-1,-1,-1],"split_conditions":[3.085827E-1,1.3179122E-1,6.3365906E-1,4.6832226E-2,2.1689935E-1,4.9366963E-1,8.131427E-1,2.4659958E-2,8.536474E-2,1.7640515E-1,2.573537E-1,4.0024257E-1,5.4427624E-1,1.0843381E-2,9.2403305E-1,2.896179E-3,-2.9470643E-3,6.6748776E-2,1.0673553E-1,1.5352535E-1,1.9363138E-1,2.4190174E-1,2.7618092E-1,3.515343E-1,4.3995595E-1,7.002575E-3,8.536119E-3,1.4198275E-2,1.7938873E-2,-3.8431615E-3,-3.5755776E-3,-2.5144645E-3,-2.1836776E-3,-1.7827131E-3,-1.3643496E-3,1.4816727E-1,1.614406E-1,1.82163E-1,2.0396152E-1,4.9189933E-2,2.2966947E-1,1.8635116E-3,2.417101E-3,3.1431154E-3,4.1031237E-3,4.8789023E-3,5.7767127E-3,-9.019216E-4,-5.792424E-4,1.5204494E-1,1.756955E-1,1.757089E-1,1.9039594E-1,3.896268E-4,6.976343E-4,1.1816614E-3,8.283656E-4,4.0507465E-4,1.4787489E-3,-1.914253E-4,-4.9204606E-4,-2.0935833E-4,-5.419813E-5,-5.7358196E-5,6.140233E-5,1.4456335E-4,2.7896522E-4],"split_indices":[4,0,4,4,4,0,0,1,0,0,4,0,4,0,4,0,0,1,0,0,4,0,4,0,0,0,0,0,0,0,0,0,0,0,0,1,4,4,0,3,2,0,0,0,0,0,0,0,0,2,1,4,0,0,0,0,0,0,0,0,0,0,0,0,0,0,0],"split_type":[0,0,0,0,0,0,0,0,0,0,0,0,0,0,0,0,0,0,0,0,0,0,0,0,0,0,0,0,0,0,0,0,0,0,0,0,0,0,0,0,0,0,0,0,0,0,0,0,0,0,0,0,0,0,0,0,0,0,0,0,0,0,0,0,0,0,0],"sum_hessian":[3.514E3,2.703E3,8.11E2,2.154E3,5.49E2,6.17E2,1.94E2,1.427E3,7.27E2,2.75E2,2.74E2,3.71E2,2.46E2,9.6E1,9.8E1,1.208E3,2.19E2,4.39E2,2.88E2,1.1E2,1.65E2,1.23E2,1.51E2,2.06E2,1.65E2,9.6E1,1.5E2,6.9E1,2.9E1,4.94E2,7.14E2,1.92E2,2.47E2,2.2E2,6.8E1,4.2E1,6.8E1,9.6E1,6.9E1,4.2E1,8.1E1,8.3E1,6.8E1,7E1,1.36E2,8.2E1,8.3E1,2.4E1,1.8E1,5.2E1,1.6E1,5.5E1,4.1E1,1.7E1,5.2E1,2.3E1,1.9E1,1E0,8E1,5E0,4.7E1,9E0,7E0,2.9E1,2.6E1,1.6E1,2.5E1],"tree_param":{"num_deleted":"0","num_feature":"5","num_nodes":"67","size_leaf_vector":"1"}},{"base_weights":[2.4122717E-4,-2.1123435E-2,6.693976E-2,-2.7881E-2,5.7445127E-3,4.8432916E-2,1.11637376E-1,-3.3000644E-2,-2.0367576E-2,-2.3974166E-3,1.3480662E-2,3.5976484E-2,6.460306E-2,8.794574E-3,1.3406695E-1,-3.3988487E-3,-3.116333E-3,-2.3859562E-2,-1.7354375E-2,-6.5621347E-3,1.335119E-3,9.022229E-3,1.6353836E-2,2.8500825E-2,4.1677646E-2,5.5622747E-3,7.0736036E-3,1.2403093E-2,1.6204786E-2,-2.519193E-3,-2.1513295E-3,-1.917094E-3,-1.5237349E-2,-9.837891E-3,-4.825461E-3,-6.883219E-5,3.4172046E-3,6.9980365E-3,1.0919184E-3,1.4227021E-3,1.7756441E-3,2.4035738E-3,3.0784782E-3,3.7242197E-3,4.3845423E-3,-1.6141856E-3,-1.3843579E-3,-1.0181558E-3,-5.258441E-4,-5.517401E-3,-3.269244E-3,-8.9370867E-4,8.180799E-4,1.8753884E-4,3.9355424E-3,5.723981E-4,8.154468E-4,-6.671106E-4,-4.7446575E-4,-9.031956E-5,-3.8734757E-4,-1.3928978E-4,-2.8064916E-5,3.670156E-6,1.0366957E-4,3.3146393E-4,5.1598385E-4],"categories":[],"categories_nodes":[],"categories_segments":[],"categories_sizes":[],"default_left":[0,0,0,0,0,0,0,0,0,0,0,0,0,0,0,0,0,0,0,0,0,0,0,0,0,0,0,0,0,0,0,0,0,0,0,0,0,0,0,0,0,0,0,0,0,0,0,0,0,0,0,0,0,0,0,0,0,0,0,0,0,0,0,0,0,0,0],"id":16,"left_children":[1,3,5,7,9,11,13,15,17,19,21,23,25,-1,27,-1,-1,29,31,33,35,37,39,41,43,-1,-1,-1,-1,-1,-1,-1,45,47,49,51,53,55,-1,-1,-1,-1,-1,-1,-1,-1,-1,-1,-1,57,59,61,63,-1,65,-1,-1,-1,-1,-1,-1,-1,-1,-1,-1,-1,-1],"loss_changes":[5.01026E0,4.836594E-1,7.002051E-1,8.118355E-2,3.379345E-2,1.1953628E-1,1.2052655E-1,1.234889E-3,8.687526E-3,4.08154E-3,3.3751614E-3,1.3473421E-2,1.0495305E-2,0E0,1.5283823E-2,0E0,0E0,7.022172E-4,1.5076995E-3,6.579533E-4,4.065526E-4,3.4596585E-4,2.4256855E-4,8.101687E-4,2.2280216E-4,0E0,0E0,0E0,0E0,0E0,0E0,0E0,5.5149198E-5,1.2561213E-5,7.133733E-5,6.218493E-5,3.737345E-5,3.5831938E-5,0E0,0E0,0E0,0E0,0E0,0E0,0E0,0E0,0E0,0E0,0E0,1.8272898E-5,3.6531448E-5,1.3074521E-5,6.96564E-6,0E0,1.4063902E-5,0E0,0E0,0E0,0E0,0E0,0E0,0E0,0E0,0E0,0E0,0E0,0E0],"parents":[2147483647,0,0,1,1,2,2,3,3,4,4,5,5,6,6,7,7,8,8,9,9,10,10,11,11,12,12,14,14,17,17,18,18,19,19,20,20,21,21,22,22,23,23,24,24,32,32,33,33,34,34,35,35,36,36,37,37,49,49,50,50,51,51,52,52,54,54],"right_children":[2,4,6,8,10,12,14,16,18,20,22,24,26,-1,28,-1,-1,30,32,34,36,38,40,42,44,-1,-1,-1,-1,-1,-1,-1,46,48,50,52,54,56,-1,-1,-1,-1,-1,-1,-1,-1,-1,-1,-1,58,60,62,64,-1,66,-1,-1,-1,-1,-1,-1,-1,-1,-1,-1,-1,-1],"split_conditions":[2.929057E-1,1.0392136E-1,5.9867394E-1,3.0127786E-2,2.0502326E-1,4.4056943E-1,7.765432E-1,4.8947223E-3,6.275002E-2,1.671311E-1,2.4957466E-1,3.5183305E-1,5.3119665E-1,8.794574E-3,9.2403305E-1,-3.3988487E-3,-3.116333E-3,5.9949074E-2,8.111315E-2,1.2265467E-1,1.8620212E-1,2.2974943E-1,2.6294E-1,3.2889402E-1,3.9362898E-1,5.5622747E-3,7.0736036E-3,1.2403093E-2,1.6204786E-2,-2.519193E-3,-2.1513295E-3,-1.917094E-3,9.9707015E-2,1.3440257E-1,1.5868646E-1,1.757089E-1,1.9511949E-1,7.7687435E-2,1.0919184E-3,1.4227021E-3,1.7756441E-3,2.4035738E-3,3.0784782E-3,3.7242197E-3,4.3845423E-3,-1.6141856E-3,-1.3843579E-3,-1.0181558E-3,-5.258441E-4,1.5512179E-1,1.5933362E-1,1.789703E-1,1.7955396E-1,1.8753884E-4,1.0151263E-1,5.723981E-4,8.154468E-4,-6.671106E-4,-4.7446575E-4,-9.031956E-5,-3.8734757E-4,-1.3928978E-4,-2.8064916E-5,3.670156E-6,1.0366957E-4,3.3146393E-4,5.1598385E-4],"split_indices":[0,4,0,4,4,1,2,0,4,1,1,4,0,0,4,0,0,0,4,4,4,0,0,0,0,0,0,0,0,0,0,0,0,1,0,4,0,3,0,0,0,0,0,0,0,0,0,0,0,1,2,1,0,0,3,0,0,0,0,0,0,0,0,0,0,0,0],"split_type":[0,0,0,0,0,0,0,0,0,0,0,0,0,0,0,0,0,0,0,0,0,0,0,0,0,0,0,0,0,0,0,0,0,0,0,0,0,0,0,0,0,0,0,0,0,0,0,0,0,0,0,0,0,0,0,0,0,0,0,0,0,0,0,0,0,0,0],"sum_hessian":[3.514E3,2.662E3,8.52E2,2.127E3,5.35E2,6.04E2,2.48E2,1.263E3,8.64E2,2.61E2,2.74E2,3.43E2,2.61E2,1.23E2,1.25E2,8.1E2,4.53E2,3.97E2,4.67E2,1.23E2,1.38E2,1.09E2,1.65E2,1.51E2,1.92E2,1.1E2,1.51E2,9.6E1,2.9E1,2.47E2,1.5E2,2.47E2,2.2E2,4.1E1,8.2E1,8.3E1,5.5E1,5.5E1,5.4E1,7E1,9.5E1,5.5E1,9.6E1,6.9E1,1.23E2,1.27E2,9.3E1,3.7E1,4E0,5.5E1,2.7E1,4.3E1,4E1,1.5E1,4E1,2.9E1,2.6E1,1.9E1,3.6E1,6E0,2.1E1,2.3E1,2E1,9E0,3.1E1,2.9E1,1.1E1],"tree_param":{"num_deleted":"0","num_feature":"5","num_nodes":"67","size_leaf_vector":"1"}},{"base_weights":[2.3161976E-4,-1.9015828E-2,6.032039E-2,-2.4993636E-2,5.6088525E-3,4.4216406E-2,1.022354E-1,-2.8991219E-2,-1.6985893E-2,-1.3524627E-3,1.249562E-2,3.2910395E-2,5.9554856E-2,8.423413E-2,1.2629539E-1,-2.989734E-2,-2.3879893E-3,-1.9084908E-2,-1.4078398E-2,-5.4029142E-3,1.5610352E-3,8.89206E-3,1.5044959E-2,2.6209706E-2,3.850316E-2,5.154436E-3,6.496012E-3,7.73726E-3,9.807544E-3,1.18746385E-2,1.5803425E-2,-3.1394567E-3,-2.9042661E-3,-2.0802252E-3,-1.8166638E-3,-1.5181542E-3,-1.2399502E-2,-7.6557742E-3,-3.985955E-3,1.9930564E-4,3.8918697E-3,6.9596223E-3,1.0600693E-3,1.379339E-3,1.6835548E-3,2.274457E-2,2.9321574E-3,3.556187E-2,4.1896473E-3,-1.2745651E-3,-9.223128E-4,-7.8356555E-3,-2.3025275E-5,-4.5696614E-4,-2.6198619E-3,-7.856407E-4,9.981637E-4,2.9672498E-3,4.7105164E-3,5.450765E-4,7.546343E-4,6.056741E-4,2.2874218E-3,1.4663696E-3,3.5813097E-3,-6.2281126E-4,-8.993523E-4,-2.1483527E-4,-6.496534E-4,-5.8828617E-5,-3.2867244E-4,4.3741944E-5,1.4321784E-4,3.1720282E-4,1.3499081E-4,3.7722714E-4,6.272114E-4],"categories":[],"categories_nodes":[],"categories_segments":[],"categories_sizes":[],"default_left":[0,0,0,0,0,0,0,0,0,0,0,0,0,0,0,0,0,0,0,0,0,0,0,0,0,0,0,0,0,0,0,0,0,0,0,0,0,0,0,0,0,0,0,0,0,0,0,0,0,0,0,0,0,0,0,0,0,0,0,0,0,0,0,0,0,0,0,0,0,0,0,0,0,0,0,0,0],"id":17,"left_children":[1,3,5,7,9,11,13,15,17,19,21,23,25,27,29,31,-1,33,35,37,39,41,43,45,47,-1,-1,-1,-1,-1,-1,-1,-1,-1,-1,-1,49,51,53,55,57,59,-1,-1,-1,61,-1,63,-1,-1,-1,65,-1,-1,67,69,71,73,75,-1,-1,-1,-1,-1,-1,-1,-1,-1,-1,-1,-1,-1,-1,-1,-1,-1,-1],"loss_changes":[4.0664396E0,3.92138E-1,5.7125306E-1,6.810844E-2,2.4994142E-2,1.05211616E-1,9.157586E-2,5.899906E-3,4.1009486E-3,3.0766893E-3,2.273135E-3,1.2407035E-2,7.95275E-3,5.517781E-3,4.9540997E-3,6.353855E-4,0E0,2.733916E-4,3.7479028E-4,3.1743525E-4,4.8166717E-4,2.9272586E-4,1.0842085E-4,1.1230782E-3,4.363656E-4,0E0,0E0,0E0,0E0,0E0,0E0,0E0,0E0,0E0,0E0,0E0,2.0980835E-5,5.295989E-5,4.3048407E-5,7.710693E-5,2.841116E-5,7.557217E-6,0E0,0E0,0E0,4.1030347E-5,0E0,5.236268E-5,0E0,0E0,0E0,1.844042E-5,0E0,0E0,2.8084556E-5,1.9784877E-5,1.2515586E-5,5.3227413E-6,1.7364451E-5,0E0,0E0,0E0,0E0,0E0,0E0,0E0,0E0,0E0,0E0,0E0,0E0,0E0,0E0,0E0,0E0,0E0,0E0],"parents":[2147483647,0,0,1,1,2,2,3,3,4,4,5,5,6,6,7,7,8,8,9,9,10,10,11,11,12,12,13,13,14,14,15,15,17,17,18,18,19,19,20,20,21,21,22,22,23,23,24,24,36,36,37,37,38,38,39,39,40,40,41,41,45,45,47,47,51,51,54,54,55,55,56,56,57,57,58,58],"right_children":[2,4,6,8,10,12,14,16,18,20,22,24,26,28,30,32,-1,34,36,38,40,42,44,46,48,-1,-1,-1,-1,-1,-1,-1,-1,-1,-1,-1,50,52,54,56,58,60,-1,-1,-1,62,-1,64,-1,-1,-1,66,-1,-1,68,70,72,74,76,-1,-1,-1,-1,-1,-1,-1,-1,-1,-1,-1,-1,-1,-1,-1,-1,-1,-1],"split_conditions":[2.929057E-1,1.1148102E-1,5.9972584E-1,5.221336E-2,2.0982094E-1,4.5144874E-1,8.231712E-1,2.534311E-2,7.701995E-2,1.7148063E-1,2.4997441E-1,3.7269747E-1,5.3555155E-1,6.732822E-1,9.542813E-1,2.5641613E-3,-2.3879893E-3,5.5402156E-2,9.8367676E-2,1.3879478E-1,1.9511949E-1,2.3849443E-1,2.7000478E-1,3.4293184E-1,4.0737912E-1,5.154436E-3,6.496012E-3,7.73726E-3,9.807544E-3,1.18746385E-2,1.5803425E-2,-3.1394567E-3,-2.9042661E-3,-2.0802252E-3,-1.8166638E-3,-1.5181542E-3,1.0392136E-1,1.5512179E-1,1.5868646E-1,1.757089E-1,1.9827911E-1,2.1748324E-1,1.0600693E-3,1.379339E-3,1.6835548E-3,2.6771548E-1,2.9321574E-3,3.326982E-1,4.1896473E-3,-1.2745651E-3,-9.223128E-4,6.341551E-2,-2.3025275E-5,-4.5696614E-4,2.433026E-1,1.7024289E-1,1.8599254E-1,2.0490009E-1,9.28664E-2,5.450765E-4,7.546343E-4,6.056741E-4,2.2874218E-3,1.4663696E-3,3.5813097E-3,-6.2281126E-4,-8.993523E-4,-2.1483527E-4,-6.496534E-4,-5.8828617E-5,-3.2867244E-4,4.3741944E-5,1.4321784E-4,3.1720282E-4,1.3499081E-4,3.7722714E-4,6.272114E-4],"split_indices":[0,4,1,1,4,0,4,0,4,0,0,0,0,2,4,1,0,4,0,4,0,4,4,0,0,0,0,0,0,0,0,0,0,0,0,0,4,1,0,4,4,0,0,0,0,1,0,4,0,0,0,3,0,0,3,3,1,2,3,0,0,0,0,0,0,0,0,0,0,0,0,0,0,0,0,0,0],"split_type":[0,0,0,0,0,0,0,0,0,0,0,0,0,0,0,0,0,0,0,0,0,0,0,0,0,0,0,0,0,0,0,0,0,0,0,0,0,0,0,0,0,0,0,0,0,0,0,0,0,0,0,0,0,0,0,0,0,0,0,0,0,0,0,0,0,0,0,0,0,0,0,0,0,0,0,0,0],"sum_hessian":[3.514E3,2.662E3,8.52E2,2.142E3,5.2E2,6.17E2,2.35E2,1.427E3,7.15E2,2.59E2,2.61E2,3.57E2,2.6E2,1.37E2,9.8E1,1.208E3,2.19E2,4.12E2,3.03E2,1.08E2,1.51E2,1.1E2,1.51E2,1.65E2,1.92E2,1.09E2,1.51E2,9.6E1,4.1E1,8.3E1,1.5E1,4.26E2,7.82E2,1.36E2,2.76E2,1.78E2,1.25E2,4E1,6.8E1,9.6E1,5.5E1,5.4E1,5.6E1,9.4E1,5.7E1,8.2E1,8.3E1,1.09E2,8.3E1,1.1E2,1.5E1,3.9E1,1E0,4.6E1,2.2E1,4.3E1,5.3E1,2.8E1,2.7E1,1.8E1,3.6E1,1E0,8.1E1,2E0,1.07E2,1.9E1,2E1,2.1E1,1E0,4.1E1,2E0,2.4E1,2.9E1,2.4E1,4E0,1.9E1,8E0],"tree_param":{"num_deleted":"0","num_feature":"5","num_nodes":"77","size_leaf_vector":"1"}},{"base_weights":[2.2544326E-4,-1.657031E-2,5.6155846E-2,-2.24244E-2,6.3972166E-3,4.5463085E-2,1.07156366E-1,-2.6098484E-2,-1.518674E-2,-1.9343551E-4,1.2988572E-2,3.3330206E-2,6.146895E-2,9.917033E-3,1.3313283E-2,-2.7073774E-2,-2.2161016E-2,-1.6833508E-2,-1.193157E-2,-4.0554563E-3,2.3901656E-3,1.0822096E-2,1.6852599E-2,2.7736006E-2,3.961327E-2,5.5142245E-3,6.7992075E-3,-2.837147E-3,-2.6374457E-3,-2.37985E-3,-2.102179E-3,-1.8133189E-3,-1.5539319E-3,-1.2444928E-3,-9.117364E-3,-5.8376817E-3,-2.8860196E-3,7.4613E-4,4.634184E-3,8.4292255E-3,1.2212059E-3,1.4453916E-3,1.8152532E-3,2.2949732E-3,3.0014032E-2,3.5609305E-3,4.263096E-3,-4.0753136E-4,-9.688579E-3,-7.962777E-4,-5.040957E-3,-3.8384044E-4,-1.7307391E-3,7.671437E-6,1.7129765E-3,3.3909911E-3,5.430808E-3,9.2040416E-4,5.9058126E-3,2.4249263E-3,3.1023815E-3,-9.819778E-4,-2.4827124E-4,-5.120597E-4,-1.20642784E-4,-2.6954702E-4,-7.770483E-5,2.4294853E-4,-1.2701584E-5,2.467687E-4,1.2474896E-4,1.8985248E-4,3.6135435E-4,4.72201E-4,6.750235E-4,6.5121416E-4,2.905664E-4],"categories":[],"categories_nodes":[],"categories_segments":[],"categories_sizes":[],"default_left":[0,0,0,0,0,0,0,0,0,0,0,0,0,0,0,0,0,0,0,0,0,0,0,0,0,0,0,0,0,0,0,0,0,0,0,0,0,0,0,0,0,0,0,0,0,0,0,0,0,0,0,0,0,0,0,0,0,0,0,0,0,0,0,0,0,0,0,0,0,0,0,0,0,0,0,0,0],"id":18,"left_children":[1,3,5,7,9,11,13,15,17,19,21,23,25,-1,-1,27,29,31,33,35,37,39,41,43,45,-1,-1,-1,-1,-1,-1,-1,-1,-1,47,49,51,53,55,57,-1,-1,-1,-1,59,-1,-1,-1,61,-1,63,-1,65,67,69,71,73,-1,75,-1,-1,-1,-1,-1,-1,-1,-1,-1,-1,-1,-1,-1,-1,-1,-1,-1,-1],"loss_changes":[3.3028977E0,3.6370713E-1,4.379413E-1,5.6908846E-2,2.3895243E-2,1.2864602E-1,1.5840054E-2,4.883766E-3,3.7015975E-3,2.7635994E-3,2.1197349E-3,1.2433529E-2,8.177757E-3,0E0,0E0,2.862215E-4,3.8832426E-5,5.272776E-4,2.4482235E-4,2.1449837E-4,6.089571E-4,4.924163E-4,4.00804E-5,1.5681535E-3,6.4474344E-4,0E0,0E0,0E0,0E0,0E0,0E0,0E0,0E0,0E0,8.1480015E-5,3.2664044E-5,6.927544E-5,6.9242524E-5,5.0909235E-5,8.055009E-5,0E0,0E0,0E0,0E0,4.5195222E-5,0E0,0E0,0E0,1.0600081E-5,0E0,4.205329E-6,0E0,2.8267306E-5,1.8575085E-5,1.1676515E-5,3.1041563E-6,6.468734E-6,0E0,1.564034E-5,0E0,0E0,0E0,0E0,0E0,0E0,0E0,0E0,0E0,0E0,0E0,0E0,0E0,0E0,0E0,0E0,0E0,0E0],"parents":[2147483647,0,0,1,1,2,2,3,3,4,4,5,5,6,6,7,7,8,8,9,9,10,10,11,11,12,12,15,15,16,16,17,17,18,18,19,19,20,20,21,21,22,22,23,23,24,24,34,34,35,35,36,36,37,37,38,38,39,39,44,44,48,48,50,50,52,52,53,53,54,54,55,55,56,56,58,58],"right_children":[2,4,6,8,10,12,14,16,18,20,22,24,26,-1,-1,28,30,32,34,36,38,40,42,44,46,-1,-1,-1,-1,-1,-1,-1,-1,-1,48,50,52,54,56,58,-1,-1,-1,-1,60,-1,-1,-1,62,-1,64,-1,66,68,70,72,74,-1,76,-1,-1,-1,-1,-1,-1,-1,-1,-1,-1,-1,-1,-1,-1,-1,-1,-1,-1],"split_conditions":[3.085827E-1,1.3179122E-1,6.7015195E-1,5.3107925E-2,2.1689935E-1,4.8795122E-1,9.116171E-1,9.195093E-3,8.795726E-2,1.7640515E-1,2.7000478E-1,3.9486498E-1,5.8421034E-1,9.917033E-3,1.3313283E-2,2.2471412E-3,2.9547855E-2,6.9067046E-2,1.02295525E-1,1.5512179E-1,1.9363138E-1,2.4776985E-1,5.51875E-2,3.515343E-1,4.2056984E-1,5.5142245E-3,6.7992075E-3,-2.837147E-3,-2.6374457E-3,-2.37985E-3,-2.102179E-3,-1.8133189E-3,-1.5539319E-3,-1.2444928E-3,3.621875E-2,1.1660579E-1,1.5868646E-1,1.82163E-1,2.1076444E-1,6.856145E-2,1.2212059E-3,1.4453916E-3,1.8152532E-3,2.2949732E-3,3.4457073E-1,3.5609305E-3,4.263096E-3,-4.0753136E-4,1.2906726E-1,-7.962777E-4,1.5212704E-1,-3.8384044E-4,7.6027624E-2,1.7208207E-1,8.196347E-2,1.9803621E-1,9.616228E-2,9.2040416E-4,2.2966947E-1,2.4249263E-3,3.1023815E-3,-9.819778E-4,-2.4827124E-4,-5.120597E-4,-1.20642784E-4,-2.6954702E-4,-7.770483E-5,2.4294853E-4,-1.2701584E-5,2.467687E-4,1.2474896E-4,1.8985248E-4,3.6135435E-4,4.72201E-4,6.750235E-4,6.5121416E-4,2.905664E-4],"split_indices":[4,0,4,0,4,4,0,4,0,0,4,4,0,0,0,0,4,1,4,1,4,0,3,0,4,0,0,0,0,0,0,0,0,0,3,4,0,4,0,3,0,0,0,0,4,0,0,0,3,0,4,0,3,2,3,0,3,0,2,0,0,0,0,0,0,0,0,0,0,0,0,0,0,0,0,0,0],"split_type":[0,0,0,0,0,0,0,0,0,0,0,0,0,0,0,0,0,0,0,0,0,0,0,0,0,0,0,0,0,0,0,0,0,0,0,0,0,0,0,0,0,0,0,0,0,0,0,0,0,0,0,0,0,0,0,0,0,0,0,0,0,0,0,0,0,0,0,0,0,0,0,0,0,0,0,0,0],"sum_hessian":[3.514E3,2.703E3,8.11E2,2.154E3,5.49E2,6.72E2,1.39E2,1.427E3,7.27E2,2.75E2,2.74E2,3.84E2,2.88E2,1.1E2,2.9E1,1.139E3,2.88E2,4.8E2,2.47E2,1.1E2,1.65E2,1.78E2,9.6E1,2.06E2,1.78E2,1.51E2,1.37E2,3.85E2,7.54E2,1.1E2,1.78E2,2.33E2,2.47E2,2.06E2,4.1E1,4.2E1,6.8E1,9.6E1,6.9E1,6.8E1,1.1E2,3.8E1,5.8E1,7E1,1.36E2,8.2E1,9.6E1,5E0,3.6E1,9E0,3.3E1,3.6E1,3.2E1,5.5E1,4.1E1,2.9E1,4E1,5E1,1.8E1,2.4E1,1.12E2,3.5E1,1E0,3.2E1,1E0,1.5E1,1.7E1,2E0,5.3E1,1.4E1,2.7E1,5E0,2.4E1,2.9E1,1.1E1,1.4E1,4E0],"tree_param":{"num_deleted":"0","num_feature":"5","num_nodes":"77","size_leaf_vector":"1"}},{"base_weights":[2.1469561E-4,-1.4916878E-2,5.0603315E-2,-2.018948E-2,5.769259E-3,4.0950723E-2,9.664325E-2,-2.3495935E-2,-1.367601E-2,-1.7358517E-4,1.1712735E-2,3.0026628E-2,5.536189E-2,8.925731E-3,1.2074978E-2,-2.4371289E-2,-1.9961681E-2,-1.5225183E-2,-1.0828938E-2,-3.333448E-3,2.4261281E-3,8.760531E-3,1.4044053E-2,2.5330843E-2,3.6134154E-2,4.907273E-3,6.0707564E-3,-2.5426773E-3,-2.3671517E-3,-2.1444764E-3,-1.8930488E-3,-1.6337462E-3,-1.4057818E-3,-1.1853067E-3,-9.554502E-3,-4.6210885E-3,-1.6643716E-3,9.050545E-4,4.195028E-3,6.87644E-3,9.641694E-3,1.2247082E-3,1.5974119E-3,2.1689502E-3,2.7953878E-3,3.2984097E-3,3.884886E-3,-1.0029429E-3,-7.6188734E-3,-7.2461314E-4,-4.114998E-3,-2.776967E-3,-1.0179857E-3,4.1893576E-4,1.8449686E-3,3.070266E-3,4.915707E-3,7.790727E-4,5.435473E-4,2.599329E-4,9.696547E-4,-3.7357036E-4,-8.300619E-4,-4.3012458E-4,-2.3434497E-4,-3.0043814E-4,7.7195466E-5,1.684159E-4,-1.1398276E-4,2.5461295E-6,7.843961E-5,2.06115E-4,7.087787E-5,1.7403117E-4,3.2666445E-4,4.9921975E-4,9.280518E-5],"categories":[],"categories_nodes":[],"categories_segments":[],"categories_sizes":[],"default_left":[0,0,0,0,0,0,0,0,0,0,0,0,0,0,0,0,0,0,0,0,0,0,0,0,0,0,0,0,0,0,0,0,0,0,0,0,0,0,0,0,0,0,0,0,0,0,0,0,0,0,0,0,0,0,0,0,0,0,0,0,0,0,0,0,0,0,0,0,0,0,0,0,0,0,0,0,0],"id":19,"left_children":[1,3,5,7,9,11,13,15,17,19,21,23,25,-1,-1,27,29,31,33,35,37,39,41,43,45,-1,-1,-1,-1,-1,-1,-1,-1,-1,47,49,51,53,55,57,59,-1,-1,-1,-1,-1,-1,-1,61,-1,63,65,67,69,71,73,75,-1,-1,-1,-1,-1,-1,-1,-1,-1,-1,-1,-1,-1,-1,-1,-1,-1,-1,-1,-1],"loss_changes":[2.6807985E0,2.9504114E-1,3.5689902E-1,4.608977E-2,1.942866E-2,1.04287386E-1,1.4148951E-2,3.931403E-3,3.0460507E-3,2.275355E-3,1.7696619E-3,1.01263225E-2,6.737113E-3,0E0,0E0,2.4014711E-4,3.6023557E-5,3.793016E-4,2.2609904E-4,2.6095496E-4,4.0517864E-4,1.3956241E-4,3.3154152E-4,1.5045553E-3,1.296103E-4,0E0,0E0,0E0,0E0,0E0,0E0,0E0,0E0,0E0,3.4819357E-5,6.31779E-5,3.7446385E-5,3.715059E-5,4.1648862E-5,1.4304416E-5,6.4717606E-6,0E0,0E0,0E0,0E0,0E0,0E0,0E0,4.311651E-5,0E0,1.00469915E-5,1.8460763E-5,1.4101315E-5,8.03279E-6,5.4165503E-6,2.1502492E-6,7.872703E-6,0E0,0E0,0E0,0E0,0E0,0E0,0E0,0E0,0E0,0E0,0E0,0E0,0E0,0E0,0E0,0E0,0E0,0E0,0E0,0E0],"parents":[2147483647,0,0,1,1,2,2,3,3,4,4,5,5,6,6,7,7,8,8,9,9,10,10,11,11,12,12,15,15,16,16,17,17,18,18,19,19,20,20,21,21,22,22,23,23,24,24,34,34,35,35,36,36,37,37,38,38,39,39,40,40,48,48,50,50,51,51,52,52,53,53,54,54,55,55,56,56],"right_children":[2,4,6,8,10,12,14,16,18,20,22,24,26,-1,-1,28,30,32,34,36,38,40,42,44,46,-1,-1,-1,-1,-1,-1,-1,-1,-1,48,50,52,54,56,58,60,-1,-1,-1,-1,-1,-1,-1,62,-1,64,66,68,70,72,74,76,-1,-1,-1,-1,-1,-1,-1,-1,-1,-1,-1,-1,-1,-1,-1,-1,-1,-1,-1,-1],"split_conditions":[3.2167527E-1,1.3179122E-1,6.732822E-1,5.221336E-2,2.1689935E-1,4.9826995E-1,9.2403305E-1,1.0784494E-2,8.064354E-2,1.7360614E-1,2.573537E-1,4.029283E-1,5.718758E-1,8.925731E-3,1.2074978E-2,2.6535704E-3,3.3147674E-2,6.9749065E-2,9.9707015E-2,1.5860808E-1,1.9363138E-1,2.4190174E-1,2.7618092E-1,3.480682E-1,4.261978E-1,4.907273E-3,6.0707564E-3,-2.5426773E-3,-2.3671517E-3,-2.1444764E-3,-1.8930488E-3,-1.6337462E-3,-1.4057818E-3,-1.1853067E-3,1.12535276E-1,1.1660579E-1,1.639855E-1,1.9039594E-1,2.1076444E-1,4.9189933E-2,2.2966947E-1,1.2247082E-3,1.5974119E-3,2.1689502E-3,2.7953878E-3,3.2984097E-3,3.884886E-3,-1.0029429E-3,3.621875E-2,-7.2461314E-4,1.53849E-1,7.6027624E-2,3.6801055E-2,1.8242528E-1,1.9803621E-1,1.9803621E-1,2.3856334E-1,7.790727E-4,5.435473E-4,2.599329E-4,9.696547E-4,-3.7357036E-4,-8.300619E-4,-4.3012458E-4,-2.3434497E-4,-3.0043814E-4,7.7195466E-5,1.684159E-4,-1.1398276E-4,2.5461295E-6,7.843961E-5,2.06115E-4,7.087787E-5,1.7403117E-4,3.2666445E-4,4.9921975E-4,9.280518E-5],"split_indices":[0,0,2,1,4,1,4,0,4,4,4,1,4,0,0,0,1,0,0,1,4,0,4,4,4,0,0,0,0,0,0,0,0,0,0,4,2,0,0,3,2,0,0,0,0,0,0,0,3,0,4,3,3,1,0,0,0,0,0,0,0,0,0,0,0,0,0,0,0,0,0,0,0,0,0,0,0],"split_type":[0,0,0,0,0,0,0,0,0,0,0,0,0,0,0,0,0,0,0,0,0,0,0,0,0,0,0,0,0,0,0,0,0,0,0,0,0,0,0,0,0,0,0,0,0,0,0,0,0,0,0,0,0,0,0,0,0,0,0,0,0,0,0,0,0,0,0,0,0,0,0,0,0,0,0,0,0],"sum_hessian":[3.514E3,2.703E3,8.11E2,2.154E3,5.49E2,6.72E2,1.39E2,1.427E3,7.27E2,2.75E2,2.74E2,3.84E2,2.88E2,1.1E2,2.9E1,1.139E3,2.88E2,4.68E2,2.59E2,1.24E2,1.51E2,1.23E2,1.51E2,2.2E2,1.64E2,1.37E2,1.51E2,4.4E2,6.99E2,1.1E2,1.78E2,2.33E2,2.35E2,1.39E2,1.2E2,6.9E1,5.5E1,8.2E1,6.9E1,4.2E1,8.1E1,8.2E1,6.9E1,9.6E1,1.24E2,8.2E1,8.2E1,9.3E1,2.7E1,9E0,6E1,1.9E1,3.6E1,5.5E1,2.7E1,2.9E1,4E1,2.3E1,1.9E1,1E0,8E1,5E0,2.2E1,5.3E1,7E0,1.8E1,1E0,1E0,3.5E1,2.7E1,2.8E1,2.2E1,5E0,5E0,2.4E1,3.9E1,1E0],"tree_param":{"num_deleted":"0","num_feature":"5","num_nodes":"77","size_leaf_vector":"1"}},{"base_weights":[2.0290466E-4,-1.3430826E-2,4.560365E-2,-1.8177668E-2,5.1925844E-3,3.4863207E-2,7.940873E-2,-2.1153007E-2,-1.2316457E-2,-1.570445E-4,1.0542784E-2,2.667422E-2,4.705527E-2,6.5967016E-2,9.602781E-2,-2.1948002E-2,-1.8011948E-2,-1.3962422E-2,-1.01262685E-2,-3.0125682E-3,2.1922812E-3,7.884198E-3,1.2642271E-2,2.181399E-2,3.1021163E-2,4.1182386E-3,5.051629E-3,5.862876E-3,7.2127297E-3,8.930988E-3,1.1941703E-2,-2.303738E-3,-2.1388845E-3,-1.9340346E-3,-1.7050462E-3,-1.5298644E-3,-1.3243722E-3,-1.0906922E-3,-8.565164E-3,-4.178825E-3,-1.5009517E-3,8.1886153E-4,3.7894463E-3,6.224872E-3,8.628866E-4,1.1300348E-3,1.4740918E-3,1.8576997E-3,2.3722362E-3,2.6514183E-3,3.27483E-3,-9.0536795E-4,-6.7281118E-3,-6.593979E-4,-3.7143927E-3,-2.5104336E-3,-9.147195E-4,3.7037503E-4,1.6865896E-3,3.319051E-3,5.4339534E-3,6.3336914E-4,8.8164954E-5,-3.4243937E-4,-7.3233026E-4,-3.8790892E-4,-2.138393E-4,-2.719757E-4,7.333532E-5,-1.2567863E-4,1.34539605E-5,2.8603552E-6,7.1112496E-5,2.3493171E-4,1.1195707E-4,2.5283181E-4,4.0477267E-4,6.865395E-4,3.5021975E-4],"categories":[],"categories_nodes":[],"categories_segments":[],"categories_sizes":[],"default_left":[0,0,0,0,0,0,0,0,0,0,0,0,0,0,0,0,0,0,0,0,0,0,0,0,0,0,0,0,0,0,0,0,0,0,0,0,0,0,0,0,0,0,0,0,0,0,0,0,0,0,0,0,0,0,0,0,0,0,0,0,0,0,0,0,0,0,0,0,0,0,0,0,0,0,0,0,0,0,0],"id":20,"left_children":[1,3,5,7,9,11,13,15,17,19,21,23,25,27,29,31,33,35,37,39,41,43,45,47,49,-1,-1,-1,-1,-1,-1,-1,-1,-1,-1,-1,-1,-1,51,53,55,57,59,61,-1,-1,-1,-1,-1,-1,-1,-1,63,-1,65,67,69,71,73,75,77,-1,-1,-1,-1,-1,-1,-1,-1,-1,-1,-1,-1,-1,-1,-1,-1,-1,-1],"loss_changes":[2.1763327E0,2.3913449E-1,2.920537E-1,3.7320733E-2,1.5743526E-2,6.0446322E-2,3.722608E-2,3.1705499E-3,2.4830326E-3,1.8581657E-3,1.4352817E-3,7.182628E-3,2.940178E-3,7.891059E-4,2.6907325E-3,1.9860268E-4,4.5746565E-5,1.9399822E-4,2.916865E-4,2.1409441E-4,3.3032073E-4,9.950716E-5,2.614893E-4,6.650612E-4,6.418377E-4,0E0,0E0,0E0,0E0,0E0,0E0,0E0,0E0,0E0,0E0,0E0,0E0,0E0,3.7803315E-5,5.4024626E-5,3.0843934E-5,3.167597E-5,3.6114245E-5,1.8836465E-5,0E0,0E0,0E0,0E0,0E0,0E0,0E0,0E0,2.8013368E-5,0E0,7.538183E-6,1.5574537E-5,1.3449004E-5,6.501341E-6,7.891591E-6,2.2608845E-5,1.4668738E-5,0E0,0E0,0E0,0E0,0E0,0E0,0E0,0E0,0E0,0E0,0E0,0E0,0E0,0E0,0E0,0E0,0E0,0E0],"parents":[2147483647,0,0,1,1,2,2,3,3,4,4,5,5,6,6,7,7,8,8,9,9,10,10,11,11,12,12,13,13,14,14,15,15,16,16,17,17,18,18,19,19,20,20,21,21,22,22,23,23,24,24,38,38,39,39,40,40,41,41,42,42,43,43,52,52,54,54,55,55,56,56,57,57,58,58,59,59,60,60],"right_children":[2,4,6,8,10,12,14,16,18,20,22,24,26,28,30,32,34,36,38,40,42,44,46,48,50,-1,-1,-1,-1,-1,-1,-1,-1,-1,-1,-1,-1,-1,52,54,56,58,60,62,-1,-1,-1,-1,-1,-1,-1,-1,64,-1,66,68,70,72,74,76,78,-1,-1,-1,-1,-1,-1,-1,-1,-1,-1,-1,-1,-1,-1,-1,-1,-1,-1],"split_conditions":[3.085827E-1,1.3179122E-1,6.2780094E-1,5.3107925E-2,2.221186E-1,4.8207366E-1,8.7238085E-1,1.0493124E-3,8.386901E-2,1.7360614E-1,2.5905165E-1,3.8439E-1,5.4427624E-1,6.7015195E-1,9.542813E-1,2.0797858E-3,2.9547855E-2,6.2389243E-2,1.0033047E-1,1.5860808E-1,1.9363138E-1,2.4123602E-1,2.7998087E-1,3.515343E-1,4.0737912E-1,4.1182386E-3,5.051629E-3,5.862876E-3,7.2127297E-3,8.930988E-3,1.1941703E-2,-2.303738E-3,-2.1388845E-3,-1.9340346E-3,-1.7050462E-3,-1.5298644E-3,-1.3243722E-3,-1.0906922E-3,1.12535276E-1,1.1660579E-1,1.639855E-1,1.8620212E-1,1.0540243E-1,1.9079985E-1,8.628866E-4,1.1300348E-3,1.4740918E-3,1.8576997E-3,2.3722362E-3,2.6514183E-3,3.27483E-3,-9.0536795E-4,3.621875E-2,-6.593979E-4,1.53849E-1,7.6027624E-2,1.789703E-1,1.8389098E-1,8.196347E-2,2.1418512E-1,1.2704895E-1,6.3336914E-4,8.8164954E-5,-3.4243937E-4,-7.3233026E-4,-3.8790892E-4,-2.138393E-4,-2.719757E-4,7.333532E-5,-1.2567863E-4,1.34539605E-5,2.8603552E-6,7.1112496E-5,2.3493171E-4,1.1195707E-4,2.5283181E-4,4.0477267E-4,6.865395E-4,3.5021975E-4],"split_indices":[4,0,0,0,0,1,4,3,1,4,1,4,4,4,4,1,4,1,1,1,4,4,4,0,0,0,0,0,0,0,0,0,0,0,0,0,0,0,0,4,2,4,3,3,0,0,0,0,0,0,0,0,3,0,4,3,1,2,3,1,3,0,0,0,0,0,0,0,0,0,0,0,0,0,0,0,0,0,0],"split_type":[0,0,0,0,0,0,0,0,0,0,0,0,0,0,0,0,0,0,0,0,0,0,0,0,0,0,0,0,0,0,0,0,0,0,0,0,0,0,0,0,0,0,0,0,0,0,0,0,0,0,0,0,0,0,0,0,0,0,0,0,0,0,0,0,0,0,0,0,0,0,0,0,0,0,0,0,0,0,0],"sum_hessian":[3.514E3,2.703E3,8.11E2,2.154E3,5.49E2,6.17E2,1.94E2,1.427E3,7.27E2,2.75E2,2.74E2,3.71E2,2.46E2,1.1E2,8.4E1,1.134E3,2.93E2,4.12E2,3.15E2,1.24E2,1.51E2,1.23E2,1.51E2,1.78E2,1.93E2,9.6E1,1.5E2,5.5E1,5.5E1,6.9E1,1.5E1,3.71E2,7.63E2,1.15E2,1.78E2,1.37E2,2.75E2,2.06E2,1.09E2,6.9E1,5.5E1,8.2E1,6.9E1,4.1E1,8.2E1,9.6E1,5.5E1,7E1,1.08E2,5.8E1,1.35E2,8.3E1,2.6E1,9E0,6E1,1.9E1,3.6E1,5.5E1,2.7E1,5.6E1,1.3E1,4E1,1E0,5E0,2.1E1,5.3E1,7E0,1.8E1,1E0,2.7E1,9E0,2.8E1,2.7E1,1.1E1,1.6E1,2.9E1,2.7E1,6E0,7E0],"tree_param":{"num_deleted":"0","num_feature":"5","num_nodes":"79","size_leaf_vector":"1"}},{"base_weights":[1.951313E-4,-1.2495096E-2,3.981281E-2,-1.6423266E-2,3.6864113E-3,3.0334065E-2,7.164194E-2,-1.9516373E-2,-1.1961779E-2,-1.1347131E-3,8.003253E-3,2.2339037E-2,4.1416798E-2,5.948809E-2,8.6670585E-2,-2.0112128E-3,-1.8174421E-3,-1.3791735E-2,-9.731351E-3,-3.6065003E-3,8.1175833E-4,5.8364775E-3,1.0112032E-2,1.7250225E-2,2.6077237E-2,3.6052042E-3,4.558354E-3,5.2837166E-3,6.5076733E-3,8.050648E-3,1.0822165E-2,-1.490963E-3,-1.2409101E-3,-1.073972E-3,-8.451946E-3,-5.136922E-3,-2.644851E-3,-3.7754577E-5,2.071532E-3,4.4455463E-3,7.086433E-4,9.41666E-4,1.1298066E-2,1.4607222E-2,1.8979708E-2,2.3506576E-2,2.8389809E-3,-6.2727504E-3,-8.745117E-3,-5.2815974E-3,3.250465E-5,-3.0261267E-4,-1.7507296E-3,-5.4299255E-4,5.053729E-4,1.1521E-3,2.3798095E-3,3.5921665E-4,4.988005E-4,1.1415856E-3,2.9987545E-4,7.7046576E-4,1.4908821E-3,1.6734777E-2,2.0837297E-3,9.0420444E-4,2.3690715E-2,-6.722067E-4,-3.1310724E-4,-8.773898E-4,-2.1276697E-4,-5.850019E-4,-3.944227E-4,5.8366655E-5,-2.2729009E-4,3.6978723E-5,-8.968409E-5,-1.4579297E-6,6.520651E-5,1.400061E-4,6.332844E-5,1.9210945E-4,3.32828E-4,1.6888073E-3,4.6882778E-4,2.3782696E-3,6.924495E-4],"categories":[],"categories_nodes":[],"categories_segments":[],"categories_sizes":[],"default_left":[0,0,0,0,0,0,0,0,0,0,0,0,0,0,0,0,0,0,0,0,0,0,0,0,0,0,0,0,0,0,0,0,0,0,0,0,0,0,0,0,0,0,0,0,0,0,0,0,0,0,0,0,0,0,0,0,0,0,0,0,0,0,0,0,0,0,0,0,0,0,0,0,0,0,0,0,0,0,0,0,0,0,0,0,0,0,0],"id":21,"left_children":[1,3,5,7,9,11,13,15,17,19,21,23,25,27,29,-1,-1,31,33,35,37,39,41,43,45,-1,-1,-1,-1,-1,-1,-1,-1,-1,47,49,51,53,55,57,-1,-1,59,61,63,65,-1,67,69,71,-1,-1,73,75,77,79,81,-1,-1,-1,-1,-1,-1,83,-1,-1,85,-1,-1,-1,-1,-1,-1,-1,-1,-1,-1,-1,-1,-1,-1,-1,-1,-1,-1,-1,-1],"loss_changes":[1.7676895E0,1.6933072E-1,2.5517714E-1,2.9339671E-2,1.0852146E-2,5.7466626E-2,3.0462027E-2,6.4504147E-4,3.457576E-3,1.1913097E-3,1.1975262E-3,6.87401E-3,4.5038164E-3,6.8736076E-4,2.5791526E-3,0E0,0E0,5.5844337E-4,4.252717E-4,1.4683208E-4,1.4883518E-4,2.0842394E-4,7.4235722E-6,4.8154965E-4,6.405115E-4,0E0,0E0,0E0,0E0,0E0,0E0,0E0,0E0,0E0,6.0781837E-5,3.4115394E-5,1.8224615E-5,2.3324737E-5,1.31308625E-5,1.3560988E-5,0E0,0E0,1.073489E-5,3.0859374E-5,5.5801123E-5,7.877126E-5,0E0,1.4243065E-5,1.1233613E-5,7.3339324E-6,0E0,0E0,2.9362564E-5,1.4543003E-5,3.1366953E-6,1.1716984E-6,1.1444266E-5,0E0,0E0,0E0,0E0,0E0,0E0,1.1310913E-5,0E0,0E0,1.8663704E-6,0E0,0E0,0E0,0E0,0E0,0E0,0E0,0E0,0E0,0E0,0E0,0E0,0E0,0E0,0E0,0E0,0E0,0E0,0E0,0E0],"parents":[2147483647,0,0,1,1,2,2,3,3,4,4,5,5,6,6,7,7,8,8,9,9,10,10,11,11,12,12,13,13,14,14,17,17,18,18,19,19,20,20,21,21,22,22,23,23,24,24,34,34,35,35,36,36,37,37,38,38,39,39,42,42,43,43,44,44,45,45,47,47,48,48,49,49,52,52,53,53,54,54,55,55,56,56,63,63,66,66],"right_children":[2,4,6,8,10,12,14,16,18,20,22,24,26,28,30,-1,-1,32,34,36,38,40,42,44,46,-1,-1,-1,-1,-1,-1,-1,-1,-1,48,50,52,54,56,58,-1,-1,60,62,64,66,-1,68,70,72,-1,-1,74,76,78,80,82,-1,-1,-1,-1,-1,-1,84,-1,-1,86,-1,-1,-1,-1,-1,-1,-1,-1,-1,-1,-1,-1,-1,-1,-1,-1,-1,-1,-1,-1],"split_conditions":[2.929057E-1,1.1148102E-1,6.2780094E-1,3.3781525E-2,2.0502326E-1,4.6860263E-1,8.7238085E-1,5.1933746E-3,7.5877376E-2,1.7148063E-1,2.5415298E-1,3.7269747E-1,5.495318E-1,6.620441E-1,9.542813E-1,-2.0112128E-3,-1.8174421E-3,6.040368E-2,8.5110694E-2,1.3879478E-1,1.8620212E-1,2.3849443E-1,2.7793604E-1,3.2234997E-1,4.0083978E-1,3.6052042E-3,4.558354E-3,5.2837166E-3,6.5076733E-3,8.050648E-3,1.0822165E-2,-1.490963E-3,-1.2409101E-3,-1.073972E-3,3.6801055E-2,1.5512179E-1,1.5868646E-1,1.757089E-1,1.9511949E-1,2.1748324E-1,7.086433E-4,9.41666E-4,2.8942075E-1,2.7618092E-1,7.2293095E-2,3.326982E-1,2.8389809E-3,3.182413E-2,1.4363639E-1,1.3440257E-1,3.250465E-5,-3.0261267E-4,1.5771477E-1,1.7788427E-1,1.7955396E-1,1.1202382E-1,1.0151263E-1,3.5921665E-4,4.988005E-4,1.1415856E-3,2.9987545E-4,7.7046576E-4,1.4908821E-3,7.1722105E-2,2.0837297E-3,9.0420444E-4,4.414725E-1,-6.722067E-4,-3.1310724E-4,-8.773898E-4,-2.1276697E-4,-5.850019E-4,-3.944227E-4,5.8366655E-5,-2.2729009E-4,3.6978723E-5,-8.968409E-5,-1.4579297E-6,6.520651E-5,1.400061E-4,6.332844E-5,1.9210945E-4,3.32828E-4,1.6888073E-3,4.6882778E-4,2.3782696E-3,6.924495E-4],"split_indices":[0,4,0,0,4,0,4,0,0,0,0,0,1,1,4,0,0,0,4,4,4,4,1,4,4,0,0,0,0,0,0,0,0,0,3,1,0,4,0,0,0,0,4,4,3,4,0,3,0,1,0,0,2,2,0,3,3,0,0,0,0,0,0,3,0,0,2,0,0,0,0,0,0,0,0,0,0,0,0,0,0,0,0,0,0,0,0],"split_type":[0,0,0,0,0,0,0,0,0,0,0,0,0,0,0,0,0,0,0,0,0,0,0,0,0,0,0,0,0,0,0,0,0,0,0,0,0,0,0,0,0,0,0,0,0,0,0,0,0,0,0,0,0,0,0,0,0,0,0,0,0,0,0,0,0,0,0,0,0,0,0,0,0,0,0,0,0,0,0,0,0,0,0,0,0,0,0],"sum_hessian":[3.514E3,2.662E3,8.52E2,2.142E3,5.2E2,6.58E2,1.94E2,1.263E3,8.79E2,2.46E2,2.74E2,3.84E2,2.74E2,1.1E2,8.4E1,8.65E2,3.98E2,4.8E2,3.99E2,1.08E2,1.38E2,1.37E2,1.37E2,1.65E2,2.19E2,1.24E2,1.5E2,5.5E1,5.5E1,6.9E1,1.5E1,2.6E2,2.2E2,2.19E2,1.8E2,4E1,6.8E1,8.3E1,5.5E1,6.7E1,7E1,9.2E1,4.5E1,6.9E1,9.6E1,1.09E2,1.1E2,2.4E1,1.56E2,3.9E1,1E0,4.6E1,2.2E1,4.3E1,4E1,1.5E1,4E1,2.9E1,3.8E1,4.4E1,1E0,4E0,6.5E1,4.8E1,4.8E1,2E0,1.07E2,2E1,4E0,1.55E2,1E0,2.5E1,1.4E1,4E0,1.8E1,1.2E1,3.1E1,9E0,3.1E1,9E0,6E0,2.9E1,1.1E1,4.7E1,1E0,1.06E2,1E0],"tree_param":{"num_deleted":"0","num_feature":"5","num_nodes":"87","size_leaf_vector":"1"}},{"base_weights":[1.8862356E-4,-1.1248004E-2,3.589267E-2,-1.478547E-2,3.324049E-3,2.6167559E-2,6.1207183E-2,-1.7391382E-2,-1.049254E-2,-1.023991E-3,7.217292E-3,1.950669E-2,3.5203665E-2,5.125878E-2,7.827718E-2,-1.7849347E-2,-1.5166197E-3,-1.2094251E-2,-8.693516E-3,-3.258864E-3,7.359021E-4,4.813075E-3,8.766971E-3,1.5564374E-2,2.279642E-2,3.1258196E-2,3.931069E-3,4.6463287E-3,5.8649927E-3,7.263352E-3,9.807587E-3,-1.8822778E-3,-1.7407142E-3,-1.3113042E-3,-1.1085275E-3,-9.5445616E-4,-7.520322E-3,-4.364507E-3,-2.1345143E-3,-3.5424142E-5,1.8797504E-3,3.5359534E-3,5.549886E-4,7.089068E-4,9.314008E-4,1.3497031E-2,1.7421816E-2,8.439243E-4,2.2902573E-2,1.4067829E-3,3.1666357E-2,-7.687464E-4,-5.462458E-4,-4.728985E-3,-2.694752E-3,1.559481E-4,-2.2671055E-3,-7.1268197E-4,3.1593122E-4,9.82788E-4,2.1280695E-3,3.051537E-3,5.5913033E-4,7.088274E-4,1.3731801E-3,4.122272E-4,1.7532386E-2,2.1288272E-3,2.4705455E-3,1.995199E-3,3.215493E-3,-4.8010648E-4,-8.508116E-5,-2.274414E-5,-4.424625E-4,-8.314923E-5,7.622589E-5,-2.629488E-4,-1.0697906E-4,2.9704925E-5,-1.2597536E-4,4.4272892E-6,5.8600835E-5,3.0355455E-4,5.9138012E-5,2.1925561E-4,5.373955E-5,2.4750395E-4,3.52256E-4,1.7643536E-3,4.2090565E-4],"categories":[],"categories_nodes":[],"categories_segments":[],"categories_sizes":[],"default_left":[0,0,0,0,0,0,0,0,0,0,0,0,0,0,0,0,0,0,0,0,0,0,0,0,0,0,0,0,0,0,0,0,0,0,0,0,0,0,0,0,0,0,0,0,0,0,0,0,0,0,0,0,0,0,0,0,0,0,0,0,0,0,0,0,0,0,0,0,0,0,0,0,0,0,0,0,0,0,0,0,0,0,0,0,0,0,0,0,0,0,0],"id":22,"left_children":[1,3,5,7,9,11,13,15,17,19,21,23,25,27,29,31,-1,33,35,37,39,41,43,45,47,49,-1,-1,-1,-1,-1,-1,-1,-1,-1,-1,51,53,55,57,59,61,-1,-1,-1,63,65,-1,67,-1,69,-1,-1,71,73,75,77,79,81,83,85,87,-1,-1,-1,-1,89,-1,-1,-1,-1,-1,-1,-1,-1,-1,-1,-1,-1,-1,-1,-1,-1,-1,-1,-1,-1,-1,-1,-1,-1],"loss_changes":[1.4356972E0,1.3732186E-1,2.0839536E-1,2.3791254E-2,8.826865E-3,3.6509663E-2,3.6064982E-2,1.0866821E-3,2.2346526E-3,9.738832E-4,9.823898E-4,4.288137E-3,3.0004978E-3,2.6624799E-3,2.3739934E-3,1.4543533E-4,0E0,2.9356405E-4,3.13621E-4,1.261849E-4,1.2270352E-4,8.388562E-5,8.634012E-5,4.022941E-4,1.0085106E-4,5.2279234E-4,0E0,0E0,0E0,0E0,0E0,0E0,0E0,0E0,0E0,0E0,1.5448779E-5,2.012041E-5,1.7360464E-5,2.0213645E-5,1.0381598E-5,2.5750662E-5,0E0,0E0,0E0,2.7545728E-5,5.125068E-5,0E0,2.9958785E-5,0E0,1.2537837E-4,0E0,0E0,7.935392E-6,5.0211274E-5,3.0285955E-6,2.0182953E-5,1.6393675E-5,4.0827026E-6,9.453354E-6,3.2325624E-6,1.328619E-6,0E0,0E0,0E0,0E0,4.865043E-5,0E0,0E0,0E0,0E0,0E0,0E0,0E0,0E0,0E0,0E0,0E0,0E0,0E0,0E0,0E0,0E0,0E0,0E0,0E0,0E0,0E0,0E0,0E0,0E0],"parents":[2147483647,0,0,1,1,2,2,3,3,4,4,5,5,6,6,7,7,8,8,9,9,10,10,11,11,12,12,13,13,14,14,15,15,17,17,18,18,19,19,20,20,21,21,22,22,23,23,24,24,25,25,36,36,37,37,38,38,39,39,40,40,41,41,45,45,46,46,48,48,50,50,53,53,54,54,55,55,56,56,57,57,58,58,59,59,60,60,61,61,66,66],"right_children":[2,4,6,8,10,12,14,16,18,20,22,24,26,28,30,32,-1,34,36,38,40,42,44,46,48,50,-1,-1,-1,-1,-1,-1,-1,-1,-1,-1,52,54,56,58,60,62,-1,-1,-1,64,66,-1,68,-1,70,-1,-1,72,74,76,78,80,82,84,86,88,-1,-1,-1,-1,90,-1,-1,-1,-1,-1,-1,-1,-1,-1,-1,-1,-1,-1,-1,-1,-1,-1,-1,-1,-1,-1,-1,-1,-1],"split_conditions":[2.929057E-1,1.1148102E-1,5.9972584E-1,3.7521005E-2,2.0502326E-1,4.314718E-1,8.5873526E-1,9.194435E-3,6.947316E-2,1.7148063E-1,2.4957466E-1,3.7269747E-1,5.4267037E-1,6.732822E-1,9.542813E-1,1.8621975E-3,-1.5166197E-3,5.4149695E-2,9.423655E-2,1.5512179E-1,1.9039594E-1,2.221186E-1,2.5691825E-1,3.4293184E-1,3.326982E-1,4.438516E-1,3.931069E-3,4.6463287E-3,5.8649927E-3,7.263352E-3,9.807587E-3,-1.8822778E-3,-1.7407142E-3,-1.3113042E-3,-1.1085275E-3,-9.5445616E-4,1.0392136E-1,1.5352535E-1,1.5064953E-1,1.7360614E-1,1.8924093E-1,9.616228E-2,5.549886E-4,7.089068E-4,9.314008E-4,2.7618092E-1,3.085827E-1,8.439243E-4,4.0737912E-1,1.4067829E-3,5.8688268E-2,-7.687464E-4,-5.462458E-4,1.5064953E-1,1.5204494E-1,1.5158047E-1,7.7687435E-2,1.7788427E-1,1.8389098E-1,1.8599254E-1,1.6079824E-1,2.1679223E-1,5.5913033E-4,7.088274E-4,1.3731801E-3,4.122272E-4,3.7223166E-1,2.1288272E-3,2.4705455E-3,1.995199E-3,3.215493E-3,-4.8010648E-4,-8.508116E-5,-2.274414E-5,-4.424625E-4,-8.314923E-5,7.622589E-5,-2.629488E-4,-1.0697906E-4,2.9704925E-5,-1.2597536E-4,4.4272892E-6,5.8600835E-5,3.0355455E-4,5.9138012E-5,2.1925561E-4,5.373955E-5,2.4750395E-4,3.52256E-4,1.7643536E-3,4.2090565E-4],"split_indices":[0,4,1,0,4,4,1,0,4,0,1,0,1,2,4,1,0,4,0,1,0,0,0,0,4,0,0,0,0,0,0,0,0,0,0,0,4,0,4,4,4,3,0,0,0,4,4,0,0,0,3,0,0,4,2,0,3,2,2,1,3,1,0,0,0,0,4,0,0,0,0,0,0,0,0,0,0,0,0,0,0,0,0,0,0,0,0,0,0,0,0],"split_type":[0,0,0,0,0,0,0,0,0,0,0,0,0,0,0,0,0,0,0,0,0,0,0,0,0,0,0,0,0,0,0,0,0,0,0,0,0,0,0,0,0,0,0,0,0,0,0,0,0,0,0,0,0,0,0,0,0,0,0,0,0,0,0,0,0,0,0,0,0,0,0,0,0,0,0,0,0,0,0,0,0,0,0,0,0,0,0,0,0,0,0],"sum_hessian":[3.514E3,2.662E3,8.52E2,2.142E3,5.2E2,6.17E2,2.35E2,1.331E3,8.11E2,2.46E2,2.74E2,3.57E2,2.6E2,1.51E2,8.4E1,1.098E3,2.33E2,4.26E2,3.85E2,1.08E2,1.38E2,1.09E2,1.65E2,1.65E2,1.92E2,1.37E2,1.23E2,9.6E1,5.5E1,6.9E1,1.5E1,3.3E2,7.68E2,2.06E2,2.2E2,2.19E2,1.66E2,5.3E1,5.5E1,8.3E1,5.5E1,4.2E1,6.7E1,4.4E1,1.21E2,8.2E1,8.3E1,2E0,1.9E2,4E0,1.33E2,1.51E2,1.5E1,4.2E1,1.1E1,3E0,5.2E1,2.8E1,5.5E1,1.3E1,4.2E1,3.6E1,6E0,4E0,7.8E1,1E0,8.2E1,1.07E2,8.3E1,7E0,1.26E2,4.1E1,1E0,5E0,6E0,1E0,2E0,3.9E1,1.3E1,1E1,1.8E1,2.8E1,2.7E1,1E0,1.2E1,4E1,2E0,1.9E1,1.7E1,8.1E1,1E0],"tree_param":{"num_deleted":"0","num_feature":"5","num_nodes":"91","size_leaf_vector":"1"}},{"base_weights":[1.8141855E-4,-9.79941E-3,3.3417843E-2,-1.3266049E-2,3.8013333E-3,2.5867626E-2,5.959641E-2,-1.5440704E-2,-8.982158E-3,-3.160297E-4,7.5208754E-3,1.975687E-2,3.5249777E-2,5.0586928E-2,7.284226E-2,-1.5912151E-2,-1.2598991E-3,-1.0012495E-2,-7.0890426E-3,-2.467478E-3,1.2571728E-3,5.3427997E-3,9.102565E-3,1.6471779E-2,2.3445457E-2,3.0893018E-2,3.7798171E-3,4.328636E-3,5.42446E-3,6.695894E-3,8.888125E-3,-1.6474271E-3,-1.508803E-3,-1.0740282E-3,-9.2484505E-4,-5.0255805E-3,-7.356609E-3,-3.6124235E-3,-1.7182004E-3,2.958543E-4,2.3790621E-3,3.9301493E-4,5.968703E-4,7.7883736E-3,1.0322923E-3,1.3948056E-2,1.8015759E-2,2.1031521E-2,2.5269287E-3,1.1386186E-3,3.1183833E-2,-5.4303603E-4,-1.6727432E-3,-7.91566E-4,-6.1800284E-3,-4.7941837E-3,-2.8766019E-3,-2.2809571E-4,-1.0351642E-3,2.2887041E-4,2.1839252E-4,1.961844E-3,3.6645578E-3,1.9311905E-4,7.8356743E-4,9.4695034E-4,1.4364779E-3,1.1083689E-3,1.8395014E-3,5.943492E-4,2.114304E-3,8.633256E-4,3.133189E-3,-5.6530287E-5,-2.2226025E-4,-6.2331505E-4,-1.04482475E-4,-5.4891687E-4,-2.3063808E-4,-2.2267601E-4,-4.6008528E-4,-1.7416524E-4,-3.4966568E-5,-7.3161726E-5,4.4538894E-5,1.4894605E-5,2.1011117E-4,4.8816318E-4,2.1755414E-4],"categories":[],"categories_nodes":[],"categories_segments":[],"categories_sizes":[],"default_left":[0,0,0,0,0,0,0,0,0,0,0,0,0,0,0,0,0,0,0,0,0,0,0,0,0,0,0,0,0,0,0,0,0,0,0,0,0,0,0,0,0,0,0,0,0,0,0,0,0,0,0,0,0,0,0,0,0,0,0,0,0,0,0,0,0,0,0,0,0,0,0,0,0,0,0,0,0,0,0,0,0,0,0,0,0,0,0,0,0],"id":23,"left_children":[1,3,5,7,9,11,13,15,17,19,21,23,25,27,29,31,-1,33,35,37,39,41,43,45,47,49,-1,-1,-1,-1,-1,-1,-1,-1,-1,51,53,55,57,59,61,-1,-1,63,-1,65,67,69,-1,-1,71,-1,73,-1,75,77,79,-1,81,-1,83,85,87,-1,-1,-1,-1,-1,-1,-1,-1,-1,-1,-1,-1,-1,-1,-1,-1,-1,-1,-1,-1,-1,-1,-1,-1,-1,-1],"loss_changes":[1.1663482E0,1.27541E-1,1.5895325E-1,1.9937247E-2,8.425464E-3,3.553742E-2,1.7915368E-2,1.7126501E-3,1.349017E-3,8.8988384E-4,9.469837E-4,4.2789876E-3,1.5857816E-3,6.159842E-4,7.483363E-4,3.170669E-4,0E0,1.6146526E-4,1.0657776E-4,8.901802E-5,1.6322707E-4,8.6180866E-5,1.8582959E-4,5.553067E-4,2.5662035E-4,1.9521266E-4,0E0,0E0,0E0,0E0,0E0,0E0,0E0,0E0,0E0,3.570266E-5,1.01052225E-4,2.3600354E-5,2.4161258E-5,1.2312847E-5,3.0353956E-5,0E0,0E0,8.139759E-6,0E0,1.8877909E-5,1.2474135E-4,1.3988465E-5,0E0,0E0,4.6685338E-5,0E0,1.7882376E-6,0E0,1.4765188E-5,1.32746645E-5,2.2249209E-5,0E0,1.5372792E-5,0E0,1.7793407E-5,1.3573328E-5,1.8375693E-5,0E0,0E0,0E0,0E0,0E0,0E0,0E0,0E0,0E0,0E0,0E0,0E0,0E0,0E0,0E0,0E0,0E0,0E0,0E0,0E0,0E0,0E0,0E0,0E0,0E0,0E0],"parents":[2147483647,0,0,1,1,2,2,3,3,4,4,5,5,6,6,7,7,8,8,9,9,10,10,11,11,12,12,13,13,14,14,15,15,17,17,18,18,19,19,20,20,21,21,22,22,23,23,24,24,25,25,35,35,36,36,37,37,38,38,39,39,40,40,43,43,45,45,46,46,47,47,50,50,52,52,54,54,55,55,56,56,58,58,60,60,61,61,62,62],"right_children":[2,4,6,8,10,12,14,16,18,20,22,24,26,28,30,32,-1,34,36,38,40,42,44,46,48,50,-1,-1,-1,-1,-1,-1,-1,-1,-1,52,54,56,58,60,62,-1,-1,64,-1,66,68,70,-1,-1,72,-1,74,-1,76,78,80,-1,82,-1,84,86,88,-1,-1,-1,-1,-1,-1,-1,-1,-1,-1,-1,-1,-1,-1,-1,-1,-1,-1,-1,-1,-1,-1,-1,-1,-1,-1],"split_conditions":[3.2167527E-1,1.3179122E-1,6.3926005E-1,4.6832226E-2,2.1212332E-1,4.8795122E-1,8.906703E-1,2.5148232E-2,8.064354E-2,1.7640515E-1,2.5691825E-1,4.0024257E-1,5.518148E-1,6.7015195E-1,9.542813E-1,4.0875776E-3,-1.2598991E-3,6.275002E-2,3.621875E-2,1.5512179E-1,1.9511949E-1,2.3849443E-1,2.7747315E-1,3.588994E-1,4.2056984E-1,5.8688268E-2,3.7798171E-3,4.328636E-3,5.42446E-3,6.695894E-3,8.888125E-3,-1.6474271E-3,-1.508803E-3,-1.0740282E-3,-9.2484505E-4,3.2972526E-2,9.594869E-2,4.7823872E-2,1.5868646E-1,1.7208207E-1,1.0540243E-1,3.9301493E-4,5.968703E-4,2.4438396E-1,1.0322923E-3,3.085827E-1,3.3992714E-1,3.7223166E-1,2.5269287E-3,1.1386186E-3,4.9366963E-1,-5.4303603E-4,1.2056997E-1,-7.91566E-4,1.2906726E-1,1.2265467E-1,9.757034E-2,-2.2809571E-4,