{"learner":{"attributes":{"scikit_learn":"{\"_estimator_type\": \"regressor\"}"},"feature_names":[],"feature_types":[],"gradient_booster":{"model":{"gbtree_model_param":{"num_parallel_tree":"1","num_trees":"300"},"iteration_indptr":[0,1,2,3,4,5,6,7,8,9,10,11,12,13,14,15,16,17,18,19,20,21,22,23,24,25,26,27,28,29,30,31,32,33,34,35,36,37,38,39,40,41,42,43,44,45,46,47,48,49,50,51,52,53,54,55,56,57,58,59,60,61,62,63,64,65,66,67,68,69,70,71,72,73,74,75,76,77,78,79,80,81,82,83,84,85,86,87,88,89,90,91,92,93,94,95,96,97,98,99,100,101,102,103,104,105,106,107,108,109,110,111,112,113,114,115,116,117,118,119,120,121,122,123,124,125,126,127,128,129,130,131,132,133,134,135,136,137,138,139,140,141,142,143,144,145,146,147,148,149,150,151,152,153,154,155,156,157,158,159,160,161,162,163,164,165,166,167,168,169,170,171,172,173,174,175,176,177,178,179,180,181,182,183,184,185,186,187,188,189,190,191,192,193,194,195,196,197,198,199,200,201,202,203,204,205,206,207,208,209,210,211,212,213,214,215,216,217,218,219,220,221,222,223,224,225,226,227,228,229,230,231,232,233,234,235,236,237,238,239,240,241,242,243,244,245,246,247,248,249,250,251,252,253,254,255,256,257,258,259,260,261,262,263,264,265,266,267,268,269,270,271,272,273,274,275,276,277,278,279,280,281,282,283,284,285,286,287,288,289,290,291,292,293,294,295,296,297,298,299,300],"tree_info":[0,0,0,0,0,0,0,0,0,0,0,0,0,0,0,0,0,0,0,0,0,0,0,0,0,0,0,0,0,0,0,0,0,0,0,0,0,0,0,0,0,0,0,0,0,0,0,0,0,0,0,0,0,0,0,0,0,0,0,0,0,0,0,0,0,0,0,0,0,0,0,0,0,0,0,0,0,0,0,0,0,0,0,0,0,0,0,0,0,0,0,0,0,0,0,0,0,0,0,0,0,0,0,0,0,0,0,0,0,0,0,0,0,0,0,0,0,0,0,0,0,0,0,0,0,0,0,0,0,0,0,0,0,0,0,0,0,0,0,0,0,0,0,0,0,0,0,0,0,0,0,0,0,0,0,0,0,0,0,0,0,0,0,0,0,0,0,0,0,0,0,0,0,0,0,0,0,0,0,0,0,0,0,0,0,0,0,0,0,0,0,0,0,0,0,0,0,0,0,0,0,0,0,0,0,0,0,0,0,0,0,0,0,0,0,0,0,0,0,0,0,0,0,0,0,0,0,0,0,0,0,0,0,0,0,0,0,0,0,0,0,0,0,0,0,0,0,0,0,0,0,0,0,0,0,0,0,0,0,0,0,0,0,0,0,0,0,0,0,0,0,0,0,0,0,0,0,0,0,0,0,0,0,0,0,0,0,0,0,0,0,0,0,0,0,0,0,0,0,0],"trees":[{"base_weights":[2.624545E-3,-1.1110858E-1,3.8886446E-1,-1.5432124E-1,3.340021E-2,2.6084408E-1,6.3799465E-1,-1.7637974E-1,-1.1439409E-1,-1.2345138E-2,8.250203E-2,1.8176864E-1,3.203743E-1,5.51773E-2,6.932553E-2,-1.8055407E-2,-1.5471689E-2,-1.2638576E-1,-9.8246224E-2,-3.276563E-2,1.349872E-2,5.21099E-2,1.1036983E-1,1.5779385E-2,2.0665403E-2,2.8749496E-2,3.5145093E-2,-1.3168811E-2,-1.17389485E-2,-1.02037275E-2,-7.0201675E-3,-4.7713793E-3,-2.4814412E-3,1.16996634E-4,2.6444995E-3,4.209133E-3,5.955634E-3,9.393382E-3,1.1991217E-2],"categories":[],"categories_nodes":[],"categories_segments":[],"categories_sizes":[],"default_left":[0,0,0,0,0,0,0,0,0,0,0,0,0,0,0,0,0,0,0,0,0,0,0,0,0,0,0,0,0,0,0,0,0,0,0,0,0,0,0],"id":0,"left_children":[1,3,5,7,9,11,13,15,17,19,21,23,25,-1,-1,-1,-1,27,29,31,33,35,37,-1,-1,-1,-1,-1,-1,-1,-1,-1,-1,-1,-1,-1,-1,-1,-1],"loss_changes":[1.2725947E2,1.3980595E1,2.0851562E1,1.4973259E0,1.1600475E0,1.9988899E0,6.800003E-1,7.226181E-2,1.0686493E-1,1.4187777E-1,2.0514202E-1,8.0749035E-2,1.5236092E-1,0E0,0E0,0E0,0E0,1.2369156E-3,2.1223783E-2,1.6644418E-2,1.8962821E-2,6.5200925E-3,8.968234E-3,0E0,0E0,0E0,0E0,0E0,0E0,0E0,0E0,0E0,0E0,0E0,0E0,0E0,0E0,0E0,0E0],"parents":[2147483647,0,0,1,1,2,2,3,3,4,4,5,5,6,6,7,7,8,8,9,9,10,10,11,11,12,12,17,17,18,18,19,19,20,20,21,21,22,22],"right_children":[2,4,6,8,10,12,14,16,18,20,22,24,26,-1,-1,-1,-1,28,30,32,34,36,38,-1,-1,-1,-1,-1,-1,-1,-1,-1,-1,-1,-1,-1,-1,-1,-1],"split_conditions":[3.0881238E-1,1.2994795E-1,6.437092E-1,3.5618596E-2,2.1278039E-1,4.134279E-1,7.97217E-1,1.7385978E-2,7.1E-2,1.6546157E-1,2.5021192E-1,3.4942093E-1,4.9661806E-1,5.51773E-2,6.932553E-2,-1.8055407E-2,-1.5471689E-2,5.9129275E-2,8.7860085E-2,1.4683369E-1,1.9238672E-1,2.2827496E-1,2.775625E-1,1.5779385E-2,2.0665403E-2,2.8749496E-2,3.5145093E-2,-1.3168811E-2,-1.17389485E-2,-1.02037275E-2,-7.0201675E-3,-4.7713793E-3,-2.4814412E-3,1.16996634E-4,2.6444995E-3,4.209133E-3,5.955634E-3,9.393382E-3,1.1991217E-2],"split_indices":[4,0,4,4,4,4,4,0,1,4,4,4,4,0,0,0,0,1,4,0,4,4,4,0,0,0,0,0,0,0,0,0,0,0,0,0,0,0,0],"split_type":[0,0,0,0,0,0,0,0,0,0,0,0,0,0,0,0,0,0,0,0,0,0,0,0,0,0,0,0,0,0,0,0,0,0,0,0,0,0,0],"sum_hessian":[2.895E3,2.237E3,6.58E2,1.722E3,5.15E2,4.36E2,2.22E2,1.107E3,6.15E2,2.67E2,2.48E2,1.89E2,2.47E2,9.1E1,1.31E2,9.22E2,1.85E2,3.49E2,2.66E2,1.49E2,1.18E2,1.2E2,1.28E2,1E2,8.9E1,1.25E2,1.22E2,2.11E2,1.38E2,2.32E2,3.4E1,5E1,9.9E1,6.1E1,5.7E1,5.4E1,6.6E1,5.1E1,7.7E1],"tree_param":{"num_deleted":"0","num_feature":"5","num_nodes":"39","size_leaf_vector":"1"}},{"base_weights":[-1.0330185E-3,-9.988516E-2,3.548673E-1,-1.3880372E-1,2.9494634E-2,2.3760423E-1,5.750533E-1,-1.5904519E-1,-1.0397542E-1,-9.416041E-3,7.908779E-2,1.668635E-1,2.8937498E-1,5.0130676E-2,6.340519E-2,-1.6258515E-2,-1.4012808E-2,-1.1319536E-1,-8.679625E-2,-2.8650722E-2,1.5470043E-2,5.1640783E-2,1.0517824E-1,1.4639636E-2,1.9148897E-2,2.6305104E-2,3.1963702E-2,-1.18512465E-2,-1.0387263E-2,-9.048536E-3,-6.419755E-3,-4.19658E-3,-1.9925283E-3,2.8608277E-4,2.5449134E-3,4.525366E-3,6.6992813E-3,9.102801E-3,1.14112785E-2],"categories":[],"categories_nodes":[],"categories_segments":[],"categories_sizes":[],"default_left":[0,0,0,0,0,0,0,0,0,0,0,0,0,0,0,0,0,0,0,0,0,0,0,0,0,0,0,0,0,0,0,0,0,0,0,0,0,0,0],"id":1,"left_children":[1,3,5,7,9,11,13,15,17,19,21,23,25,-1,-1,-1,-1,27,29,31,33,35,37,-1,-1,-1,-1,-1,-1,-1,-1,-1,-1,-1,-1,-1,-1,-1,-1],"loss_changes":[1.03258E2,1.157012E1,1.6336319E1,1.228447E0,1.0273466E0,1.4825573E0,6.437073E-1,5.1885605E-2,9.3446255E-2,1.4356732E-1,1.6213715E-1,6.218481E-2,1.0710716E-1,0E0,0E0,0E0,0E0,8.55875E-3,1.3532758E-2,1.8798202E-2,1.6410727E-2,8.342773E-3,4.6571493E-3,0E0,0E0,0E0,0E0,0E0,0E0,0E0,0E0,0E0,0E0,0E0,0E0,0E0,0E0,0E0,0E0],"parents":[2147483647,0,0,1,1,2,2,3,3,4,4,5,5,6,6,7,7,8,8,9,9,10,10,11,11,12,12,17,17,18,18,19,19,20,20,21,21,22,22],"right_children":[2,4,6,8,10,12,14,16,18,20,22,24,26,-1,-1,-1,-1,28,30,32,34,36,38,-1,-1,-1,-1,-1,-1,-1,-1,-1,-1,-1,-1,-1,-1,-1,-1],"split_conditions":[3.1461647E-1,1.11707054E-1,6.437092E-1,3.0306408E-2,2.1603216E-1,4.283459E-1,8.221413E-1,1.7164545E-2,7.427447E-2,1.7227337E-1,2.6032725E-1,3.5401905E-1,5.132085E-1,5.0130676E-2,6.340519E-2,-1.6258515E-2,-1.4012808E-2,6.305717E-2,9.598381E-2,1.422632E-1,2.0349468E-1,2.4912876E-1,2.8739065E-1,1.4639636E-2,1.9148897E-2,2.6305104E-2,3.1963702E-2,-1.18512465E-2,-1.0387263E-2,-9.048536E-3,-6.419755E-3,-4.19658E-3,-1.9925283E-3,2.8608277E-4,2.5449134E-3,4.525366E-3,6.6992813E-3,9.102801E-3,1.14112785E-2],"split_indices":[4,4,4,4,4,1,4,2,0,4,4,4,0,0,0,0,0,0,0,4,0,0,4,0,0,0,0,0,0,0,0,0,0,0,0,0,0,0,0],"split_type":[0,0,0,0,0,0,0,0,0,0,0,0,0,0,0,0,0,0,0,0,0,0,0,0,0,0,0,0,0,0,0,0,0,0,0,0,0,0,0],"sum_hessian":[2.933E3,2.296E3,6.37E2,1.765E3,5.31E2,4.17E2,2.2E2,1.114E3,6.51E2,2.98E2,2.33E2,1.78E2,2.39E2,1.02E2,1.18E2,9.32E2,1.82E2,4.2E2,2.31E2,1.68E2,1.3E2,1.15E2,1.18E2,1.01E2,7.7E1,1.33E2,1.06E2,2.6E2,1.6E2,1.96E2,3.5E1,6.5E1,1.03E2,5.8E1,7.2E1,8.4E1,3.1E1,5E1,6.8E1],"tree_param":{"num_deleted":"0","num_feature":"5","num_nodes":"39","size_leaf_vector":"1"}},{"base_weights":[-1.3793083E-3,-8.995171E-2,3.2005045E-1,-1.2523623E-1,2.7010767E-2,2.1277586E-1,5.1664764E-1,-1.4323457E-1,-9.282324E-2,-8.652453E-3,6.9664955E-2,1.4815354E-1,2.5877696E-1,4.354006E-2,5.6054484E-2,-1.4621486E-2,-1.2489743E-2,-1.0093411E-1,-7.607973E-2,-2.6044643E-2,1.4374457E-2,4.3572504E-2,9.124204E-2,1.2881692E-2,1.67336E-2,2.2312552E-2,2.7946983E-2,-1.0672915E-2,-9.383248E-3,-7.899637E-3,-5.251277E-3,-3.414087E-3,-1.4285531E-3,3.2904543E-4,2.303631E-3,3.7008151E-3,5.0840853E-3,7.6734885E-3,9.87072E-3],"categories":[],"categories_nodes":[],"categories_segments":[],"categories_sizes":[],"default_left":[0,0,0,0,0,0,0,0,0,0,0,0,0,0,0,0,0,0,0,0,0,0,0,0,0,0,0,0,0,0,0,0,0,0,0,0,0,0,0],"id":2,"left_children":[1,3,5,7,9,11,13,15,17,19,21,23,25,-1,-1,-1,-1,27,29,31,33,35,37,-1,-1,-1,-1,-1,-1,-1,-1,-1,-1,-1,-1,-1,-1,-1,-1],"loss_changes":[8.276204E1,9.408737E0,1.3134514E1,1.0082035E0,8.0531013E-1,1.1745224E0,5.441437E-1,4.31633E-2,7.76062E-2,1.1611552E-1,1.3170707E-1,4.2242765E-2,1.1248493E-1,0E0,0E0,0E0,0E0,7.2698593E-3,1.0217547E-2,1.5221015E-2,1.1925202E-2,3.4145117E-3,6.6127777E-3,0E0,0E0,0E0,0E0,0E0,0E0,0E0,0E0,0E0,0E0,0E0,0E0,0E0,0E0,0E0,0E0],"parents":[2147483647,0,0,1,1,2,2,3,3,4,4,5,5,6,6,7,7,8,8,9,9,10,10,11,11,12,12,17,17,18,18,19,19,20,20,21,21,22,22],"right_children":[2,4,6,8,10,12,14,16,18,20,22,24,26,-1,-1,-1,-1,28,30,32,34,36,38,-1,-1,-1,-1,-1,-1,-1,-1,-1,-1,-1,-1,-1,-1,-1,-1],"split_conditions":[3.2311276E-1,1.2225467E-1,6.513849E-1,3.905717E-2,2.2076593E-1,4.134279E-1,7.7823687E-1,1.6047006E-2,7.598146E-2,1.8159662E-1,2.5021192E-1,3.723824E-1,4.931337E-1,4.354006E-2,5.6054484E-2,-1.4621486E-2,-1.2489743E-2,6.031356E-2,1.0890976E-1,1.5025428E-1,1.9238672E-1,2.309642E-1,2.9635298E-1,1.2881692E-2,1.67336E-2,2.2312552E-2,2.7946983E-2,-1.0672915E-2,-9.383248E-3,-7.899637E-3,-5.251277E-3,-3.414087E-3,-1.4285531E-3,3.2904543E-4,2.303631E-3,3.7008151E-3,5.0840853E-3,7.6734885E-3,9.87072E-3],"split_indices":[1,1,2,1,1,4,4,4,0,0,4,0,0,0,0,0,0,0,0,4,4,4,0,0,0,0,0,0,0,0,0,0,0,0,0,0,0,0,0],"split_type":[0,0,0,0,0,0,0,0,0,0,0,0,0,0,0,0,0,0,0,0,0,0,0,0,0,0,0,0,0,0,0,0,0,0,0,0,0,0,0],"sum_hessian":[2.905E3,2.278E3,6.27E2,1.75E3,5.28E2,4.07E2,2.2E2,1.123E3,6.27E2,2.88E2,2.4E2,1.71E2,2.36E2,8.1E1,1.39E2,9.6E2,1.63E2,4.19E2,2.08E2,1.64E2,1.24E2,1.1E2,1.3E2,8.9E1,8.2E1,9.1E1,1.45E2,2.23E2,1.96E2,1.83E2,2.5E1,9.6E1,6.8E1,5.5E1,6.9E1,6.1E1,4.9E1,4.8E1,8.2E1],"tree_param":{"num_deleted":"0","num_feature":"5","num_nodes":"39","size_leaf_vector":"1"}},{"base_weights":[-2.2752641E-3,-8.1696644E-2,2.7990922E-1,-1.1326302E-1,1.9792624E-2,1.8914343E-1,4.6838623E-1,-1.2865515E-1,-8.446636E-2,-1.3929435E-2,5.5094283E-2,1.2992293E-1,2.3123121E-1,4.144651E-1,5.318687E-2,-1.3180881E-2,-1.1320707E-2,-9.277156E-3,-7.390477E-2,-2.9011456E-2,3.4640317E-3,3.48532E-2,7.714712E-2,1.1159415E-2,1.46460505E-2,2.0165695E-2,2.5329262E-2,3.412108E-2,4.3802895E-2,-7.7882386E-3,-6.2962235E-3,-3.7887045E-3,-2.0667429E-3,-4.770384E-4,1.2856574E-3,2.6265415E-3,4.1151806E-3,5.964825E-3,8.22294E-3],"categories":[],"categories_nodes":[],"categories_segments":[],"categories_sizes":[],"default_left":[0,0,0,0,0,0,0,0,0,0,0,0,0,0,0,0,0,0,0,0,0,0,0,0,0,0,0,0,0,0,0,0,0,0,0,0,0,0,0],"id":3,"left_children":[1,3,5,7,9,11,13,15,17,19,21,23,25,27,-1,-1,-1,-1,29,31,33,35,37,-1,-1,-1,-1,-1,-1,-1,-1,-1,-1,-1,-1,-1,-1,-1,-1],"loss_changes":[6.550922E1,7.309764E0,1.0894276E1,7.6037407E-1,6.459884E-1,1.0541773E0,4.9155426E-1,4.0225983E-2,4.656267E-2,7.3027864E-2,1.1560011E-1,3.912568E-2,1.1399174E-1,5.2497864E-2,0E0,0E0,0E0,0E0,6.97875E-3,1.0251641E-2,1.0115803E-2,6.4918697E-3,6.300807E-3,0E0,0E0,0E0,0E0,0E0,0E0,0E0,0E0,0E0,0E0,0E0,0E0,0E0,0E0,0E0,0E0],"parents":[2147483647,0,0,1,1,2,2,3,3,4,4,5,5,6,6,7,7,8,8,9,9,10,10,11,11,12,12,13,13,18,18,19,19,20,20,21,21,22,22],"right_children":[2,4,6,8,10,12,14,16,18,20,22,24,26,28,-1,-1,-1,-1,30,32,34,36,38,-1,-1,-1,-1,-1,-1,-1,-1,-1,-1,-1,-1,-1,-1,-1,-1],"split_conditions":[3.0183825E-1,1.2188598E-1,6.437092E-1,4.193762E-2,2.0799612E-1,4.1232905E-1,8.4544784E-1,1.2130409E-2,6.928011E-2,1.5927722E-1,2.6066205E-1,3.4420165E-1,4.8889127E-1,7.2239E-1,5.318687E-2,-1.3180881E-2,-1.1320707E-2,-9.277156E-3,8.584349E-2,1.4201552E-1,1.8152253E-1,2.2207832E-1,2.674743E-1,1.1159415E-2,1.46460505E-2,2.0165695E-2,2.5329262E-2,3.412108E-2,4.3802895E-2,-7.7882386E-3,-6.2962235E-3,-3.7887045E-3,-2.0667429E-3,-4.770384E-4,1.2856574E-3,2.6265415E-3,4.1151806E-3,5.964825E-3,8.22294E-3],"split_indices":[4,0,4,0,4,1,4,1,1,4,0,4,1,4,0,0,0,0,1,1,4,4,4,0,0,0,0,0,0,0,0,0,0,0,0,0,0,0,0],"split_type":[0,0,0,0,0,0,0,0,0,0,0,0,0,0,0,0,0,0,0,0,0,0,0,0,0,0,0,0,0,0,0,0,0,0,0,0,0,0,0],"sum_hessian":[2.921E3,2.28E3,6.41E2,1.739E3,5.41E2,4.34E2,2.07E2,1.131E3,6.08E2,2.77E2,2.64E2,1.82E2,2.52E2,1.16E2,9.1E1,9.33E2,1.98E2,3.36E2,2.72E2,1.48E2,1.29E2,1.39E2,1.25E2,9E1,9.2E1,1.12E2,1.4E2,3.2E1,8.4E1,1.95E2,7.7E1,7E1,7.8E1,6.9E1,6E1,6.1E1,7.8E1,3.1E1,9.4E1],"tree_param":{"num_deleted":"0","num_feature":"5","num_nodes":"39","size_leaf_vector":"1"}},{"base_weights":[-3.7417365E-3,-7.4891426E-2,2.4660553E-1,-1.019248E-1,1.7954849E-2,1.670011E-1,4.2028517E-1,-1.1553771E-1,-7.493948E-2,-1.4319088E-2,4.5093045E-2,1.1699454E-1,2.1140277E-1,3.6764255E-1,4.708306E-2,-1.182689E-2,-9.962163E-3,-8.024311E-2,-5.976273E-2,-2.5571318E-2,-1.6329471E-3,2.9221518E-2,6.728019E-2,9.914985E-3,1.3526675E-2,1.9498294E-2,2.4732117E-2,3.0675203E-2,3.9162334E-2,-8.511213E-3,-7.4187294E-3,-6.200018E-3,-4.393424E-3,-3.2439146E-3,-1.971175E-3,-6.371673E-4,6.416637E-4,2.193639E-3,3.6505645E-3,5.452605E-3,7.233797E-3],"categories":[],"categories_nodes":[],"categories_segments":[],"categories_sizes":[],"default_left":[0,0,0,0,0,0,0,0,0,0,0,0,0,0,0,0,0,0,0,0,0,0,0,0,0,0,0,0,0,0,0,0,0,0,0,0,0,0,0,0,0],"id":4,"left_children":[1,3,5,7,9,11,13,15,17,19,21,23,25,27,-1,-1,-1,29,31,33,35,37,39,-1,-1,-1,-1,-1,-1,-1,-1,-1,-1,-1,-1,-1,-1,-1,-1,-1,-1],"loss_changes":[5.2154568E1,5.72451E0,8.888844E0,6.400795E-1,4.5171165E-1,9.6555424E-1,3.67054E-1,3.9164543E-2,4.309702E-2,3.3646625E-2,9.663433E-2,5.5713415E-2,9.037304E-2,3.173065E-2,0E0,0E0,0E0,6.6006184E-3,2.8716922E-3,4.390873E-3,4.313099E-3,7.9550445E-3,3.538549E-3,0E0,0E0,0E0,0E0,0E0,0E0,0E0,0E0,0E0,0E0,0E0,0E0,0E0,0E0,0E0,0E0,0E0,0E0],"parents":[2147483647,0,0,1,1,2,2,3,3,4,4,5,5,6,6,7,7,8,8,9,9,10,10,11,11,12,12,13,13,17,17,18,18,19,19,20,20,21,21,22,22],"right_children":[2,4,6,8,10,12,14,16,18,20,22,24,26,28,-1,-1,-1,30,32,34,36,38,40,-1,-1,-1,-1,-1,-1,-1,-1,-1,-1,-1,-1,-1,-1,-1,-1,-1,-1],"split_conditions":[2.9722854E-1,1.2994795E-1,6.375467E-1,4.4267252E-2,2.0208982E-1,4.283459E-1,8.3451253E-1,1.7658422E-2,8.042105E-2,1.5647599E-1,2.423154E-1,3.6709395E-1,5.216207E-1,7.351535E-1,4.708306E-2,-1.182689E-2,-9.962163E-3,6.3945524E-2,1.0890976E-1,1.4201552E-1,1.780154E-1,2.2207832E-1,2.8268957E-1,9.914985E-3,1.3526675E-2,1.9498294E-2,2.4732117E-2,3.0675203E-2,3.9162334E-2,-8.511213E-3,-7.4187294E-3,-6.200018E-3,-4.393424E-3,-3.2439146E-3,-1.971175E-3,-6.371673E-4,6.416637E-4,2.193639E-3,3.6505645E-3,5.452605E-3,7.233797E-3],"split_indices":[4,0,1,0,4,1,4,4,0,4,4,0,4,0,0,0,0,0,0,1,4,4,0,0,0,0,0,0,0,0,0,0,0,0,0,0,0,0,0,0,0],"split_type":[0,0,0,0,0,0,0,0,0,0,0,0,0,0,0,0,0,0,0,0,0,0,0,0,0,0,0,0,0,0,0,0,0,0,0,0,0,0,0,0,0],"sum_hessian":[2.926E3,2.279E3,6.47E2,1.765E3,5.14E2,4.45E2,2.02E2,1.171E3,5.94E2,2.35E2,2.79E2,2.11E2,2.34E2,1.03E2,9.9E1,9.94E2,1.77E2,4.37E2,1.57E2,1.24E2,1.11E2,1.64E2,1.15E2,1.1E2,1.01E2,1.65E2,6.9E1,3.3E1,7E1,2.35E2,2.02E2,1.35E2,2.2E1,5.5E1,6.9E1,7E1,4.1E1,8.4E1,8E1,3.6E1,7.9E1],"tree_param":{"num_deleted":"0","num_feature":"5","num_nodes":"41","size_leaf_vector":"1"}},{"base_weights":[-2.2551387E-4,-6.423708E-2,2.3141164E-1,-9.173697E-2,1.9542154E-2,1.5435283E-1,3.7011644E-1,-1.0480829E-1,-6.94745E-2,-9.7236205E-3,4.9259126E-2,1.1512747E-1,1.9007474E-1,2.8737484E-2,3.9846265E-1,-1.0684941E-2,-9.263236E-3,-7.735693E-2,-6.0780525E-2,-2.1707973E-2,5.4513407E-3,3.086049E-2,6.783284E-2,9.892472E-3,1.3618997E-2,1.7703993E-2,2.0858066E-2,3.652839E-2,4.4041935E-2,-8.1749E-3,-7.2527933E-3,-6.4208196E-3,-5.15862E-3,-2.8877957E-3,-1.5041776E-3,-1.0281411E-4,1.3426637E-3,2.4467343E-3,3.602257E-3,5.5169617E-3,7.2930227E-3],"categories":[],"categories_nodes":[],"categories_segments":[],"categories_sizes":[],"default_left":[0,0,0,0,0,0,0,0,0,0,0,0,0,0,0,0,0,0,0,0,0,0,0,0,0,0,0,0,0,0,0,0,0,0,0,0,0,0,0,0,0],"id":5,"left_children":[1,3,5,7,9,11,13,15,17,19,21,23,25,-1,27,-1,-1,29,31,33,35,37,39,-1,-1,-1,-1,-1,-1,-1,-1,-1,-1,-1,-1,-1,-1,-1,-1,-1,-1],"loss_changes":[4.3281387E1,5.270857E0,6.697956E0,4.938202E-1,4.9272364E-1,5.498085E-1,4.13208E-1,1.7017365E-2,3.9157152E-2,5.21309E-2,9.3933046E-2,5.3757668E-2,1.4211655E-2,0E0,6.8813324E-2,0E0,0E0,1.1122227E-3,6.4258575E-3,7.213056E-3,6.576629E-3,3.8378984E-3,4.9488544E-3,0E0,0E0,0E0,0E0,0E0,0E0,0E0,0E0,0E0,0E0,0E0,0E0,0E0,0E0,0E0,0E0,0E0,0E0],"parents":[2147483647,0,0,1,1,2,2,3,3,4,4,5,5,6,6,7,7,8,8,9,9,10,10,11,11,12,12,14,14,17,17,18,18,19,19,20,20,21,21,22,22],"right_children":[2,4,6,8,10,12,14,16,18,20,22,24,26,-1,28,-1,-1,30,32,34,36,38,40,-1,-1,-1,-1,-1,-1,-1,-1,-1,-1,-1,-1,-1,-1,-1,-1,-1,-1],"split_conditions":[3.1461647E-1,1.2188598E-1,5.5926114E-1,3.327241E-2,2.1049702E-1,4.3139905E-1,7.5272775E-1,1.2164411E-2,6.692933E-2,1.6257922E-1,2.5021192E-1,3.6249954E-1,5.057581E-1,2.8737484E-2,8.732991E-1,-1.0684941E-2,-9.263236E-3,5.297444E-2,8.431303E-2,1.5204872E-1,1.8557246E-1,2.3676443E-1,2.775625E-1,9.892472E-3,1.3618997E-2,1.7703993E-2,2.0858066E-2,3.652839E-2,4.4041935E-2,-8.1749E-3,-7.2527933E-3,-6.4208196E-3,-5.15862E-3,-2.8877957E-3,-1.5041776E-3,-1.0281411E-4,1.3426637E-3,2.4467343E-3,3.602257E-3,5.5169617E-3,7.2930227E-3],"split_indices":[4,0,4,1,4,4,4,0,0,4,4,4,4,0,4,0,0,1,1,0,4,0,4,0,0,0,0,0,0,0,0,0,0,0,0,0,0,0,0,0,0],"split_type":[0,0,0,0,0,0,0,0,0,0,0,0,0,0,0,0,0,0,0,0,0,0,0,0,0,0,0,0,0,0,0,0,0,0,0,0,0,0,0,0,0],"sum_hessian":[2.917E3,2.286E3,6.31E2,1.721E3,5.65E2,4.07E2,2.24E2,1.082E3,6.39E2,2.85E2,2.8E2,1.96E2,2.11E2,6E1,1.64E2,9.2E2,1.62E2,3.31E2,3.08E2,1.59E2,1.26E2,1.42E2,1.38E2,1.14E2,8.2E1,1.3E2,8.1E1,9.7E1,6.7E1,1.65E2,1.66E2,2.2E2,8.8E1,7.5E1,8.4E1,7E1,5.6E1,6.6E1,7.6E1,4.3E1,9.5E1],"tree_param":{"num_deleted":"0","num_feature":"5","num_nodes":"41","size_leaf_vector":"1"}},{"base_weights":[-4.6063993E-5,-5.9677985E-2,2.0214489E-1,-8.225701E-2,1.6653307E-2,1.3873164E-1,3.482529E-1,-9.34754E-2,-6.0043965E-2,-1.0905175E-2,4.027159E-2,1.0183441E-1,1.7815048E-1,3.1266287E-2,3.9367884E-2,-9.573608E-3,-7.967789E-3,-6.473546E-2,-4.8210397E-2,-2.109592E-2,-1.857203E-4,2.450876E-2,5.643373E-2,8.7305665E-2,1.2764272E-2,1.6455127E-2,2.0800693E-2,-6.817639E-3,-5.975166E-3,-5.0587305E-3,-3.7957826E-3,-2.6577087E-3,-1.6199781E-3,-5.208761E-4,7.406228E-4,1.8940741E-3,2.9094925E-3,4.6618977E-3,6.142573E-3,7.865738E-3,9.60597E-3],"categories":[],"categories_nodes":[],"categories_segments":[],"categories_sizes":[],"default_left":[0,0,0,0,0,0,0,0,0,0,0,0,0,0,0,0,0,0,0,0,0,0,0,0,0,0,0,0,0,0,0,0,0,0,0,0,0,0,0,0,0],"id":6,"left_children":[1,3,5,7,9,11,13,15,17,19,21,23,25,-1,-1,-1,-1,27,29,31,33,35,37,39,-1,-1,-1,-1,-1,-1,-1,-1,-1,-1,-1,-1,-1,-1,-1,-1,-1],"loss_changes":[3.5098038E1,3.8757658E0,6.0945015E0,4.2674065E-1,3.3499357E-1,6.5672207E-1,2.0025253E-1,2.8273582E-2,2.935648E-2,2.5995014E-2,6.9185704E-2,7.9597E-2,5.6315422E-2,0E0,0E0,0E0,0E0,3.0603409E-3,2.2226274E-3,2.8435178E-3,4.5003323E-3,3.0750185E-3,3.7997663E-3,4.4060946E-3,0E0,0E0,0E0,0E0,0E0,0E0,0E0,0E0,0E0,0E0,0E0,0E0,0E0,0E0,0E0,0E0,0E0],"parents":[2147483647,0,0,1,1,2,2,3,3,4,4,5,5,6,6,7,7,8,8,9,9,10,10,11,11,12,12,17,17,18,18,19,19,20,20,21,21,22,22,23,23],"right_children":[2,4,6,8,10,12,14,16,18,20,22,24,26,-1,-1,-1,-1,28,30,32,34,36,38,40,-1,-1,-1,-1,-1,-1,-1,-1,-1,-1,-1,-1,-1,-1,-1,-1,-1],"split_conditions":[3.2164368E-1,1.2225467E-1,6.7088366E-1,3.9898142E-2,2.1127234E-1,4.368558E-1,8.5975456E-1,2.1865496E-2,8.042105E-2,1.5647599E-1,2.423154E-1,3.698186E-1,5.2951956E-1,3.1266287E-2,3.9367884E-2,-9.573608E-3,-7.967789E-3,6.5200396E-2,9.598381E-2,1.4201552E-1,1.8689929E-1,2.3132671E-1,2.7145508E-1,3.4441644E-1,1.2764272E-2,1.6455127E-2,2.0800693E-2,-6.817639E-3,-5.975166E-3,-5.0587305E-3,-3.7957826E-3,-2.6577087E-3,-1.6199781E-3,-5.208761E-4,7.406228E-4,1.8940741E-3,2.9094925E-3,4.6618977E-3,6.142573E-3,7.865738E-3,9.60597E-3],"split_indices":[0,1,4,4,0,4,4,4,0,4,4,4,4,0,0,0,0,0,0,1,0,0,4,1,0,0,0,0,0,0,0,0,0,0,0,0,0,0,0,0,0],"split_type":[0,0,0,0,0,0,0,0,0,0,0,0,0,0,0,0,0,0,0,0,0,0,0,0,0,0,0,0,0,0,0,0,0,0,0,0,0,0,0,0,0],"sum_hessian":[2.909E3,2.247E3,6.62E2,1.734E3,5.13E2,4.63E2,1.99E2,1.15E3,5.84E2,2.37E2,2.76E2,2.41E2,2.22E2,1.16E2,8.3E1,9.83E2,1.67E2,4.15E2,1.69E2,1.21E2,1.16E2,1.41E2,1.35E2,1.57E2,8.4E1,1.57E2,6.5E1,2.38E2,1.77E2,1.34E2,3.5E1,5.5E1,6.6E1,7E1,4.6E1,6.6E1,7.5E1,4.9E1,8.6E1,8.4E1,7.3E1],"tree_param":{"num_deleted":"0","num_feature":"5","num_nodes":"41","size_leaf_vector":"1"}},{"base_weights":[-8.512794E-4,-5.162202E-2,1.937016E-1,-7.4246824E-2,1.8046588E-2,1.3495816E-1,3.1997013E-1,-8.492391E-2,-5.5769283E-2,-3.5622532E-3,4.6004858E-2,9.824902E-2,1.6816956E-1,2.945829E-2,3.684501E-2,-8.685996E-3,-7.6101236E-3,-5.962022E-2,-4.3079138E-2,-1.5272996E-2,9.712813E-3,3.0712033E-2,5.86913E-2,8.48187E-3,1.1904561E-2,1.5553561E-2,2.0624215E-2,-6.571028E-3,-5.5781123E-3,-4.5089438E-3,-3.0902412E-3,-2.0923018E-3,-9.2438795E-4,1.8418509E-4,1.4968714E-3,2.5078503E-3,3.8617146E-3,4.8798756E-3,6.3095363E-3],"categories":[],"categories_nodes":[],"categories_segments":[],"categories_sizes":[],"default_left":[0,0,0,0,0,0,0,0,0,0,0,0,0,0,0,0,0,0,0,0,0,0,0,0,0,0,0,0,0,0,0,0,0,0,0,0,0,0,0],"id":7,"left_children":[1,3,5,7,9,11,13,15,17,19,21,23,25,-1,-1,-1,-1,27,29,31,33,35,37,-1,-1,-1,-1,-1,-1,-1,-1,-1,-1,-1,-1,-1,-1,-1,-1],"loss_changes":[2.8971104E1,3.6676702E0,4.4592056E0,3.4169865E-1,3.451311E-1,4.9064922E-1,1.2777138E-1,1.2366295E-2,2.9000998E-2,5.0362207E-2,4.6506345E-2,4.5763493E-2,7.2300434E-2,0E0,0E0,0E0,0E0,7.861137E-3,2.3763776E-3,5.665712E-3,6.260516E-3,4.1529164E-3,2.8025806E-3,0E0,0E0,0E0,0E0,0E0,0E0,0E0,0E0,0E0,0E0,0E0,0E0,0E0,0E0,0E0,0E0],"parents":[2147483647,0,0,1,1,2,2,3,3,4,4,5,5,6,6,7,7,8,8,9,9,10,10,11,11,12,12,17,17,18,18,19,19,20,20,21,21,22,22],"right_children":[2,4,6,8,10,12,14,16,18,20,22,24,26,-1,-1,-1,-1,28,30,32,34,36,38,-1,-1,-1,-1,-1,-1,-1,-1,-1,-1,-1,-1,-1,-1,-1,-1],"split_conditions":[3.403503E-1,1.2994795E-1,6.865047E-1,2.8822005E-2,2.2869371E-1,4.7049108E-1,8.893115E-1,7.1562584E-3,7.1992755E-2,1.7227337E-1,2.8268957E-1,3.7591943E-1,5.496244E-1,2.945829E-2,3.684501E-2,-8.685996E-3,-7.6101236E-3,5.6565847E-2,1.03019856E-1,1.4806771E-1,1.9238672E-1,2.4912876E-1,2.8739065E-1,8.48187E-3,1.1904561E-2,1.5553561E-2,2.0624215E-2,-6.571028E-3,-5.5781123E-3,-4.5089438E-3,-3.0902412E-3,-2.0923018E-3,-9.2438795E-4,1.8418509E-4,1.4968714E-3,2.5078503E-3,3.8617146E-3,4.8798756E-3,6.3095363E-3],"split_indices":[0,0,4,4,1,0,4,4,4,4,0,4,4,0,0,0,0,0,1,4,4,0,4,0,0,0,0,0,0,0,0,0,0,0,0,0,0,0,0],"split_type":[0,0,0,0,0,0,0,0,0,0,0,0,0,0,0,0,0,0,0,0,0,0,0,0,0,0,0,0,0,0,0,0,0,0,0,0,0,0,0],"sum_hessian":[2.931E3,2.325E3,6.06E2,1.755E3,5.7E2,4.15E2,1.91E2,1.11E3,6.45E2,3.22E2,2.48E2,1.99E2,2.16E2,1.3E2,6.1E1,9.03E2,2.07E2,4.92E2,1.53E2,1.71E2,1.51E2,1.14E2,1.34E2,1.24E2,7.5E1,1.66E2,5E1,1.84E2,3.08E2,1.29E2,2.4E1,8.7E1,8.4E1,6.1E1,9E1,6.9E1,4.5E1,4.5E1,8.9E1],"tree_param":{"num_deleted":"0","num_feature":"5","num_nodes":"39","size_leaf_vector":"1"}},{"base_weights":[-4.3293866E-4,-4.8937943E-2,1.6218108E-1,-6.7192234E-2,1.0780009E-2,1.06307596E-1,2.7420053E-1,-7.575619E-2,-4.9279865E-2,-9.627791E-3,2.9534029E-2,7.2882526E-2,1.3257462E-1,2.1557605E-2,2.961657E-1,-7.763757E-3,-6.4551095E-3,-5.426351E-3,-4.3455213E-2,-1.8277882E-2,-1.6159345E-3,1.9495867E-2,4.446085E-2,6.273955E-3,8.147674E-3,1.1398147E-2,1.4607999E-2,2.771019E-2,3.3527214E-2,-4.556832E-3,-3.6219792E-3,-2.3534002E-3,-1.3962048E-3,-5.588478E-4,3.6858203E-4,1.4514616E-3,2.4304322E-3,3.4351852E-3,4.685469E-3],"categories":[],"categories_nodes":[],"categories_segments":[],"categories_sizes":[],"default_left":[0,0,0,0,0,0,0,0,0,0,0,0,0,0,0,0,0,0,0,0,0,0,0,0,0,0,0,0,0,0,0,0,0,0,0,0,0,0,0],"id":8,"left_children":[1,3,5,7,9,11,13,15,17,19,21,23,25,-1,27,-1,-1,-1,29,31,33,35,37,-1,-1,-1,-1,-1,-1,-1,-1,-1,-1,-1,-1,-1,-1,-1,-1],"loss_changes":[2.3276337E1,2.4785428E0,4.2143955E0,2.633376E-1,2.0427851E-1,3.8893938E-1,2.2588539E-1,1.9779205E-2,1.4071822E-2,1.7712103E-2,4.078813E-2,1.249671E-2,4.687977E-2,0E0,2.7123451E-2,0E0,0E0,0E0,2.416432E-3,2.461616E-3,2.8428326E-3,3.6711842E-3,1.0765791E-3,0E0,0E0,0E0,0E0,0E0,0E0,0E0,0E0,0E0,0E0,0E0,0E0,0E0,0E0,0E0,0E0],"parents":[2147483647,0,0,1,1,2,2,3,3,4,4,5,5,6,6,7,7,8,8,9,9,10,10,11,11,12,12,14,14,18,18,19,19,20,20,21,21,22,22],"right_children":[2,4,6,8,10,12,14,16,18,20,22,24,26,-1,28,-1,-1,-1,30,32,34,36,38,-1,-1,-1,-1,-1,-1,-1,-1,-1,-1,-1,-1,-1,-1,-1,-1],"split_conditions":[2.9722854E-1,1.0078732E-1,5.682293E-1,4.6893448E-2,2.0734005E-1,3.8874945E-1,7.6388276E-1,2.58097E-2,6.3619465E-2,1.535534E-1,2.6066205E-1,3.374403E-1,4.8769456E-1,2.1557605E-2,9.0122193E-1,-7.763757E-3,-6.4551095E-3,-5.426351E-3,8.764734E-2,1.4042075E-1,1.8369497E-1,2.2207832E-1,2.6032725E-1,6.273955E-3,8.147674E-3,1.1398147E-2,1.4607999E-2,2.771019E-2,3.3527214E-2,-4.556832E-3,-3.6219792E-3,-2.3534002E-3,-1.3962048E-3,-5.588478E-4,3.6858203E-4,1.4514616E-3,2.4304322E-3,3.4351852E-3,4.685469E-3],"split_indices":[4,4,0,0,0,4,4,0,4,4,0,4,0,0,4,0,0,0,1,0,0,4,4,0,0,0,0,0,0,0,0,0,0,0,0,0,0,0,0],"split_type":[0,0,0,0,0,0,0,0,0,0,0,0,0,0,0,0,0,0,0,0,0,0,0,0,0,0,0,0,0,0,0,0,0,0,0,0,0,0,0],"sum_hessian":[2.949E3,2.272E3,6.77E2,1.74E3,5.32E2,4.53E2,2.24E2,1.175E3,5.65E2,2.55E2,2.77E2,2.01E2,2.52E2,6.4E1,1.6E2,1.001E3,1.74E2,3E2,2.65E2,1.22E2,1.33E2,1.67E2,1.1E2,9.6E1,1.05E2,1.1E2,1.42E2,1.13E2,4.7E1,2.01E2,6.4E1,5.3E1,6.9E1,7.6E1,5.7E1,8.4E1,8.3E1,2.4E1,8.6E1],"tree_param":{"num_deleted":"0","num_feature":"5","num_nodes":"39","size_leaf_vector":"1"}},{"base_weights":[-1.4219884E-4,-4.3259952E-2,1.4946659E-1,-6.031762E-2,1.1960986E-2,9.8345585E-2,2.4510767E-1,-6.8970926E-2,-4.5706257E-2,-8.378868E-3,2.9404156E-2,6.810491E-2,1.1887875E-1,1.908222E-2,2.660997E-1,-7.0640156E-3,-6.233636E-3,-5.1144462E-2,-3.9732948E-2,-1.5174049E-2,5.2682357E-4,1.808668E-2,4.1498315E-2,5.8845715E-3,7.5087766E-3,1.005068E-2,1.2930477E-2,2.501238E-2,3.0101364E-2,-5.3933654E-3,-4.710039E-3,-4.229422E-3,-3.3518148E-3,-2.1196008E-3,-1.1552768E-3,-2.6609626E-4,5.723284E-4,1.3130553E-3,2.1101236E-3,3.5540338E-3,4.702126E-3],"categories":[],"categories_nodes":[],"categories_segments":[],"categories_sizes":[],"default_left":[0,0,0,0,0,0,0,0,0,0,0,0,0,0,0,0,0,0,0,0,0,0,0,0,0,0,0,0,0,0,0,0,0,0,0,0,0,0,0,0,0],"id":9,"left_children":[1,3,5,7,9,11,13,15,17,19,21,23,25,-1,27,-1,-1,29,31,33,35,37,39,-1,-1,-1,-1,-1,-1,-1,-1,-1,-1,-1,-1,-1,-1,-1,-1,-1,-1],"loss_changes":[1.8597658E1,2.1087842E0,3.1294718E0,2.1305466E-1,1.8793112E-1,2.5393915E-1,2.0448494E-1,7.4682236E-3,1.8725157E-2,1.4834361E-2,3.8258925E-2,6.766796E-3,3.489065E-2,0E0,1.3396263E-2,0E0,0E0,1.193285E-3,3.500998E-3,2.7863272E-3,1.7877062E-3,1.9490719E-3,2.836898E-3,0E0,0E0,0E0,0E0,0E0,0E0,0E0,0E0,0E0,0E0,0E0,0E0,0E0,0E0,0E0,0E0,0E0,0E0],"parents":[2147483647,0,0,1,1,2,2,3,3,4,4,5,5,6,6,7,7,8,8,9,9,10,10,11,11,12,12,14,14,17,17,18,18,19,19,20,20,21,21,22,22],"right_children":[2,4,6,8,10,12,14,16,18,20,22,24,26,-1,28,-1,-1,30,32,34,36,38,40,-1,-1,-1,-1,-1,-1,-1,-1,-1,-1,-1,-1,-1,-1,-1,-1,-1,-1],"split_conditions":[3.0881238E-1,1.0078732E-1,5.5926114E-1,3.2507926E-2,2.0957051E-1,3.8874945E-1,7.6388276E-1,7.053304E-3,6.692933E-2,1.5927722E-1,2.423154E-1,3.5417637E-1,4.836548E-1,1.908222E-2,9.0354764E-1,-7.0640156E-3,-6.233636E-3,4.7409337E-2,8.700919E-2,1.4042075E-1,1.8152253E-1,2.2731683E-1,2.812683E-1,5.8845715E-3,7.5087766E-3,1.005068E-2,1.2930477E-2,2.501238E-2,3.0101364E-2,-5.3933654E-3,-4.710039E-3,-4.229422E-3,-3.3518148E-3,-2.1196008E-3,-1.1552768E-3,-2.6609626E-4,5.723284E-4,1.3130553E-3,2.1101236E-3,3.5540338E-3,4.702126E-3],"split_indices":[4,4,4,1,1,4,4,1,0,4,4,0,0,0,0,0,0,4,0,0,4,0,4,0,0,0,0,0,0,0,0,0,0,0,0,0,0,0,0,0,0],"split_type":[0,0,0,0,0,0,0,0,0,0,0,0,0,0,0,0,0,0,0,0,0,0,0,0,0,0,0,0,0,0,0,0,0,0,0,0,0,0,0,0,0],"sum_hessian":[2.881E3,2.237E3,6.44E2,1.709E3,5.28E2,4.21E2,2.23E2,1.071E3,6.38E2,2.44E2,2.84E2,1.72E2,2.49E2,6.5E1,1.58E2,8.48E2,2.23E2,3.3E2,3.08E2,1.38E2,1.06E2,1.48E2,1.36E2,7.8E1,9.4E1,9.4E1,1.55E2,1.14E2,4.4E1,1.88E2,1.42E2,2.14E2,9.4E1,5E1,8.8E1,6.6E1,4E1,5.8E1,9E1,6.9E1,6.7E1],"tree_param":{"num_deleted":"0","num_feature":"5","num_nodes":"41","size_leaf_vector":"1"}},{"base_weights":[7.537506E-4,-3.787065E-2,1.3886955E-1,-5.4104403E-2,1.2708972E-2,9.661937E-2,2.3387063E-1,-6.1466638E-2,-3.893472E-2,-1.4008941E-3,3.442781E-2,7.2266705E-2,1.22928575E-1,2.1511784E-2,2.7093118E-2,-6.332612E-3,-5.408999E-3,-4.2195596E-2,-3.0501932E-2,-1.0756522E-2,7.6909126E-3,2.3798585E-2,4.2230602E-2,6.134033E-2,8.777124E-3,1.11242E-2,1.4457035E-2,-4.496291E-3,-3.941192E-3,-3.2640204E-3,-2.2395882E-3,-1.4494121E-3,-6.090528E-4,1.2105727E-4,1.1425324E-3,1.8957909E-3,2.8338893E-3,3.5175513E-3,4.589337E-3,5.2990215E-3,6.4990493E-3],"categories":[],"categories_nodes":[],"categories_segments":[],"categories_sizes":[],"default_left":[0,0,0,0,0,0,0,0,0,0,0,0,0,0,0,0,0,0,0,0,0,0,0,0,0,0,0,0,0,0,0,0,0,0,0,0,0,0,0,0,0],"id":10,"left_children":[1,3,5,7,9,11,13,15,17,19,21,23,25,-1,-1,-1,-1,27,29,31,33,35,37,39,-1,-1,-1,-1,-1,-1,-1,-1,-1,-1,-1,-1,-1,-1,-1,-1,-1],"loss_changes":[1.5598411E1,1.876895E0,2.5422306E0,1.9081783E-1,1.7043442E-1,2.755866E-1,7.793617E-2,1.2527466E-2,1.4331937E-2,2.8832858E-2,1.71583E-2,3.4088254E-2,3.7536383E-2,0E0,0E0,0E0,0E0,1.3631582E-3,2.0769387E-3,2.8241388E-3,4.1486127E-3,1.5506782E-3,1.6158223E-3,8.2319975E-4,0E0,0E0,0E0,0E0,0E0,0E0,0E0,0E0,0E0,0E0,0E0,0E0,0E0,0E0,0E0,0E0,0E0],"parents":[2147483647,0,0,1,1,2,2,3,3,4,4,5,5,6,6,7,7,8,8,9,9,10,10,11,11,12,12,17,17,18,18,19,19,20,20,21,21,22,22,23,23],"right_children":[2,4,6,8,10,12,14,16,18,20,22,24,26,-1,-1,-1,-1,28,30,32,34,36,38,40,-1,-1,-1,-1,-1,-1,-1,-1,-1,-1,-1,-1,-1,-1,-1,-1,-1],"split_conditions":[3.2175565E-1,1.3232109E-1,6.865047E-1,4.7391362E-2,2.2617538E-1,4.5744485E-1,8.893115E-1,9.457509E-3,7.297519E-2,1.7227337E-1,2.674743E-1,3.922733E-1,5.3665674E-1,2.1511784E-2,2.7093118E-2,-6.332612E-3,-5.408999E-3,5.5765044E-2,1.0890976E-1,1.5025428E-1,1.9711334E-1,2.3802777E-1,3.035058E-1,3.4441644E-1,8.777124E-3,1.11242E-2,1.4457035E-2,-4.496291E-3,-3.941192E-3,-3.2640204E-3,-2.2395882E-3,-1.4494121E-3,-6.090528E-4,1.2105727E-4,1.1425324E-3,1.8957909E-3,2.8338893E-3,3.5175513E-3,4.589337E-3,5.2990215E-3,6.4990493E-3],"split_indices":[4,0,4,1,4,4,4,1,4,4,4,1,4,0,0,0,0,4,0,4,1,4,0,1,0,0,0,0,0,0,0,0,0,0,0,0,0,0,0,0,0],"split_type":[0,0,0,0,0,0,0,0,0,0,0,0,0,0,0,0,0,0,0,0,0,0,0,0,0,0,0,0,0,0,0,0,0,0,0,0,0,0,0,0,0],"sum_hessian":[2.922E3,2.284E3,6.38E2,1.729E3,5.55E2,4.43E2,1.95E2,1.162E3,5.67E2,3.37E2,2.18E2,2.32E2,2.11E2,1.34E2,6.1E1,9.22E2,2.4E2,4.06E2,1.61E2,1.66E2,1.71E2,9.4E1,1.24E2,1.39E2,9.3E1,1.41E2,7E1,1.96E2,2.1E2,1.25E2,3.6E1,9.1E1,7.5E1,6.3E1,1.08E2,4.8E1,4.6E1,4.6E1,7.8E1,4.7E1,9.2E1],"tree_param":{"num_deleted":"0","num_feature":"5","num_nodes":"41","size_leaf_vector":"1"}},{"base_weights":[1.4857071E-3,-3.4120414E-2,1.2510835E-1,-4.826335E-2,1.2724072E-2,8.689711E-2,2.1028304E-1,-5.5104867E-2,-3.4808885E-2,-3.1098742E-3,2.8510362E-2,6.644875E-2,1.12031594E-1,1.8990975E-2,2.371269E-2,-5.667092E-2,-4.6857093E-3,-3.7610967E-2,-2.5975225E-2,-9.963814E-3,4.299486E-3,1.9599222E-2,3.8034186E-2,5.54666E-2,8.019617E-3,1.0125293E-2,1.303862E-2,-5.820543E-3,-5.429616E-3,-4.0166685E-3,-3.484171E-3,-2.8783383E-3,-1.9388007E-3,-1.4869396E-3,-8.1048784E-4,4.7705853E-5,8.552732E-4,1.5350422E-3,2.4404821E-3,3.3061996E-3,4.144225E-3,4.8735836E-3,5.93936E-3],"categories":[],"categories_nodes":[],"categories_segments":[],"categories_sizes":[],"default_left":[0,0,0,0,0,0,0,0,0,0,0,0,0,0,0,0,0,0,0,0,0,0,0,0,0,0,0,0,0,0,0,0,0,0,0,0,0,0,0,0,0,0,0],"id":11,"left_children":[1,3,5,7,9,11,13,15,17,19,21,23,25,-1,-1,27,-1,29,31,33,35,37,39,41,-1,-1,-1,-1,-1,-1,-1,-1,-1,-1,-1,-1,-1,-1,-1,-1,-1,-1,-1],"loss_changes":[1.301136E1,1.5210936E0,2.1330376E0,1.6036463E-1,1.3331695E-1,2.279489E-1,6.6534996E-2,1.2418032E-2,1.3800383E-2,1.3601982E-2,2.1914333E-2,3.4050703E-2,2.7157068E-2,0E0,0E0,3.9625168E-4,0E0,1.7924309E-3,2.1611527E-3,1.1470495E-3,2.0931666E-3,2.4839006E-3,7.9886615E-4,9.379983E-4,0E0,0E0,0E0,0E0,0E0,0E0,0E0,0E0,0E0,0E0,0E0,0E0,0E0,0E0,0E0,0E0,0E0,0E0,0E0],"parents":[2147483647,0,0,1,1,2,2,3,3,4,4,5,5,6,6,7,7,8,8,9,9,10,10,11,11,12,12,15,15,17,17,18,18,19,19,20,20,21,21,22,22,23,23],"right_children":[2,4,6,8,10,12,14,16,18,20,22,24,26,-1,-1,28,-1,30,32,34,36,38,40,42,-1,-1,-1,-1,-1,-1,-1,-1,-1,-1,-1,-1,-1,-1,-1,-1,-1,-1,-1],"split_conditions":[3.2175565E-1,1.3339761E-1,6.955811E-1,4.2475753E-2,2.2422978E-1,4.836548E-1,8.5975456E-1,2.1865496E-2,8.397362E-2,1.6546157E-1,2.8268957E-1,4.052525E-1,5.3665674E-1,1.8990975E-2,2.371269E-2,3.9274E-3,-4.6857093E-3,5.7524394E-2,1.0890976E-1,1.4683369E-1,1.9711334E-1,2.3625116E-1,3.0755377E-1,3.477357E-1,8.019617E-3,1.0125293E-2,1.303862E-2,-5.820543E-3,-5.429616E-3,-4.0166685E-3,-3.484171E-3,-2.8783383E-3,-1.9388007E-3,-1.4869396E-3,-8.1048784E-4,4.7705853E-5,8.552732E-4,1.5350422E-3,2.4404821E-3,3.3061996E-3,4.144225E-3,4.8735836E-3,5.93936E-3],"split_indices":[4,1,0,4,0,0,4,4,0,4,0,0,4,0,0,0,0,4,0,0,1,4,0,1,0,0,0,0,0,0,0,0,0,0,0,0,0,0,0,0,0,0,0],"split_type":[0,0,0,0,0,0,0,0,0,0,0,0,0,0,0,0,0,0,0,0,0,0,0,0,0,0,0,0,0,0,0,0,0,0,0,0,0,0,0,0,0,0,0],"sum_hessian":[2.954E3,2.294E3,6.6E2,1.762E3,5.32E2,4.57E2,2.03E2,1.166E3,5.96E2,2.66E2,2.66E2,2.54E2,2.03E2,1.2E2,8.3E1,9.75E2,1.91E2,4.5E2,1.46E2,1.38E2,1.28E2,1.39E2,1.27E2,1.44E2,1.1E2,1.32E2,7.1E1,5.78E2,3.97E2,2.27E2,2.23E2,1E2,4.6E1,3.6E1,1.02E2,6.8E1,6E1,7.6E1,6.3E1,5.6E1,7.1E1,5.8E1,8.6E1],"tree_param":{"num_deleted":"0","num_feature":"5","num_nodes":"43","size_leaf_vector":"1"}},{"base_weights":[4.6340687E-5,-3.2577977E-2,1.0609881E-1,-4.3832745E-2,7.3434897E-3,6.9984995E-2,1.7912474E-1,-5.0594278E-2,-3.339875E-2,-4.6900385E-3,2.0564618E-2,5.0626595E-2,8.979859E-2,1.5038088E-1,2.0267329E-1,-5.1836777E-3,-4.664304E-3,-3.751046E-2,-2.8491309E-2,-1.0023075E-2,2.0626627E-3,1.2952156E-2,2.8664447E-2,4.4438634E-2,6.2750126E-3,8.00464E-3,9.82939E-3,1.2859243E-2,1.6470343E-2,1.8987143E-2,2.3183377E-2,-4.0030596E-3,-3.4557916E-3,-3.018271E-3,-2.222268E-3,-1.5085996E-3,-8.1660657E-4,-4.781059E-5,5.8029E-4,1.0101668E-3,1.4619549E-3,2.2688056E-3,3.0623244E-3,4.0274593E-3,4.9276543E-3],"categories":[],"categories_nodes":[],"categories_segments":[],"categories_sizes":[],"default_left":[0,0,0,0,0,0,0,0,0,0,0,0,0,0,0,0,0,0,0,0,0,0,0,0,0,0,0,0,0,0,0,0,0,0,0,0,0,0,0,0,0,0,0,0,0],"id":12,"left_children":[1,3,5,7,9,11,13,15,17,19,21,23,25,27,29,-1,-1,31,33,35,37,39,41,43,-1,-1,-1,-1,-1,-1,-1,-1,-1,-1,-1,-1,-1,-1,-1,-1,-1,-1,-1,-1,-1],"loss_changes":[1.020667E1,1.013958E0,1.8177128E0,1.2247777E-1,7.9167575E-2,1.7419243E-1,1.2452698E-1,2.815485E-3,1.295495E-2,9.419911E-3,1.4242068E-2,1.5066206E-2,1.1104107E-2,1.2211323E-2,1.8982887E-3,0E0,0E0,1.4069676E-3,2.7327538E-3,1.2494829E-3,1.1051311E-3,4.41676E-4,6.39759E-4,1.2587905E-3,0E0,0E0,0E0,0E0,0E0,0E0,0E0,0E0,0E0,0E0,0E0,0E0,0E0,0E0,0E0,0E0,0E0,0E0,0E0,0E0,0E0],"parents":[2147483647,0,0,1,1,2,2,3,3,4,4,5,5,6,6,7,7,8,8,9,9,10,10,11,11,12,12,13,13,14,14,17,17,18,18,19,19,20,20,21,21,22,22,23,23],"right_children":[2,4,6,8,10,12,14,16,18,20,22,24,26,28,30,-1,-1,32,34,36,38,40,42,44,-1,-1,-1,-1,-1,-1,-1,-1,-1,-1,-1,-1,-1,-1,-1,-1,-1,-1,-1,-1,-1],"split_conditions":[2.9400787E-1,1.11707054E-1,5.682293E-1,3.1326745E-2,2.0799612E-1,4.4338816E-1,8.1177765E-1,5.5245603E-3,6.864392E-2,1.6257922E-1,2.4912876E-1,3.5858253E-1,5.03325E-1,7.2239E-1,9.2114735E-1,-5.1836777E-3,-4.664304E-3,4.6003707E-2,9.1515206E-2,1.3100128E-1,1.8557246E-1,2.1886057E-1,2.6032725E-1,3.3383772E-1,6.2750126E-3,8.00464E-3,9.82939E-3,1.2859243E-2,1.6470343E-2,1.8987143E-2,2.3183377E-2,-4.0030596E-3,-3.4557916E-3,-3.018271E-3,-2.222268E-3,-1.5085996E-3,-8.1660657E-4,-4.781059E-5,5.8029E-4,1.0101668E-3,1.4619549E-3,2.2688056E-3,3.0623244E-3,4.0274593E-3,4.9276543E-3],"split_indices":[4,4,0,1,4,0,0,1,0,4,0,4,0,4,4,0,0,4,0,4,4,4,4,4,0,0,0,0,0,0,0,0,0,0,0,0,0,0,0,0,0,0,0,0,0],"split_type":[0,0,0,0,0,0,0,0,0,0,0,0,0,0,0,0,0,0,0,0,0,0,0,0,0,0,0,0,0,0,0,0,0,0,0,0,0,0,0,0,0,0,0,0,0],"sum_hessian":[2.948E3,2.255E3,6.93E2,1.759E3,4.96E2,4.65E2,2.28E2,1.065E3,6.94E2,2.6E2,2.36E2,2.37E2,2.28E2,1.06E2,1.22E2,8.01E2,2.64E2,3.74E2,3.2E2,1.45E2,1.15E2,1.23E2,1.13E2,1.6E2,7.7E1,1.11E2,1.17E2,4.6E1,6E1,9E1,3.2E1,1.95E2,1.79E2,2.49E2,7.1E1,3.7E1,1.08E2,6.9E1,4.6E1,4.8E1,7.5E1,3.1E1,8.2E1,9.1E1,6.9E1],"tree_param":{"num_deleted":"0","num_feature":"5","num_nodes":"45","size_leaf_vector":"1"}},{"base_weights":[2.058748E-4,-2.7636984E-2,1.0222178E-1,-3.9533876E-2,9.273661E-3,6.8921335E-2,1.6770162E-1,-4.564208E-2,-3.031011E-2,-3.18372E-3,2.3106318E-2,5.0871752E-2,8.604984E-2,1.4269957E-2,1.8491222E-2,-4.6782633E-3,-4.257459E-3,-3.39373E-2,-2.563899E-2,-8.8367965E-3,3.5816808E-3,1.5750377E-2,3.0856425E-2,4.341451E-3,6.0293153E-3,7.647918E-3,9.817363E-3,-3.6447123E-3,-3.1331652E-3,-2.7283614E-3,-1.9681002E-3,-1.2299462E-3,-6.1727036E-4,-1.5744976E-5,6.666065E-4,1.235E-3,1.9719386E-3,2.673297E-3,3.4101636E-3],"categories":[],"categories_nodes":[],"categories_segments":[],"categories_sizes":[],"default_left":[0,0,0,0,0,0,0,0,0,0,0,0,0,0,0,0,0,0,0,0,0,0,0,0,0,0,0,0,0,0,0,0,0,0,0,0,0,0,0],"id":13,"left_children":[1,3,5,7,9,11,13,15,17,19,21,23,25,-1,-1,-1,-1,27,29,31,33,35,37,-1,-1,-1,-1,-1,-1,-1,-1,-1,-1,-1,-1,-1,-1,-1,-1],"loss_changes":[8.279793E0,1.0059558E0,1.3512597E0,9.619856E-2,9.6399695E-2,1.2423396E-1,6.397581E-2,1.6467571E-3,1.087141E-2,1.1314021E-2,1.4621481E-2,1.1785209E-2,1.7090559E-2,0E0,0E0,0E0,0E0,1.3889372E-3,2.4712235E-3,1.409282E-3,1.557993E-3,1.6189292E-3,8.011833E-4,0E0,0E0,0E0,0E0,0E0,0E0,0E0,0E0,0E0,0E0,0E0,0E0,0E0,0E0,0E0,0E0],"parents":[2147483647,0,0,1,1,2,2,3,3,4,4,5,5,6,6,7,7,8,8,9,9,10,10,11,11,12,12,17,17,18,18,19,19,20,20,21,21,22,22],"right_children":[2,4,6,8,10,12,14,16,18,20,22,24,26,-1,-1,-1,-1,28,30,32,34,36,38,-1,-1,-1,-1,-1,-1,-1,-1,-1,-1,-1,-1,-1,-1,-1,-1],"split_conditions":[3.2175565E-1,1.2994795E-1,6.7088366E-1,2.6842646E-2,2.2422978E-1,4.368558E-1,8.221413E-1,4.841207E-3,5.9980057E-2,1.6546157E-1,2.8268957E-1,3.8960022E-1,5.137982E-1,1.4269957E-2,1.8491222E-2,-4.6782633E-3,-4.257459E-3,4.553594E-2,8.9872524E-2,1.4795148E-1,1.8557246E-1,2.3625116E-1,3.0755377E-1,4.341451E-3,6.0293153E-3,7.647918E-3,9.817363E-3,-3.6447123E-3,-3.1331652E-3,-2.7283614E-3,-1.9681002E-3,-1.2299462E-3,-6.1727036E-4,-1.5744976E-5,6.666065E-4,1.235E-3,1.9719386E-3,2.673297E-3,3.4101636E-3],"split_indices":[4,0,4,4,0,4,4,1,4,4,0,0,4,0,0,0,0,4,1,1,4,4,0,0,0,0,0,0,0,0,0,0,0,0,0,0,0,0,0],"split_type":[0,0,0,0,0,0,0,0,0,0,0,0,0,0,0,0,0,0,0,0,0,0,0,0,0,0,0,0,0,0,0,0,0,0,0,0,0,0,0],"sum_hessian":[2.913E3,2.289E3,6.24E2,1.731E3,5.58E2,4.15E2,2.09E2,1.039E3,6.92E2,2.94E2,2.64E2,2.04E2,2.11E2,8.9E1,1.2E2,7.47E2,2.92E2,3.86E2,3.06E2,1.6E2,1.34E2,1.37E2,1.27E2,1.17E2,8.7E1,1.22E2,8.9E1,1.9E2,1.96E2,2.37E2,6.9E1,6.8E1,9.2E1,6.1E1,7.3E1,7.6E1,6.1E1,6E1,6.7E1],"tree_param":{"num_deleted":"0","num_feature":"5","num_nodes":"39","size_leaf_vector":"1"}},{"base_weights":[9.074756E-5,-2.6418107E-2,8.587251E-2,-3.575744E-2,4.7819004E-3,5.682908E-2,1.4628842E-1,-4.1088574E-2,-2.7517151E-2,-5.898673E-3,1.5041389E-2,3.8643852E-2,7.057868E-2,1.2205814E-1,1.661057E-1,-4.240317E-3,-3.8961489E-3,-3.1972397E-3,-2.4668584E-2,-1.0248297E-2,-1.293078E-3,9.74628E-3,2.1969592E-2,3.3900317E-2,4.3991976E-3,6.017279E-3,7.7268383E-3,1.0427882E-2,1.3415255E-2,1.53852E-2,1.929357E-2,-2.6397526E-3,-2.0810254E-3,-1.2956708E-3,-7.848951E-4,-3.1925458E-4,1.619975E-4,6.375068E-4,1.1194583E-3,1.8838694E-3,2.4473423E-3,2.1998466E-3,3.4478758E-3],"categories":[],"categories_nodes":[],"categories_segments":[],"categories_sizes":[],"default_left":[0,0,0,0,0,0,0,0,0,0,0,0,0,0,0,0,0,0,0,0,0,0,0,0,0,0,0,0,0,0,0,0,0,0,0,0,0,0,0,0,0,0,0],"id":14,"left_children":[1,3,5,7,9,11,13,15,17,19,21,23,25,27,29,-1,-1,-1,31,33,35,37,39,41,-1,-1,-1,-1,-1,-1,-1,-1,-1,-1,-1,-1,-1,-1,-1,-1,-1,-1,-1],"loss_changes":[6.69458E0,6.55501E-1,1.2111926E0,7.491231E-2,5.6959298E-2,1.15041375E-1,8.776569E-2,1.2812614E-3,7.879257E-3,5.095063E-3,9.507563E-3,3.7093163E-3,1.3936996E-2,8.589029E-3,1.0097265E-2,0E0,0E0,0E0,2.2590458E-3,7.4959546E-4,6.9682824E-4,6.707795E-4,4.3262914E-4,1.9460917E-5,0E0,0E0,0E0,0E0,0E0,0E0,0E0,0E0,0E0,0E0,0E0,0E0,0E0,0E0,0E0,0E0,0E0,0E0,0E0],"parents":[2147483647,0,0,1,1,2,2,3,3,4,4,5,5,6,6,7,7,8,8,9,9,10,10,11,11,12,12,13,13,14,14,18,18,19,19,20,20,21,21,22,22,23,23],"right_children":[2,4,6,8,10,12,14,16,18,20,22,24,26,28,30,-1,-1,-1,32,34,36,38,40,42,-1,-1,-1,-1,-1,-1,-1,-1,-1,-1,-1,-1,-1,-1,-1,-1,-1,-1,-1],"split_conditions":[2.9400787E-1,1.2188598E-1,5.623446E-1,3.0714015E-2,2.0208982E-1,4.119518E-1,7.91746E-1,4.1550323E-3,5.1052712E-2,1.535534E-1,2.3802777E-1,3.5417637E-1,4.6946615E-1,7.2239E-1,9.2114735E-1,-4.240317E-3,-3.8961489E-3,-3.1972397E-3,7.297519E-2,1.3677992E-1,1.7529422E-1,2.1278039E-1,2.8268957E-1,3.0755377E-1,4.3991976E-3,6.017279E-3,7.7268383E-3,1.0427882E-2,1.3415255E-2,1.53852E-2,1.929357E-2,-2.6397526E-3,-2.0810254E-3,-1.2956708E-3,-7.848951E-4,-3.1925458E-4,1.619975E-4,6.375068E-4,1.1194583E-3,1.8838694E-3,2.4473423E-3,2.1998466E-3,3.4478758E-3],"split_indices":[4,0,1,0,4,0,1,0,4,4,4,0,4,4,4,0,0,0,4,1,4,4,0,0,0,0,0,0,0,0,0,0,0,0,0,0,0,0,0,0,0,0,0],"split_type":[0,0,0,0,0,0,0,0,0,0,0,0,0,0,0,0,0,0,0,0,0,0,0,0,0,0,0,0,0,0,0,0,0,0,0,0,0,0,0,0,0,0,0],"sum_hessian":[2.942E3,2.248E3,6.94E2,1.73E3,5.18E2,4.7E2,2.24E2,1.048E3,6.82E2,2.54E2,2.64E2,2.04E2,2.66E2,1.04E2,1.2E2,6.36E2,4.12E2,2.62E2,4.2E2,1.3E2,1.24E2,1.51E2,1.13E2,1.12E2,9.2E1,1.08E2,1.58E2,4.6E1,5.8E1,8.7E1,3.3E1,2.86E2,1.34E2,5.9E1,7.1E1,7.5E1,4.9E1,4.7E1,1.04E2,5.4E1,5.9E1,7E0,1.05E2],"tree_param":{"num_deleted":"0","num_feature":"5","num_nodes":"43","size_leaf_vector":"1"}},{"base_weights":[7.196006E-4,-2.1659628E-2,8.6915724E-2,-3.1653132E-2,1.01672E-2,6.014943E-2,1.4054957E-1,-3.6147196E-2,-2.2549242E-2,1.1686769E-3,2.3182018E-2,4.656088E-2,7.6156706E-2,1.3248506E-2,1.7338378E-2,-3.722167E-2,-3.0717656E-3,-2.4268374E-2,-1.5168893E-2,-4.5398246E-3,7.046153E-3,1.7445968E-2,2.7677177E-2,3.7767545E-3,5.3706756E-3,6.730389E-3,9.013862E-3,-3.837378E-3,-3.572233E-3,-2.5514301E-3,-2.1555645E-3,-1.7541845E-3,-1.2616235E-3,-7.5511204E-4,-1.8795929E-4,3.846452E-4,9.20588E-4,1.3529662E-3,1.965559E-3,2.3466067E-3,2.9314007E-3],"categories":[],"categories_nodes":[],"categories_segments":[],"categories_sizes":[],"default_left":[0,0,0,0,0,0,0,0,0,0,0,0,0,0,0,0,0,0,0,0,0,0,0,0,0,0,0,0,0,0,0,0,0,0,0,0,0,0,0,0,0],"id":15,"left_children":[1,3,5,7,9,11,13,15,17,19,21,23,25,-1,-1,27,-1,29,31,33,35,37,39,-1,-1,-1,-1,-1,-1,-1,-1,-1,-1,-1,-1,-1,-1,-1,-1,-1,-1],"loss_changes":[5.6152806E0,7.3536205E-1,8.5289335E-1,7.1151614E-2,6.473702E-2,8.3895445E-2,2.9722929E-2,5.7172775E-3,7.0415437E-3,1.1036907E-2,5.344428E-3,1.179558E-2,1.6584873E-2,0E0,0E0,3.168583E-4,0E0,1.0453165E-3,4.631672E-4,1.3236015E-3,1.0840883E-3,6.167311E-4,1.7372519E-4,0E0,0E0,0E0,0E0,0E0,0E0,0E0,0E0,0E0,0E0,0E0,0E0,0E0,0E0,0E0,0E0,0E0,0E0],"parents":[2147483647,0,0,1,1,2,2,3,3,4,4,5,5,6,6,7,7,8,8,9,9,10,10,11,11,12,12,15,15,17,17,18,18,19,19,20,20,21,21,22,22],"right_children":[2,4,6,8,10,12,14,16,18,20,22,24,26,-1,-1,28,-1,30,32,34,36,38,40,-1,-1,-1,-1,-1,-1,-1,-1,-1,-1,-1,-1,-1,-1,-1,-1,-1,-1],"split_conditions":[3.4644005E-1,1.3594031E-1,7.2239E-1,4.330324E-2,2.3331405E-1,4.7758788E-1,9.2114735E-1,2.5726281E-2,8.764734E-2,1.902088E-1,2.812683E-1,3.7591943E-1,5.4103374E-1,1.3248506E-2,1.7338378E-2,3.1697867E-3,-3.0717656E-3,6.565307E-2,9.425138E-2,1.535534E-1,2.1049702E-1,2.570731E-1,3.1317928E-1,3.7767545E-3,5.3706756E-3,6.730389E-3,9.013862E-3,-3.837378E-3,-3.572233E-3,-2.5514301E-3,-2.1555645E-3,-1.7541845E-3,-1.2616235E-3,-7.5511204E-4,-1.8795929E-4,3.846452E-4,9.20588E-4,1.3529662E-3,1.965559E-3,2.3466067E-3,2.9314007E-3],"split_indices":[0,0,4,4,4,1,4,2,1,0,4,4,4,0,0,1,0,4,4,4,4,2,0,0,0,0,0,0,0,0,0,0,0,0,0,0,0,0,0,0,0],"split_type":[0,0,0,0,0,0,0,0,0,0,0,0,0,0,0,0,0,0,0,0,0,0,0,0,0,0,0,0,0,0,0,0,0,0,0,0,0,0,0,0,0],"sum_hessian":[2.909E3,2.31E3,5.99E2,1.758E3,5.52E2,4.01E2,1.98E2,1.175E3,5.83E2,3.27E2,2.25E2,2.19E2,1.82E2,1.63E2,3.5E1,9.76E2,1.99E2,4.71E2,1.12E2,1.66E2,1.61E2,1.01E2,1.24E2,1.01E2,1.18E2,1.15E2,6.7E1,5.38E2,4.38E2,3.17E2,1.54E2,5.5E1,5.7E1,7.7E1,8.9E1,6.6E1,9.5E1,3.9E1,6.2E1,3.9E1,8.5E1],"tree_param":{"num_deleted":"0","num_feature":"5","num_nodes":"41","size_leaf_vector":"1"}},{"base_weights":[6.9719055E-5,-2.0561233E-2,7.301021E-2,-2.8576637E-2,6.8604876E-3,4.831447E-2,1.19223475E-1,-3.2569125E-2,-2.0516155E-2,-1.9196026E-3,1.6388776E-2,3.4277324E-2,5.872969E-2,9.8345704E-2,1.3455951E-1,-3.3506025E-2,-2.7427329E-3,-2.2286503E-2,-1.5660467E-2,-6.1381008E-3,2.1306123E-3,1.0099879E-2,2.121299E-2,3.0327619E-3,4.0819566E-3,5.4046563E-3,6.843684E-3,8.544194E-3,1.0793309E-2,1.2650648E-2,1.6235562E-2,-3.4862407E-3,-3.2407232E-3,-2.4353678E-3,-2.1226148E-3,-1.6968943E-3,-1.2020388E-3,-9.3927403E-4,-5.0568604E-4,-6.5231434E-6,4.939482E-4,8.4269524E-4,1.2010523E-3,1.7813769E-3,2.3267071E-3],"categories":[],"categories_nodes":[],"categories_segments":[],"categories_sizes":[],"default_left":[0,0,0,0,0,0,0,0,0,0,0,0,0,0,0,0,0,0,0,0,0,0,0,0,0,0,0,0,0,0,0,0,0,0,0,0,0,0,0,0,0,0,0,0,0],"id":16,"left_children":[1,3,5,7,9,11,13,15,17,19,21,23,25,27,29,31,-1,33,35,37,39,41,43,-1,-1,-1,-1,-1,-1,-1,-1,-1,-1,-1,-1,-1,-1,-1,-1,-1,-1,-1,-1,-1,-1],"loss_changes":[4.4226966E0,5.0374913E-1,7.337835E-1,5.638933E-2,4.3450598E-2,5.9975684E-2,5.880761E-2,4.7847033E-3,4.722759E-3,4.643336E-3,7.340163E-3,3.490746E-3,7.3025227E-3,3.0255914E-3,7.888794E-3,3.5619736E-4,0E0,4.2560697E-4,5.6286156E-4,4.2053591E-4,8.576518E-4,2.5038887E-4,5.630478E-4,0E0,0E0,0E0,0E0,0E0,0E0,0E0,0E0,0E0,0E0,0E0,0E0,0E0,0E0,0E0,0E0,0E0,0E0,0E0,0E0,0E0,0E0],"parents":[2147483647,0,0,1,1,2,2,3,3,4,4,5,5,6,6,7,7,8,8,9,9,10,10,11,11,12,12,13,13,14,14,15,15,17,17,18,18,19,19,20,20,21,21,22,22],"right_children":[2,4,6,8,10,12,14,16,18,20,22,24,26,28,30,32,-1,34,36,38,40,42,44,-1,-1,-1,-1,-1,-1,-1,-1,-1,-1,-1,-1,-1,-1,-1,-1,-1,-1,-1,-1,-1,-1],"split_conditions":[3.3406103E-1,1.3339761E-1,5.682293E-1,4.918779E-2,2.1603216E-1,4.4338816E-1,7.91746E-1,2.7265936E-2,8.257296E-2,1.6257922E-1,2.5631905E-1,3.752447E-1,5.1370436E-1,7.072768E-1,9.3594E-1,2.7651296E-3,-2.7427329E-3,5.765225E-2,9.425138E-2,1.4042075E-1,1.9711334E-1,2.309642E-1,2.9962352E-1,3.0327619E-3,4.0819566E-3,5.4046563E-3,6.843684E-3,8.544194E-3,1.0793309E-2,1.2650648E-2,1.6235562E-2,-3.4862407E-3,-3.2407232E-3,-2.4353678E-3,-2.1226148E-3,-1.6968943E-3,-1.2020388E-3,-9.3927403E-4,-5.0568604E-4,-6.5231434E-6,4.939482E-4,8.4269524E-4,1.2010523E-3,1.7813769E-3,2.3267071E-3],"split_indices":[0,1,0,1,4,0,1,0,0,4,1,1,1,1,4,1,0,1,4,0,1,4,0,0,0,0,0,0,0,0,0,0,0,0,0,0,0,0,0,0,0,0,0,0,0],"split_type":[0,0,0,0,0,0,0,0,0,0,0,0,0,0,0,0,0,0,0,0,0,0,0,0,0,0,0,0,0,0,0,0,0,0,0,0,0,0,0,0,0,0,0,0,0],"sum_hessian":[2.937E3,2.29E3,6.47E2,1.772E3,5.18E2,4.23E2,2.24E2,1.183E3,5.89E2,2.7E2,2.48E2,1.82E2,2.41E2,9.8E1,1.26E2,9.96E2,1.87E2,4.29E2,1.6E2,1.32E2,1.38E2,1.09E2,1.39E2,1.17E2,6.5E1,1.67E2,7.4E1,4.6E1,5.2E1,1.02E2,2.4E1,4.32E2,5.64E2,1.38E2,2.91E2,1.15E2,4.5E1,3.1E1,1.01E2,7.8E1,6E1,6.1E1,4.8E1,5.6E1,8.3E1],"tree_param":{"num_deleted":"0","num_feature":"5","num_nodes":"45","size_leaf_vector":"1"}},{"base_weights":[2.6521264E-4,-1.7356362E-2,7.003547E-2,-2.543911E-2,8.808752E-3,4.9444664E-2,1.1531271E-1,-2.9304944E-2,-1.7869333E-2,1.2253608E-3,1.8840445E-2,3.661185E-2,6.1252497E-2,1.07221715E-2,1.4456013E-2,-3.0511427E-3,-2.5857843E-3,-1.943419E-2,-1.1920219E-2,-3.7965488E-3,5.3983643E-3,1.4518724E-2,2.3185825E-2,3.0651523E-2,4.2381044E-3,5.3510587E-3,7.014251E-3,-2.0677943E-3,-1.7416375E-3,-1.4102851E-3,-9.879103E-4,-5.6520326E-4,-1.6396552E-4,2.5741814E-4,7.074269E-4,1.14622E-3,1.6552815E-3,1.6505097E-3,2.3792146E-3,8.4505085E-4,3.0789028E-3],"categories":[],"categories_nodes":[],"categories_segments":[],"categories_sizes":[],"default_left":[0,0,0,0,0,0,0,0,0,0,0,0,0,0,0,0,0,0,0,0,0,0,0,0,0,0,0,0,0,0,0,0,0,0,0,0,0,0,0,0,0],"id":17,"left_children":[1,3,5,7,9,11,13,15,17,19,21,23,25,-1,-1,-1,-1,27,29,31,33,35,37,39,-1,-1,-1,-1,-1,-1,-1,-1,-1,-1,-1,-1,-1,-1,-1,-1,-1],"loss_changes":[3.603539E0,4.9510133E-1,5.4528475E-1,5.1799417E-2,4.204597E-2,5.9580743E-2,2.804184E-2,4.126787E-3,5.4192096E-3,6.6427323E-3,4.1328967E-3,5.509436E-3,1.0768831E-2,0E0,0E0,0E0,0E0,8.419901E-4,4.3537468E-4,5.67032E-4,8.006091E-4,5.6877173E-4,8.124113E-5,4.81382E-5,0E0,0E0,0E0,0E0,0E0,0E0,0E0,0E0,0E0,0E0,0E0,0E0,0E0,0E0,0E0,0E0,0E0],"parents":[2147483647,0,0,1,1,2,2,3,3,4,4,5,5,6,6,7,7,8,8,9,9,10,10,11,11,12,12,17,17,18,18,19,19,20,20,21,21,22,22,23,23],"right_children":[2,4,6,8,10,12,14,16,18,20,22,24,26,-1,-1,-1,-1,28,30,32,34,36,38,40,-1,-1,-1,-1,-1,-1,-1,-1,-1,-1,-1,-1,-1,-1,-1,-1,-1],"split_conditions":[3.4644005E-1,1.3677992E-1,7.072768E-1,4.362788E-2,2.4124852E-1,4.6480805E-1,9.2114735E-1,7.699556E-3,8.764734E-2,1.8689929E-1,2.8739065E-1,4.052525E-1,5.403139E-1,1.07221715E-2,1.4456013E-2,-3.0511427E-3,-2.5857843E-3,7.247742E-2,9.425138E-2,1.6376114E-1,2.1425207E-1,2.5631905E-1,3.035058E-1,3.1461647E-1,4.2381044E-3,5.3510587E-3,7.014251E-3,-2.0677943E-3,-1.7416375E-3,-1.4102851E-3,-9.879103E-4,-5.6520326E-4,-1.6396552E-4,2.5741814E-4,7.074269E-4,1.14622E-3,1.6552815E-3,1.6505097E-3,2.3792146E-3,8.4505085E-4,3.0789028E-3],"split_indices":[0,1,1,4,0,4,4,0,1,0,4,0,0,0,0,0,0,0,4,0,0,1,0,4,0,0,0,0,0,0,0,0,0,0,0,0,0,0,0,0,0],"split_type":[0,0,0,0,0,0,0,0,0,0,0,0,0,0,0,0,0,0,0,0,0,0,0,0,0,0,0,0,0,0,0,0,0,0,0,0,0,0,0,0,0],"sum_hessian":[2.929E3,2.339E3,5.9E2,1.787E3,5.52E2,4.07E2,1.83E2,1.181E3,6.06E2,3.15E2,2.37E2,1.97E2,2.1E2,1.47E2,3.6E1,8.69E2,3.12E2,4.78E2,1.28E2,1.43E2,1.72E2,1.21E2,1.16E2,1E2,9.7E1,1.16E2,9.4E1,2.9E2,1.88E2,5.9E1,6.9E1,7.6E1,6.7E1,6.5E1,1.07E2,5.1E1,7E1,1.2E1,1.04E2,1E0,9.9E1],"tree_param":{"num_deleted":"0","num_feature":"5","num_nodes":"41","size_leaf_vector":"1"}},{"base_weights":[2.1682226E-4,-1.7033365E-2,5.80175E-2,-2.352425E-2,3.8595444E-3,3.7682984E-2,9.701242E-2,-2.7069187E-2,-1.8072808E-2,-3.421762E-3,1.1018231E-2,2.6091358E-2,4.6239216E-2,8.204162E-2,1.1165465E-1,-2.8071008E-3,-2.5768725E-3,-2.0919254E-3,-1.6078537E-2,-6.7785326E-3,-2.8344005E-4,6.6273413E-3,1.5327504E-2,2.2904385E-2,2.9450683E-3,3.944693E-3,5.0791535E-3,7.1404423E-3,8.816369E-3,1.0467357E-2,1.3204112E-2,-1.716913E-3,-1.3709454E-3,-8.403699E-4,-5.311914E-4,-1.7183462E-4,2.050246E-4,4.795035E-4,7.753161E-4,1.3052354E-3,1.7795786E-3,4.914075E-4,2.3033854E-3],"categories":[],"categories_nodes":[],"categories_segments":[],"categories_sizes":[],"default_left":[0,0,0,0,0,0,0,0,0,0,0,0,0,0,0,0,0,0,0,0,0,0,0,0,0,0,0,0,0,0,0,0,0,0,0,0,0,0,0,0,0,0,0],"id":18,"left_children":[1,3,5,7,9,11,13,15,17,19,21,23,25,27,29,-1,-1,-1,31,33,35,37,39,41,-1,-1,-1,-1,-1,-1,-1,-1,-1,-1,-1,-1,-1,-1,-1,-1,-1,-1,-1],"loss_changes":[2.9064574E0,3.0454308E-1,5.2761626E-1,3.261459E-2,2.7820108E-2,4.2631447E-2,4.1037798E-2,6.263852E-4,3.5123676E-3,2.7897547E-3,4.9883127E-3,1.3595968E-3,5.8193803E-3,1.323998E-3,2.2609234E-3,0E0,0E0,0E0,8.0584735E-4,2.6044808E-4,4.6563268E-4,2.4130754E-4,5.2584335E-4,1.2437999E-4,0E0,0E0,0E0,0E0,0E0,0E0,0E0,0E0,0E0,0E0,0E0,0E0,0E0,0E0,0E0,0E0,0E0,0E0,0E0],"parents":[2147483647,0,0,1,1,2,2,3,3,4,4,5,5,6,6,7,7,8,8,9,9,10,10,11,11,12,12,13,13,14,14,18,18,19,19,20,20,21,21,22,22,23,23],"right_children":[2,4,6,8,10,12,14,16,18,20,22,24,26,28,30,-1,-1,-1,32,34,36,38,40,42,-1,-1,-1,-1,-1,-1,-1,-1,-1,-1,-1,-1,-1,-1,-1,-1,-1,-1,-1],"split_conditions":[3.2164368E-1,1.101052E-1,5.5926114E-1,2.626916E-2,2.0957051E-1,4.119518E-1,8.3050805E-1,3.372761E-3,5.765225E-2,1.535534E-1,2.3802777E-1,3.5417637E-1,4.7758788E-1,7.2239E-1,9.3594E-1,-2.8071008E-3,-2.5768725E-3,-2.0919254E-3,8.182998E-2,1.4042075E-1,1.780154E-1,2.2422978E-1,2.9635298E-1,2.5631905E-1,2.9450683E-3,3.944693E-3,5.0791535E-3,7.1404423E-3,8.816369E-3,1.0467357E-2,1.3204112E-2,-1.716913E-3,-1.3709454E-3,-8.403699E-4,-5.311914E-4,-1.7183462E-4,2.050246E-4,4.795035E-4,7.753161E-4,1.3052354E-3,1.7795786E-3,4.914075E-4,2.3033854E-3],"split_indices":[0,1,4,4,1,0,0,0,1,4,4,0,1,4,4,0,0,0,0,0,4,0,0,1,0,0,0,0,0,0,0,0,0,0,0,0,0,0,0,0,0,0,0],"split_type":[0,0,0,0,0,0,0,0,0,0,0,0,0,0,0,0,0,0,0,0,0,0,0,0,0,0,0,0,0,0,0,0,0,0,0,0,0,0,0,0,0,0,0],"sum_hessian":[2.913E3,2.244E3,6.69E2,1.712E3,5.32E2,4.41E2,2.28E2,1.035E3,6.77E2,2.64E2,2.68E2,1.89E2,2.52E2,1.16E2,1.12E2,5.73E2,4.62E2,2.75E2,4.02E2,1.27E2,1.37E2,1.34E2,1.34E2,1.01E2,8.8E1,1.05E2,1.47E2,4.7E1,6.9E1,8.8E1,2.4E1,2.71E2,1.31E2,5.8E1,6.9E1,8.5E1,5.2E1,5.3E1,8.1E1,7.3E1,6.1E1,1E0,1E2],"tree_param":{"num_deleted":"0","num_feature":"5","num_nodes":"43","size_leaf_vector":"1"}},{"base_weights":[1.0322925E-4,-1.4103157E-2,5.7247017E-2,-2.0692814E-2,7.347918E-3,3.932436E-2,9.189195E-2,-2.3735829E-2,-1.4504836E-2,1.0394944E-3,1.5526043E-2,3.0666599E-2,4.8865017E-2,8.374944E-3,1.0951766E-2,-2.4534555E-2,-2.0144363E-3,-1.5642965E-2,-8.760192E-3,-2.8036826E-3,4.637508E-3,1.15999505E-2,1.8464662E-2,2.5538297E-3,3.5166934E-3,4.1935905E-3,5.469626E-3,-2.5822613E-3,-2.3801913E-3,-1.64767E-3,-1.3407101E-3,-9.813874E-4,-7.2542735E-4,-4.3175757E-4,-7.885543E-5,2.1299114E-4,5.715565E-4,9.2943135E-4,1.3110667E-3,1.5118585E-3,1.935744E-3],"categories":[],"categories_nodes":[],"categories_segments":[],"categories_sizes":[],"default_left":[0,0,0,0,0,0,0,0,0,0,0,0,0,0,0,0,0,0,0,0,0,0,0,0,0,0,0,0,0,0,0,0,0,0,0,0,0,0,0,0,0],"id":19,"left_children":[1,3,5,7,9,11,13,15,17,19,21,23,25,-1,-1,27,-1,29,31,33,35,37,39,-1,-1,-1,-1,-1,-1,-1,-1,-1,-1,-1,-1,-1,-1,-1,-1,-1,-1],"loss_changes":[2.3647885E0,3.2993373E-1,3.5652554E-1,3.3267498E-2,2.8307362E-2,3.0220091E-2,1.9100904E-2,2.9337406E-3,3.7270114E-3,4.3134494E-3,2.543226E-3,3.8100183E-3,5.019635E-3,0E0,0E0,3.0356646E-4,0E0,6.962344E-4,8.748332E-5,4.5724923E-4,4.2306306E-4,2.4387799E-4,1.1062622E-4,0E0,0E0,0E0,0E0,0E0,0E0,0E0,0E0,0E0,0E0,0E0,0E0,0E0,0E0,0E0,0E0,0E0,0E0],"parents":[2147483647,0,0,1,1,2,2,3,3,4,4,5,5,6,6,7,7,8,8,9,9,10,10,11,11,12,12,15,15,17,17,18,18,19,19,20,20,21,21,22,22],"right_children":[2,4,6,8,10,12,14,16,18,20,22,24,26,-1,-1,28,-1,30,32,34,36,38,40,-1,-1,-1,-1,-1,-1,-1,-1,-1,-1,-1,-1,-1,-1,-1,-1,-1,-1],"split_conditions":[3.374403E-1,1.3100128E-1,6.865047E-1,4.362788E-2,2.3331405E-1,4.6480805E-1,8.872252E-1,2.152323E-2,8.445415E-2,1.902088E-1,2.812683E-1,3.7591943E-1,5.1370436E-1,8.374944E-3,1.0951766E-2,2.1997464E-3,-2.0144363E-3,6.905205E-2,1.11707054E-1,1.6398409E-1,2.1127234E-1,2.5631905E-1,3.0755377E-1,2.5538297E-3,3.5166934E-3,4.1935905E-3,5.469626E-3,-2.5822613E-3,-2.3801913E-3,-1.64767E-3,-1.3407101E-3,-9.813874E-4,-7.2542735E-4,-4.3175757E-4,-7.885543E-5,2.1299114E-4,5.715565E-4,9.2943135E-4,1.3110667E-3,1.5118585E-3,1.935744E-3],"split_indices":[4,4,4,4,4,4,1,0,4,0,4,4,1,0,0,0,0,4,4,1,0,1,0,0,0,0,0,0,0,0,0,0,0,0,0,0,0,0,0,0,0],"split_type":[0,0,0,0,0,0,0,0,0,0,0,0,0,0,0,0,0,0,0,0,0,0,0,0,0,0,0,0,0,0,0,0,0,0,0,0,0,0,0,0,0],"sum_hessian":[2.911E3,2.332E3,5.79E2,1.784E3,5.48E2,3.83E2,1.96E2,1.194E3,5.9E2,3.1E2,2.38E2,2.03E2,1.8E2,1.38E2,5.8E1,9.72E2,2.22E2,4.91E2,9.9E1,1.5E2,1.6E2,1.04E2,1.34E2,9.8E1,1.05E2,8.6E1,9.4E1,3.4E2,6.32E2,3.53E2,1.38E2,5.5E1,4.4E1,8.5E1,6.5E1,4.9E1,1.11E2,4.4E1,6E1,3.2E1,1.02E2],"tree_param":{"num_deleted":"0","num_feature":"5","num_nodes":"41","size_leaf_vector":"1"}},{"base_weights":[-4.4855918E-4,-1.3871488E-2,4.57392E-2,-1.8911632E-2,3.1365934E-3,2.9996658E-2,7.818308E-2,-2.1974133E-2,-1.4634247E-2,-2.2065751E-3,8.871729E-3,2.0755548E-2,3.7631184E-2,6.5999374E-2,9.008898E-2,-2.2561043E-3,-2.0559041E-3,-1.6446635E-2,-1.2340722E-2,-4.3967827E-3,6.951218E-4,6.076697E-3,1.2828894E-2,1.8231858E-3,2.4215E-3,3.3370205E-3,4.273514E-3,5.6870473E-3,7.1223634E-3,8.459321E-3,1.09491125E-2,-1.7427834E-3,-1.4839163E-3,-1.3332749E-3,-1.0486383E-3,-5.621475E-4,-2.9968255E-4,-3.352891E-5,2.1833228E-4,4.5813262E-4,7.309188E-4,1.1246126E-3,1.4056847E-3],"categories":[],"categories_nodes":[],"categories_segments":[],"categories_sizes":[],"default_left":[0,0,0,0,0,0,0,0,0,0,0,0,0,0,0,0,0,0,0,0,0,0,0,0,0,0,0,0,0,0,0,0,0,0,0,0,0,0,0,0,0,0,0],"id":20,"left_children":[1,3,5,7,9,11,13,15,17,19,21,23,25,27,29,-1,-1,31,33,35,37,39,41,-1,-1,-1,-1,-1,-1,-1,-1,-1,-1,-1,-1,-1,-1,-1,-1,-1,-1,-1,-1],"loss_changes":[1.8171613E0,1.9473663E-1,3.347491E-1,2.2628725E-2,1.5954347E-2,3.0684918E-2,2.5241733E-2,3.82483E-4,2.8480887E-3,1.7189927E-3,2.6982054E-3,1.3395622E-3,3.858626E-3,1.1955798E-3,2.040565E-3,0E0,0E0,3.8332492E-4,4.6356395E-4,2.4718908E-4,1.801467E-4,2.4112593E-4,4.210323E-5,0E0,0E0,0E0,0E0,0E0,0E0,0E0,0E0,0E0,0E0,0E0,0E0,0E0,0E0,0E0,0E0,0E0,0E0,0E0,0E0],"parents":[2147483647,0,0,1,1,2,2,3,3,4,4,5,5,6,6,7,7,8,8,9,9,10,10,11,11,12,12,13,13,14,14,17,17,18,18,19,19,20,20,21,21,22,22],"right_children":[2,4,6,8,10,12,14,16,18,20,22,24,26,28,30,-1,-1,32,34,36,38,40,42,-1,-1,-1,-1,-1,-1,-1,-1,-1,-1,-1,-1,-1,-1,-1,-1,-1,-1,-1,-1],"split_conditions":[3.0702385E-1,1.11707054E-1,5.71215E-1,2.5452405E-2,2.0799612E-1,3.8874945E-1,8.182773E-1,4.5896256E-3,6.692933E-2,1.6257922E-1,2.5631905E-1,3.5240567E-1,5.03325E-1,7.072768E-1,9.3594E-1,-2.2561043E-3,-2.0559041E-3,5.4002684E-2,8.397362E-2,1.4561024E-1,1.8557246E-1,2.2617538E-1,2.9635298E-1,1.8231858E-3,2.4215E-3,3.3370205E-3,4.273514E-3,5.6870473E-3,7.1223634E-3,8.459321E-3,1.09491125E-2,-1.7427834E-3,-1.4839163E-3,-1.3332749E-3,-1.0486383E-3,-5.621475E-4,-2.9968255E-4,-3.352891E-5,2.1833228E-4,4.5813262E-4,7.309188E-4,1.1246126E-3,1.4056847E-3],"split_indices":[1,4,2,4,4,4,1,1,0,4,1,1,0,1,4,0,0,0,0,4,4,4,0,0,0,0,0,0,0,0,0,0,0,0,0,0,0,0,0,0,0,0,0],"split_type":[0,0,0,0,0,0,0,0,0,0,0,0,0,0,0,0,0,0,0,0,0,0,0,0,0,0,0,0,0,0,0,0,0,0,0,0,0,0,0,0,0,0,0],"sum_hessian":[2.929E3,2.27E3,6.59E2,1.751E3,5.19E2,4.45E2,2.14E2,1.018E3,7.33E2,2.69E2,2.5E2,2.03E2,2.42E2,1.09E2,1.05E2,7.09E2,3.09E2,4.06E2,3.27E2,1.53E2,1.16E2,1.48E2,1.02E2,1.21E2,8.2E1,1.36E2,1.06E2,4.4E1,6.5E1,8.6E1,1.9E1,2.46E2,1.6E2,2.09E2,1.18E2,8E1,7.3E1,6.9E1,4.7E1,6.9E1,7.9E1,4.9E1,5.3E1],"tree_param":{"num_deleted":"0","num_feature":"5","num_nodes":"43","size_leaf_vector":"1"}},{"base_weights":[8.302646E-5,-1.2022518E-2,4.3242626E-2,-1.6900593E-2,4.0954016E-3,2.8666196E-2,7.150813E-2,-1.931901E-2,-1.2055398E-2,-1.0695228E-3,9.1662E-3,2.1908725E-2,3.7150253E-2,6.1852247E-2,8.377369E-3,-2.0134456E-2,-1.7172279E-2,-1.3305494E-2,-9.626546E-3,-3.4174854E-3,1.4360049E-3,6.0663666E-3,1.2339155E-2,1.7847408E-2,2.5817499E-2,3.3426464E-3,4.206682E-3,5.2292002E-3,6.669737E-3,-2.1075427E-3,-1.956703E-3,-1.8115685E-3,-1.6128697E-3,-1.4630546E-3,-1.2726194E-3,-1.0644826E-3,-7.413271E-4,-4.3586013E-4,-2.0696863E-4,8.879931E-6,2.5837863E-4,4.8259363E-4,7.492038E-4,1.0516028E-3,1.4082179E-3,3.8381814E-4,1.7934341E-3,2.3515895E-3,2.8858758E-3],"categories":[],"categories_nodes":[],"categories_segments":[],"categories_sizes":[],"default_left":[0,0,0,0,0,0,0,0,0,0,0,0,0,0,0,0,0,0,0,0,0,0,0,0,0,0,0,0,0,0,0,0,0,0,0,0,0,0,0,0,0,0,0,0,0,0,0,0,0],"id":21,"left_children":[1,3,5,7,9,11,13,15,17,19,21,23,25,27,-1,29,31,33,35,37,39,41,43,45,47,-1,-1,-1,-1,-1,-1,-1,-1,-1,-1,-1,-1,-1,-1,-1,-1,-1,-1,-1,-1,-1,-1,-1,-1],"loss_changes":[1.4979202E0,1.7610934E-1,2.5669253E-1,1.99098E-2,1.36549445E-2,2.3035705E-2,2.0045042E-2,1.6585886E-3,1.6177893E-3,1.5285747E-3,2.5119167E-3,3.2539219E-3,1.9442439E-3,2.2096932E-3,0E0,2.7567148E-5,2.4840236E-5,1.0319054E-4,3.695786E-4,1.6094954E-4,1.9460401E-4,2.0258408E-4,2.618432E-4,7.486716E-5,1.4033169E-4,0E0,0E0,0E0,0E0,0E0,0E0,0E0,0E0,0E0,0E0,0E0,0E0,0E0,0E0,0E0,0E0,0E0,0E0,0E0,0E0,0E0,0E0,0E0,0E0],"parents":[2147483647,0,0,1,1,2,2,3,3,4,4,5,5,6,6,7,7,8,8,9,9,10,10,11,11,12,12,13,13,15,15,16,16,17,17,18,18,19,19,20,20,21,21,22,22,23,23,24,24],"right_children":[2,4,6,8,10,12,14,16,18,20,22,24,26,28,-1,30,32,34,36,38,40,42,44,46,48,-1,-1,-1,-1,-1,-1,-1,-1,-1,-1,-1,-1,-1,-1,-1,-1,-1,-1,-1,-1,-1,-1,-1,-1],"split_conditions":[3.3406103E-1,1.3358736E-1,6.437092E-1,4.918779E-2,2.1278039E-1,4.5888093E-1,8.447324E-1,6.326746E-3,7.0795804E-2,1.6546157E-1,2.5631905E-1,3.8229784E-1,5.1370436E-1,7.506063E-1,8.377369E-3,1.9099324E-3,2.8586615E-2,5.0239563E-2,9.255309E-2,1.5025428E-1,1.9536446E-1,2.309642E-1,2.9429877E-1,2.5631905E-1,3.467421E-1,3.3426464E-3,4.206682E-3,5.2292002E-3,6.669737E-3,-2.1075427E-3,-1.956703E-3,-1.8115685E-3,-1.6128697E-3,-1.4630546E-3,-1.2726194E-3,-1.0644826E-3,-7.413271E-4,-4.3586013E-4,-2.0696863E-4,8.879931E-6,2.5837863E-4,4.8259363E-4,7.492038E-4,1.0516028E-3,1.4082179E-3,3.8381814E-4,1.7934341E-3,2.3515895E-3,2.8858758E-3],"split_indices":[0,0,4,1,4,1,1,1,4,4,1,0,1,1,0,0,0,4,1,4,0,4,1,1,3,0,0,0,0,0,0,0,0,0,0,0,0,0,0,0,0,0,0,0,0,0,0,0,0],"split_type":[0,0,0,0,0,0,0,0,0,0,0,0,0,0,0,0,0,0,0,0,0,0,0,0,0,0,0,0,0,0,0,0,0,0,0,0,0,0,0,0,0,0,0,0,0,0,0,0,0],"sum_hessian":[2.865E3,2.238E3,6.27E2,1.718E3,5.2E2,4.15E2,2.12E2,1.144E3,5.74E2,2.58E2,2.62E2,2.33E2,1.82E2,1.22E2,9E1,8.23E2,3.21E2,3.76E2,1.98E2,1.33E2,1.25E2,1.34E2,1.28E2,1.17E2,1.16E2,1.08E2,7.4E1,4.5E1,7.7E1,2.96E2,5.27E2,1.6E2,1.61E2,1.07E2,2.69E2,1.33E2,6.5E1,7.7E1,5.6E1,5.8E1,6.7E1,7.4E1,6E1,6.6E1,6.2E1,1E0,1.16E2,7.1E1,4.5E1],"tree_param":{"num_deleted":"0","num_feature":"5","num_nodes":"49","size_leaf_vector":"1"}},{"base_weights":[1.9666304E-4,-1.0486592E-2,4.0857553E-2,-1.5192764E-2,4.652431E-3,2.6268043E-2,6.47739E-2,-1.7486833E-2,-1.0939189E-2,6.511313E-4,1.07170725E-2,1.9866595E-2,3.1973135E-2,5.724417E-2,7.8969724E-2,-1.8156147E-2,-1.5645389E-3,-1.2022102E-2,-8.136827E-3,-1.8347272E-3,3.5830776E-3,8.380474E-3,1.2953511E-2,1.7622046E-2,2.328866E-2,2.9632698E-3,3.7349283E-3,4.7943546E-3,6.168998E-3,7.370145E-3,9.8426E-3,-1.9017382E-3,-1.7636959E-3,-1.3408236E-3,-1.1304563E-3,-9.0315455E-4,-6.069305E-4,-3.1798848E-4,-5.719761E-5,2.6193878E-4,4.6624365E-4,6.458599E-4,9.225015E-4,1.196274E-3,1.5321663E-3,9.1592077E-4,1.7852815E-3,7.575393E-4,2.36556E-3],"categories":[],"categories_nodes":[],"categories_segments":[],"categories_sizes":[],"default_left":[0,0,0,0,0,0,0,0,0,0,0,0,0,0,0,0,0,0,0,0,0,0,0,0,0,0,0,0,0,0,0,0,0,0,0,0,0,0,0,0,0,0,0,0,0,0,0,0,0],"id":22,"left_children":[1,3,5,7,9,11,13,15,17,19,21,23,25,27,29,31,-1,33,35,37,39,41,43,45,47,-1,-1,-1,-1,-1,-1,-1,-1,-1,-1,-1,-1,-1,-1,-1,-1,-1,-1,-1,-1,-1,-1,-1,-1],"loss_changes":[1.2380074E0,1.6087483E-1,2.0521283E-1,1.6611993E-2,1.2999838E-2,1.2877524E-2,1.9423008E-2,1.0926425E-3,1.7412156E-3,2.3680166E-3,1.0045078E-3,9.4914436E-4,1.33425E-3,3.244698E-3,4.3341517E-4,2.810359E-5,0E0,2.8107315E-4,2.6335847E-4,2.9713463E-4,1.427721E-4,1.14091206E-4,6.776489E-5,5.3260475E-5,2.0711496E-4,0E0,0E0,0E0,0E0,0E0,0E0,0E0,0E0,0E0,0E0,0E0,0E0,0E0,0E0,0E0,0E0,0E0,0E0,0E0,0E0,0E0,0E0,0E0,0E0],"parents":[2147483647,0,0,1,1,2,2,3,3,4,4,5,5,6,6,7,7,8,8,9,9,10,10,11,11,12,12,13,13,14,14,15,15,17,17,18,18,19,19,20,20,21,21,22,22,23,23,24,24],"right_children":[2,4,6,8,10,12,14,16,18,20,22,24,26,28,30,32,-1,34,36,38,40,42,44,46,48,-1,-1,-1,-1,-1,-1,-1,-1,-1,-1,-1,-1,-1,-1,-1,-1,-1,-1,-1,-1,-1,-1,-1,-1],"split_conditions":[3.24988E-1,1.3594031E-1,5.5926114E-1,4.2968158E-2,2.4124852E-1,4.6008644E-1,8.732991E-1,6.1271293E-3,7.402618E-2,1.9536446E-1,2.812683E-1,3.698186E-1,5.325926E-1,7.5272775E-1,9.462664E-1,1.7697881E-3,-1.5645389E-3,5.7438895E-2,9.425138E-2,1.6376114E-1,2.1603216E-1,2.4758889E-1,2.358494E-1,3.3645043E-1,3.8960022E-1,2.9632698E-3,3.7349283E-3,4.7943546E-3,6.168998E-3,7.370145E-3,9.8426E-3,-1.9017382E-3,-1.7636959E-3,-1.3408236E-3,-1.1304563E-3,-9.0315455E-4,-6.069305E-4,-3.1798848E-4,-5.719761E-5,2.6193878E-4,4.6624365E-4,6.458599E-4,9.225015E-4,1.196274E-3,1.5321663E-3,9.1592077E-4,1.7852815E-3,7.575393E-4,2.36556E-3],"split_indices":[4,0,4,1,0,0,4,1,4,0,4,4,0,4,4,1,0,0,4,0,4,1,3,0,0,0,0,0,0,0,0,0,0,0,0,0,0,0,0,0,0,0,0,0,0,0,0,0,0],"split_type":[0,0,0,0,0,0,0,0,0,0,0,0,0,0,0,0,0,0,0,0,0,0,0,0,0,0,0,0,0,0,0,0,0,0,0,0,0,0,0,0,0,0,0,0,0,0,0,0,0],"sum_hessian":[2.848E3,2.256E3,5.92E2,1.721E3,5.35E2,3.69E2,2.23E2,1.116E3,6.05E2,3.23E2,2.12E2,1.76E2,1.93E2,1.49E2,7.4E1,8.12E2,3.04E2,4.34E2,1.71E2,1.75E2,1.48E2,1.06E2,1.06E2,1.1E2,6.6E1,1.39E2,5.4E1,5.2E1,9.7E1,6.2E1,1.2E1,2.92E2,5.2E2,1.42E2,2.92E2,1.17E2,5.4E1,8.4E1,9.1E1,8E1,6.8E1,3.5E1,7.1E1,7.9E1,2.7E1,4E0,1.06E2,2E0,6.4E1],"tree_param":{"num_deleted":"0","num_feature":"5","num_nodes":"49","size_leaf_vector":"1"}},{"base_weights":[2.579077E-4,-1.0132504E-2,3.4049086E-2,-1.3720195E-2,2.8456296E-3,2.2027638E-2,5.825974E-2,-1.5707394E-2,-9.920775E-3,-8.1580575E-4,7.2065946E-3,1.6104432E-2,2.8089255E-2,5.2951526E-2,7.6951794E-3,-1.6321033E-2,-1.400736E-2,-1.0671758E-2,-6.9337357E-3,-2.5178464E-3,1.377469E-3,4.486141E-3,9.260014E-3,1.3206737E-2,1.8506352E-2,2.4933422E-2,3.0866915E-3,4.315709E-3,5.6915823E-3,-1.7060777E-3,-1.583397E-3,-1.4736172E-3,-1.3036195E-3,-1.1501036E-3,-9.7203656E-4,-7.64554E-4,-5.64743E-4,-3.884445E-4,-1.6531802E-4,5.5370878E-5,2.492535E-4,3.8636717E-4,5.525902E-4,7.9050876E-4,1.021167E-3,6.056166E-4,1.3419436E-3,1.646968E-3,2.075809E-3,6.0073537E-4,2.5225577E-3],"categories":[],"categories_nodes":[],"categories_segments":[],"categories_sizes":[],"default_left":[0,0,0,0,0,0,0,0,0,0,0,0,0,0,0,0,0,0,0,0,0,0,0,0,0,0,0,0,0,0,0,0,0,0,0,0,0,0,0,0,0,0,0,0,0,0,0,0,0,0,0],"id":23,"left_children":[1,3,5,7,9,11,13,15,17,19,21,23,25,27,-1,29,31,33,35,37,39,41,43,45,47,49,-1,-1,-1,-1,-1,-1,-1,-1,-1,-1,-1,-1,-1,-1,-1,-1,-1,-1,-1,-1,-1,-1,-1,-1,-1],"loss_changes":[1.024165E0,1.0391782E-1,1.9837505E-1,1.30419135E-2,7.7340966E-3,1.60636E-2,1.8448532E-2,9.6687675E-4,1.2786686E-3,9.889916E-4,1.1930158E-3,1.3912022E-3,1.2114495E-3,4.5327544E-3,0E0,3.1098723E-5,2.8025359E-5,2.669096E-4,7.03563E-5,1.6964437E-4,1.05171304E-4,4.1429885E-5,8.045416E-5,8.602999E-5,2.3596361E-4,4.6221912E-4,0E0,0E0,0E0,0E0,0E0,0E0,0E0,0E0,0E0,0E0,0E0,0E0,0E0,0E0,0E0,0E0,0E0,0E0,0E0,0E0,0E0,0E0,0E0,0E0,0E0],"parents":[2147483647,0,0,1,1,2,2,3,3,4,4,5,5,6,6,7,7,8,8,9,9,10,10,11,11,12,12,13,13,15,15,16,16,17,17,18,18,19,19,20,20,21,21,22,22,23,23,24,24,25,25],"right_children":[2,4,6,8,10,12,14,16,18,20,22,24,26,28,-1,30,32,34,36,38,40,42,44,46,48,50,-1,-1,-1,-1,-1,-1,-1,-1,-1,-1,-1,-1,-1,-1,-1,-1,-1,-1,-1,-1,-1,-1,-1,-1,-1],"split_conditions":[3.1624007E-1,1.3339761E-1,5.623446E-1,3.9898142E-2,2.1278039E-1,4.2216012E-1,9.0354764E-1,6.6470746E-3,8.700919E-2,1.7227337E-1,2.4912876E-1,3.3987707E-1,4.895384E-1,7.5272775E-1,7.6951794E-3,2.0192917E-3,2.4541525E-2,6.501771E-2,9.425138E-2,1.533474E-1,2.0735915E-1,2.3735869E-1,2.9048383E-1,2.8739065E-1,3.698186E-1,4.4338816E-1,3.0866915E-3,4.315709E-3,5.6915823E-3,-1.7060777E-3,-1.583397E-3,-1.4736172E-3,-1.3036195E-3,-1.1501036E-3,-9.7203656E-4,-7.64554E-4,-5.64743E-4,-3.884445E-4,-1.6531802E-4,5.5370878E-5,2.492535E-4,3.8636717E-4,5.525902E-4,7.9050876E-4,1.021167E-3,6.056166E-4,1.3419436E-3,1.646968E-3,2.075809E-3,6.0073537E-4,2.5225577E-3],"split_indices":[0,1,1,4,4,4,0,0,0,4,0,4,4,4,0,0,4,1,4,0,1,1,0,4,4,0,0,0,0,0,0,0,0,0,0,0,0,0,0,0,0,0,0,0,0,0,0,0,0,0,0],"split_type":[0,0,0,0,0,0,0,0,0,0,0,0,0,0,0,0,0,0,0,0,0,0,0,0,0,0,0,0,0,0,0,0,0,0,0,0,0,0,0,0,0,0,0,0,0,0,0,0,0,0,0],"sum_hessian":[2.915E3,2.23E3,6.85E2,1.747E3,4.83E2,4.59E2,2.26E2,1.145E3,6.02E2,2.63E2,2.2E2,2.34E2,2.25E2,1.79E2,4.7E1,8.35E2,3.1E2,4.79E2,1.23E2,1.48E2,1.15E2,9.6E1,1.24E2,1.09E2,1.25E2,1.1E2,1.15E2,5.5E1,1.24E2,3.18E2,5.17E2,1.69E2,1.41E2,2.5E2,2.29E2,7.6E1,4.7E1,5.6E1,9.2E1,6.7E1,4.8E1,6.3E1,3.3E1,5.5E1,6.9E1,4E0,1.05E2,7E1,5.5E1,2E0,1.08E2],"tree_param":{"num_deleted":"0","num_feature":"5","num_nodes":"51","size_leaf_vector":"1"}},{"base_weights":[9.252566E-5,-8.518697E-3,3.2724373E-2,-1.229265E-2,3.7432236E-3,2.0977667E-2,5.2073825E-2,-1.4055722E-2,-8.532554E-3,5.552973E-4,8.604082E-3,1.7120812E-2,2.7041936E-2,4.4950295E-2,6.257628E-2,-1.4577115E-2,-1.2030479E-3,-9.207439E-3,-5.488224E-3,-1.5279788E-3,2.7923093E-3,6.13454E-3,1.0110427E-2,1.3852824E-2,1.9609498E-2,2.483522E-3,3.0241502E-2,3.7790008E-2,4.8162597E-3,5.830952E-3,8.336327E-3,-1.5303119E-3,-1.4077413E-3,-9.764226E-4,-8.022768E-4,-3.4414188E-4,-6.0203596E-4,-2.3675419E-4,-5.2029103E-5,1.573948E-4,3.3049888E-4,4.5245752E-4,6.632841E-4,8.836426E-4,1.2377128E-3,7.6885574E-4,1.4084153E-3,1.7008561E-3,2.0645799E-3,6.915391E-4,3.0545404E-3,1.8977836E-3,3.8622424E-3],"categories":[],"categories_nodes":[],"categories_segments":[],"categories_sizes":[],"default_left":[0,0,0,0,0,0,0,0,0,0,0,0,0,0,0,0,0,0,0,0,0,0,0,0,0,0,0,0,0,0,0,0,0,0,0,0,0,0,0,0,0,0,0,0,0,0,0,0,0,0,0,0,0],"id":24,"left_children":[1,3,5,7,9,11,13,15,17,19,21,23,25,27,29,31,-1,33,35,37,39,41,43,45,47,-1,49,51,-1,-1,-1,-1,-1,-1,-1,-1,-1,-1,-1,-1,-1,-1,-1,-1,-1,-1,-1,-1,-1,-1,-1,-1,-1],"loss_changes":[8.182701E-1,1.06665686E-1,1.3710135E-1,1.1560947E-2,8.409582E-3,8.424833E-3,1.4319718E-2,1.0896623E-3,1.1103004E-3,1.5375098E-3,7.3777325E-4,1.6396046E-3,2.7979165E-4,1.4000833E-3,3.1214952E-3,1.2847781E-4,0E0,2.2574514E-4,9.364495E-5,1.4343715E-4,9.4114104E-5,3.7377933E-5,2.7181767E-4,4.1438267E-5,1.9334257E-6,0E0,1.7865002E-4,1.8686056E-5,0E0,0E0,0E0,0E0,0E0,0E0,0E0,0E0,0E0,0E0,0E0,0E0,0E0,0E0,0E0,0E0,0E0,0E0,0E0,0E0,0E0,0E0,0E0,0E0,0E0],"parents":[2147483647,0,0,1,1,2,2,3,3,4,4,5,5,6,6,7,7,8,8,9,9,10,10,11,11,12,12,13,13,14,14,15,15,17,17,18,18,19,19,20,20,21,21,22,22,23,23,24,24,26,26,27,27],"right_children":[2,4,6,8,10,12,14,16,18,20,22,24,26,28,30,32,-1,34,36,38,40,42,44,46,48,-1,50,52,-1,-1,-1,-1,-1,-1,-1,-1,-1,-1,-1,-1,-1,-1,-1,-1,-1,-1,-1,-1,-1,-1,-1,-1,-1],"split_conditions":[3.24988E-1,1.4042075E-1,5.5926114E-1,5.0598077E-2,2.3331405E-1,4.7758788E-1,8.465527E-1,6.9431514E-3,8.445415E-2,1.8557246E-1,2.7145508E-1,3.8036984E-1,5.325926E-1,7.2239E-1,9.462664E-1,2.3893446E-3,-1.2030479E-3,6.777875E-2,1.0355299E-1,1.6723487E-1,2.1425207E-1,1.2966861E-1,2.358494E-1,3.3645043E-1,2.3963514E-1,2.483522E-3,4.895384E-1,5.682293E-1,4.8162597E-3,5.830952E-3,8.336327E-3,-1.5303119E-3,-1.4077413E-3,-9.764226E-4,-8.022768E-4,-3.4414188E-4,-6.0203596E-4,-2.3675419E-4,-5.2029103E-5,1.573948E-4,3.3049888E-4,4.5245752E-4,6.632841E-4,8.836426E-4,1.2377128E-3,7.6885574E-4,1.4084153E-3,1.7008561E-3,2.0645799E-3,6.915391E-4,3.0545404E-3,1.8977836E-3,3.8622424E-3],"split_indices":[4,0,4,1,4,1,0,3,4,4,4,1,0,4,4,0,0,4,3,0,0,3,3,0,3,0,4,0,0,0,0,0,0,0,0,0,0,0,0,0,0,0,0,0,0,0,0,0,0,0,0,0,0],"split_type":[0,0,0,0,0,0,0,0,0,0,0,0,0,0,0,0,0,0,0,0,0,0,0,0,0,0,0,0,0,0,0,0,0,0,0,0,0,0,0,0,0,0,0,0,0,0,0,0,0,0,0,0,0],"sum_hessian":[2.91E3,2.303E3,6.07E2,1.761E3,5.42E2,3.79E2,2.28E2,1.197E3,5.64E2,3.28E2,2.14E2,2.34E2,1.45E2,1.39E2,8.9E1,9.47E2,2.5E2,4.6E2,1.04E2,1.7E2,1.58E2,8.3E1,1.31E2,1.04E2,1.3E2,9.1E1,5.4E1,4.7E1,9.2E1,7.7E1,1.2E1,3.74E2,5.73E2,3.08E2,1.52E2,2.3E1,8.1E1,9.2E1,7.8E1,4.8E1,1.1E2,2.2E1,6.1E1,8.7E1,4.4E1,5E0,9.9E1,4.2E1,8.8E1,1E0,5.3E1,3E0,4.4E1],"tree_param":{"num_deleted":"0","num_feature":"5","num_nodes":"53","size_leaf_vector":"1"}},{"base_weights":[2.71994E-4,-7.922307E-3,2.881946E-2,-1.11297E-2,2.8539803E-3,1.8738892E-2,4.7066648E-2,-1.2895083E-2,-8.35141E-3,-1.7846035E-4,7.1367254E-3,1.3796261E-2,2.345538E-2,4.2401005E-2,6.0565263E-2,-1.3329159E-3,-1.1858515E-3,-9.341614E-3,-6.7083016E-3,-2.0747208E-3,1.9413511E-3,4.7872406E-3,8.745519E-3,1.1946556E-2,1.6182829E-2,2.1502727E-3,2.7247148E-3,3.53477E-2,4.6347524E-3,5.4410505E-3,7.558271E-3,-1.012707E-3,-8.5493067E-4,-7.213525E-4,-5.0139753E-4,-2.9699635E-4,-1.0965551E-4,1.0428407E-4,2.6583555E-4,3.6534792E-4,6.3125347E-4,8.802632E-4,7.746816E-5,2.9758216E-4,1.1996514E-3,1.2606011E-3,1.6922497E-3,1.3200779E-3,3.5826059E-3],"categories":[],"categories_nodes":[],"categories_segments":[],"categories_sizes":[],"default_left":[0,0,0,0,0,0,0,0,0,0,0,0,0,0,0,0,0,0,0,0,0,0,0,0,0,0,0,0,0,0,0,0,0,0,0,0,0,0,0,0,0,0,0,0,0,0,0,0,0],"id":25,"left_children":[1,3,5,7,9,11,13,15,17,19,21,23,25,27,29,-1,-1,31,33,35,37,39,41,43,45,-1,-1,47,-1,-1,-1,-1,-1,-1,-1,-1,-1,-1,-1,-1,-1,-1,-1,-1,-1,-1,-1,-1,-1],"loss_changes":[6.8282586E-1,7.842246E-2,1.188643E-1,8.465782E-3,6.7675896E-3,9.490699E-3,1.1980295E-2,3.22029E-4,1.0469556E-3,1.2340605E-3,7.745782E-4,7.2487816E-4,9.985715E-4,3.2330155E-3,1.1559576E-3,0E0,0E0,1.7666444E-4,1.863949E-4,1.3860594E-4,9.064202E-5,1.3257586E-4,5.09955E-5,1.8527731E-5,1.9490719E-5,0E0,0E0,2.3687631E-4,0E0,0E0,0E0,0E0,0E0,0E0,0E0,0E0,0E0,0E0,0E0,0E0,0E0,0E0,0E0,0E0,0E0,0E0,0E0,0E0,0E0],"parents":[2147483647,0,0,1,1,2,2,3,3,4,4,5,5,6,6,7,7,8,8,9,9,10,10,11,11,12,12,13,13,14,14,17,17,18,18,19,19,20,20,21,21,22,22,23,23,24,24,27,27],"right_children":[2,4,6,8,10,12,14,16,18,20,22,24,26,28,30,-1,-1,32,34,36,38,40,42,44,46,-1,-1,48,-1,-1,-1,-1,-1,-1,-1,-1,-1,-1,-1,-1,-1,-1,-1,-1,-1,-1,-1,-1,-1],"split_conditions":[3.3406103E-1,1.3358736E-1,5.682293E-1,3.1806357E-2,2.2617538E-1,4.2216012E-1,8.890111E-1,5.11825E-3,7.3755786E-2,1.8369497E-1,2.7727234E-1,3.752447E-1,5.1370436E-1,7.706957E-1,9.462664E-1,-1.3329159E-3,-1.1858515E-3,5.476137E-2,8.6709134E-2,1.5825891E-1,2.0957051E-1,1.615479E-1,7.59153E-1,3.0183825E-1,3.6249954E-1,2.1502727E-3,2.7247148E-3,5.5926114E-1,4.6347524E-3,5.4410505E-3,7.558271E-3,-1.012707E-3,-8.5493067E-4,-7.213525E-4,-5.0139753E-4,-2.9699635E-4,-1.0965551E-4,1.0428407E-4,2.6583555E-4,3.6534792E-4,6.3125347E-4,8.802632E-4,7.746816E-5,2.9758216E-4,1.1996514E-3,1.2606011E-3,1.6922497E-3,1.3200779E-3,3.5826059E-3],"split_indices":[0,0,0,0,4,4,0,0,0,0,0,1,1,0,4,0,0,1,4,0,1,3,3,4,4,0,0,4,0,0,0,0,0,0,0,0,0,0,0,0,0,0,0,0,0,0,0,0,0],"split_type":[0,0,0,0,0,0,0,0,0,0,0,0,0,0,0,0,0,0,0,0,0,0,0,0,0,0,0,0,0,0,0,0,0,0,0,0,0,0,0,0,0,0,0,0,0,0,0,0,0],"sum_hessian":[2.917E3,2.267E3,6.5E2,1.747E3,5.2E2,4.2E2,2.3E2,1.066E3,6.81E2,3.05E2,2.15E2,2.07E2,2.13E2,1.74E2,5.6E1,7.43E2,3.23E2,4.22E2,2.59E2,1.61E2,1.44E2,8.9E1,1.26E2,1.2E2,8.7E1,1.45E2,6.8E1,6.6E1,1.08E2,4.3E1,1.3E1,2.06E2,2.16E2,1.97E2,6.2E1,8.3E1,7.8E1,6.5E1,7.9E1,5.3E1,3.6E1,1.25E2,1E0,1E0,1.19E2,1.8E1,6.9E1,2E0,6.4E1],"tree_param":{"num_deleted":"0","num_feature":"5","num_nodes":"49","size_leaf_vector":"1"}},{"base_weights":[2.3963985E-4,-6.6690627E-3,2.8260533E-2,-1.0019869E-2,3.3775307E-3,1.805689E-2,4.3576304E-2,-1.1378791E-2,-7.0978818E-3,5.761384E-5,7.5047724E-3,1.4018985E-2,2.1990418E-2,4.0705625E-2,6.3439296E-3,-1.17677E-2,-9.5152546E-4,-7.631584E-3,-5.078337E-3,-1.3976374E-3,2.1470527E-3,5.7685534E-3,9.467822E-3,1.2684114E-2,1.609425E-3,2.0418183E-3,2.4992337E-3,3.3491563E-2,4.411656E-3,-1.2620626E-3,-1.1415599E-3,-8.092601E-4,-7.012411E-4,-5.5169244E-4,-3.9139023E-4,-2.4160568E-4,-5.2245905E-5,1.2385898E-4,2.733427E-4,4.8198688E-4,6.989292E-4,5.310204E-4,9.6783804E-4,9.3346677E-4,1.3154928E-3,1.845316E-3,3.4378108E-3],"categories":[],"categories_nodes":[],"categories_segments":[],"categories_sizes":[],"default_left":[0,0,0,0,0,0,0,0,0,0,0,0,0,0,0,0,0,0,0,0,0,0,0,0,0,0,0,0,0,0,0,0,0,0,0,0,0,0,0,0,0,0,0,0,0,0,0],"id":26,"left_children":[1,3,5,7,9,11,13,15,17,19,21,23,25,27,-1,29,-1,31,33,35,37,39,41,43,-1,-1,-1,45,-1,-1,-1,-1,-1,-1,-1,-1,-1,-1,-1,-1,-1,-1,-1,-1,-1,-1,-1],"loss_changes":[5.5985147E-1,7.813476E-2,8.860341E-2,6.828353E-3,7.960487E-3,5.1714256E-3,1.0418296E-2,7.4757636E-4,5.594436E-4,9.851335E-4,8.2813017E-4,2.7510524E-4,3.0621886E-4,3.493011E-3,0E0,1.4933944E-4,0E0,6.7992136E-5,3.918144E-5,1.6897579E-4,6.7463494E-5,1.2844568E-4,5.3656287E-5,5.0667673E-5,0E0,0E0,0E0,2.8553605E-4,0E0,0E0,0E0,0E0,0E0,0E0,0E0,0E0,0E0,0E0,0E0,0E0,0E0,0E0,0E0,0E0,0E0,0E0,0E0],"parents":[2147483647,0,0,1,1,2,2,3,3,4,4,5,5,6,6,7,7,8,8,9,9,10,10,11,11,12,12,13,13,15,15,17,17,18,18,19,19,20,20,21,21,22,22,23,23,27,27],"right_children":[2,4,6,8,10,12,14,16,18,20,22,24,26,28,-1,30,-1,32,34,36,38,40,42,44,-1,-1,-1,46,-1,-1,-1,-1,-1,-1,-1,-1,-1,-1,-1,-1,-1,-1,-1,-1,-1,-1,-1],"split_conditions":[3.3987707E-1,1.3358736E-1,5.71215E-1,5.098817E-2,2.3889665E-1,4.6424446E-1,9.3594E-1,2.391529E-2,8.700919E-2,1.9141605E-1,2.910023E-1,3.1653216E-1,5.216207E-1,7.7046543E-1,6.3439296E-3,1.6447363E-3,-9.5152546E-4,6.976115E-2,1.1394958E-1,1.535534E-1,2.165337E-1,2.8268957E-1,2.9962352E-1,3.6059633E-1,1.609425E-3,2.0418183E-3,2.4992337E-3,5.623446E-1,4.411656E-3,-1.2620626E-3,-1.1415599E-3,-8.092601E-4,-7.012411E-4,-5.5169244E-4,-3.9139023E-4,-2.4160568E-4,-5.2245905E-5,1.2385898E-4,2.733427E-4,4.8198688E-4,6.989292E-4,5.310204E-4,9.6783804E-4,9.3346677E-4,1.3154928E-3,1.845316E-3,3.4378108E-3],"split_indices":[4,0,2,0,0,1,4,4,0,1,4,3,4,4,0,1,0,0,2,4,0,0,0,2,0,0,0,1,0,0,0,0,0,0,0,0,0,0,0,0,0,0,0,0,0,0,0],"split_type":[0,0,0,0,0,0,0,0,0,0,0,0,0,0,0,0,0,0,0,0,0,0,0,0,0,0,0,0,0,0,0,0,0,0,0,0,0,0,0,0,0,0,0,0,0,0,0],"sum_hessian":[2.89E3,2.319E3,5.71E2,1.739E3,5.8E2,3.44E2,2.27E2,1.185E3,5.54E2,3.22E2,2.58E2,1.72E2,1.72E2,2.01E2,2.6E1,9.76E2,2.09E2,4.36E2,1.18E2,1.9E2,1.32E2,1.39E2,1.19E2,1.09E2,6.3E1,1.18E2,5.4E1,6.8E1,1.33E2,2.75E2,7.01E2,2.43E2,1.93E2,8.3E1,3.5E1,8.7E1,1.03E2,5.3E1,7.9E1,8.1E1,5.8E1,7E0,1.12E2,1.6E1,9.3E1,5E0,6.3E1],"tree_param":{"num_deleted":"0","num_feature":"5","num_nodes":"47","size_leaf_vector":"1"}},{"base_weights":[1.7936312E-4,-5.9902566E-3,2.5345458E-2,-9.027198E-3,2.874604E-3,1.799664E-2,4.0999293E-2,-1.0243945E-2,-6.336368E-3,3.270423E-4,6.951503E-3,1.5260538E-2,2.5157554E-2,3.8501758E-2,6.4348727E-3,-1.0766765E-2,-9.149373E-3,-6.926362E-3,-4.937869E-3,-1.5517094E-3,2.0565358E-3,5.322525E-3,8.56221E-3,1.27935E-2,1.7814267E-3,2.2024764E-3,2.7107566E-3,3.2663096E-3,4.1255346E-3,-1.1786178E-3,-1.0567451E-3,-9.6993346E-4,-8.528844E-4,-7.4409303E-4,-6.555194E-4,-5.365971E-4,-3.7579986E-4,-1.470125E-4,-7.914491E-4,1.2383006E-4,2.8044078E-4,4.228822E-4,6.1754993E-4,5.4501294E-4,8.912279E-4,1.1424804E-3,1.5172691E-3],"categories":[],"categories_nodes":[],"categories_segments":[],"categories_sizes":[],"default_left":[0,0,0,0,0,0,0,0,0,0,0,0,0,0,0,0,0,0,0,0,0,0,0,0,0,0,0,0,0,0,0,0,0,0,0,0,0,0,0,0,0,0,0,0,0,0,0],"id":27,"left_children":[1,3,5,7,9,11,13,15,17,19,21,23,25,27,-1,29,31,33,35,37,39,41,43,45,-1,-1,-1,-1,-1,-1,-1,-1,-1,-1,-1,-1,-1,-1,-1,-1,-1,-1,-1,-1,-1,-1,-1],"loss_changes":[4.4871306E-1,6.251206E-2,6.4718306E-2,5.5959374E-3,6.156714E-3,7.237762E-3,8.077621E-3,5.8192015E-4,4.1218102E-4,1.1924308E-3,5.526552E-4,1.5613437E-3,5.0514936E-5,1.3213009E-3,0E0,3.7789345E-5,5.070865E-5,2.3417175E-5,6.2671956E-5,7.9726946E-5,1.1340692E-4,8.210144E-5,7.453468E-5,3.0859932E-4,0E0,0E0,0E0,0E0,0E0,0E0,0E0,0E0,0E0,0E0,0E0,0E0,0E0,0E0,0E0,0E0,0E0,0E0,0E0,0E0,0E0,0E0,0E0],"parents":[2147483647,0,0,1,1,2,2,3,3,4,4,5,5,6,6,7,7,8,8,9,9,10,10,11,11,12,12,13,13,15,15,16,16,17,17,18,18,19,19,20,20,21,21,22,22,23,23],"right_children":[2,4,6,8,10,12,14,16,18,20,22,24,26,28,-1,30,32,34,36,38,40,42,44,46,-1,-1,-1,-1,-1,-1,-1,-1,-1,-1,-1,-1,-1,-1,-1,-1,-1,-1,-1,-1,-1,-1,-1],"split_conditions":[3.3987707E-1,1.3358736E-1,7.072768E-1,4.4827055E-2,2.3625116E-1,5.325926E-1,9.462664E-1,5.9577366E-3,7.402618E-2,1.8413828E-1,2.910023E-1,4.368558E-1,5.496244E-1,7.97217E-1,6.4348727E-3,1.2161469E-3,2.8052865E-2,5.5765044E-2,9.425138E-2,6.554541E-1,2.1278039E-1,2.674743E-1,3.0755377E-1,3.467421E-1,1.7814267E-3,2.2024764E-3,2.7107566E-3,3.2663096E-3,4.1255346E-3,-1.1786178E-3,-1.0567451E-3,-9.6993346E-4,-8.528844E-4,-7.4409303E-4,-6.555194E-4,-5.365971E-4,-3.7579986E-4,-1.470125E-4,-7.914491E-4,1.2383006E-4,2.8044078E-4,4.228822E-4,6.1754993E-4,5.4501294E-4,8.912279E-4,1.1424804E-3,1.5172691E-3],"split_indices":[4,0,1,4,4,0,4,1,4,1,4,4,4,4,0,1,1,4,4,3,4,4,0,3,0,0,0,0,0,0,0,0,0,0,0,0,0,0,0,0,0,0,0,0,0,0,0],"split_type":[0,0,0,0,0,0,0,0,0,0,0,0,0,0,0,0,0,0,0,0,0,0,0,0,0,0,0,0,0,0,0,0,0,0,0,0,0,0,0,0,0,0,0,0,0,0,0],"sum_hessian":[2.888E3,2.32E3,5.68E2,1.728E3,5.92E2,3.88E2,1.8E2,1.188E3,5.4E2,3.65E2,2.27E2,2.83E2,1.05E2,1.65E2,1.5E1,7.98E2,3.9E2,3.77E2,1.63E2,1.75E2,1.9E2,1.15E2,1.12E2,1.47E2,1.36E2,4.5E1,6E1,5.7E1,1.08E2,1.21E2,6.77E2,1.99E2,1.91E2,1.5E2,2.27E2,1.17E2,4.6E1,1.74E2,1E0,9.2E1,9.8E1,5.3E1,6.2E1,1.3E1,9.9E1,9.7E1,5E1],"tree_param":{"num_deleted":"0","num_feature":"5","num_nodes":"47","size_leaf_vector":"1"}},{"base_weights":[2.3226174E-4,-5.525529E-3,2.1825945E-2,-8.089212E-3,2.6028117E-3,1.5567747E-2,3.644593E-2,-9.182385E-3,-5.613521E-3,7.237913E-5,5.6370264E-3,1.1703942E-2,1.954089E-2,3.4119774E-2,4.9782465E-3,-9.681318E-3,-8.134998E-3,-6.1273957E-3,-4.064682E-3,-1.5091242E-3,1.1825787E-3,3.609576E-3,6.5134866E-3,1.0243936E-2,1.4838308E-2,1.7204616E-3,2.3226758E-2,2.9241021E-3,3.5966074E-3,-1.0323167E-3,-9.397073E-4,-8.682917E-4,-7.6258765E-4,-6.54504E-4,-5.681486E-4,-3.240865E-4,-4.577719E-4,2.8853343E-4,-1.5678322E-4,3.213004E-5,1.8360157E-4,3.7396123E-4,-8.878609E-5,5.4420705E-4,7.347169E-4,8.8440784E-4,1.1564264E-3,1.6245239E-3,1.176858E-3,2.1671543E-3,2.8417571E-3],"categories":[],"categories_nodes":[],"categories_segments":[],"categories_sizes":[],"default_left":[0,0,0,0,0,0,0,0,0,0,0,0,0,0,0,0,0,0,0,0,0,0,0,0,0,0,0,0,0,0,0,0,0,0,0,0,0,0,0,0,0,0,0,0,0,0,0,0,0,0,0],"id":28,"left_children":[1,3,5,7,9,11,13,15,17,19,21,23,25,27,-1,29,31,33,35,37,39,41,43,45,47,-1,49,-1,-1,-1,-1,-1,-1,-1,-1,-1,-1,-1,-1,-1,-1,-1,-1,-1,-1,-1,-1,-1,-1,-1,-1],"loss_changes":[3.620508E-1,4.7928743E-2,5.5518925E-2,4.679166E-3,4.237779E-3,6.3877776E-3,3.978625E-3,5.540848E-4,4.0329248E-4,5.320315E-4,4.2251125E-4,8.5933506E-4,1.4173463E-3,3.8053095E-4,0E0,5.1684678E-5,4.453212E-5,3.767945E-5,4.306715E-5,3.6772457E-5,9.9586905E-5,4.893681E-5,1.154365E-4,1.8235855E-4,1.02502294E-4,0E0,2.1900982E-5,0E0,0E0,0E0,0E0,0E0,0E0,0E0,0E0,0E0,0E0,0E0,0E0,0E0,0E0,0E0,0E0,0E0,0E0,0E0,0E0,0E0,0E0,0E0,0E0],"parents":[2147483647,0,0,1,1,2,2,3,3,4,4,5,5,6,6,7,7,8,8,9,9,10,10,11,11,12,12,13,13,15,15,16,16,17,17,18,18,19,19,20,20,21,21,22,22,23,23,24,24,26,26],"right_children":[2,4,6,8,10,12,14,16,18,20,22,24,26,28,-1,30,32,34,36,38,40,42,44,46,48,-1,50,-1,-1,-1,-1,-1,-1,-1,-1,-1,-1,-1,-1,-1,-1,-1,-1,-1,-1,-1,-1,-1,-1,-1,-1],"split_conditions":[3.3383772E-1,1.3594031E-1,7.072768E-1,5.183929E-2,2.2827496E-1,4.6480805E-1,9.4907E-1,6.3122245E-3,8.700919E-2,1.7289813E-1,2.6032725E-1,3.5908872E-1,5.383673E-1,7.858437E-1,4.9782465E-3,1.4645702E-3,2.4541525E-2,5.9980057E-2,1.2720874E-1,1.2225467E-1,2.0734005E-1,2.8268957E-1,1.8980134E-1,3.8036984E-1,4.7932333E-1,1.7204616E-3,3.6457485E-1,2.9241021E-3,3.5966074E-3,-1.0323167E-3,-9.397073E-4,-8.682917E-4,-7.6258765E-4,-6.54504E-4,-5.681486E-4,-3.240865E-4,-4.577719E-4,2.8853343E-4,-1.5678322E-4,3.213004E-5,1.8360157E-4,3.7396123E-4,-8.878609E-5,5.4420705E-4,7.347169E-4,8.8440784E-4,1.1564264E-3,1.6245239E-3,1.176858E-3,2.1671543E-3,2.8417571E-3],"split_indices":[4,0,1,0,4,4,2,0,0,0,4,3,1,0,0,1,4,4,3,1,0,0,3,1,3,0,3,0,0,0,0,0,0,0,0,0,0,0,0,0,0,0,0,0,0,0,0,0,0,0,0],"split_type":[0,0,0,0,0,0,0,0,0,0,0,0,0,0,0,0,0,0,0,0,0,0,0,0,0,0,0,0,0,0,0,0,0,0,0,0,0,0,0,0,0,0,0,0,0,0,0,0,0,0,0],"sum_hessian":[2.91E3,2.298E3,6.12E2,1.747E3,5.51E2,4.3E2,1.82E2,1.21E3,5.37E2,3.01E2,2.5E2,2.2E2,2.1E2,1.58E2,2.4E1,8.14E2,3.96E2,4.01E2,1.36E2,1.24E2,1.77E2,7.7E1,1.73E2,1.53E2,6.7E1,1.32E2,7.8E1,4.8E1,1.1E2,2.39E2,5.75E2,1.83E2,2.13E2,2E2,2.01E2,5.5E1,8.1E1,1E0,1.23E2,7.7E1,1E2,7.5E1,2E0,7.9E1,9.4E1,7.8E1,7.5E1,4.3E1,2.4E1,6.4E1,1.4E1],"tree_param":{"num_deleted":"0","num_feature":"5","num_nodes":"51","size_leaf_vector":"1"}},{"base_weights":[2.1389933E-4,-4.969842E-3,2.0267118E-2,-7.2995946E-3,2.3688092E-3,1.3320335E-2,3.1181693E-2,-8.2998285E-3,-5.069022E-3,4.038033E-4,5.676361E-3,9.9757E-3,1.5889684E-2,2.7581496E-2,3.8849052E-2,-8.736889E-3,-7.430996E-3,-5.455347E-3,-3.3834663E-3,-1.0729908E-3,1.7056332E-3,4.4187987E-3,6.608728E-3,8.398054E-3,1.1431689E-2,1.4850905E-3,1.8425485E-2,2.3429161E-2,2.9732552E-3,3.6090917E-3,4.859052E-3,-9.6582307E-4,-8.5627317E-4,-7.872552E-4,-6.981539E-4,-5.717638E-4,-4.730241E-4,-2.0458233E-4,-4.0230618E-4,-1.7248609E-4,-4.0033945E-5,7.927819E-5,2.170389E-4,4.7029462E-4,1.8988983E-4,6.066624E-4,8.2936103E-4,5.189039E-4,8.822141E-4,5.4890814E-4,1.1746286E-3,1.8957617E-3,1.0831446E-3,1.2822758E-3,2.4160238E-3],"categories":[],"categories_nodes":[],"categories_segments":[],"categories_sizes":[],"default_left":[0,0,0,0,0,0,0,0,0,0,0,0,0,0,0,0,0,0,0,0,0,0,0,0,0,0,0,0,0,0,0,0,0,0,0,0,0,0,0,0,0,0,0,0,0,0,0,0,0,0,0,0,0,0,0],"id":29,"left_children":[1,3,5,7,9,11,13,15,17,19,21,23,25,27,29,31,33,35,37,39,41,43,45,47,49,-1,51,53,-1,-1,-1,-1,-1,-1,-1,-1,-1,-1,-1,-1,-1,-1,-1,-1,-1,-1,-1,-1,-1,-1,-1,-1,-1,-1,-1],"loss_changes":[3.0415654E-1,3.9768375E-2,4.515317E-2,3.8958117E-3,3.6438475E-3,3.0125082E-3,5.360216E-3,3.972128E-4,3.3903494E-4,6.804849E-4,2.158517E-4,2.7841143E-4,2.7162954E-4,7.503554E-4,1.8084049E-4,4.630536E-5,2.7198344E-5,5.758833E-5,8.1602484E-5,7.209736E-5,7.8038895E-5,5.6943623E-5,5.746493E-5,6.581517E-5,8.882489E-5,0E0,2.0960346E-5,1.5544519E-4,0E0,0E0,0E0,0E0,0E0,0E0,0E0,0E0,0E0,0E0,0E0,0E0,0E0,0E0,0E0,0E0,0E0,0E0,0E0,0E0,0E0,0E0,0E0,0E0,0E0,0E0,0E0],"parents":[2147483647,0,0,1,1,2,2,3,3,4,4,5,5,6,6,7,7,8,8,9,9,10,10,11,11,12,12,13,13,14,14,15,15,16,16,17,17,18,18,19,19,20,20,21,21,22,22,23,23,24,24,26,26,27,27],"right_children":[2,4,6,8,10,12,14,16,18,20,22,24,26,28,30,32,34,36,38,40,42,44,46,48,50,-1,52,54,-1,-1,-1,-1,-1,-1,-1,-1,-1,-1,-1,-1,-1,-1,-1,-1,-1,-1,-1,-1,-1,-1,-1,-1,-1,-1,-1],"split_conditions":[3.3383772E-1,1.3457082E-1,5.71215E-1,5.1490422E-2,2.4912876E-1,4.3139905E-1,8.8289535E-1,5.8533647E-3,8.9872524E-2,1.8413828E-1,2.9429877E-1,3.8036984E-1,5.325926E-1,7.5272775E-1,9.497384E-1,6.7660824E-4,2.8586615E-2,6.905205E-2,1.3556156E-1,1.6073784E-1,2.1425207E-1,3.022314E-1,2.6026753E-1,1.4615166E-1,1.615479E-1,1.4850905E-3,5.623446E-1,5.623446E-1,2.9732552E-3,3.6090917E-3,4.859052E-3,-9.6582307E-4,-8.5627317E-4,-7.872552E-4,-6.981539E-4,-5.717638E-4,-4.730241E-4,-2.0458233E-4,-4.0230618E-4,-1.7248609E-4,-4.0033945E-5,7.927819E-5,2.170389E-4,4.7029462E-4,1.8988983E-4,6.066624E-4,8.2936103E-4,5.189039E-4,8.822141E-4,5.4890814E-4,1.1746286E-3,1.8957617E-3,1.0831446E-3,1.2822758E-3,2.4160238E-3],"split_indices":[4,1,2,1,0,4,2,2,1,1,1,1,0,4,0,4,0,4,3,0,0,2,3,3,3,0,1,1,0,0,0,0,0,0,0,0,0,0,0,0,0,0,0,0,0,0,0,0,0,0,0,0,0,0,0],"split_type":[0,0,0,0,0,0,0,0,0,0,0,0,0,0,0,0,0,0,0,0,0,0,0,0,0,0,0,0,0,0,0,0,0,0,0,0,0,0,0,0,0,0,0,0,0,0,0,0,0,0,0,0,0,0,0],"sum_hessian":[2.924E3,2.324E3,6E2,1.764E3,5.6E2,3.68E2,2.32E2,1.216E3,5.48E2,3.52E2,2.08E2,1.62E2,2.06E2,1.61E2,7.1E1,8.03E2,4.13E2,4.44E2,1.04E2,1.65E2,1.87E2,9.1E1,1.17E2,8.1E1,8.1E1,1.51E2,5.5E1,5.9E1,1.02E2,5.9E1,1.2E1,1.19E2,6.84E2,2E2,2.13E2,3.21E2,1.23E2,3.5E1,6.9E1,8.3E1,8.2E1,6.4E1,1.23E2,8.1E1,1E1,9.2E1,2.5E1,1.1E1,7E1,5E0,7.6E1,5E1,5E0,5E0,5.4E1],"tree_param":{"num_deleted":"0","num_feature":"5","num_nodes":"55","size_leaf_vector":"1"}},{"base_weights":[9.293451E-6,-4.9638525E-3,1.6544433E-2,-6.593111E-3,1.2888571E-3,1.0663776E-2,2.8076418E-2,-7.4771023E-3,-4.618663E-3,-4.3806853E-4,3.4183455E-3,7.083356E-3,1.3174483E-2,2.5289182E-2,3.8433228E-2,-7.858546E-3,-6.6891587E-3,-5.035315E-3,-3.5243859E-3,-1.3152027E-3,8.776279E-4,2.1699446E-3,4.4994815E-3,5.2026454E-3,7.4403696E-3,1.2048907E-2,1.6131898E-3,2.292846E-2,2.8319957E-3,3.3277613E-3,4.8960745E-3,-8.190735E-4,-7.51047E-4,-7.089622E-4,-6.238983E-4,-5.7656877E-4,-4.8201965E-4,-1.8550495E-4,-3.816058E-4,-1.978887E-4,-8.464276E-5,6.461926E-5,2.5788296E-4,1.4182224E-4,2.381563E-4,3.4317205E-4,5.2707846E-4,5.4435444E-4,9.791454E-5,7.5155636E-4,2.741702E-4,5.4594496E-4,1.2231139E-3,1.0511506E-3,2.3308618E-3],"categories":[],"categories_nodes":[],"categories_segments":[],"categories_sizes":[],"default_left":[0,0,0,0,0,0,0,0,0,0,0,0,0,0,0,0,0,0,0,0,0,0,0,0,0,0,0,0,0,0,0,0,0,0,0,0,0,0,0,0,0,0,0,0,0,0,0,0,0,0,0,0,0,0,0],"id":30,"left_children":[1,3,5,7,9,11,13,15,17,19,21,23,25,27,29,31,33,35,37,39,41,43,45,47,49,51,-1,53,-1,-1,-1,-1,-1,-1,-1,-1,-1,-1,-1,-1,-1,-1,-1,-1,-1,-1,-1,-1,-1,-1,-1,-1,-1,-1,-1],"loss_changes":[2.3863617E-1,2.2736315E-2,4.5204893E-2,3.05482E-3,1.7004878E-3,3.915947E-3,5.551964E-3,3.144145E-4,2.3301598E-4,2.965891E-4,2.6962254E-4,8.617714E-5,6.744452E-4,6.4568967E-4,8.6738914E-4,3.2950193E-5,2.8781593E-5,3.442634E-5,6.839039E-5,4.6237314E-5,3.8886552E-5,1.2212084E-5,7.250463E-5,2.8245267E-5,3.3805147E-5,1.6498007E-4,0E0,2.6007742E-4,0E0,0E0,0E0,0E0,0E0,0E0,0E0,0E0,0E0,0E0,0E0,0E0,0E0,0E0,0E0,0E0,0E0,0E0,0E0,0E0,0E0,0E0,0E0,0E0,0E0,0E0,0E0],"parents":[2147483647,0,0,1,1,2,2,3,3,4,4,5,5,6,6,7,7,8,8,9,9,10,10,11,11,12,12,13,13,14,14,15,15,16,16,17,17,18,18,19,19,20,20,21,21,22,22,23,23,24,24,25,25,27,27],"right_children":[2,4,6,8,10,12,14,16,18,20,22,24,26,28,30,32,34,36,38,40,42,44,46,48,50,52,-1,54,-1,-1,-1,-1,-1,-1,-1,-1,-1,-1,-1,-1,-1,-1,-1,-1,-1,-1,-1,-1,-1,-1,-1,-1,-1,-1,-1],"split_conditions":[3.1317928E-1,1.3339761E-1,5.5926114E-1,5.0598077E-2,2.1755457E-1,3.7591943E-1,9.0122193E-1,5.732823E-3,7.4766375E-2,1.7529422E-1,2.3802777E-1,1.5293929E-1,5.264109E-1,7.91746E-1,9.462664E-1,2.5089895E-3,2.8586615E-2,5.0239563E-2,1.0075844E-1,1.5371242E-1,3.040745E-1,8.905907E-2,1.8980134E-1,1.4992753E-1,4.119518E-1,4.052525E-1,1.6131898E-3,5.682293E-1,2.8319957E-3,3.3277613E-3,4.8960745E-3,-8.190735E-4,-7.51047E-4,-7.089622E-4,-6.238983E-4,-5.7656877E-4,-4.8201965E-4,-1.8550495E-4,-3.816058E-4,-1.978887E-4,-8.464276E-5,6.461926E-5,2.5788296E-4,1.4182224E-4,2.381563E-4,3.4317205E-4,5.2707846E-4,5.4435444E-4,9.791454E-5,7.5155636E-4,2.741702E-4,5.4594496E-4,1.2231139E-3,1.0511506E-3,2.3308618E-3],"split_indices":[0,1,4,1,1,4,4,1,4,4,4,3,0,1,4,0,0,4,3,1,3,3,3,3,0,0,0,0,0,0,0,0,0,0,0,0,0,0,0,0,0,0,0,0,0,0,0,0,0,0,0,0,0,0,0],"split_type":[0,0,0,0,0,0,0,0,0,0,0,0,0,0,0,0,0,0,0,0,0,0,0,0,0,0,0,0,0,0,0,0,0,0,0,0,0,0,0,0,0,0,0,0,0,0,0,0,0,0,0,0,0,0,0],"sum_hessian":[2.9E3,2.23E3,6.7E2,1.769E3,4.61E2,4.45E2,2.25E2,1.22E3,5.49E2,2.55E2,2.06E2,1.85E2,2.6E2,1.8E2,4.5E1,8.16E2,4.04E2,3.95E2,1.54E2,1.53E2,1.02E2,9.7E1,1.09E2,3.2E1,1.53E2,1.92E2,6.8E1,1.06E2,7.4E1,3.3E1,1.2E1,4.06E2,4.1E2,2.06E2,1.98E2,8.4E1,3.11E2,2.4E1,1.3E2,6.2E1,9.1E1,9.1E1,1.1E1,2.3E1,7.4E1,4.8E1,6.1E1,3E1,2E0,1.5E2,3E0,6E0,1.86E2,4E0,1.02E2],"tree_param":{"num_deleted":"0","num_feature":"5","num_nodes":"55","size_leaf_vector":"1"}},{"base_weights":[1.2320445E-4,-4.312837E-3,1.4967207E-2,-5.957516E-3,1.1178249E-3,9.726684E-3,2.521971E-2,-6.9122654E-3,-4.5882706E-3,-7.010678E-4,2.925509E-3,6.402589E-3,1.15885725E-2,2.3148356E-2,3.6235936E-2,-7.341982E-4,-6.559301E-4,-5.4751965E-3,-4.1208416E-3,-1.4631635E-3,2.944693E-4,1.7164951E-3,3.88922E-3,9.724249E-3,6.096215E-3,1.0518645E-2,1.4140138E-3,1.9683927E-2,2.5326977E-3,2.9972733E-3,4.404783E-3,-5.5094314E-4,-2.0608921E-4,-4.5065573E-4,-3.5508495E-4,-1.350612E-4,-6.452948E-4,6.7049774E-7,1.0005967E-4,1.1482686E-4,2.284518E-4,3.9719362E-4,-1.3499857E-4,1.0185819E-3,2.3234934E-4,4.332364E-5,6.2080775E-4,2.7549268E-5,1.0567746E-3,6.063064E-4,1.9958976E-3],"categories":[],"categories_nodes":[],"categories_segments":[],"categories_sizes":[],"default_left":[0,0,0,0,0,0,0,0,0,0,0,0,0,0,0,0,0,0,0,0,0,0,0,0,0,0,0,0,0,0,0,0,0,0,0,0,0,0,0,0,0,0,0,0,0,0,0,0,0,0,0],"id":31,"left_children":[1,3,5,7,9,11,13,15,17,19,21,23,25,27,29,-1,-1,31,33,35,37,39,41,43,45,47,-1,49,-1,-1,-1,-1,-1,-1,-1,-1,-1,-1,-1,-1,-1,-1,-1,-1,-1,-1,-1,-1,-1,-1,-1],"loss_changes":[1.9174986E-1,2.0031523E-2,3.575279E-2,2.2181235E-3,1.718378E-3,2.6799515E-3,4.3181777E-3,1.0533258E-4,2.7178787E-4,1.984501E-4,2.9859086E-4,1.0558171E-4,6.265789E-4,9.5815957E-4,3.4329668E-4,0E0,0E0,1.693191E-5,8.7109394E-5,7.440252E-5,2.3157892E-5,3.5463134E-5,6.8200054E-5,1.7324812E-5,9.296555E-5,9.9692494E-5,0E0,1.7495267E-4,0E0,0E0,0E0,0E0,0E0,0E0,0E0,0E0,0E0,0E0,0E0,0E0,0E0,0E0,0E0,0E0,0E0,0E0,0E0,0E0,0E0,0E0,0E0],"parents":[2147483647,0,0,1,1,2,2,3,3,4,4,5,5,6,6,7,7,8,8,9,9,10,10,11,11,12,12,13,13,14,14,17,17,18,18,19,19,20,20,21,21,22,22,23,23,24,24,25,25,27,27],"right_children":[2,4,6,8,10,12,14,16,18,20,22,24,26,28,30,-1,-1,32,34,36,38,40,42,44,46,48,-1,50,-1,-1,-1,-1,-1,-1,-1,-1,-1,-1,-1,-1,-1,-1,-1,-1,-1,-1,-1,-1,-1,-1,-1],"split_conditions":[3.2164368E-1,1.11707054E-1,5.682293E-1,2.626916E-2,2.0799612E-1,3.698186E-1,9.156519E-1,2.851088E-3,5.476137E-2,1.6257922E-1,2.3625116E-1,3.2689E-1,5.057581E-1,7.7724993E-1,9.510215E-1,-7.341982E-4,-6.559301E-4,5.2074008E-2,7.550852E-2,6.554541E-1,2.4513143E-1,1.2296712E-1,3.1461647E-1,3.1797162E-1,3.1219438E-1,3.8229784E-1,1.4140138E-3,5.5926114E-1,2.5326977E-3,2.9972733E-3,4.404783E-3,-5.5094314E-4,-2.0608921E-4,-4.5065573E-4,-3.5508495E-4,-1.350612E-4,-6.452948E-4,6.7049774E-7,1.0005967E-4,1.1482686E-4,2.284518E-4,3.9719362E-4,-1.3499857E-4,1.0185819E-3,2.3234934E-4,4.332364E-5,6.2080775E-4,2.7549268E-5,1.0567746E-3,6.063064E-4,1.9958976E-3],"split_indices":[0,4,0,4,4,4,1,0,1,4,4,2,4,0,1,0,0,4,1,3,3,3,4,1,1,0,0,4,0,0,0,0,0,0,0,0,0,0,0,0,0,0,0,0,0,0,0,0,0,0,0],"split_type":[0,0,0,0,0,0,0,0,0,0,0,0,0,0,0,0,0,0,0,0,0,0,0,0,0,0,0,0,0,0,0,0,0,0,0,0,0,0,0,0,0,0,0,0,0,0,0,0,0,0,0],"sum_hessian":[2.91E3,2.241E3,6.69E2,1.72E3,5.21E2,4.44E2,2.25E2,1.011E3,7.09E2,2.6E2,2.61E2,1.61E2,2.83E2,1.92E2,3.3E1,4.47E2,5.64E2,2.41E2,4.68E2,1.47E2,1.13E2,1.17E2,1.44E2,1.1E1,1.5E2,2.03E2,8E1,7.8E1,1.14E2,2.1E1,1.2E1,2.38E2,3E0,2.75E2,1.93E2,1.45E2,2E0,8.1E1,3.2E1,6E1,5.7E1,1.42E2,2E0,1E1,1E0,3E0,1.47E2,1E0,2.02E2,2E0,7.6E1],"tree_param":{"num_deleted":"0","num_feature":"5","num_nodes":"51","size_leaf_vector":"1"}},{"base_weights":[1.4195355E-4,-3.5466896E-3,1.5117349E-2,-5.2385437E-3,2.1044624E-3,9.6454965E-3,2.2920148E-2,-6.0149613E-3,-3.5573153E-3,5.195794E-4,4.190814E-3,7.2728973E-3,1.1476389E-2,1.9756254E-2,2.8775504E-2,-6.363069E-3,-5.2991714E-3,-4.008436E-3,-2.3611845E-3,-4.7836162E-4,1.3668216E-3,3.2093562E-3,4.9397713E-3,3.8628152E-3,7.5619565E-3,1.0451609E-2,1.2949354E-3,1.7390886E-2,2.1166701E-3,2.6026308E-3,3.9320174E-3,-7.176907E-4,-6.225565E-4,-5.692191E-4,-5.0048344E-4,-4.182058E-4,-3.5715065E-4,-2.2918699E-4,-6.7257736E-4,3.0345842E-4,-5.74627E-5,9.721574E-5,1.8147995E-4,2.8630992E-4,4.4580465E-4,5.085121E-4,1.6177892E-4,4.8986304E-4,-1.5680492E-4,6.4453477E-4,8.417451E-4,1.0830121E-3,2.8482717E-4,2.0465162E-3,1.509216E-3],"categories":[],"categories_nodes":[],"categories_segments":[],"categories_sizes":[],"default_left":[0,0,0,0,0,0,0,0,0,0,0,0,0,0,0,0,0,0,0,0,0,0,0,0,0,0,0,0,0,0,0,0,0,0,0,0,0,0,0,0,0,0,0,0,0,0,0,0,0,0,0,0,0,0,0],"id":32,"left_children":[1,3,5,7,9,11,13,15,17,19,21,23,25,27,29,31,33,35,37,39,41,43,45,47,49,51,-1,53,-1,-1,-1,-1,-1,-1,-1,-1,-1,-1,-1,-1,-1,-1,-1,-1,-1,-1,-1,-1,-1,-1,-1,-1,-1,-1,-1],"loss_changes":[1.632293E-1,2.2679975E-2,2.4713248E-2,2.3608431E-3,1.8065458E-3,1.4152043E-3,3.8776696E-3,2.7699769E-4,3.029639E-4,2.644491E-4,1.5762309E-4,1.2160372E-4,1.5598536E-4,1.623556E-4,1.3537705E-3,4.8648566E-5,1.9402243E-5,1.6849022E-5,3.3292803E-5,5.0440973E-5,2.8115057E-5,3.2634707E-5,5.550962E-5,8.643647E-5,7.9482794E-5,3.1162892E-4,0E0,1.5048683E-4,0E0,0E0,0E0,0E0,0E0,0E0,0E0,0E0,0E0,0E0,0E0,0E0,0E0,0E0,0E0,0E0,0E0,0E0,0E0,0E0,0E0,0E0,0E0,0E0,0E0,0E0,0E0],"parents":[2147483647,0,0,1,1,2,2,3,3,4,4,5,5,6,6,7,7,8,8,9,9,10,10,11,11,12,12,13,13,14,14,15,15,16,16,17,17,18,18,19,19,20,20,21,21,22,22,23,23,24,24,25,25,27,27],"right_children":[2,4,6,8,10,12,14,16,18,20,22,24,26,28,30,32,34,36,38,40,42,44,46,48,50,52,-1,54,-1,-1,-1,-1,-1,-1,-1,-1,-1,-1,-1,-1,-1,-1,-1,-1,-1,-1,-1,-1,-1,-1,-1,-1,-1,-1,-1],"split_conditions":[3.477357E-1,1.5204872E-1,5.5926114E-1,5.193546E-2,2.4912876E-1,4.368558E-1,8.6655766E-1,6.6470746E-3,7.8085706E-2,1.9536446E-1,2.910023E-1,1.4615166E-1,5.1370436E-1,7.5272775E-1,9.497384E-1,1.0799081E-3,2.8052865E-2,6.777875E-2,6.554541E-1,1.3481621E-1,2.2450432E-1,4.003107E-1,3.5549587E-1,4.2282438E-1,3.698186E-1,5.272313E-1,1.2949354E-3,6.806951E-1,2.1166701E-3,2.6026308E-3,3.9320174E-3,-7.176907E-4,-6.225565E-4,-5.692191E-4,-5.0048344E-4,-4.182058E-4,-3.5715065E-4,-2.2918699E-4,-6.7257736E-4,3.0345842E-4,-5.74627E-5,9.721574E-5,1.8147995E-4,2.8630992E-4,4.4580465E-4,5.085121E-4,1.6177892E-4,4.8986304E-4,-1.5680492E-4,6.4453477E-4,8.417451E-4,1.0830121E-3,2.8482717E-4,2.0465162E-3,1.509216E-3],"split_indices":[1,0,4,1,0,4,1,0,4,0,4,3,1,4,0,1,1,4,3,4,1,3,2,0,4,2,0,2,0,0,0,0,0,0,0,0,0,0,0,0,0,0,0,0,0,0,0,0,0,0,0,0,0,0,0],"split_type":[0,0,0,0,0,0,0,0,0,0,0,0,0,0,0,0,0,0,0,0,0,0,0,0,0,0,0,0,0,0,0,0,0,0,0,0,0,0,0,0,0,0,0,0,0,0,0,0,0,0,0,0,0,0,0],"sum_hessian":[2.953E3,2.37E3,5.83E2,1.824E3,5.46E2,3.44E2,2.39E2,1.246E3,5.78E2,3.11E2,2.35E2,1.52E2,1.92E2,1.58E2,8.1E1,8.33E2,4.13E2,4.18E2,1.6E2,1.43E2,1.68E2,1.04E2,1.31E2,1.3E1,1.39E2,1.18E2,7.4E1,6.4E1,9.4E1,6.7E1,1.4E1,1.13E2,7.2E2,1.69E2,2.44E2,2.93E2,1.25E2,1.59E2,1E0,3E0,1.4E2,9.1E1,7.7E1,8.4E1,2E1,1.25E2,6E0,1.1E1,2E0,6.4E1,7.5E1,1.12E2,6E0,2.4E1,4E1],"tree_param":{"num_deleted":"0","num_feature":"5","num_nodes":"55","size_leaf_vector":"1"}},{"base_weights":[1.1559437E-5,-3.3263876E-3,1.3346181E-2,-4.774836E-3,1.5268482E-3,9.292754E-3,2.2248294E-2,-5.4574306E-3,-3.2958863E-3,3.4161197E-4,3.554391E-3,7.1089617E-3,1.1985831E-2,2.024647E-2,3.0077487E-2,-5.8357664E-3,-4.972588E-3,-3.5777253E-3,-2.0982134E-3,-5.38695E-4,1.1270999E-3,2.5683285E-3,4.2292946E-3,6.126027E-3,9.965924E-3,1.0525454E-2,1.3870549E-2,1.8567404E-3,2.2464595E-3,2.6651218E-3,3.9975245E-2,-6.468023E-4,-5.688394E-4,-5.243644E-4,-4.5667883E-4,-3.7736955E-4,-3.0727996E-4,-5.9298764E-5,-2.442844E-4,7.2866904E-5,-7.134034E-5,1.1983132E-4,-1.137808E-4,3.6918987E-5,3.3554083E-4,3.5671887E-4,5.601553E-4,5.833811E-4,9.819532E-4,1.1277884E-3,7.8879774E-4,1.0680053E-3,1.709024E-4,1.2302492E-3,1.7088939E-3,1.7782728E-3,4.5295707E-3],"categories":[],"categories_nodes":[],"categories_segments":[],"categories_sizes":[],"default_left":[0,0,0,0,0,0,0,0,0,0,0,0,0,0,0,0,0,0,0,0,0,0,0,0,0,0,0,0,0,0,0,0,0,0,0,0,0,0,0,0,0,0,0,0,0,0,0,0,0,0,0,0,0,0,0,0,0],"id":33,"left_children":[1,3,5,7,9,11,13,15,17,19,21,23,25,27,29,31,33,35,37,39,41,43,45,47,49,51,53,-1,-1,-1,55,-1,-1,-1,-1,-1,-1,-1,-1,-1,-1,-1,-1,-1,-1,-1,-1,-1,-1,-1,-1,-1,-1,-1,-1,-1,-1],"loss_changes":[1.2983632E-1,1.640749E-2,2.0866334E-2,1.7961264E-3,1.2892598E-3,2.2848845E-3,2.2434667E-3,1.9623712E-4,1.8489733E-4,2.3570712E-4,1.2090639E-4,5.707955E-4,3.4668483E-4,1.34103E-4,1.2154505E-4,2.6939437E-5,3.6000274E-5,3.3921096E-5,5.6132325E-5,3.616831E-5,3.0395968E-5,1.424257E-4,8.5413456E-5,1.261956E-4,6.3706655E-5,1.2486521E-4,1.6826019E-4,0E0,0E0,0E0,2.104044E-5,0E0,0E0,0E0,0E0,0E0,0E0,0E0,0E0,0E0,0E0,0E0,0E0,0E0,0E0,0E0,0E0,0E0,0E0,0E0,0E0,0E0,0E0,0E0,0E0,0E0,0E0],"parents":[2147483647,0,0,1,1,2,2,3,3,4,4,5,5,6,6,7,7,8,8,9,9,10,10,11,11,12,12,13,13,14,14,15,15,16,16,17,17,18,18,19,19,20,20,21,21,22,22,23,23,24,24,25,25,26,26,30,30],"right_children":[2,4,6,8,10,12,14,16,18,20,22,24,26,28,30,32,34,36,38,40,42,44,46,48,50,52,54,-1,-1,-1,56,-1,-1,-1,-1,-1,-1,-1,-1,-1,-1,-1,-1,-1,-1,-1,-1,-1,-1,-1,-1,-1,-1,-1,-1,-1,-1],"split_conditions":[3.2948306E-1,1.4042075E-1,7.2239E-1,5.193546E-2,2.3802777E-1,4.7771376E-1,9.156519E-1,4.375123E-3,8.445415E-2,1.902088E-1,2.8840992E-1,3.6457485E-1,2.474007E-1,8.447324E-1,4.227719E-1,1.0528304E-3,2.8586615E-2,6.905205E-2,1.0355299E-1,1.393303E-1,3.8547674E-1,1.8180856E-1,2.358494E-1,4.7758788E-1,4.7932333E-1,2.4513143E-1,5.5926114E-1,1.8567404E-3,2.2464595E-3,2.6651218E-3,9.510215E-1,-6.468023E-4,-5.688394E-4,-5.243644E-4,-4.5667883E-4,-3.7736955E-4,-3.0727996E-4,-5.9298764E-5,-2.442844E-4,7.2866904E-5,-7.134034E-5,1.1983132E-4,-1.137808E-4,3.6918987E-5,3.3554083E-4,3.5671887E-4,5.601553E-4,5.833811E-4,9.819532E-4,1.1277884E-3,7.8879774E-4,1.0680053E-3,1.709024E-4,1.2302492E-3,1.7088939E-3,1.7782728E-3,4.5295707E-3],"split_indices":[4,0,4,1,4,4,1,0,4,0,1,3,3,1,3,0,0,4,3,3,3,3,3,1,3,3,4,0,0,0,1,0,0,0,0,0,0,0,0,0,0,0,0,0,0,0,0,0,0,0,0,0,0,0,0,0,0],"split_type":[0,0,0,0,0,0,0,0,0,0,0,0,0,0,0,0,0,0,0,0,0,0,0,0,0,0,0,0,0,0,0,0,0,0,0,0,0,0,0,0,0,0,0,0,0,0,0,0,0,0,0,0,0,0,0,0,0],"sum_hessian":[2.915E3,2.332E3,5.83E2,1.796E3,5.36E2,4.02E2,1.81E2,1.227E3,5.69E2,3.39E2,1.97E2,2.24E2,1.78E2,1.47E2,3.4E1,6.83E2,5.44E2,4.59E2,1.1E2,1.6E2,1.79E2,8.2E1,1.15E2,1.69E2,5.5E1,1.04E2,7.4E1,8.9E1,5.8E1,2.8E1,6E0,1.21E2,5.62E2,3.19E2,2.25E2,3.26E2,1.33E2,2.1E1,8.9E1,1.9E1,1.41E2,1.74E2,5E0,2.2E1,6E1,8E1,3.5E1,1.59E2,1E1,3.1E1,2.4E1,1.02E2,2E0,5.3E1,2.1E1,2E0,4E0],"tree_param":{"num_deleted":"0","num_feature":"5","num_nodes":"57","size_leaf_vector":"1"}},{"base_weights":[1.8179022E-4,-2.8966356E-3,1.2293748E-2,-4.2317165E-3,1.650077E-3,7.99213E-3,1.8775979E-2,-4.855818E-3,-2.7707682E-3,3.3559374E-4,3.1707517E-3,6.641351E-3,9.776247E-3,1.7669799E-2,3.513372E-2,-5.0737546E-3,-4.0496263E-4,-3.104139E-3,-1.7453809E-3,-2.3034243E-4,1.0813836E-3,2.1823035E-3,3.8171983E-3,5.6922124E-3,8.030366E-3,8.886128E-3,1.108099E-2,1.4273443E-2,1.9722424E-2,1.7442793E-3,3.837281E-2,-5.411128E-4,-4.83103E-4,-2.4776658E-4,-3.3458445E-4,-6.027636E-5,-1.9605986E-4,-8.6301035E-5,-1.2436775E-6,9.250505E-5,3.562229E-4,-4.0503444E-5,2.2943283E-4,2.966142E-4,4.5035194E-4,5.814401E-4,-1.2963811E-4,8.33294E-4,3.59809E-4,9.3901734E-4,6.5012474E-4,1.1590053E-3,4.737427E-4,5.4364203E-4,1.4629535E-3,1.7676576E-3,2.1375231E-3,9.974897E-4,4.0215114E-3],"categories":[],"categories_nodes":[],"categories_segments":[],"categories_sizes":[],"default_left":[0,0,0,0,0,0,0,0,0,0,0,0,0,0,0,0,0,0,0,0,0,0,0,0,0,0,0,0,0,0,0,0,0,0,0,0,0,0,0,0,0,0,0,0,0,0,0,0,0,0,0,0,0,0,0,0,0,0,0],"id":34,"left_children":[1,3,5,7,9,11,13,15,17,19,21,23,25,27,29,31,-1,33,35,37,39,41,43,45,47,49,51,53,55,-1,57,-1,-1,-1,-1,-1,-1,-1,-1,-1,-1,-1,-1,-1,-1,-1,-1,-1,-1,-1,-1,-1,-1,-1,-1,-1,-1,-1,-1],"loss_changes":[1.0965575E-1,1.4241669E-2,1.646886E-2,1.6396046E-3,1.0643506E-3,8.0265105E-4,3.667608E-3,2.0241365E-4,1.8088194E-4,1.2138301E-4,1.4949753E-4,2.2851117E-4,7.9223886E-5,1.2800992E-3,1.3290532E-4,5.5339187E-5,0E0,5.3793192E-5,3.226215E-5,2.2598622E-5,4.479669E-5,2.9913877E-5,7.308833E-5,1.1598598E-4,