{"learner":{"attributes":{"scikit_learn":"{\"_estimator_type\": \"regressor\"}"},"feature_names":[],"feature_types":[],"gradient_booster":{"model":{"gbtree_model_param":{"num_parallel_tree":"1","num_trees":"100"},"iteration_indptr":[0,1,2,3,4,5,6,7,8,9,10,11,12,13,14,15,16,17,18,19,20,21,22,23,24,25,26,27,28,29,30,31,32,33,34,35,36,37,38,39,40,41,42,43,44,45,46,47,48,49,50,51,52,53,54,55,56,57,58,59,60,61,62,63,64,65,66,67,68,69,70,71,72,73,74,75,76,77,78,79,80,81,82,83,84,85,86,87,88,89,90,91,92,93,94,95,96,97,98,99,100],"tree_info":[0,0,0,0,0,0,0,0,0,0,0,0,0,0,0,0,0,0,0,0,0,0,0,0,0,0,0,0,0,0,0,0,0,0,0,0,0,0,0,0,0,0,0,0,0,0,0,0,0,0,0,0,0,0,0,0,0,0,0,0,0,0,0,0,0,0,0,0,0,0,0,0,0,0,0,0,0,0,0,0,0,0,0,0,0,0,0,0,0,0,0,0,0,0,0,0,0,0,0,0],"trees":[{"base_weights":[-1.2944402E-9,-1.16608806E-1,3.9730287E-1,-1.6261072E-1,2.7058478E-2,2.5641516E-1,6.254441E-1,-1.8450536E-1,-1.2229639E-1,-2.0528058E-2,7.855329E-2,1.8227555E-1,3.1484264E-1,5.380084E-2,6.9392554E-2,-1.8857425E-2,-1.6315509E-2,-1.3424265E-1,-1.0635954E-1,-4.2426344E-2,8.014204E-3,4.5298982E-2,1.08508356E-1,1.5639419E-2,2.0637779E-2,2.836668E-2,3.436485E-2,-1.3929458E-2,-1.2472064E-2,-1.120699E-2,-9.232855E-3,-5.646029E-3,-3.1600807E-2,-4.1100755E-3,2.2187818E-2,3.628194E-3,5.244797E-3,9.050707E-3,1.205043E-2,-3.5903894E-3,-2.4085029E-3,-8.341524E-3,4.0666773E-3,1.8004073E-3,2.4536103E-3,-1.2248757E-3,-4.9062236E-4,1.0995269E-4,6.960526E-4],"categories":[],"categories_nodes":[],"categories_segments":[],"categories_sizes":[],"default_left":[0,0,0,0,0,0,0,0,0,0,0,0,0,0,0,0,0,0,0,0,0,0,0,0,0,0,0,0,0,0,0,0,0,0,0,0,0,0,0,0,0,0,0,0,0,0,0,0,0],"id":0,"left_children":[1,3,5,7,9,11,13,15,17,19,21,23,25,-1,-1,-1,-1,27,29,31,33,35,37,-1,-1,-1,-1,-1,-1,-1,-1,-1,39,41,43,-1,-1,-1,-1,-1,-1,45,47,-1,-1,-1,-1,-1,-1],"loss_changes":[1.7151001E2,1.8919273E1,2.6839142E1,1.8910599E0,1.7046821E0,2.1994743E0,1.5427399E0,9.1114044E-2,1.3155651E-1,2.2659966E-1,3.2779336E-1,1.124444E-1,1.6295242E-1,0E0,0E0,0E0,0E0,3.5042763E-3,1.6333342E-2,2.9360414E-2,2.7242683E-2,8.411139E-3,2.6883602E-2,0E0,0E0,0E0,0E0,0E0,0E0,0E0,0E0,0E0,2.951488E-3,3.0094795E-3,2.7544796E-4,0E0,0E0,0E0,0E0,0E0,0E0,7.049884E-4,2.4994125E-4,0E0,0E0,0E0,0E0,0E0,0E0],"parents":[2147483647,0,0,1,1,2,2,3,3,4,4,5,5,6,6,7,7,8,8,9,9,10,10,11,11,12,12,17,17,18,18,19,19,20,20,21,21,22,22,32,32,33,33,34,34,41,41,42,42],"right_children":[2,4,6,8,10,12,14,16,18,20,22,24,26,-1,-1,-1,-1,28,30,32,34,36,38,-1,-1,-1,-1,-1,-1,-1,-1,-1,40,42,44,-1,-1,-1,-1,-1,-1,46,48,-1,-1,-1,-1,-1,-1],"split_conditions":[3.1769565E-1,1.2462023E-1,6.0985315E-1,3.4622107E-2,2.1518242E-1,4.2278647E-1,8.032029E-1,1.323355E-2,7.154707E-2,1.6716549E-1,2.4923341E-1,3.5634336E-1,5.074794E-1,5.380084E-2,6.9392554E-2,-1.8857425E-2,-1.6315509E-2,6.0116645E-2,8.825908E-2,1.4789882E-1,2.0132913E-1,2.3002972E-1,2.8391567E-1,1.5639419E-2,2.0637779E-2,2.836668E-2,3.436485E-2,-1.3929458E-2,-1.2472064E-2,-1.120699E-2,-9.232855E-3,-5.646029E-3,1.5648843E-1,1.8384169E-1,2.0839617E-1,3.628194E-3,5.244797E-3,9.050707E-3,1.205043E-2,-3.5903894E-3,-2.4085029E-3,1.82835E-1,1.8936561E-1,1.8004073E-3,2.4536103E-3,-1.2248757E-3,-4.9062236E-4,1.0995269E-4,6.960526E-4],"split_indices":[4,0,1,4,4,4,4,4,1,4,4,4,0,0,0,0,0,1,1,0,4,4,4,0,0,0,0,0,0,0,0,0,4,4,4,0,0,0,0,0,0,1,4,0,0,0,0,0,0],"split_type":[0,0,0,0,0,0,0,0,0,0,0,0,0,0,0,0,0,0,0,0,0,0,0,0,0,0,0,0,0,0,0,0,0,0,0,0,0,0,0,0,0,0,0,0,0,0,0,0,0],"sum_hessian":[3.7E3,2.861E3,8.39E2,2.167E3,6.94E2,5.2E2,3.19E2,1.402E3,7.65E2,3.61E2,3.33E2,2.31E2,2.89E2,1.44E2,1.75E2,1.171E3,2.31E2,4.33E2,3.32E2,2.04E2,1.57E2,1.59E2,1.74E2,1.15E2,1.16E2,1.44E2,1.45E2,2.74E2,1.59E2,2.31E2,1.01E2,8.7E1,1.17E2,8.5E1,7.2E1,7.3E1,8.6E1,7.3E1,1.01E2,7.2E1,4.5E1,5.6E1,2.9E1,2.9E1,4.3E1,2.5E1,3.1E1,1.5E1,1.4E1],"tree_param":{"num_deleted":"0","num_feature":"5","num_nodes":"49","size_leaf_vector":"1"}},{"base_weights":[4.373043E-5,-1.0383931E-1,3.6174783E-1,-1.4579493E-1,2.8283088E-2,2.338072E-1,5.6332326E-1,-1.6608155E-1,-1.0916506E-1,-1.1450968E-2,7.929537E-2,1.623936E-1,2.8057164E-1,4.9140328E-1,6.3129775E-2,-1.6959855E-2,-1.4618592E-2,-1.1884593E-1,-9.102127E-2,-3.5066556E-2,1.397451E-2,4.790725E-2,1.02470934E-1,1.39578255E-2,1.7830186E-2,2.4941092E-2,3.0725226E-2,4.322963E-2,5.1991593E-2,-1.25435535E-2,-1.1052272E-2,-9.548682E-3,-6.597619E-3,-4.7275634E-3,-2.5688298E-2,-1.8845442E-3,2.3750035E-2,4.282658E-3,6.358462E-3,8.882585E-3,1.14796525E-2,-2.9809244E-3,-1.7903196E-2,-5.64041E-3,3.6868772E-3,1.880889E-2,2.828864E-3,-1.961266E-3,-1.2961262E-3,-7.1291486E-4,-3.0939456E-4,9.964435E-5,6.310881E-4,1.4662334E-3,2.0138153E-3],"categories":[],"categories_nodes":[],"categories_segments":[],"categories_sizes":[],"default_left":[0,0,0,0,0,0,0,0,0,0,0,0,0,0,0,0,0,0,0,0,0,0,0,0,0,0,0,0,0,0,0,0,0,0,0,0,0,0,0,0,0,0,0,0,0,0,0,0,0,0,0,0,0,0,0],"id":1,"left_children":[1,3,5,7,9,11,13,15,17,19,21,23,25,27,-1,-1,-1,29,31,33,35,37,39,-1,-1,-1,-1,-1,-1,-1,-1,-1,-1,-1,41,43,45,-1,-1,-1,-1,-1,47,49,51,53,-1,-1,-1,-1,-1,-1,-1,-1,-1],"loss_changes":[1.3910236E2,1.5946587E1,2.117057E1,1.6040497E0,1.4075937E0,1.6476231E0,1.2541656E0,7.33757E-2,1.2636375E-1,2.3526114E-1,2.1623182E-1,4.8792362E-2,1.7694283E-1,4.4887543E-2,0E0,0E0,0E0,1.3888359E-2,2.4567842E-2,2.2029057E-2,2.9345535E-2,7.7112615E-3,1.9067168E-2,0E0,0E0,0E0,0E0,0E0,0E0,0E0,0E0,0E0,0E0,0E0,3.2199174E-3,1.5483578E-3,2.0917505E-3,0E0,0E0,0E0,0E0,0E0,1.090616E-4,1.4474778E-4,2.0550279E-4,2.992712E-5,0E0,0E0,0E0,0E0,0E0,0E0,0E0,0E0,0E0],"parents":[2147483647,0,0,1,1,2,2,3,3,4,4,5,5,6,6,7,7,8,8,9,9,10,10,11,11,12,12,13,13,17,17,18,18,19,19,20,20,21,21,22,22,34,34,35,35,36,36,42,42,43,43,44,44,45,45],"right_children":[2,4,6,8,10,12,14,16,18,20,22,24,26,28,-1,-1,-1,30,32,34,36,38,40,-1,-1,-1,-1,-1,-1,-1,-1,-1,-1,-1,42,44,46,-1,-1,-1,-1,-1,48,50,52,54,-1,-1,-1,-1,-1,-1,-1,-1,-1],"split_conditions":[3.228011E-1,1.3169976E-1,6.1282545E-1,3.9690807E-2,2.2805864E-1,4.3648332E-1,8.2375354E-1,1.5696077E-2,7.612342E-2,1.7386048E-1,2.5923234E-1,3.718454E-1,4.8817837E-1,7.1781975E-1,6.3129775E-2,-1.6959855E-2,-1.4618592E-2,5.400488E-2,9.161986E-2,1.4415877E-1,2.0132913E-1,2.4177454E-1,3.0996087E-1,1.39578255E-2,1.7830186E-2,2.4941092E-2,3.0725226E-2,4.322963E-2,5.1991593E-2,-1.25435535E-2,-1.1052272E-2,-9.548682E-3,-6.597619E-3,-4.7275634E-3,1.5932451E-1,1.8384169E-1,2.1330829E-1,4.282658E-3,6.358462E-3,8.882585E-3,1.14796525E-2,-2.9809244E-3,1.6716549E-1,1.8587792E-1,1.8936561E-1,2.097935E-1,2.828864E-3,-1.961266E-3,-1.2961262E-3,-7.1291486E-4,-3.0939456E-4,9.964435E-5,6.310881E-4,1.4662334E-3,2.0138153E-3],"split_indices":[4,0,0,0,1,0,4,4,0,4,4,0,4,4,0,0,0,4,4,4,4,4,0,0,0,0,0,0,0,0,0,0,0,0,4,4,4,0,0,0,0,0,4,1,4,0,0,0,0,0,0,0,0,0,0],"split_type":[0,0,0,0,0,0,0,0,0,0,0,0,0,0,0,0,0,0,0,0,0,0,0,0,0,0,0,0,0,0,0,0,0,0,0,0,0,0,0,0,0,0,0,0,0,0,0,0,0,0,0,0,0,0,0],"sum_hessian":[3.7E3,2.875E3,8.25E2,2.182E3,6.93E2,5.06E2,3.19E2,1.402E3,7.8E2,3.9E2,3.03E2,2.02E2,3.04E2,1.59E2,1.6E2,1.185E3,2.17E2,5.05E2,2.75E2,2.02E2,1.88E2,1.3E2,1.73E2,8.7E1,1.15E2,1.45E2,1.59E2,5.7E1,1.02E2,2.74E2,2.31E2,2.31E2,4.4E1,8.6E1,1.16E2,7.2E1,1.16E2,1.01E2,2.9E1,8.6E1,8.7E1,7.4E1,4.2E1,4.3E1,2.9E1,5.8E1,5.8E1,2.9E1,1.3E1,2.6E1,1.7E1,1.5E1,1.4E1,1.7E1,4.1E1],"tree_param":{"num_deleted":"0","num_feature":"5","num_nodes":"55","size_leaf_vector":"1"}},{"base_weights":[9.3543495E-5,-9.449395E-2,3.2236654E-1,-1.317913E-1,2.1988288E-2,2.080466E-1,5.074862E-1,-1.4925201E-1,-9.871467E-2,-1.662404E-2,6.377175E-2,1.4782663E-1,2.555052E-1,4.3647613E-2,5.6310546E-2,-1.5278943E-2,-1.3179225E-2,-1.0919653E-2,-8.712041E-2,-3.4361392E-2,6.49483E-3,3.6786813E-2,8.807927E-2,1.2659981E-2,1.6760854E-2,2.34096E-2,2.8516073E-2,-9.164751E-3,-7.468223E-3,-4.5775723E-2,-2.5557816E-2,-3.3571413E-3,1.801229E-2,3.0345013E-2,4.4048345E-3,7.016246E-3,9.636143E-3,-4.5997007E-3,-1.3262026E-3,-3.0202256E-3,-2.0564819E-2,-6.824394E-3,3.3425444E-3,1.4627294E-3,1.9910873E-3,2.50217E-3,3.280117E-3,-2.2052086E-3,-1.5505733E-3,-9.965005E-4,-3.6656784E-4,1.0291566E-4,5.9129053E-4],"categories":[],"categories_nodes":[],"categories_segments":[],"categories_sizes":[],"default_left":[0,0,0,0,0,0,0,0,0,0,0,0,0,0,0,0,0,0,0,0,0,0,0,0,0,0,0,0,0,0,0,0,0,0,0,0,0,0,0,0,0,0,0,0,0,0,0,0,0,0,0,0,0],"id":2,"left_children":[1,3,5,7,9,11,13,15,17,19,21,23,25,-1,-1,-1,-1,-1,27,29,31,33,35,-1,-1,-1,-1,-1,-1,37,39,41,43,45,-1,-1,-1,-1,-1,-1,47,49,51,-1,-1,-1,-1,-1,-1,-1,-1,-1,-1],"loss_changes":[1.1284802E2,1.2436794E1,1.7671227E1,1.2373772E0,1.1223431E0,1.4512234E0,1.0180664E0,6.7379E-2,8.187723E-2,1.4866763E-1,2.1584284E-1,7.6199055E-2,1.1736679E-1,0E0,0E0,0E0,0E0,0E0,1.3539314E-2,1.9429907E-2,1.7988682E-2,6.1477274E-3,1.920712E-2,0E0,0E0,0E0,0E0,0E0,0E0,2.30968E-5,2.1152794E-3,2.0205486E-3,1.7790683E-4,3.298521E-4,0E0,0E0,0E0,0E0,0E0,0E0,1.0951795E-4,5.289286E-4,1.7230192E-4,0E0,0E0,0E0,0E0,0E0,0E0,0E0,0E0,0E0,0E0],"parents":[2147483647,0,0,1,1,2,2,3,3,4,4,5,5,6,6,7,7,8,8,9,9,10,10,11,11,12,12,18,18,19,19,20,20,21,21,22,22,29,29,30,30,31,31,32,32,33,33,40,40,41,41,42,42],"right_children":[2,4,6,8,10,12,14,16,18,20,22,24,26,-1,-1,-1,-1,-1,28,30,32,34,36,-1,-1,-1,-1,-1,-1,38,40,42,44,46,-1,-1,-1,-1,-1,-1,48,50,52,-1,-1,-1,-1,-1,-1,-1,-1,-1,-1],"split_conditions":[3.1769565E-1,1.04766E-1,6.0985315E-1,3.708464E-2,2.1518242E-1,4.2278647E-1,8.032029E-1,1.5284577E-2,6.2710695E-2,1.6716549E-1,2.4923341E-1,3.766081E-1,5.087824E-1,4.3647613E-2,5.6310546E-2,-1.5278943E-2,-1.3179225E-2,-1.0919653E-2,9.062426E-2,1.4357135E-1,2.0132913E-1,2.3894158E-1,2.788352E-1,1.2659981E-2,1.6760854E-2,2.34096E-2,2.8516073E-2,-9.164751E-3,-7.468223E-3,1.5331057E-1,1.536208E-1,1.8384169E-1,2.0839617E-1,2.2683726E-1,4.4048345E-3,7.016246E-3,9.636143E-3,-4.5997007E-3,-1.3262026E-3,-3.0202256E-3,1.6311635E-1,1.7721954E-1,1.9445159E-1,1.4627294E-3,1.9910873E-3,2.50217E-3,3.280117E-3,-2.2052086E-3,-1.5505733E-3,-9.965005E-4,-3.6656784E-4,1.0291566E-4,5.9129053E-4],"split_indices":[4,4,1,4,4,4,4,1,4,4,4,0,4,0,0,0,0,0,0,1,4,0,4,0,0,0,0,0,0,0,4,4,4,0,0,0,0,0,0,0,4,4,2,0,0,0,0,0,0,0,0,0,0],"split_type":[0,0,0,0,0,0,0,0,0,0,0,0,0,0,0,0,0,0,0,0,0,0,0,0,0,0,0,0,0,0,0,0,0,0,0,0,0,0,0,0,0,0,0,0,0,0,0,0,0,0,0,0,0],"sum_hessian":[3.7E3,2.861E3,8.39E2,2.167E3,6.94E2,5.2E2,3.19E2,1.416E3,7.51E2,3.61E2,3.33E2,2.31E2,2.89E2,1.44E2,1.75E2,1.171E3,2.45E2,3.9E2,3.61E2,2.04E2,1.57E2,1.59E2,1.74E2,1.15E2,1.16E2,1.73E2,1.16E2,2.6E2,1.01E2,8.7E1,1.17E2,8.5E1,7.2E1,8.7E1,7.2E1,5.8E1,1.16E2,8.6E1,1E0,5.8E1,5.9E1,5.6E1,2.9E1,2.9E1,4.3E1,3.1E1,5.6E1,4.3E1,1.6E1,2.7E1,2.9E1,1.6E1,1.3E1],"tree_param":{"num_deleted":"0","num_feature":"5","num_nodes":"53","size_leaf_vector":"1"}},{"base_weights":[1.226179E-4,-8.6045146E-2,2.8704602E-1,-1.1864092E-1,1.8004403E-2,1.8845932E-1,4.6330625E-1,-1.34825E-1,-8.9726515E-2,-1.7754365E-2,5.257429E-2,1.2789929E-1,2.3191221E-1,4.141766E-1,5.2409764E-2,-1.3765477E-2,-1.2013166E-2,-1.0002444E-1,-7.919912E-2,-3.0956283E-2,3.0406567E-3,3.1205947E-2,7.7219956E-2,1.1041491E-2,1.4443181E-2,2.1237384E-1,2.7139703E-2,3.63678E-2,4.3629076E-2,-1.0527528E-2,-9.4643E-3,-8.40038E-3,-6.9021866E-2,-4.1193436E-3,-2.3059458E-2,-4.7156475E-3,1.2297545E-2,2.3244713E-2,3.761242E-2,6.326514E-3,8.45348E-3,1.9296264E-2,2.2748128E-2,-7.225336E-3,-5.5734036E-3,-2.723322E-3,-1.8570935E-2,-9.004094E-3,-1.9424888E-3,5.177038E-3,1.4556001E-3,1.9880093E-3,2.6004573E-3,3.2262763E-3,4.159735E-3,-1.9896997E-3,-1.4046374E-3,-9.79094E-4,-4.4871695E-4,-3.3113288E-4,7.454911E-5,8.2445116E-4,3.467504E-4],"categories":[],"categories_nodes":[],"categories_segments":[],"categories_sizes":[],"default_left":[0,0,0,0,0,0,0,0,0,0,0,0,0,0,0,0,0,0,0,0,0,0,0,0,0,0,0,0,0,0,0,0,0,0,0,0,0,0,0,0,0,0,0,0,0,0,0,0,0,0,0,0,0,0,0,0,0,0,0,0,0,0,0],"id":3,"left_children":[1,3,5,7,9,11,13,15,17,19,21,23,25,27,-1,-1,-1,29,31,33,35,37,39,-1,-1,41,-1,-1,-1,-1,-1,-1,43,-1,45,47,49,51,53,-1,-1,-1,-1,-1,-1,-1,55,57,59,61,-1,-1,-1,-1,-1,-1,-1,-1,-1,-1,-1,-1,-1],"loss_changes":[9.152654E1,9.657953E0,1.47699585E1,1.0024261E0,8.4153354E-1,1.4176674E0,6.96846E-1,4.1173935E-2,7.6746464E-2,9.206306E-2,1.7980665E-1,5.111456E-2,1.884613E-1,3.5642624E-2,0E0,0E0,0E0,1.085043E-3,1.3321161E-2,1.56225115E-2,9.463691E-3,8.663371E-3,1.0984242E-2,0E0,0E0,2.0033836E-2,0E0,0E0,0E0,0E0,0E0,0E0,1.5981197E-3,0E0,1.7048642E-3,8.387726E-4,8.895239E-4,2.8161332E-4,8.3239377E-4,0E0,0E0,0E0,0E0,0E0,0E0,0E0,8.0510974E-5,5.5581797E-5,1.680422E-4,5.5315322E-5,0E0,0E0,0E0,0E0,0E0,0E0,0E0,0E0,0E0,0E0,0E0,0E0,0E0],"parents":[2147483647,0,0,1,1,2,2,3,3,4,4,5,5,6,6,7,7,8,8,9,9,10,10,11,11,12,12,13,13,17,17,18,18,19,19,20,20,21,21,22,22,25,25,32,32,34,34,35,35,36,36,37,37,38,38,46,46,47,47,48,48,49,49],"right_children":[2,4,6,8,10,12,14,16,18,20,22,24,26,28,-1,-1,-1,30,32,34,36,38,40,-1,-1,42,-1,-1,-1,-1,-1,-1,44,-1,46,48,50,52,54,-1,-1,-1,-1,-1,-1,-1,56,58,60,62,-1,-1,-1,-1,-1,-1,-1,-1,-1,-1,-1,-1,-1],"split_conditions":[3.1200835E-1,1.14540756E-1,6.734231E-1,2.9935133E-2,2.1132216E-1,4.1645104E-1,8.455439E-1,1.1988936E-2,6.861875E-2,1.6716549E-1,2.4923341E-1,3.5078952E-1,5.237279E-1,7.371327E-1,5.2409764E-2,-1.3765477E-2,-1.2013166E-2,4.7298834E-2,8.488518E-2,1.4357135E-1,1.8936561E-1,2.258359E-1,2.788352E-1,1.1041491E-2,1.4443181E-2,4.8760736E-1,2.7139703E-2,3.63678E-2,4.3629076E-2,-1.0527528E-2,-9.4643E-3,-8.40038E-3,9.9608645E-2,-4.1193436E-3,1.536208E-1,1.7721954E-1,2.0644826E-1,2.1825685E-1,2.4156004E-1,6.326514E-3,8.45348E-3,1.9296264E-2,2.2748128E-2,-7.225336E-3,-5.5734036E-3,-2.723322E-3,1.6311635E-1,1.82835E-1,1.8384169E-1,1.0748146E-1,1.4556001E-3,1.9880093E-3,2.6004573E-3,3.2262763E-3,4.159735E-3,-1.9896997E-3,-1.4046374E-3,-9.79094E-4,-4.4871695E-4,-3.3113288E-4,7.454911E-5,8.2445116E-4,3.467504E-4],"split_indices":[4,1,4,4,4,1,4,0,0,4,4,4,4,4,0,0,0,4,1,1,4,4,4,0,0,0,0,0,0,0,0,0,1,0,4,4,0,4,0,0,0,0,0,0,0,0,4,1,4,3,0,0,0,0,0,0,0,0,0,0,0,0,0],"split_type":[0,0,0,0,0,0,0,0,0,0,0,0,0,0,0,0,0,0,0,0,0,0,0,0,0,0,0,0,0,0,0,0,0,0,0,0,0,0,0,0,0,0,0,0,0,0,0,0,0,0,0,0,0,0,0,0,0,0,0,0,0,0,0],"sum_hessian":[3.7E3,2.846E3,8.54E2,2.167E3,6.79E2,5.49E2,3.05E2,1.387E3,7.8E2,3.34E2,3.45E2,2.31E2,3.18E2,1.73E2,1.32E2,1.156E3,2.31E2,3.9E2,3.9E2,2.04E2,1.3E2,1.86E2,1.59E2,1.16E2,1.15E2,2.17E2,1.01E2,5.8E1,1.15E2,1.88E2,2.02E2,2.6E2,1.3E2,8.7E1,1.17E2,7.1E1,5.9E1,8.5E1,1.01E2,5.8E1,1.01E2,1.01E2,1.16E2,1.01E2,2.9E1,5.8E1,5.9E1,2.7E1,4.4E1,1.5E1,4.4E1,4.2E1,4.3E1,4.7E1,5.4E1,4.3E1,1.6E1,2.2E1,5E0,2.9E1,1.5E1,4E0,1.1E1],"tree_param":{"num_deleted":"0","num_feature":"5","num_nodes":"63","size_leaf_vector":"1"}},{"base_weights":[1.5833533E-4,-7.575373E-2,2.6447183E-1,-1.0637535E-1,2.0676747E-2,1.7082343E-1,4.1201958E-1,-1.207413E-1,-7.8877464E-2,-8.355768E-3,5.7949893E-2,1.1857893E-1,2.0503591E-1,3.7122723E-1,4.7870453E-2,-1.234131E-2,-1.0405316E-2,-8.4909946E-2,-6.371116E-2,-2.5627261E-2,1.0239305E-2,3.5055205E-2,7.485365E-2,1.0732043E-2,1.37158185E-2,1.7659655E-2,2.2155639E-2,3.214656E-2,3.961232E-2,-9.022645E-3,-7.898294E-3,-6.7359502E-3,-4.8188437E-3,-3.4519967E-2,-1.87957E-2,-1.3269604E-3,1.7368348E-2,3.1197237E-2,4.70038E-3,6.2534064E-3,8.293675E-3,-3.6051997E-3,-2.6090897E-3,-2.173981E-3,-1.3223518E-2,-4.071425E-3,2.7424868E-3,1.3773193E-2,2.0669124E-3,2.7995217E-3,3.448676E-3,-1.3453804E-3,-1.7757565E-4,-5.234068E-4,-2.1012714E-4,6.756E-5,4.7643334E-4,1.0626551E-3,1.479382E-3],"categories":[],"categories_nodes":[],"categories_segments":[],"categories_sizes":[],"default_left":[0,0,0,0,0,0,0,0,0,0,0,0,0,0,0,0,0,0,0,0,0,0,0,0,0,0,0,0,0,0,0,0,0,0,0,0,0,0,0,0,0,0,0,0,0,0,0,0,0,0,0,0,0,0,0,0,0,0,0],"id":4,"left_children":[1,3,5,7,9,11,13,15,17,19,21,23,25,27,-1,-1,-1,29,31,33,35,37,39,-1,-1,-1,-1,-1,-1,-1,-1,-1,-1,41,43,45,47,49,-1,-1,-1,-1,-1,-1,51,53,55,57,-1,-1,-1,-1,-1,-1,-1,-1,-1,-1,-1],"loss_changes":[7.427907E1,8.494619E0,1.1342968E1,8.528328E-1,7.514846E-1,8.8190556E-1,6.927643E-1,5.1006317E-2,6.339121E-2,1.258378E-1,1.15026E-1,2.7742624E-2,1.0417366E-1,1.2415123E-1,0E0,0E0,0E0,9.732246E-3,9.099901E-3,1.1683628E-2,1.5607305E-2,4.5723617E-3,1.2140691E-2,0E0,0E0,0E0,0E0,0E0,0E0,0E0,0E0,0E0,0E0,1.8285215E-4,1.6319156E-3,8.2646305E-4,1.1037365E-3,1.0890514E-4,0E0,0E0,0E0,0E0,0E0,0E0,8.94689E-5,8.978747E-5,1.2214905E-4,3.2274984E-5,0E0,0E0,0E0,0E0,0E0,0E0,0E0,0E0,0E0,0E0,0E0],"parents":[2147483647,0,0,1,1,2,2,3,3,4,4,5,5,6,6,7,7,8,8,9,9,10,10,11,11,12,12,13,13,17,17,18,18,19,19,20,20,21,21,22,22,33,33,34,34,35,35,36,36,37,37,44,44,45,45,46,46,47,47],"right_children":[2,4,6,8,10,12,14,16,18,20,22,24,26,28,-1,-1,-1,30,32,34,36,38,40,-1,-1,-1,-1,-1,-1,-1,-1,-1,-1,42,44,46,48,50,-1,-1,-1,-1,-1,-1,52,54,56,58,-1,-1,-1,-1,-1,-1,-1,-1,-1,-1,-1],"split_conditions":[3.228011E-1,1.3169976E-1,6.1282545E-1,4.5198478E-2,2.3121154E-1,4.1278124E-1,8.5419315E-1,2.331863E-2,8.0717355E-2,1.7386048E-1,2.5923234E-1,3.6362565E-1,4.8424152E-1,7.371327E-1,4.7870453E-2,-1.234131E-2,-1.0405316E-2,6.4059235E-2,1.0451505E-1,1.5331057E-1,2.0132913E-1,2.5911504E-1,2.9025075E-1,1.0732043E-2,1.37158185E-2,1.7659655E-2,2.2155639E-2,3.214656E-2,3.961232E-2,-9.022645E-3,-7.898294E-3,-6.7359502E-3,-4.8188437E-3,1.3748404E-1,1.5932451E-1,1.8384169E-1,2.1330829E-1,2.3415689E-1,4.70038E-3,6.2534064E-3,8.293675E-3,-3.6051997E-3,-2.6090897E-3,-2.173981E-3,1.8501888E-1,1.8587792E-1,1.8936561E-1,2.097935E-1,2.0669124E-3,2.7995217E-3,3.448676E-3,-1.3453804E-3,-1.7757565E-4,-5.234068E-4,-2.1012714E-4,6.756E-5,4.7643334E-4,1.0626551E-3,1.479382E-3],"split_indices":[4,0,0,0,0,4,4,0,0,4,4,4,1,4,0,0,0,0,0,0,4,0,4,0,0,0,0,0,0,0,0,0,0,4,4,4,4,4,0,0,0,0,0,0,0,1,4,0,0,0,0,0,0,0,0,0,0,0,0],"split_type":[0,0,0,0,0,0,0,0,0,0,0,0,0,0,0,0,0,0,0,0,0,0,0,0,0,0,0,0,0,0,0,0,0,0,0,0,0,0,0,0,0,0,0,0,0,0,0,0,0,0,0,0,0,0,0,0,0,0,0],"sum_hessian":[3.7E3,2.875E3,8.25E2,2.182E3,6.93E2,5.06E2,3.19E2,1.431E3,7.51E2,3.9E2,3.03E2,2.02E2,3.04E2,2.02E2,1.17E2,1.228E3,2.03E2,5.34E2,2.17E2,2.02E2,1.88E2,1.3E2,1.73E2,1.3E2,7.2E1,1.16E2,1.88E2,7.2E1,1.3E2,2.74E2,2.6E2,1.73E2,4.4E1,8.6E1,1.16E2,7.2E1,1.16E2,1.01E2,2.9E1,7.2E1,1.01E2,7E1,1.6E1,7.4E1,4.2E1,4.3E1,2.9E1,5.8E1,5.8E1,5.6E1,4.5E1,4.1E1,1E0,2.6E1,1.7E1,1.5E1,1.4E1,1.7E1,4.1E1],"tree_param":{"num_deleted":"0","num_feature":"5","num_nodes":"59","size_leaf_vector":"1"}},{"base_weights":[1.8375341E-4,-6.590566E-2,2.4656284E-1,-9.576357E-2,2.2623125E-2,1.6306841E-1,3.76183E-1,-1.0868526E-1,-7.103002E-2,-1.2328159E-3,6.6135235E-2,1.2253439E-1,1.9629964E-1,3.4273037E-1,4.378628E-2,-1.1118688E-2,-9.424425E-3,-7.668751E-2,-5.7938073E-2,-1.9711297E-2,1.8366061E-2,5.047743E-2,7.8313366E-2,1.0652566E-2,1.4497312E-2,1.806904E-2,2.2493271E-2,3.0165685E-2,3.6300242E-2,-8.210311E-3,-7.207192E-3,-6.1121616E-3,-4.342118E-3,-2.7957438E-2,-1.0228922E-2,1.113254E-2,2.5503611E-2,3.980262E-3,5.6366324E-3,6.610941E-3,8.281003E-3,-3.3097807E-3,-2.3147294E-3,-1.5033162E-2,-4.992372E-3,2.4713394E-3,1.4090755E-2,2.1155945E-3,2.7774756E-3,-1.6072768E-3,-1.1458115E-3,-7.356658E-4,-2.6192932E-4,6.852067E-4,1.5685624E-4,1.0983469E-3,1.5455028E-3],"categories":[],"categories_nodes":[],"categories_segments":[],"categories_sizes":[],"default_left":[0,0,0,0,0,0,0,0,0,0,0,0,0,0,0,0,0,0,0,0,0,0,0,0,0,0,0,0,0,0,0,0,0,0,0,0,0,0,0,0,0,0,0,0,0,0,0,0,0,0,0,0,0,0,0,0,0],"id":5,"left_children":[1,3,5,7,9,11,13,15,17,19,21,23,25,27,-1,-1,-1,29,31,33,35,37,39,-1,-1,-1,-1,-1,-1,-1,-1,-1,-1,41,43,45,47,-1,-1,-1,-1,-1,-1,49,51,53,55,-1,-1,-1,-1,-1,-1,-1,-1,-1,-1],"loss_changes":[6.027981E1,7.7179146E0,8.412727E0,6.899662E-1,7.65104E-1,6.1980915E-1,4.813156E-1,4.1254044E-2,5.1255703E-2,1.7311116E-1,4.581511E-2,6.2865496E-2,7.60088E-2,5.9526443E-2,0E0,0E0,0E0,7.130623E-3,8.021712E-3,1.8949494E-2,1.1694148E-2,5.111426E-3,2.4826527E-3,0E0,0E0,0E0,0E0,0E0,0E0,0E0,0E0,0E0,0E0,2.472967E-3,2.8432366E-3,2.9629134E-3,5.578026E-4,0E0,0E0,0E0,0E0,0E0,0E0,3.8833357E-5,3.0053698E-4,1.1185151E-4,1.9905902E-4,0E0,0E0,0E0,0E0,0E0,0E0,0E0,0E0,0E0,0E0],"parents":[2147483647,0,0,1,1,2,2,3,3,4,4,5,5,6,6,7,7,8,8,9,9,10,10,11,11,12,12,13,13,17,17,18,18,19,19,20,20,21,21,22,22,33,33,34,34,35,35,36,36,43,43,44,44,45,45,46,46],"right_children":[2,4,6,8,10,12,14,16,18,20,22,24,26,28,-1,-1,-1,30,32,34,36,38,40,-1,-1,-1,-1,-1,-1,-1,-1,-1,-1,42,44,46,48,-1,-1,-1,-1,-1,-1,50,52,54,56,-1,-1,-1,-1,-1,-1,-1,-1,-1,-1],"split_conditions":[3.3727556E-1,1.1701923E-1,6.734231E-1,4.324098E-2,2.3932964E-1,4.582149E-1,8.730164E-1,1.7777687E-2,7.929969E-2,1.8384169E-1,2.9025075E-1,3.7889886E-1,5.302372E-1,7.572393E-1,4.378628E-2,-1.1118688E-2,-9.424425E-3,6.026841E-2,9.9608645E-2,1.536208E-1,2.1825685E-1,2.5923234E-1,3.004923E-1,1.0652566E-2,1.4497312E-2,1.806904E-2,2.2493271E-2,3.0165685E-2,3.6300242E-2,-8.210311E-3,-7.207192E-3,-6.1121616E-3,-4.342118E-3,1.4210612E-1,1.6716549E-1,2.0644826E-1,2.3359774E-1,3.980262E-3,5.6366324E-3,6.610941E-3,8.281003E-3,-3.3097807E-3,-2.3147294E-3,1.6311635E-1,1.8501888E-1,1.0748146E-1,2.128608E-1,2.1155945E-3,2.7774756E-3,-1.6072768E-3,-1.1458115E-3,-7.356658E-4,-2.6192932E-4,6.852067E-4,1.5685624E-4,1.0983469E-3,1.5455028E-3],"split_indices":[4,4,4,1,4,1,4,4,0,4,4,4,4,4,0,0,0,0,1,4,4,4,4,0,0,0,0,0,0,0,0,0,0,0,4,0,0,0,0,0,0,0,0,4,0,3,0,0,0,0,0,0,0,0,0,0,0],"split_type":[0,0,0,0,0,0,0,0,0,0,0,0,0,0,0,0,0,0,0,0,0,0,0,0,0,0,0,0,0,0,0,0,0,0,0,0,0,0,0,0,0,0,0,0,0,0,0,0,0,0,0,0,0,0,0,0,0],"sum_hessian":[3.7E3,2.918E3,7.82E2,2.182E3,7.36E2,4.77E2,3.05E2,1.431E3,7.51E2,4.76E2,2.6E2,2.17E2,2.6E2,2.02E2,1.03E2,1.214E3,2.17E2,5.21E2,2.3E2,2.45E2,2.31E2,1.16E2,1.44E2,1.3E2,8.7E1,1.73E2,8.7E1,7.2E1,1.3E2,2.32E2,2.89E2,1.86E2,4.4E1,1.3E2,1.15E2,1.16E2,1.15E2,4.4E1,7.2E1,4.3E1,1.01E2,6E1,7E1,5.9E1,5.6E1,3E1,8.6E1,4.3E1,7.2E1,4.3E1,1.6E1,2.7E1,2.9E1,4E0,2.6E1,2.9E1,5.7E1],"tree_param":{"num_deleted":"0","num_feature":"5","num_nodes":"57","size_leaf_vector":"1"}},{"base_weights":[2.0673584E-4,-5.9330948E-2,2.2216113E-1,-8.5869156E-2,2.1393493E-2,1.4692873E-1,3.3895501E-1,-9.767147E-2,-6.306063E-2,8.083612E-4,6.130528E-2,1.08253814E-1,1.750842E-1,3.1192267E-1,4.0136065E-2,-1.0046146E-2,-8.620357E-3,-6.827057E-2,-4.9901217E-2,-1.5808009E-2,1.849558E-2,4.8973005E-2,7.1757482E-3,9.42809E-3,1.2560128E-2,1.6290031E-2,2.0656703E-2,2.7721679E-2,3.3285543E-2,-7.214857E-3,-6.2957304E-3,-5.339823E-3,-3.4938E-3,-2.248001E-2,-5.94076E-3,1.2203878E-2,2.4575427E-2,4.0614563E-3,5.3340113E-3,-2.7177099E-3,-1.7608441E-3,-1.0787609E-2,-2.30762E-3,6.43695E-3,1.41407475E-2,2.1438478E-3,2.7295847E-3,-1.0970362E-3,-1.5560017E-4,-4.0178E-4,-5.205189E-5,8.4357895E-4,2.5691392E-4,1.1382984E-3,1.534412E-3],"categories":[],"categories_nodes":[],"categories_segments":[],"categories_sizes":[],"default_left":[0,0,0,0,0,0,0,0,0,0,0,0,0,0,0,0,0,0,0,0,0,0,0,0,0,0,0,0,0,0,0,0,0,0,0,0,0,0,0,0,0,0,0,0,0,0,0,0,0,0,0,0,0,0,0],"id":6,"left_children":[1,3,5,7,9,11,13,15,17,19,21,23,25,27,-1,-1,-1,29,31,33,35,37,-1,-1,-1,-1,-1,-1,-1,-1,-1,-1,-1,39,41,43,45,-1,-1,-1,-1,47,49,51,53,-1,-1,-1,-1,-1,-1,-1,-1,-1,-1],"loss_changes":[4.892061E1,6.2551584E0,6.8301697E0,5.852585E-1,5.9395957E-1,5.015459E-1,3.9102173E-1,3.760624E-2,4.81503E-2,1.4077534E-1,2.8195024E-2,3.7606478E-2,7.183552E-2,6.610298E-2,0E0,0E0,0E0,6.5016747E-3,9.489298E-3,1.6127527E-2,8.574687E-3,2.067864E-3,0E0,0E0,0E0,0E0,0E0,0E0,0E0,0E0,0E0,0E0,0E0,2.8851405E-3,1.7536439E-3,1.2046732E-3,4.1327626E-4,0E0,0E0,0E0,0E0,5.547516E-5,1.782283E-4,2.1799235E-4,1.1073798E-4,0E0,0E0,0E0,0E0,0E0,0E0,0E0,0E0,0E0,0E0],"parents":[2147483647,0,0,1,1,2,2,3,3,4,4,5,5,6,6,7,7,8,8,9,9,10,10,11,11,12,12,13,13,17,17,18,18,19,19,20,20,21,21,33,33,34,34,35,35,36,36,41,41,42,42,43,43,44,44],"right_children":[2,4,6,8,10,12,14,16,18,20,22,24,26,28,-1,-1,-1,30,32,34,36,38,-1,-1,-1,-1,-1,-1,-1,-1,-1,-1,-1,40,42,44,46,-1,-1,-1,-1,48,50,52,54,-1,-1,-1,-1,-1,-1,-1,-1,-1,-1],"split_conditions":[3.4866112E-1,1.3334355E-1,6.6867477E-1,4.705167E-2,2.5911504E-1,4.3858135E-1,8.822923E-1,1.1988936E-2,7.355941E-2,1.8936561E-1,3.0996087E-1,3.7522867E-1,5.392914E-1,7.647774E-1,4.0136065E-2,-1.0046146E-2,-8.620357E-3,5.8599424E-2,1.07179634E-1,1.66132E-1,2.2091764E-1,2.684991E-1,7.1757482E-3,9.42809E-3,1.2560128E-2,1.6290031E-2,2.0656703E-2,2.7721679E-2,3.3285543E-2,-7.214857E-3,-6.2957304E-3,-5.339823E-3,-3.4938E-3,1.5331057E-1,1.7386048E-1,2.097935E-1,2.3129705E-1,4.0614563E-3,5.3340113E-3,-2.7177099E-3,-1.7608441E-3,1.8501888E-1,1.8812479E-1,1.1719508E-1,2.1132216E-1,2.1438478E-3,2.7295847E-3,-1.0970362E-3,-1.5560017E-4,-4.0178E-4,-5.205189E-5,8.4357895E-4,2.5691392E-4,1.1382984E-3,1.534412E-3],"split_indices":[0,0,1,0,0,4,4,0,4,4,0,4,4,4,0,0,0,4,1,0,4,4,0,0,0,0,0,0,0,0,0,0,0,0,4,0,4,0,0,0,0,0,0,3,4,0,0,0,0,0,0,0,0,0,0],"split_type":[0,0,0,0,0,0,0,0,0,0,0,0,0,0,0,0,0,0,0,0,0,0,0,0,0,0,0,0,0,0,0,0,0,0,0,0,0,0,0,0,0,0,0,0,0,0,0,0,0,0,0,0,0,0,0],"sum_hessian":[3.7E3,2.918E3,7.82E2,2.196E3,7.22E2,4.77E2,3.05E2,1.445E3,7.51E2,4.77E2,2.45E2,2.03E2,2.74E2,2.17E2,8.8E1,1.156E3,2.89E2,5.35E2,2.16E2,2.46E2,2.31E2,1.15E2,1.3E2,1.16E2,8.7E1,2.02E2,7.2E1,8.7E1,1.3E2,3.02E2,2.33E2,1.73E2,4.3E1,1.46E2,1E2,1.15E2,1.16E2,4.3E1,7.2E1,7.2E1,7.4E1,4.2E1,5.8E1,3E1,8.5E1,5.8E1,5.8E1,4.1E1,1E0,2.9E1,2.9E1,1.9E1,1.1E1,2.9E1,5.6E1],"tree_param":{"num_deleted":"0","num_feature":"5","num_nodes":"55","size_leaf_vector":"1"}},{"base_weights":[2.233764E-4,-5.2757964E-2,2.0262836E-1,-7.7300906E-2,2.0377003E-2,1.3422234E-1,3.054694E-1,-8.792147E-2,-5.6776118E-2,7.253588E-4,5.6289297E-2,1.0321756E-1,1.6115253E-1,2.7821255E-1,3.5573546E-2,-9.003836E-3,-7.5583956E-3,-6.1467808E-2,-4.4925794E-2,-1.4252833E-2,1.6668841E-2,4.527461E-2,6.687429E-3,8.815045E-3,1.1918423E-2,1.4824812E-2,1.8263714E-2,2.4495667E-2,2.946207E-2,-6.5378183E-3,-5.71288E-3,-4.809481E-3,-3.1372749E-3,-2.1143772E-2,-6.415519E-3,1.1017254E-2,2.2129659E-2,3.626334E-3,4.956815E-3,-2.551674E-3,-1.7319815E-2,-1.0635312E-2,-2.0869887E-3,5.833392E-3,1.2757747E-2,1.8600548E-3,2.400199E-3,-1.8756876E-3,-1.4634802E-3,-1.22796E-3,-8.636513E-4,-3.6700253E-4,-4.3438573E-5,7.634384E-4,2.3456228E-4,1.0851099E-3,1.4331115E-3],"categories":[],"categories_nodes":[],"categories_segments":[],"categories_sizes":[],"default_left":[0,0,0,0,0,0,0,0,0,0,0,0,0,0,0,0,0,0,0,0,0,0,0,0,0,0,0,0,0,0,0,0,0,0,0,0,0,0,0,0,0,0,0,0,0,0,0,0,0,0,0,0,0,0,0,0,0],"id":7,"left_children":[1,3,5,7,9,11,13,15,17,19,21,23,25,27,-1,-1,-1,29,31,33,35,37,-1,-1,-1,-1,-1,-1,-1,-1,-1,-1,-1,39,41,43,45,-1,-1,-1,47,49,51,53,55,-1,-1,-1,-1,-1,-1,-1,-1,-1,-1,-1,-1],"loss_changes":[3.969906E1,5.26795E0,5.3618393E0,4.7392178E-1,5.20792E-1,3.699541E-1,3.2027817E-1,3.095913E-2,3.9048195E-2,1.1438616E-1,2.7402401E-2,4.1938305E-2,4.1126728E-2,3.860092E-2,0E0,0E0,0E0,5.3594112E-3,7.811278E-3,1.3203945E-2,6.9162473E-3,3.270924E-3,0E0,0E0,0E0,0E0,0E0,0E0,0E0,0E0,0E0,0E0,0E0,1.7486401E-3,2.1148678E-3,9.721853E-4,3.2664463E-4,0E0,0E0,0E0,7.169321E-6,8.7856315E-5,1.5275751E-4,1.768173E-4,1.0247994E-4,0E0,0E0,0E0,0E0,0E0,0E0,0E0,0E0,0E0,0E0,0E0,0E0],"parents":[2147483647,0,0,1,1,2,2,3,3,4,4,5,5,6,6,7,7,8,8,9,9,10,10,11,11,12,12,13,13,17,17,18,18,19,19,20,20,21,21,33,33,34,34,35,35,36,36,40,40,41,41,42,42,43,43,44,44],"right_children":[2,4,6,8,10,12,14,16,18,20,22,24,26,28,-1,-1,-1,30,32,34,36,38,-1,-1,-1,-1,-1,-1,-1,-1,-1,-1,-1,40,42,44,46,-1,-1,-1,48,50,52,54,56,-1,-1,-1,-1,-1,-1,-1,-1,-1,-1,-1,-1],"split_conditions":[3.4955668E-1,1.3334355E-1,6.755034E-1,4.019937E-2,2.4177454E-1,4.7391576E-1,8.730164E-1,2.2349348E-2,8.1948005E-2,1.9375296E-1,2.9746586E-1,3.7889886E-1,5.302372E-1,7.494876E-1,3.5573546E-2,-9.003836E-3,-7.5583956E-3,6.351681E-2,1.1402484E-1,1.5648843E-1,2.2091764E-1,2.8244665E-1,6.687429E-3,8.815045E-3,1.1918423E-2,1.4824812E-2,1.8263714E-2,2.4495667E-2,2.946207E-2,-6.5378183E-3,-5.71288E-3,-4.809481E-3,-3.1372749E-3,1.4789882E-1,1.7386048E-1,2.097935E-1,2.3598824E-1,3.626334E-3,4.956815E-3,-2.551674E-3,1.508063E-1,1.6311635E-1,1.7996944E-1,1.1719508E-1,2.1330829E-1,1.8600548E-3,2.400199E-3,-1.8756876E-3,-1.4634802E-3,-1.22796E-3,-8.636513E-4,-3.6700253E-4,-4.3438573E-5,7.634384E-4,2.3456228E-4,1.0851099E-3,1.4331115E-3],"split_indices":[1,0,0,4,4,0,4,1,0,1,4,4,4,1,0,0,0,1,0,4,4,0,0,0,0,0,0,0,0,0,0,0,0,0,4,0,0,0,0,0,4,4,4,3,4,0,0,0,0,0,0,0,0,0,0,0,0],"split_type":[0,0,0,0,0,0,0,0,0,0,0,0,0,0,0,0,0,0,0,0,0,0,0,0,0,0,0,0,0,0,0,0,0,0,0,0,0,0,0,0,0,0,0,0,0,0,0,0,0,0,0,0,0,0,0,0,0],"sum_hessian":[3.7E3,2.933E3,7.67E2,2.196E3,7.37E2,4.62E2,3.05E2,1.445E3,7.51E2,4.77E2,2.6E2,2.17E2,2.45E2,2.02E2,1.03E2,1.228E3,2.17E2,5.35E2,2.16E2,2.46E2,2.31E2,1.3E2,1.3E2,1.15E2,1.02E2,1.58E2,8.7E1,7.2E1,1.3E2,2.74E2,2.61E2,1.73E2,4.3E1,1.3E2,1.16E2,1.15E2,1.16E2,4.5E1,8.5E1,5.8E1,7.2E1,5.8E1,5.8E1,3E1,8.5E1,4.4E1,7.2E1,4.3E1,2.9E1,2.9E1,2.9E1,2.9E1,2.9E1,1.9E1,1.1E1,4.2E1,4.3E1],"tree_param":{"num_deleted":"0","num_feature":"5","num_nodes":"57","size_leaf_vector":"1"}},{"base_weights":[2.3379776E-4,-4.7493678E-2,1.8256737E-1,-6.928991E-2,1.9257026E-2,1.1852991E-1,2.718494E-1,-7.9018794E-2,-5.03725E-2,1.4994296E-3,5.0684266E-2,9.291042E-2,1.4209248E-1,2.3875569E-1,3.0917224E-1,-8.158843E-3,-7.0050196E-3,-5.4722067E-2,-3.8377482E-2,-1.2035902E-2,1.5028298E-2,4.1748904E-2,6.132481E-3,8.105597E-3,1.09501565E-2,1.3078429E-2,1.552227E-2,2.0617113E-2,2.5286807E-2,2.8382977E-2,3.411884E-2,-5.805732E-3,-5.035089E-3,-4.3243626E-3,-2.9244479E-3,-1.6869532E-2,-3.934627E-3,9.945455E-3,1.9939251E-2,3.4253523E-3,4.6352106E-3,-2.0412186E-2,-1.3095789E-3,-7.7391514E-3,-1.7297247E-3,5.313483E-3,1.1499474E-2,1.7345676E-2,2.2194874E-3,-2.3022573E-3,-1.7402025E-3,-8.1519334E-4,-4.5917727E-4,-3.1151564E-4,-3.789976E-5,6.909125E-4,2.2112903E-4,1.0218552E-3,1.3549913E-3,5.025849E-4,1.7471435E-3],"categories":[],"categories_nodes":[],"categories_segments":[],"categories_sizes":[],"default_left":[0,0,0,0,0,0,0,0,0,0,0,0,0,0,0,0,0,0,0,0,0,0,0,0,0,0,0,0,0,0,0,0,0,0,0,0,0,0,0,0,0,0,0,0,0,0,0,0,0,0,0,0,0,0,0,0,0,0,0,0,0],"id":8,"left_children":[1,3,5,7,9,11,13,15,17,19,21,23,25,27,29,-1,-1,31,33,35,37,39,-1,-1,-1,-1,-1,-1,-1,-1,-1,-1,-1,-1,-1,41,43,45,47,-1,-1,49,-1,51,53,55,57,59,-1,-1,-1,-1,-1,-1,-1,-1,-1,-1,-1,-1,-1],"loss_changes":[3.221596E1,4.270052E0,4.358736E0,4.0312672E-1,4.0341026E-1,2.578416E-1,3.214321E-1,2.7909279E-2,3.723824E-2,8.496439E-2,2.2254825E-2,3.400016E-2,1.4146328E-2,2.7878761E-2,2.2431374E-2,0E0,0E0,5.109787E-3,7.801622E-3,9.018414E-3,5.5927895E-3,3.4151673E-3,0E0,0E0,0E0,0E0,0E0,0E0,0E0,0E0,0E0,0E0,0E0,0E0,0E0,1.6711988E-3,7.2481064E-4,7.738853E-4,2.994798E-4,0E0,0E0,1.7297082E-4,0E0,4.142057E-6,1.0548574E-4,1.381716E-4,8.741487E-5,3.6023557E-6,0E0,0E0,0E0,0E0,0E0,0E0,0E0,0E0,0E0,0E0,0E0,0E0,0E0],"parents":[2147483647,0,0,1,1,2,2,3,3,4,4,5,5,6,6,7,7,8,8,9,9,10,10,11,11,12,12,13,13,14,14,17,17,18,18,19,19,20,20,21,21,35,35,36,36,37,37,38,38,41,41,43,43,44,44,45,45,46,46,47,47],"right_children":[2,4,6,8,10,12,14,16,18,20,22,24,26,28,30,-1,-1,32,34,36,38,40,-1,-1,-1,-1,-1,-1,-1,-1,-1,-1,-1,-1,-1,42,44,46,48,-1,-1,50,-1,52,54,56,58,60,-1,-1,-1,-1,-1,-1,-1,-1,-1,-1,-1,-1,-1],"split_conditions":[3.5240856E-1,1.3475372E-1,6.1282545E-1,4.206679E-2,2.5911504E-1,4.5665306E-1,8.375697E-1,7.5100423E-3,7.5727746E-2,1.8936561E-1,3.004923E-1,3.939526E-1,5.139639E-1,7.1781975E-1,9.105027E-1,-8.158843E-3,-7.0050196E-3,6.71493E-2,9.161986E-2,1.6311635E-1,2.2683726E-1,2.9005918E-1,6.132481E-3,8.105597E-3,1.09501565E-2,1.3078429E-2,1.552227E-2,2.0617113E-2,2.5286807E-2,2.8382977E-2,3.411884E-2,-5.805732E-3,-5.035089E-3,-4.3243626E-3,-2.9244479E-3,1.4848158E-1,1.8016744E-1,2.097935E-1,2.3129705E-1,3.4253523E-3,4.6352106E-3,1.4210612E-1,-1.3095789E-3,1.7386048E-1,1.8812479E-1,1.1719508E-1,2.2119693E-1,2.1008351E-1,2.2194874E-3,-2.3022573E-3,-1.7402025E-3,-8.1519334E-4,-4.5917727E-4,-3.1151564E-4,-3.789976E-5,6.909125E-4,2.2112903E-4,1.0218552E-3,1.3549913E-3,5.025849E-4,1.7471435E-3],"split_indices":[0,1,0,4,0,4,4,4,4,4,4,4,4,4,4,0,0,0,4,4,0,0,0,0,0,0,0,0,0,0,0,0,0,0,0,4,0,0,4,0,0,0,0,4,0,3,0,1,0,0,0,0,0,0,0,0,0,0,0,0,0],"split_type":[0,0,0,0,0,0,0,0,0,0,0,0,0,0,0,0,0,0,0,0,0,0,0,0,0,0,0,0,0,0,0,0,0,0,0,0,0,0,0,0,0,0,0,0,0,0,0,0,0,0,0,0,0,0,0,0,0,0,0,0,0],"sum_hessian":[3.7E3,2.933E3,7.67E2,2.211E3,7.22E2,4.48E2,3.19E2,1.458E3,7.53E2,4.62E2,2.6E2,2.17E2,2.31E2,1.73E2,1.46E2,1.127E3,3.31E2,5.5E2,2.03E2,2.31E2,2.31E2,1.44E2,1.16E2,1.3E2,8.7E1,1.3E2,1.01E2,5.7E1,1.16E2,8.7E1,5.9E1,3.05E2,2.45E2,1.3E2,7.3E1,1.44E2,8.7E1,1.15E2,1.16E2,5.8E1,8.6E1,7.2E1,7.2E1,3.1E1,5.6E1,3E1,8.5E1,5.8E1,5.8E1,3.5E1,3.7E1,2.6E1,5E0,2.7E1,2.9E1,1.9E1,1.1E1,5.6E1,2.9E1,1E0,5.7E1],"tree_param":{"num_deleted":"0","num_feature":"5","num_nodes":"61","size_leaf_vector":"1"}},{"base_weights":[2.4764633E-4,-4.2756964E-2,1.6453838E-1,-6.2901765E-2,1.5778752E-2,1.0893804E-1,2.4812798E-1,-7.205768E-2,-4.777267E-2,-1.4658461E-3,4.3256234E-2,8.652805E-2,1.3372666E-1,2.3003401E-1,3.0079026E-2,-7.380838E-3,-6.6075707E-3,-5.2426897E-2,-3.9650433E-2,-1.2967825E-2,1.1520175E-2,2.9327748E-2,5.054433E-2,7.315608E-3,1.0088322E-2,1.2640001E-2,1.5982755E-2,2.0245785E-2,2.4518346E-2,-5.662073E-3,-4.8903204E-3,-4.1788383E-3,-3.0028017E-3,-1.8391544E-2,-6.7309714E-3,6.699479E-3,1.562437E-2,2.147938E-3,3.260873E-3,4.360196E-3,5.603829E-3,-2.1830841E-3,-1.5359899E-3,-9.843858E-3,-3.336162E-3,1.7866564E-3,8.721674E-3,1.2768965E-3,1.7170521E-3,-1.0474627E-3,-7.6322287E-4,-4.9954833E-4,-1.6762571E-4,5.599865E-5,3.0577718E-4,7.056765E-4,9.563803E-4],"categories":[],"categories_nodes":[],"categories_segments":[],"categories_sizes":[],"default_left":[0,0,0,0,0,0,0,0,0,0,0,0,0,0,0,0,0,0,0,0,0,0,0,0,0,0,0,0,0,0,0,0,0,0,0,0,0,0,0,0,0,0,0,0,0,0,0,0,0,0,0,0,0,0,0,0,0],"id":9,"left_children":[1,3,5,7,9,11,13,15,17,19,21,23,25,27,-1,-1,-1,29,31,33,35,37,39,-1,-1,-1,-1,-1,-1,-1,-1,-1,-1,41,43,45,47,-1,-1,-1,-1,-1,-1,49,51,53,55,-1,-1,-1,-1,-1,-1,-1,-1,-1,-1],"loss_changes":[2.6155558E1,3.4607372E0,3.5423336E0,2.989483E-1,3.563897E-1,2.456317E-1,2.223854E-1,9.344578E-3,2.9146314E-2,6.930536E-2,2.7956188E-2,3.9841175E-2,2.1486282E-2,4.728222E-2,0E0,0E0,0E0,4.9450397E-3,5.0196946E-3,8.197635E-3,4.2084716E-3,1.9261241E-3,4.765302E-3,0E0,0E0,0E0,0E0,0E0,0E0,0E0,0E0,0E0,0E0,1.0305792E-3,1.193007E-3,9.977552E-4,2.972912E-4,0E0,0E0,0E0,0E0,0E0,0E0,3.7569553E-6,1.4862226E-4,4.662411E-5,3.345916E-5,0E0,0E0,0E0,0E0,0E0,0E0,0E0,0E0,0E0,0E0],"parents":[2147483647,0,0,1,1,2,2,3,3,4,4,5,5,6,6,7,7,8,8,9,9,10,10,11,11,12,12,13,13,17,17,18,18,19,19,20,20,21,21,22,22,33,33,34,34,35,35,36,36,43,43,44,44,45,45,46,46],"right_children":[2,4,6,8,10,12,14,16,18,20,22,24,26,28,-1,-1,-1,30,32,34,36,38,40,-1,-1,-1,-1,-1,-1,-1,-1,-1,-1,42,44,46,48,-1,-1,-1,-1,-1,-1,50,52,54,56,-1,-1,-1,-1,-1,-1,-1,-1,-1,-1],"split_conditions":[3.4091535E-1,1.1701923E-1,6.734231E-1,3.324853E-2,2.3698457E-1,4.8760736E-1,8.9658535E-1,6.470478E-3,7.426591E-2,1.8384169E-1,2.9761162E-1,3.939526E-1,5.5077785E-1,7.647774E-1,3.0079026E-2,-7.380838E-3,-6.6075707E-3,5.6280952E-2,9.4433814E-2,1.536208E-1,2.2119693E-1,2.5101078E-1,3.056532E-1,7.315608E-3,1.0088322E-2,1.2640001E-2,1.5982755E-2,2.0245785E-2,2.4518346E-2,-5.662073E-3,-4.8903204E-3,-4.1788383E-3,-3.0028017E-3,1.3813874E-1,1.6716549E-1,2.0644826E-1,2.22361E-1,2.147938E-3,3.260873E-3,4.360196E-3,5.603829E-3,-2.1830841E-3,-1.5359899E-3,1.6970007E-1,1.7721954E-1,1.9445159E-1,2.0839617E-1,1.2768965E-3,1.7170521E-3,-1.0474627E-3,-7.6322287E-4,-4.9954833E-4,-1.6762571E-4,5.599865E-5,3.0577718E-4,7.056765E-4,9.563803E-4],"split_indices":[4,4,4,0,4,0,4,1,1,4,0,4,4,4,0,0,0,0,1,4,0,2,4,0,0,0,0,0,0,0,0,0,0,1,4,0,4,0,0,0,0,0,0,0,4,2,4,0,0,0,0,0,0,0,0,0,0],"split_type":[0,0,0,0,0,0,0,0,0,0,0,0,0,0,0,0,0,0,0,0,0,0,0,0,0,0,0,0,0,0,0,0,0,0,0,0,0,0,0,0,0,0,0,0,0,0,0,0,0,0,0,0,0,0,0,0,0],"sum_hessian":[3.7E3,2.933E3,7.67E2,2.182E3,7.51E2,4.62E2,3.05E2,1.357E3,8.25E2,4.62E2,2.89E2,2.45E2,2.17E2,2.31E2,7.4E1,1.041E3,3.16E2,5.21E2,3.04E2,2.45E2,2.17E2,1.01E2,1.88E2,1.3E2,1.15E2,1.74E2,4.3E1,8.7E1,1.44E2,2.31E2,2.9E2,2.46E2,5.8E1,1.3E2,1.15E2,1.01E2,1.16E2,3.2E1,6.9E1,8.7E1,1.01E2,5.8E1,7.2E1,5.9E1,5.6E1,3E1,7.1E1,4.4E1,7.2E1,4.3E1,1.6E1,2.7E1,2.9E1,1.6E1,1.4E1,2.7E1,4.4E1],"tree_param":{"num_deleted":"0","num_feature":"5","num_nodes":"57","size_leaf_vector":"1"}},{"base_weights":[2.5080348E-4,-4.0328257E-2,1.415403E-1,-5.685904E-2,1.0276909E-2,9.122837E-2,2.2081096E-1,-6.48672E-2,-4.3379463E-2,-6.480509E-3,2.9217657E-2,6.629803E-2,1.11853786E-1,1.8523452E-1,2.4417782E-1,-6.63484E-3,-5.9158714E-3,-4.770168E-2,-3.7031956E-2,-1.4326932E-2,4.250746E-3,1.85262E-2,4.0662006E-2,5.674468E-3,7.791755E-3,9.786593E-3,1.2138332E-2,1.6109824E-2,1.9519772E-2,2.2676086E-2,2.7813524E-2,-5.1399623E-3,-4.477157E-3,-3.8761254E-3,-3.034184E-3,-1.911019E-2,-1.0034461E-2,-6.790233E-4,8.29191E-3,1.5715292E-2,2.6473992E-3,3.425181E-3,4.4165608E-3,-2.0349007E-3,-1.52901E-3,-1.2142285E-3,-7.7565615E-3,-2.2369898E-3,1.6286283E-3,6.86279E-3,9.627902E-4,1.2422848E-3,1.7182932E-3,-8.456786E-4,-5.5291376E-4,-2.7930917E-4,-3.1476673E-5,1.2547385E-4,6.2357186E-4,1.6099289E-4,6.943744E-4],"categories":[],"categories_nodes":[],"categories_segments":[],"categories_sizes":[],"default_left":[0,0,0,0,0,0,0,0,0,0,0,0,0,0,0,0,0,0,0,0,0,0,0,0,0,0,0,0,0,0,0,0,0,0,0,0,0,0,0,0,0,0,0,0,0,0,0,0,0,0,0,0,0,0,0,0,0,0,0,0,0],"id":10,"left_children":[1,3,5,7,9,11,13,15,17,19,21,23,25,27,29,-1,-1,31,33,35,37,39,41,-1,-1,-1,-1,-1,-1,-1,-1,-1,-1,-1,-1,43,45,47,49,51,-1,-1,-1,-1,-1,-1,53,55,57,59,-1,-1,-1,-1,-1,-1,-1,-1,-1,-1,-1],"loss_changes":[2.1225004E1,2.4064822E0,3.2741585E0,2.3121405E-1,2.2522455E-1,2.5328302E-1,2.20788E-1,7.557392E-3,2.0483494E-2,3.1805042E-2,3.9991528E-2,2.1331906E-2,2.4910688E-2,5.6266785E-5,4.9303055E-2,0E0,0E0,2.888918E-3,2.6764572E-3,4.284214E-3,3.1931521E-3,3.4712069E-3,2.0806193E-3,0E0,0E0,0E0,0E0,0E0,0E0,0E0,0E0,0E0,0E0,0E0,0E0,1.7156824E-4,4.675826E-4,2.6609603E-4,1.019435E-4,4.1954592E-4,0E0,0E0,0E0,0E0,0E0,0E0,4.5263907E-5,4.6154688E-5,4.3852153E-5,8.382136E-6,0E0,0E0,0E0,0E0,0E0,0E0,0E0,0E0,0E0,0E0,0E0],"parents":[2147483647,0,0,1,1,2,2,3,3,4,4,5,5,6,6,7,7,8,8,9,9,10,10,11,11,12,12,13,13,14,14,17,17,18,18,19,19,20,20,21,21,22,22,35,35,36,36,37,37,38,38,39,39,46,46,47,47,48,48,49,49],"right_children":[2,4,6,8,10,12,14,16,18,20,22,24,26,28,30,-1,-1,32,34,36,38,40,42,-1,-1,-1,-1,-1,-1,-1,-1,-1,-1,-1,-1,44,46,48,50,52,-1,-1,-1,-1,-1,-1,54,56,58,60,-1,-1,-1,-1,-1,-1,-1,-1,-1,-1,-1],"split_conditions":[3.3823648E-1,1.14540756E-1,6.0985315E-1,2.8515894E-2,2.1825685E-1,4.4388232E-1,7.834148E-1,7.1164016E-3,7.2810665E-2,1.7386048E-1,2.684991E-1,3.856699E-1,4.946739E-1,7.031151E-1,9.083441E-1,-6.63484E-3,-5.9158714E-3,4.659608E-2,8.498901E-2,1.4415877E-1,2.035503E-1,2.4177454E-1,3.0511698E-1,5.674468E-3,7.791755E-3,9.786593E-3,1.2138332E-2,1.6109824E-2,1.9519772E-2,2.2676086E-2,2.7813524E-2,-5.1399623E-3,-4.477157E-3,-3.8761254E-3,-3.034184E-3,1.3813874E-1,1.5648843E-1,1.8384169E-1,2.1132216E-1,2.258359E-1,2.6473992E-3,3.425181E-3,4.4165608E-3,-2.0349007E-3,-1.52901E-3,-1.2142285E-3,1.709731E-1,2.1786417E-1,2.097935E-1,2.045308E-1,9.627902E-4,1.2422848E-3,1.7182932E-3,-8.456786E-4,-5.5291376E-4,-2.7930917E-4,-3.1476673E-5,1.2547385E-4,6.2357186E-4,1.6099289E-4,6.943744E-4],"split_indices":[0,1,1,4,4,1,4,1,0,4,4,0,1,4,0,0,0,4,4,4,1,4,0,0,0,0,0,0,0,0,0,0,0,0,0,1,4,4,4,4,0,0,0,0,0,0,1,3,0,2,0,0,0,0,0,0,0,0,0,0,0],"split_type":[0,0,0,0,0,0,0,0,0,0,0,0,0,0,0,0,0,0,0,0,0,0,0,0,0,0,0,0,0,0,0,0,0,0,0,0,0,0,0,0,0,0,0,0,0,0,0,0,0,0,0,0,0,0,0,0,0,0,0,0,0],"sum_hessian":[3.7E3,2.875E3,8.25E2,2.167E3,7.08E2,5.06E2,3.19E2,1.357E3,8.1E2,3.76E2,3.32E2,2.31E2,2.75E2,1.3E2,1.89E2,1.069E3,2.88E2,4.78E2,3.32E2,2.17E2,1.59E2,1.73E2,1.59E2,1.3E2,1.01E2,1.16E2,1.59E2,4.3E1,8.7E1,1.3E2,5.9E1,2.04E2,2.74E2,2.6E2,7.2E1,1.01E2,1.16E2,7.2E1,8.7E1,1.3E2,4.3E1,6E1,9.9E1,7.3E1,2.8E1,5.8E1,5.8E1,4.3E1,2.9E1,4.5E1,4.2E1,4.3E1,8.7E1,4.2E1,1.6E1,3.3E1,1E1,2.8E1,1E0,1E0,4.4E1],"tree_param":{"num_deleted":"0","num_feature":"5","num_nodes":"61","size_leaf_vector":"1"}},{"base_weights":[2.5327192E-4,-3.4654137E-2,1.3361016E-1,-5.054364E-2,1.4096722E-2,9.0209275E-2,2.0444182E-1,-5.8277037E-2,-3.783384E-2,1.1551409E-3,3.6950797E-2,7.020605E-2,1.1094139E-1,1.8958655E-1,2.4469715E-2,-5.9955367E-3,-5.367956E-2,-4.159395E-2,-2.9333087E-2,-8.743046E-3,1.1005684E-2,2.8845333E-2,4.313767E-2,5.789026E-3,8.057572E-3,1.0239609E-2,1.3440727E-2,1.7046992E-2,2.0083513E-2,-5.5416394E-3,-4.934629E-3,-4.5367004E-3,-3.8718977E-3,-3.193971E-2,-2.0068574E-3,-1.2259729E-2,-2.8891193E-3,7.299043E-3,1.4586578E-2,2.3723757E-3,3.1757262E-3,3.6828208E-3,4.5761066E-3,-3.2959864E-3,-2.7401E-3,-1.43895475E-2,-8.9474564E-4,-5.0264252E-3,-7.351064E-4,3.8265353E-3,8.412562E-3,1.2615771E-3,1.6310156E-3,-1.5968755E-3,-1.2519195E-3,-5.3608016E-4,-2.0152431E-4,-1.3285245E-4,1.0075035E-4,6.961435E-5,4.2813594E-4,6.805355E-4,9.2239317E-4],"categories":[],"categories_nodes":[],"categories_segments":[],"categories_sizes":[],"default_left":[0,0,0,0,0,0,0,0,0,0,0,0,0,0,0,0,0,0,0,0,0,0,0,0,0,0,0,0,0,0,0,0,0,0,0,0,0,0,0,0,0,0,0,0,0,0,0,0,0,0,0,0,0,0,0,0,0,0,0,0,0,0,0],"id":11,"left_children":[1,3,5,7,9,11,13,15,17,19,21,23,25,27,-1,-1,29,31,33,35,37,39,41,-1,-1,-1,-1,-1,-1,-1,-1,-1,-1,43,-1,45,47,49,51,-1,-1,-1,-1,-1,-1,53,-1,55,57,59,61,-1,-1,-1,-1,-1,-1,-1,-1,-1,-1,-1,-1],"loss_changes":[1.7233316E1,2.2734678E0,2.3425093E0,2.1531105E-1,2.1350168E-1,1.9044232E-1,1.2762737E-1,7.3838234E-3,2.562952E-2,4.5142382E-2,1.1844218E-2,2.6752353E-2,3.2958984E-2,1.2426376E-2,0E0,0E0,1.0275841E-4,4.53496E-3,5.6619197E-3,4.7200397E-3,2.9728897E-3,9.765774E-4,7.313192E-4,0E0,0E0,0E0,0E0,0E0,0E0,0E0,0E0,0E0,0E0,3.2156706E-5,0E0,8.871034E-4,4.014381E-4,4.1634683E-4,1.9166246E-4,0E0,0E0,0E0,0E0,0E0,0E0,5.410053E-5,0E0,3.3498858E-5,4.787282E-5,3.97329E-5,5.067978E-5,0E0,0E0,0E0,0E0,0E0,0E0,0E0,0E0,0E0,0E0,0E0,0E0],"parents":[2147483647,0,0,1,1,2,2,3,3,4,4,5,5,6,6,7,7,8,8,9,9,10,10,11,11,12,12,13,13,16,16,17,17,18,18,19,19,20,20,21,21,22,22,33,33,35,35,36,36,37,37,38,38,45,45,47,47,48,48,49,49,50,50],"right_children":[2,4,6,8,10,12,14,16,18,20,22,24,26,28,-1,-1,30,32,34,36,38,40,42,-1,-1,-1,-1,-1,-1,-1,-1,-1,-1,44,-1,46,48,50,52,-1,-1,-1,-1,-1,-1,54,-1,56,58,60,62,-1,-1,-1,-1,-1,-1,-1,-1,-1,-1,-1,-1],"split_conditions":[3.5240856E-1,1.3534759E-1,6.8686104E-1,3.3106793E-2,2.4177454E-1,4.707758E-1,8.9658535E-1,5.8322093E-3,7.1473576E-2,1.8936561E-1,2.9431653E-1,3.9573333E-1,5.5077785E-1,7.764898E-1,2.4469715E-2,-5.9955367E-3,2.7862607E-2,5.095896E-2,1.1402484E-1,1.6970007E-1,2.2683726E-1,2.8244665E-1,3.222828E-1,5.789026E-3,8.057572E-3,1.0239609E-2,1.3440727E-2,1.7046992E-2,2.0083513E-2,-5.5416394E-3,-4.934629E-3,-4.5367004E-3,-3.8718977E-3,8.667106E-2,-2.0068574E-3,1.508063E-1,1.7721954E-1,2.0572789E-1,2.3894158E-1,2.3723757E-3,3.1757262E-3,3.6828208E-3,4.5761066E-3,-3.2959864E-3,-2.7401E-3,1.4789882E-1,-8.9474564E-4,1.82835E-1,2.2616592E-1,1.97597E-1,2.1587688E-1,1.2615771E-3,1.6310156E-3,-1.5968755E-3,-1.2519195E-3,-5.3608016E-4,-2.0152431E-4,-1.3285245E-4,1.0075035E-4,6.961435E-5,4.2813594E-4,6.805355E-4,9.2239317E-4],"split_indices":[0,0,4,1,4,4,4,1,4,4,4,1,4,4,0,0,1,4,0,0,0,0,0,0,0,0,0,0,0,0,0,0,0,4,0,4,4,4,0,0,0,0,0,0,0,0,0,1,3,0,0,0,0,0,0,0,0,0,0,0,0,0,0],"split_type":[0,0,0,0,0,0,0,0,0,0,0,0,0,0,0,0,0,0,0,0,0,0,0,0,0,0,0,0,0,0,0,0,0,0,0,0,0,0,0,0,0,0,0,0,0,0,0,0,0,0,0,0,0,0,0,0,0,0,0,0,0,0,0],"sum_hessian":[3.7E3,2.933E3,7.67E2,2.212E3,7.21E2,4.77E2,2.9E2,1.373E3,8.39E2,4.61E2,2.6E2,2.45E2,2.32E2,2.16E2,7.4E1,9.97E2,3.76E2,5.79E2,2.6E2,2.3E2,2.31E2,1.15E2,1.45E2,1.15E2,1.3E2,1.74E2,5.8E1,8.6E1,1.3E2,2.6E2,1.16E2,2.44E2,3.35E2,2.01E2,5.9E1,1.43E2,8.7E1,1.15E2,1.16E2,4.5E1,7E1,4.7E1,9.8E1,1.59E2,4.2E1,8.5E1,5.8E1,4.3E1,4.4E1,2.9E1,8.6E1,5.8E1,5.8E1,4.2E1,4.3E1,3.8E1,5E0,3.3E1,1.1E1,4E0,2.5E1,3.2E1,5.4E1],"tree_param":{"num_deleted":"0","num_feature":"5","num_nodes":"63","size_leaf_vector":"1"}},{"base_weights":[2.496946E-4,-3.1199288E-2,1.2039431E-1,-4.5898587E-2,1.1513174E-2,7.807733E-2,1.793941E-1,-5.2654196E-2,-3.5013974E-2,-1.0758702E-3,3.1572532E-2,5.9954856E-2,9.2655405E-2,1.5690732E-1,2.0479071E-1,-5.41773E-3,-4.9170754E-3,-3.869728E-2,-2.9300906E-2,-9.48207E-3,8.41496E-3,2.3306748E-2,3.8142815E-2,5.1048216E-3,6.8273703E-3,8.451904E-3,1.0339319E-2,1.3550515E-2,1.6617587E-2,1.8971309E-2,2.3377175E-2,-4.166206E-3,-3.6064943E-3,-3.0963377E-3,-2.2844402E-3,-1.39713045E-2,-5.4344865E-3,4.904182E-3,1.1403714E-2,1.6939988E-3,2.6225278E-3,3.27955E-3,4.1106357E-3,-1.5864138E-3,-1.1659982E-3,-7.6386253E-3,-2.4389625E-3,1.3013559E-3,6.3872854E-3,9.748134E-4,1.2866012E-3,-8.394734E-4,-6.224638E-4,-3.6787093E-4,-1.2005667E-4,-9.015923E-5,1.7596764E-4,4.6474402E-4,6.7636056E-4],"categories":[],"categories_nodes":[],"categories_segments":[],"categories_sizes":[],"default_left":[0,0,0,0,0,0,0,0,0,0,0,0,0,0,0,0,0,0,0,0,0,0,0,0,0,0,0,0,0,0,0,0,0,0,0,0,0,0,0,0,0,0,0,0,0,0,0,0,0,0,0,0,0,0,0,0,0,0,0],"id":12,"left_children":[1,3,5,7,9,11,13,15,17,19,21,23,25,27,29,-1,-1,31,33,35,37,39,41,-1,-1,-1,-1,-1,-1,-1,-1,-1,-1,-1,-1,43,45,47,49,-1,-1,-1,-1,-1,-1,51,53,55,57,-1,-1,-1,-1,-1,-1,-1,-1,-1,-1],"loss_changes":[1.3987711E1,1.8426204E0,1.9034529E0,1.5867758E-1,1.8993518E-1,1.130662E-1,1.5061474E-1,4.471779E-3,1.6521215E-2,3.701877E-2,1.4860481E-2,1.1555612E-2,1.2840748E-2,1.1998177E-2,1.988411E-2,0E0,0E0,2.4542212E-3,2.8669834E-3,4.39403E-3,2.2315169E-3,1.9899234E-3,1.1874288E-3,0E0,0E0,0E0,0E0,0E0,0E0,0E0,0E0,0E0,0E0,0E0,0E0,3.2251887E-4,8.4630377E-4,5.3671096E-4,1.5783124E-4,0E0,0E0,0E0,0E0,0E0,0E0,2.793083E-5,8.3095394E-5,3.2885855E-5,1.5707687E-5,0E0,0E0,0E0,0E0,0E0,0E0,0E0,0E0,0E0,0E0],"parents":[2147483647,0,0,1,1,2,2,3,3,4,4,5,5,6,6,7,7,8,8,9,9,10,10,11,11,12,12,13,13,14,14,17,17,18,18,19,19,20,20,21,21,22,22,35,35,36,36,37,37,38,38,45,45,46,46,47,47,48,48],"right_children":[2,4,6,8,10,12,14,16,18,20,22,24,26,28,30,-1,-1,32,34,36,38,40,42,-1,-1,-1,-1,-1,-1,-1,-1,-1,-1,-1,-1,44,46,48,50,-1,-1,-1,-1,-1,-1,52,54,56,58,-1,-1,-1,-1,-1,-1,-1,-1,-1,-1],"split_conditions":[3.4091535E-1,1.1701923E-1,6.1282545E-1,3.1952742E-2,2.3698457E-1,4.582149E-1,8.375697E-1,4.894044E-3,6.599785E-2,1.8384169E-1,2.9676926E-1,3.7522867E-1,5.261351E-1,7.1781975E-1,9.325779E-1,-5.41773E-3,-4.9170754E-3,5.363365E-2,8.667106E-2,1.508063E-1,2.1518242E-1,2.4923341E-1,3.222828E-1,5.1048216E-3,6.8273703E-3,8.451904E-3,1.0339319E-2,1.3550515E-2,1.6617587E-2,1.8971309E-2,2.3377175E-2,-4.166206E-3,-3.6064943E-3,-3.0963377E-3,-2.2844402E-3,1.4210612E-1,1.6716549E-1,2.0644826E-1,2.3251888E-1,1.6939988E-3,2.6225278E-3,3.27955E-3,4.1106357E-3,-1.5864138E-3,-1.1659982E-3,1.5932451E-1,1.8501888E-1,1.9207337E-1,2.097935E-1,9.748134E-4,1.2866012E-3,-8.394734E-4,-6.224638E-4,-3.6787093E-4,-1.2005667E-4,-9.015923E-5,1.7596764E-4,4.6474402E-4,6.7636056E-4],"split_indices":[4,4,0,1,4,1,4,1,4,4,1,4,0,4,4,0,0,1,4,4,4,4,0,0,0,0,0,0,0,0,0,0,0,0,0,0,4,0,1,0,0,0,0,0,0,4,0,0,0,0,0,0,0,0,0,0,0,0,0],"split_type":[0,0,0,0,0,0,0,0,0,0,0,0,0,0,0,0,0,0,0,0,0,0,0,0,0,0,0,0,0,0,0,0,0,0,0,0,0,0,0,0,0,0,0,0,0,0,0,0,0,0,0,0,0,0,0,0,0,0,0],"sum_hessian":[3.7E3,2.933E3,7.67E2,2.182E3,7.51E2,4.48E2,3.19E2,1.344E3,8.38E2,4.62E2,2.89E2,2.02E2,2.46E2,1.73E2,1.46E2,9.25E2,4.19E2,5.06E2,3.32E2,2.45E2,2.17E2,1.3E2,1.59E2,1.01E2,1.01E2,1.45E2,1.01E2,5.7E1,1.16E2,1.01E2,4.5E1,2.31E2,2.75E2,2.61E2,7.1E1,1.15E2,1.3E2,1.01E2,1.16E2,4.3E1,8.7E1,6.1E1,9.8E1,6E1,5.5E1,7.4E1,5.6E1,3E1,7.1E1,5.8E1,5.8E1,4.5E1,2.9E1,2.7E1,2.9E1,5E0,2.5E1,1.5E1,5.6E1],"tree_param":{"num_deleted":"0","num_feature":"5","num_nodes":"59","size_leaf_vector":"1"}},{"base_weights":[2.4910815E-4,-2.7763337E-2,1.09772235E-1,-4.0967517E-2,1.1976627E-2,7.422087E-2,1.6608173E-1,-4.6651352E-2,-2.9567476E-2,9.3603396E-4,3.048127E-2,5.971275E-2,9.241891E-2,1.5535903E-1,2.0477474E-2,-4.7996122E-2,-3.9771306E-3,-3.2236617E-2,-2.2457443E-2,-7.094668E-3,8.928087E-3,2.4749953E-2,3.6592414E-3,4.9025663E-3,6.792431E-3,8.5928915E-3,1.1344066E-2,1.3817938E-2,1.6453212E-2,-4.9341763E-3,-4.607279E-3,-3.4134935E-3,-2.9867715E-3,-2.4848653E-3,-1.6264545E-3,-9.9471565E-3,-2.3463387E-3,5.535143E-3,1.1501767E-2,2.0147206E-3,2.7586876E-3,-1.1635922E-2,-7.31697E-4,-4.661663E-4,-1.0053437E-3,3.1376502E-3,6.44459E-3,9.586706E-4,1.2891997E-3,-1.2542184E-3,-9.6234505E-4,-1.6266009E-4,3.2278112E-5,2.5812525E-4,7.2848104E-4,5.417395E-4,7.035252E-4],"categories":[],"categories_nodes":[],"categories_segments":[],"categories_sizes":[],"default_left":[0,0,0,0,0,0,0,0,0,0,0,0,0,0,0,0,0,0,0,0,0,0,0,0,0,0,0,0,0,0,0,0,0,0,0,0,0,0,0,0,0,0,0,0,0,0,0,0,0,0,0,0,0,0,0,0,0],"id":13,"left_children":[1,3,5,7,9,11,13,15,17,19,21,23,25,27,-1,29,-1,31,33,35,37,39,-1,-1,-1,-1,-1,-1,-1,-1,-1,-1,-1,-1,-1,41,43,45,47,-1,-1,49,-1,-1,51,53,55,-1,-1,-1,-1,-1,-1,-1,-1,-1,-1],"loss_changes":[1.1357754E1,1.5474055E0,1.4970894E0,1.4201403E-1,1.5033787E-1,1.1698651E-1,8.892059E-2,1.1738062E-2,1.3300538E-2,2.971533E-2,8.726209E-3,1.9574702E-2,1.808405E-2,1.382637E-2,0E0,9.074211E-4,0E0,1.3862848E-3,2.6315898E-3,3.1054514E-3,1.9622408E-3,1.3375655E-3,0E0,0E0,0E0,0E0,0E0,0E0,0E0,0E0,0E0,0E0,0E0,0E0,0E0,5.5447593E-4,2.6853918E-4,2.0217919E-4,2.251789E-4,0E0,0E0,3.6150217E-5,0E0,0E0,4.755613E-5,5.0420116E-5,6.178161E-6,0E0,0E0,0E0,0E0,0E0,0E0,0E0,0E0,0E0,0E0],"parents":[2147483647,0,0,1,1,2,2,3,3,4,4,5,5,6,6,7,7,8,8,9,9,10,10,11,11,12,12,13,13,15,15,17,17,18,18,19,19,20,20,21,21,35,35,36,36,37,37,38,38,41,41,44,44,45,45,46,46],"right_children":[2,4,6,8,10,12,14,16,18,20,22,24,26,28,-1,30,-1,32,34,36,38,40,-1,-1,-1,-1,-1,-1,-1,-1,-1,-1,-1,-1,-1,42,44,46,48,-1,-1,50,-1,-1,52,54,56,-1,-1,-1,-1,-1,-1,-1,-1,-1,-1],"split_conditions":[3.5877976E-1,1.3534759E-1,6.8686104E-1,4.3717187E-2,2.5911504E-1,4.9774918E-1,9.105027E-1,2.247473E-2,8.41272E-2,1.9375296E-1,3.004923E-1,3.939526E-1,5.574782E-1,7.764898E-1,2.0477474E-2,3.5595212E-3,-3.9771306E-3,6.71493E-2,1.07179634E-1,1.6311635E-1,2.1825685E-1,2.728706E-1,3.6592414E-3,4.9025663E-3,6.792431E-3,8.5928915E-3,1.1344066E-2,1.3817938E-2,1.6453212E-2,-4.9341763E-3,-4.607279E-3,-3.4134935E-3,-2.9867715E-3,-2.4848653E-3,-1.6264545E-3,1.508063E-1,1.8016744E-1,2.0572789E-1,2.3598824E-1,2.0147206E-3,2.7586876E-3,1.4919345E-1,-7.31697E-4,-4.661663E-4,2.1934989E-1,2.941482E-1,2.1132216E-1,9.586706E-4,1.2891997E-3,-1.2542184E-3,-9.6234505E-4,-1.6266009E-4,3.2278112E-5,2.5812525E-4,7.2848104E-4,5.417395E-4,7.035252E-4],"split_indices":[0,0,4,4,0,0,4,2,0,1,4,4,4,4,0,0,0,0,1,4,4,4,0,0,0,0,0,0,0,0,0,0,0,0,0,4,0,4,0,0,0,1,0,0,3,3,4,0,0,0,0,0,0,0,0,0,0],"split_type":[0,0,0,0,0,0,0,0,0,0,0,0,0,0,0,0,0,0,0,0,0,0,0,0,0,0,0,0,0,0,0,0,0,0,0,0,0,0,0,0,0,0,0,0,0,0,0,0,0,0,0,0,0,0,0,0,0],"sum_hessian":[3.7E3,2.947E3,7.53E2,2.212E3,7.35E2,4.63E2,2.9E2,1.474E3,7.38E2,4.61E2,2.74E2,2.6E2,2.03E2,2.31E2,5.9E1,1.228E3,2.46E2,5.34E2,2.04E2,2.3E2,2.31E2,1.44E2,1.3E2,1.16E2,1.44E2,1.59E2,4.4E1,8.6E1,1.45E2,7.08E2,5.2E2,2.89E2,2.45E2,1.45E2,5.9E1,1.43E2,8.7E1,1.01E2,1.3E2,5.8E1,8.6E1,8.5E1,5.8E1,3.1E1,5.6E1,2.9E1,7.2E1,5.8E1,7.2E1,5.5E1,3E1,3.8E1,1.8E1,2.7E1,2E0,3E1,4.2E1],"tree_param":{"num_deleted":"0","num_feature":"5","num_nodes":"57","size_leaf_vector":"1"}},{"base_weights":[2.4249312E-4,-2.4991976E-2,9.890427E-2,-3.6742277E-2,1.12198675E-2,6.686695E-2,1.4964794E-1,-4.1926887E-2,-2.6253188E-2,1.2459194E-3,2.7463805E-2,5.20293E-2,8.135394E-2,1.3846348E-1,1.80013E-2,-4.316351E-2,-3.5476745E-3,-2.842272E-2,-1.8224549E-2,-6.0092662E-3,8.057921E-3,2.2264024E-2,3.3009637E-3,4.2988653E-3,5.867141E-3,7.3813633E-3,9.655794E-3,1.2447953E-2,1.4669356E-2,-4.4446625E-3,-4.1463636E-3,-3.0391908E-3,-2.6128197E-3,-2.1249831E-3,-1.4327981E-3,-8.574674E-3,-2.1220192E-3,4.9835546E-3,1.0390192E-2,1.8085608E-2,2.4841756E-2,-1.004872E-3,-6.605521E-4,-3.7198977E-3,-5.1249296E-4,1.7999243E-3,5.5117677E-3,8.175488E-4,1.1379475E-2,7.303104E-4,1.8335817E-3,1.4718354E-3,2.540993E-3,-4.1609007E-4,-2.197149E-4,-8.290224E-5,1.6831185E-4,2.9543688E-4,1.0065978E-4,4.5978135E-4,6.262618E-4,1.0089205E-3,1.2612487E-3],"categories":[],"categories_nodes":[],"categories_segments":[],"categories_sizes":[],"default_left":[0,0,0,0,0,0,0,0,0,0,0,0,0,0,0,0,0,0,0,0,0,0,0,0,0,0,0,0,0,0,0,0,0,0,0,0,0,0,0,0,0,0,0,0,0,0,0,0,0,0,0,0,0,0,0,0,0,0,0,0,0,0,0],"id":14,"left_children":[1,3,5,7,9,11,13,15,17,19,21,23,25,27,-1,29,-1,31,33,35,37,39,-1,-1,-1,-1,-1,-1,-1,-1,-1,-1,-1,-1,-1,41,43,45,47,49,51,-1,-1,53,55,57,59,-1,61,-1,-1,-1,-1,-1,-1,-1,-1,-1,-1,-1,-1,-1,-1],"loss_changes":[9.216768E0,1.2547866E0,1.215764E0,1.19953394E-1,1.1710349E-1,9.5505476E-2,7.3903084E-2,1.0337353E-2,1.23541355E-2,2.2239054E-2,7.195279E-3,1.14091635E-2,1.9584417E-2,6.713867E-3,0E0,8.7046623E-4,0E0,1.8265843E-3,1.5816465E-3,2.1557817E-3,1.6117208E-3,1.1124909E-3,0E0,0E0,0E0,0E0,0E0,0E0,0E0,0E0,0E0,0E0,0E0,0E0,0E0,3.1386595E-4,2.2441437E-4,1.6160589E-4,1.9398332E-4,2.5266781E-5,1.26414E-4,0E0,0E0,2.0405452E-5,3.2669243E-5,1.167976E-5,3.0908734E-5,0E0,1.2751669E-5,0E0,0E0,0E0,0E0,0E0,0E0,0E0,0E0,0E0,0E0,0E0,0E0,0E0,0E0],"parents":[2147483647,0,0,1,1,2,2,3,3,4,4,5,5,6,6,7,7,8,8,9,9,10,10,11,11,12,12,13,13,15,15,17,17,18,18,19,19,20,20,21,21,35,35,36,36,37,37,38,38,39,39,40,40,43,43,44,44,45,45,46,46,48,48],"right_children":[2,4,6,8,10,12,14,16,18,20,22,24,26,28,-1,30,-1,32,34,36,38,40,-1,-1,-1,-1,-1,-1,-1,-1,-1,-1,-1,-1,-1,42,44,46,48,50,52,-1,-1,54,56,58,60,-1,62,-1,-1,-1,-1,-1,-1,-1,-1,-1,-1,-1,-1,-1,-1],"split_conditions":[3.5877976E-1,1.3716996E-1,6.8686104E-1,4.4077158E-2,2.5911504E-1,4.7813964E-1,8.9170635E-1,2.3921167E-2,8.825908E-2,1.8936561E-1,3.1791884E-1,4.0863347E-1,5.4510915E-1,7.767084E-1,1.80013E-2,3.4166232E-3,-3.5476745E-3,6.818309E-2,1.1402484E-1,1.6970007E-1,2.2405218E-1,2.9005918E-1,3.3009637E-3,4.2988653E-3,5.867141E-3,7.3813633E-3,9.655794E-3,1.2447953E-2,1.4669356E-2,-4.4446625E-3,-4.1463636E-3,-3.0391908E-3,-2.6128197E-3,-2.1249831E-3,-1.4327981E-3,1.508063E-1,1.7721954E-1,2.0644826E-1,2.258359E-1,2.3415689E-1,2.684991E-1,-1.004872E-3,-6.605521E-4,2.5415164E-1,2.7198437E-1,1.336137E-1,2.1132216E-1,8.175488E-4,2.4156004E-1,7.303104E-4,1.8335817E-3,1.4718354E-3,2.540993E-3,-4.1609007E-4,-2.197149E-4,-8.290224E-5,1.6831185E-4,2.9543688E-4,1.0065978E-4,4.5978135E-4,6.262618E-4,1.0089205E-3,1.2612487E-3],"split_indices":[0,0,4,4,0,1,0,4,1,4,0,0,4,0,0,0,0,1,0,0,0,0,0,0,0,0,0,0,0,0,0,0,0,0,0,4,4,0,4,4,4,0,0,3,3,3,4,0,0,0,0,0,0,0,0,0,0,0,0,0,0,0,0],"split_type":[0,0,0,0,0,0,0,0,0,0,0,0,0,0,0,0,0,0,0,0,0,0,0,0,0,0,0,0,0,0,0,0,0,0,0,0,0,0,0,0,0,0,0,0,0,0,0,0,0,0,0,0,0,0,0,0,0,0,0,0,0,0,0],"sum_hessian":[3.7E3,2.947E3,7.53E2,2.225E3,7.22E2,4.63E2,2.9E2,1.487E3,7.38E2,4.48E2,2.74E2,2.31E2,2.32E2,2.16E2,7.4E1,1.243E3,2.44E2,5.79E2,1.59E2,2.17E2,2.31E2,1.44E2,1.3E2,1.01E2,1.3E2,1.59E2,7.3E1,8.6E1,1.3E2,6.94E2,5.49E2,3.05E2,2.74E2,8.7E1,7.2E1,1.3E2,8.7E1,1.01E2,1.3E2,5.8E1,8.6E1,7.2E1,5.8E1,4.3E1,4.4E1,1.5E1,8.6E1,4.3E1,8.7E1,2E0,5.6E1,6E0,8E1,3.2E1,1.1E1,3.9E1,5E0,5E0,1E1,4.2E1,4.4E1,4.7E1,4E1],"tree_param":{"num_deleted":"0","num_feature":"5","num_nodes":"63","size_leaf_vector":"1"}},{"base_weights":[2.3532062E-4,-2.2764854E-2,8.810286E-2,-3.3493202E-2,8.409015E-3,5.7073172E-2,1.3136609E-1,-3.863876E-2,-2.58594E-2,-7.734049E-4,2.3040228E-2,4.528845E-2,6.93529E-2,1.145338E-1,1.5039638E-1,-3.9928444E-3,-3.6885794E-3,-2.844976E-2,-2.1198515E-2,-7.3078284E-3,5.764352E-3,1.5652396E-2,2.6905404E-2,3.620302E-3,5.0490037E-2,6.285503E-3,7.612642E-3,9.571909E-3,1.1997893E-2,1.3861065E-2,1.7326048E-2,-3.0600743E-3,-2.6110655E-3,-2.2294182E-2,-1.599228E-3,-9.794359E-3,-4.042698E-3,2.3971347E-3,7.8054494E-3,1.1444909E-3,1.7412322E-3,2.3249907E-3,2.9795389E-3,4.4502653E-3,5.3862515E-3,-2.3204077E-3,-2.0241733E-3,-1.1525274E-3,-8.169287E-3,-5.26846E-3,-2.2383155E-3,5.628059E-4,4.178194E-4,6.3167796E-3,9.1668026E-4,-1.7355308E-4,-8.2364044E-4,-1.3261959E-4,-5.3128006E-4,-2.8997977E-4,-2.8783703E-5,-6.265026E-5,1.1783436E-4,5.279596E-4,6.8217656E-4],"categories":[],"categories_nodes":[],"categories_segments":[],"categories_sizes":[],"default_left":[0,0,0,0,0,0,0,0,0,0,0,0,0,0,0,0,0,0,0,0,0,0,0,0,0,0,0,0,0,0,0,0,0,0,0,0,0,0,0,0,0,0,0,0,0,0,0,0,0,0,0,0,0,0,0,0,0,0,0,0,0,0,0,0,0],"id":15,"left_children":[1,3,5,7,9,11,13,15,17,19,21,23,25,27,29,-1,-1,31,33,35,37,39,41,-1,43,-1,-1,-1,-1,-1,-1,-1,-1,45,-1,47,49,51,53,-1,-1,-1,-1,-1,-1,-1,-1,-1,55,57,59,61,-1,63,-1,-1,-1,-1,-1,-1,-1,-1,-1,-1,-1],"loss_changes":[7.4816113E0,9.8154044E-1,1.0235E0,8.47497E-2,1.01048976E-1,6.183529E-2,8.5278034E-2,1.4705658E-3,1.0045588E-2,1.9821703E-2,7.859901E-3,9.136111E-3,4.8099756E-3,6.341696E-3,1.5596151E-2,0E0,0E0,2.0387173E-3,1.4631301E-3,1.8439768E-3,1.5757838E-3,5.560126E-4,1.3039112E-3,0E0,5.3086877E-4,0E0,0E0,0E0,0E0,0E0,0E0,0E0,0E0,1.7732382E-5,0E0,2.7433224E-4,2.1380559E-4,2.8841576E-4,2.3392681E-4,0E0,0E0,0E0,0E0,0E0,0E0,0E0,0E0,0E0,1.6364735E-5,3.4421682E-6,5.4644217E-5,3.368112E-5,0E0,1.6950071E-6,0E0,0E0,0E0,0E0,0E0,0E0,0E0,0E0,0E0,0E0,0E0],"parents":[2147483647,0,0,1,1,2,2,3,3,4,4,5,5,6,6,7,7,8,8,9,9,10,10,11,11,12,12,13,13,14,14,17,17,18,18,19,19,20,20,21,21,22,22,24,24,33,33,35,35,36,36,37,37,38,38,48,48,49,49,50,50,51,51,53,53],"right_children":[2,4,6,8,10,12,14,16,18,20,22,24,26,28,30,-1,-1,32,34,36,38,40,42,-1,44,-1,-1,-1,-1,-1,-1,-1,-1,46,-1,48,50,52,54,-1,-1,-1,-1,-1,-1,-1,-1,-1,56,58,60,62,-1,64,-1,-1,-1,-1,-1,-1,-1,-1,-1,-1,-1],"split_conditions":[3.4091535E-1,1.1701923E-1,6.1282545E-1,2.6865931E-2,2.3698457E-1,4.6449158E-1,8.375697E-1,4.0191156E-3,7.4147314E-2,1.7996944E-1,2.9761162E-1,3.6854345E-1,5.1551515E-1,7.031151E-1,9.325779E-1,-3.9928444E-3,-3.6885794E-3,4.848247E-2,9.592663E-2,1.536208E-1,2.1587688E-1,2.5101078E-1,3.056532E-1,3.620302E-3,4.3648332E-1,6.285503E-3,7.612642E-3,9.571909E-3,1.1997893E-2,1.3861065E-2,1.7326048E-2,-3.0600743E-3,-2.6110655E-3,8.667448E-2,-1.599228E-3,1.4210612E-1,1.6716549E-1,2.0644826E-1,2.2805864E-1,1.1444909E-3,1.7412322E-3,2.3249907E-3,2.9795389E-3,4.4502653E-3,5.3862515E-3,-2.3204077E-3,-2.0241733E-3,-1.1525274E-3,8.696552E-2,1.2360546E-1,2.4828665E-1,1.9207337E-1,4.178194E-4,2.2119693E-1,9.1668026E-4,-1.7355308E-4,-8.2364044E-4,-1.3261959E-4,-5.3128006E-4,-2.8997977E-4,-2.8783703E-5,-6.265026E-5,1.1783436E-4,5.279596E-4,6.8217656E-4],"split_indices":[4,4,0,4,4,4,4,0,0,4,0,4,1,4,4,0,0,4,0,4,0,2,4,0,0,0,0,0,0,0,0,0,0,0,0,0,4,0,1,0,0,0,0,0,0,0,0,0,3,3,3,0,0,0,0,0,0,0,0,0,0,0,0,0,0],"split_type":[0,0,0,0,0,0,0,0,0,0,0,0,0,0,0,0,0,0,0,0,0,0,0,0,0,0,0,0,0,0,0,0,0,0,0,0,0,0,0,0,0,0,0,0,0,0,0,0,0,0,0,0,0,0,0,0,0,0,0,0,0,0,0,0,0],"sum_hessian":[3.7E3,2.933E3,7.67E2,2.182E3,7.51E2,4.48E2,3.19E2,1.301E3,8.81E2,4.62E2,2.89E2,2.31E2,2.17E2,1.73E2,1.46E2,7.37E2,5.64E2,5.63E2,3.18E2,2.31E2,2.31E2,1.01E2,1.88E2,8.7E1,1.44E2,1.16E2,1.01E2,4.3E1,1.3E2,1.01E2,4.5E1,2.87E2,2.76E2,2.6E2,5.8E1,1.3E2,1.01E2,8.8E1,1.43E2,3.2E1,6.9E1,8.7E1,1.01E2,5.7E1,8.7E1,1.73E2,8.7E1,6E1,7E1,5.9E1,4.2E1,4.4E1,4.4E1,7.1E1,7.2E1,1E0,6.9E1,1E0,5.8E1,3.1E1,1.1E1,1.5E1,2.9E1,2.7E1,4.4E1],"tree_param":{"num_deleted":"0","num_feature":"5","num_nodes":"65","size_leaf_vector":"1"}},{"base_weights":[2.302904E-4,-2.0254372E-2,8.032121E-2,-2.9782005E-2,9.107684E-3,5.212574E-2,1.1839841E-1,-3.410677E-2,-2.1510897E-2,1.0272572E-3,2.22677E-2,4.153433E-2,6.2478043E-2,1.0571459E-1,1.3921551E-1,-3.5024833E-2,-2.9096396E-3,-2.3446266E-2,-1.5468099E-2,-4.8594205E-3,6.5542767E-3,1.7074088E-2,2.5893893E-2,3.5790652E-3,4.771547E-3,5.7257256E-3,6.953993E-3,9.1273E-3,1.1295522E-2,1.2913733E-2,1.6333375E-2,-3.6399816E-3,-3.3961607E-3,-2.5441626E-3,-2.1895813E-3,-1.7730007E-3,-1.1630958E-2,-6.937662E-3,-1.7104541E-3,4.062094E-3,8.444722E-3,1.3799827E-3,1.895496E-3,2.1852923E-3,2.7381263E-3,-1.1715696E-3,-2.7649253E-4,-8.098948E-3,-5.38323E-4,-3.0945092E-3,-4.3724634E-4,2.361229E-3,4.7379927E-4,7.2167837E-3,9.7355247E-4,-9.3871786E-4,-7.318618E-4,-3.1929775E-4,4.7133864E-5,-7.9254416E-5,9.566099E-5,9.969802E-5,3.291132E-4,3.6096395E-4,7.3782605E-4],"categories":[],"categories_nodes":[],"categories_segments":[],"categories_sizes":[],"default_left":[0,0,0,0,0,0,0,0,0,0,0,0,0,0,0,0,0,0,0,0,0,0,0,0,0,0,0,0,0,0,0,0,0,0,0,0,0,0,0,0,0,0,0,0,0,0,0,0,0,0,0,0,0,0,0,0,0,0,0,0,0,0,0,0,0],"id":16,"left_children":[1,3,5,7,9,11,13,15,17,19,21,23,25,27,29,31,-1,33,35,37,39,41,43,-1,-1,-1,-1,-1,-1,-1,-1,-1,-1,-1,-1,-1,45,47,49,51,53,-1,-1,-1,-1,-1,-1,55,-1,57,59,61,-1,63,-1,-1,-1,-1,-1,-1,-1,-1,-1,-1,-1],"loss_changes":[6.073618E0,8.249768E-1,8.033266E-1,7.8891516E-2,7.6859884E-2,4.510081E-2,6.977558E-2,5.6967735E-3,8.607447E-3,1.4640417E-2,4.736975E-3,6.0317814E-3,4.0556192E-3,1.0917187E-2,7.5895786E-3,5.6040287E-4,0E0,1.2341738E-3,1.4341623E-3,1.4147935E-3,1.0587275E-3,4.528053E-4,3.6331266E-4,0E0,0E0,0E0,0E0,0E0,0E0,0E0,0E0,0E0,0E0,0E0,0E0,0E0,2.2450462E-5,1.9287458E-4,1.5371965E-4,1.06072985E-4,1.3737846E-4,0E0,0E0,0E0,0E0,0E0,0E0,4.6817586E-6,0E0,1.6252103E-5,2.4034154E-5,3.604598E-5,0E0,1.472258E-5,0E0,0E0,0E0,0E0,0E0,0E0,0E0,0E0,0E0,0E0,0E0],"parents":[2147483647,0,0,1,1,2,2,3,3,4,4,5,5,6,6,7,7,8,8,9,9,10,10,11,11,12,12,13,13,14,14,15,15,17,17,18,18,19,19,20,20,21,21,22,22,36,36,37,37,38,38,39,39,40,40,47,47,49,49,50,50,51,51,53,53],"right_children":[2,4,6,8,10,12,14,16,18,20,22,24,26,28,30,32,-1,34,36,38,40,42,44,-1,-1,-1,-1,-1,-1,-1,-1,-1,-1,-1,-1,-1,46,48,50,52,54,-1,-1,-1,-1,-1,-1,56,-1,58,60,62,-1,64,-1,-1,-1,-1,-1,-1,-1,-1,-1,-1,-1],"split_conditions":[3.4342802E-1,1.314001E-1,6.0985315E-1,4.723674E-2,2.4177454E-1,4.7122383E-1,8.5489506E-1,2.2349348E-2,7.778232E-2,1.8936561E-1,2.9431653E-1,4.1681412E-1,5.328716E-1,7.443006E-1,9.477508E-1,2.6822796E-3,-2.9096396E-3,5.5674635E-2,9.8355986E-2,1.6311635E-1,2.2405218E-1,2.8244665E-1,3.222828E-1,3.5790652E-3,4.771547E-3,5.7257256E-3,6.953993E-3,9.1273E-3,1.1295522E-2,1.2913733E-2,1.6333375E-2,-3.6399816E-3,-3.3961607E-3,-2.5441626E-3,-2.1895813E-3,-1.7730007E-3,1.5331057E-1,1.508063E-1,1.82835E-1,2.097935E-1,2.3767939E-1,1.3799827E-3,1.895496E-3,2.1852923E-3,2.7381263E-3,-1.1715696E-3,-2.7649253E-4,1.4210612E-1,-5.38323E-4,1.7996944E-1,2.5217196E-1,2.0132913E-1,4.7379927E-4,2.1518242E-1,9.7355247E-4,-9.3871786E-4,-7.318618E-4,-3.1929775E-4,4.7133864E-5,-7.9254416E-5,9.566099E-5,9.969802E-5,3.291132E-4,3.6096395E-4,7.3782605E-4],"split_indices":[4,4,1,1,4,1,0,1,4,4,4,0,0,0,4,1,0,4,4,4,0,0,0,0,0,0,0,0,0,0,0,0,0,0,0,0,0,4,1,0,1,0,0,0,0,0,0,0,0,4,3,4,0,4,0,0,0,0,0,0,0,0,0,0,0],"split_type":[0,0,0,0,0,0,0,0,0,0,0,0,0,0,0,0,0,0,0,0,0,0,0,0,0,0,0,0,0,0,0,0,0,0,0,0,0,0,0,0,0,0,0,0,0,0,0,0,0,0,0,0,0,0,0,0,0,0,0,0,0,0,0,0,0],"sum_hessian":[3.7E3,2.947E3,7.53E2,2.225E3,7.22E2,4.34E2,3.19E2,1.459E3,7.66E2,4.48E2,2.74E2,2.17E2,2.17E2,2.02E2,1.17E2,1.228E3,2.31E2,5.78E2,1.88E2,2.17E2,2.31E2,1.15E2,1.59E2,1.16E2,1.01E2,1.3E2,8.7E1,7.2E1,1.3E2,8.7E1,3E1,5.21E2,7.07E2,2.46E2,3.32E2,1.16E2,7.2E1,1.3E2,8.7E1,1.01E2,1.3E2,4.5E1,7E1,4.7E1,1.12E2,7.1E1,1E0,7.2E1,5.8E1,4.1E1,4.6E1,3E1,7.1E1,7E1,6E1,2.3E1,4.9E1,4E1,1E0,3.7E1,9E0,1.3E1,1.7E1,4E0,6.6E1],"tree_param":{"num_deleted":"0","num_feature":"5","num_nodes":"65","size_leaf_vector":"1"}},{"base_weights":[2.2388266E-4,-1.8234683E-2,7.239316E-2,-2.6922049E-2,7.863943E-3,4.5891E-2,1.0540363E-1,-3.0645974E-2,-1.9442767E-2,6.084291E-4,2.0050995E-2,3.458798E-2,5.264423E-2,8.764929E-2,1.1849168E-1,-3.1717893E-2,-2.6874659E-3,-2.1191407E-2,-1.47615615E-2,-4.690311E-3,5.9045465E-3,1.5414997E-2,2.3286775E-2,2.9750974E-3,3.8304653E-2,4.7327904E-3,5.755869E-3,7.743229E-3,9.3503315E-3,1.1037874E-2,1.4148918E-2,-3.2972514E-3,-3.0903395E-3,-2.3224526E-3,-2.0147122E-3,-1.6292032E-3,-1.0724101E-3,-6.8125953E-3,-1.8701934E-3,3.9163316E-3,7.825302E-3,1.2538374E-2,1.6937686E-2,1.9713163E-3,2.459869E-2,1.9472849E-3,3.89776E-3,-8.250856E-3,-5.6095066E-4,-3.379235E-3,-6.460344E-4,2.103675E-3,4.49637E-3,6.89025E-4,9.0713333E-4,6.129794E-4,1.2857788E-3,7.930833E-4,1.7344885E-3,7.0539414E-4,2.4692358E-3,-8.5474877E-4,-5.328473E-4,-1.0707975E-5,-3.4511686E-4,-1.10303285E-4,3.26017E-5,1.6259185E-4,5.861511E-4,4.2930848E-4,7.641275E-4],"categories":[],"categories_nodes":[],"categories_segments":[],"categories_sizes":[],"default_left":[0,0,0,0,0,0,0,0,0,0,0,0,0,0,0,0,0,0,0,0,0,0,0,0,0,0,0,0,0,0,0,0,0,0,0,0,0,0,0,0,0,0,0,0,0,0,0,0,0,0,0,0,0,0,0,0,0,0,0,0,0,0,0,0,0,0,0,0,0,0,0],"id":17,"left_children":[1,3,5,7,9,11,13,15,17,19,21,23,25,27,29,31,-1,33,35,37,39,41,43,-1,45,-1,-1,-1,-1,-1,-1,-1,-1,-1,-1,-1,-1,47,49,51,53,55,57,-1,59,-1,-1,61,-1,63,65,67,69,-1,-1,-1,-1,-1,-1,-1,-1,-1,-1,-1,-1,-1,-1,-1,-1,-1,-1],"loss_changes":[4.931575E0,6.686068E-1,6.547992E-1,6.101346E-2,6.515579E-2,3.0238569E-2,6.745815E-2,5.110383E-3,5.7282746E-3,1.3020747E-2,3.766328E-3,1.7368048E-3,4.095018E-3,1.4921427E-3,1.9832134E-2,1.4901161E-4,0E0,6.6798925E-4,1.0858402E-3,1.3758005E-3,8.5533224E-4,2.9573217E-4,2.6520342E-4,0E0,3.4351647E-4,0E0,0E0,0E0,0E0,0E0,0E0,0E0,0E0,0E0,0E0,0E0,0E0,1.8212385E-4,1.8439491E-4,1.12504815E-4,7.381337E-5,1.1251774E-5,1.3017282E-4,0E0,1.1526048E-5,0E0,0E0,4.733447E-6,0E0,1.0222429E-5,2.5680487E-5,4.4329572E-5,2.281554E-5,0E0,0E0,0E0,0E0,0E0,0E0,0E0,0E0,0E0,0E0,0E0,0E0,0E0,0E0,0E0,0E0,0E0,0E0],"parents":[2147483647,0,0,1,1,2,2,3,3,4,4,5,5,6,6,7,7,8,8,9,9,10,10,11,11,12,12,13,13,14,14,15,15,17,17,18,18,19,19,20,20,21,21,22,22,24,24,37,37,38,38,39,39,40,40,41,41,42,42,44,44,47,47,49,49,50,50,51,51,52,52],"right_children":[2,4,6,8,10,12,14,16,18,20,22,24,26,28,30,32,-1,34,36,38,40,42,44,-1,46,-1,-1,-1,-1,-1,-1,-1,-1,-1,-1,-1,-1,48,50,52,54,56,58,-1,60,-1,-1,62,-1,64,66,68,70,-1,-1,-1,-1,-1,-1,-1,-1,-1,-1,-1,-1,-1,-1,-1,-1,-1,-1],"split_conditions":[3.5877976E-1,1.3475372E-1,5.574782E-1,4.3717187E-2,2.5101078E-1,4.4388232E-1,7.834148E-1,7.854028E-3,8.41272E-2,1.9375296E-1,2.9431653E-1,3.6854345E-1,4.9803016E-1,7.031151E-1,9.2845726E-1,2.29903E-3,-2.6874659E-3,5.9441935E-2,1.1402484E-1,1.5932451E-1,2.2091764E-1,2.684991E-1,3.222828E-1,2.9750974E-3,3.856699E-1,4.7327904E-3,5.755869E-3,7.743229E-3,9.3503315E-3,1.1037874E-2,1.4148918E-2,-3.2972514E-3,-3.0903395E-3,-2.3224526E-3,-2.0147122E-3,-1.6292032E-3,-1.0724101E-3,1.4415877E-1,1.8016744E-1,2.0572789E-1,2.3415689E-1,2.3415689E-1,2.771928E-1,1.9713163E-3,2.9746586E-1,1.9472849E-3,3.89776E-3,1.5331057E-1,-5.6095066E-4,1.5752886E-1,2.1934989E-1,2.941482E-1,3.021301E-1,6.89025E-4,9.0713333E-4,6.129794E-4,1.2857788E-3,7.930833E-4,1.7344885E-3,7.0539414E-4,2.4692358E-3,-8.5474877E-4,-5.328473E-4,-1.0707975E-5,-3.4511686E-4,-1.10303285E-4,3.26017E-5,1.6259185E-4,5.861511E-4,4.2930848E-4,7.641275E-4],"split_indices":[0,1,4,4,2,1,4,4,0,1,4,4,4,4,1,1,0,0,0,4,4,4,0,0,0,0,0,0,0,0,0,0,0,0,0,0,0,4,0,4,4,4,0,0,4,0,0,0,0,1,3,3,3,0,0,0,0,0,0,0,0,0,0,0,0,0,0,0,0,0,0],"split_type":[0,0,0,0,0,0,0,0,0,0,0,0,0,0,0,0,0,0,0,0,0,0,0,0,0,0,0,0,0,0,0,0,0,0,0,0,0,0,0,0,0,0,0,0,0,0,0,0,0,0,0,0,0,0,0,0,0,0,0,0,0,0,0,0,0,0,0,0,0,0,0],"sum_hessian":[3.7E3,2.947E3,7.53E2,2.211E3,7.36E2,4.19E2,3.34E2,1.474E3,7.37E2,4.62E2,2.74E2,1.59E2,2.6E2,1.45E2,1.89E2,1.142E3,3.32E2,5.34E2,2.03E2,2.31E2,2.31E2,1.15E2,1.59E2,7.3E1,8.6E1,1.3E2,1.3E2,5.8E1,8.7E1,1.44E2,4.5E1,4.34E2,7.08E2,1.74E2,3.6E2,1.45E2,5.8E1,1.31E2,1E2,1.15E2,1.16E2,4.3E1,7.2E1,4.7E1,1.12E2,4E0,8.2E1,5.7E1,7.4E1,4.4E1,5.6E1,2.9E1,8.6E1,7E1,4.6E1,3E0,4E1,4E0,6.8E1,1E0,1.11E2,5E1,7E0,1E0,4.3E1,3.8E1,1.8E1,2.7E1,2E0,8.3E1,3E0],"tree_param":{"num_deleted":"0","num_feature":"5","num_nodes":"71","size_leaf_vector":"1"}},{"base_weights":[2.1667923E-4,-1.6606735E-2,6.44871E-2,-2.4441289E-2,6.1584706E-3,4.079399E-2,9.498956E-2,-2.8212644E-2,-1.8846337E-2,-5.560558E-4,1.6857324E-2,3.0583918E-2,4.7444403E-2,8.245421E-2,1.10460244E-1,-2.9037076E-3,-2.6661118E-3,-2.0500202E-2,-1.4832734E-2,-5.0669354E-3,4.5367535E-3,1.2454757E-2,2.0356568E-2,2.5628812E-3,3.3830379E-3,4.141628E-2,5.0990805E-3,7.140614E-3,8.864271E-3,1.0330564E-2,1.3389985E-2,-2.219638E-3,-1.8819517E-3,-1.5543819E-3,-1.1074106E-3,-7.1577686E-3,-2.6620552E-3,2.6685358E-3,6.1266804E-3,9.780586E-3,1.4510249E-2,1.3490695E-3,2.0922536E-3,1.1345864E-3,4.160167E-3,-8.390259E-3,-6.0312793E-4,-3.6267655E-3,-1.0010119E-3,9.080744E-4,3.389449E-3,5.208693E-3,6.940826E-4,8.3440414E-4,1.1028477E-3,1.1278306E-3,1.5304153E-2,-2.9832014E-4,-8.622505E-4,-3.6831136E-4,2.1514297E-5,-1.4521052E-4,6.93383E-6,-5.5338147E-5,1.145082E-4,3.2136202E-4,5.575139E-4,4.929055E-4,7.821452E-4,1.2382017E-3,1.6620172E-3],"categories":[],"categories_nodes":[],"categories_segments":[],"categories_sizes":[],"default_left":[0,0,0,0,0,0,0,0,0,0,0,0,0,0,0,0,0,0,0,0,0,0,0,0,0,0,0,0,0,0,0,0,0,0,0,0,0,0,0,0,0,0,0,0,0,0,0,0,0,0,0,0,0,0,0,0,0,0,0,0,0,0,0,0,0,0,0,0,0,0,0],"id":18,"left_children":[1,3,5,7,9,11,13,15,17,19,21,23,25,27,29,-1,-1,31,33,35,37,39,41,-1,-1,43,-1,-1,-1,-1,-1,-1,-1,-1,-1,45,47,49,51,53,55,-1,-1,-1,-1,57,-1,59,61,63,65,67,-1,-1,-1,-1,69,-1,-1,-1,-1,-1,-1,-1,-1,-1,-1,-1,-1,-1,-1],"loss_changes":[4.0027695E0,5.234448E-1,5.5115724E-1,4.5530796E-2,5.4031346E-2,2.8018117E-2,5.5858612E-2,8.9132786E-4,5.550593E-3,1.0659509E-2,4.214108E-3,1.932025E-3,3.4678578E-3,6.592512E-3,1.0819554E-2,0E0,0E0,1.3554394E-3,5.2544475E-4,1.2178835E-3,6.3118245E-4,5.78152E-4,3.3947825E-4,0E0,0E0,9.661913E-5,0E0,0E0,0E0,0E0,0E0,0E0,0E0,0E0,0E0,1.3127504E-4,1.822508E-4,1.2637442E-4,5.1290262E-5,1.5536789E-5,1.2136996E-5,0E0,0E0,0E0,0E0,4.9623195E-5,0E0,1.6595703E-5,2.1345113E-5,1.1371329E-5,9.7537995E-6,4.5545166E-6,0E0,0E0,0E0,0E0,5.7155266E-6,0E0,0E0,0E0,0E0,0E0,0E0,0E0,0E0,0E0,0E0,0E0,0E0,0E0,0E0],"parents":[2147483647,0,0,1,1,2,2,3,3,4,4,5,5,6,6,7,7,8,8,9,9,10,10,11,11,12,12,13,13,14,14,17,17,18,18,19,19,20,20,21,21,22,22,25,25,35,35,36,36,37,37,38,38,39,39,40,40,45,45,47,47,48,48,49,49,50,50,51,51,56,56],"right_children":[2,4,6,8,10,12,14,16,18,20,22,24,26,28,30,-1,-1,32,34,36,38,40,42,-1,-1,44,-1,-1,-1,-1,-1,-1,-1,-1,-1,46,48,50,52,54,56,-1,-1,-1,-1,58,-1,60,62,64,66,68,-1,-1,-1,-1,70,-1,-1,-1,-1,-1,-1,-1,-1,-1,-1,-1,-1,-1,-1],"split_conditions":[3.4091535E-1,1.3169976E-1,5.6748724E-1,3.0708903E-2,2.3698457E-1,4.3151656E-1,8.375697E-1,4.4007637E-3,6.976315E-2,1.8919358E-1,2.9025075E-1,3.6362565E-1,4.9774918E-1,7.2658825E-1,9.393479E-1,-2.9037076E-3,-2.6661118E-3,5.5421013E-2,1.0451505E-1,1.536208E-1,2.2119693E-1,2.771928E-1,3.0511698E-1,2.5628812E-3,3.3830379E-3,4.5281428E-1,5.0990805E-3,7.140614E-3,8.864271E-3,1.0330564E-2,1.3389985E-2,-2.219638E-3,-1.8819517E-3,-1.5543819E-3,-1.1074106E-3,1.3341166E-1,1.7386048E-1,2.0644826E-1,2.3251888E-1,1.4287911E-1,2.684991E-1,1.3490695E-3,2.0922536E-3,1.1345864E-3,4.160167E-3,1.2739342E-1,-6.0312793E-4,1.8501888E-1,2.1786417E-1,1.9207337E-1,1.6155756E-1,3.021301E-1,6.940826E-4,8.3440414E-4,1.1028477E-3,1.1278306E-3,1.7474777E-1,-2.9832014E-4,-8.622505E-4,-3.6831136E-4,2.1514297E-5,-1.4521052E-4,6.93383E-6,-5.5338147E-5,1.145082E-4,3.2136202E-4,5.575139E-4,4.929055E-4,7.821452E-4,1.2382017E-3,1.6620172E-3],"split_indices":[4,0,0,0,4,4,4,0,4,1,4,4,0,0,0,0,0,1,0,4,0,0,0,0,0,0,0,0,0,0,0,0,0,0,0,4,4,0,1,3,4,0,0,0,0,2,0,0,3,0,3,3,0,0,0,0,3,0,0,0,0,0,0,0,0,0,0,0,0,0,0],"split_type":[0,0,0,0,0,0,0,0,0,0,0,0,0,0,0,0,0,0,0,0,0,0,0,0,0,0,0,0,0,0,0,0,0,0,0,0,0,0,0,0,0,0,0,0,0,0,0,0,0,0,0,0,0,0,0,0,0,0,0,0,0,0,0,0,0,0,0,0,0,0,0],"sum_hessian":[3.7E3,2.933E3,7.67E2,2.182E3,7.51E2,4.33E2,3.34E2,1.301E3,8.81E2,4.62E2,2.89E2,1.73E2,2.6E2,1.88E2,1.46E2,8.38E2,4.63E2,6.21E2,2.6E2,2.45E2,2.17E2,1.3E2,1.59E2,7.2E1,1.01E2,1.01E2,1.59E2,7.2E1,1.16E2,1.16E2,3E1,3.03E2,3.18E2,2.16E2,4.4E1,1.3E2,1.15E2,1.01E2,1.16E2,5.9E1,7.1E1,1.4E1,1.45E2,1E0,1E2,5.9E1,7.1E1,7.2E1,4.3E1,3E1,7.1E1,5.8E1,5.8E1,3.1E1,2.8E1,1.7E1,5.4E1,3E0,5.6E1,7.1E1,1E0,3E1,1.3E1,4E0,2.6E1,6.8E1,3E0,5.5E1,3E0,2E1,3.4E1],"tree_param":{"num_deleted":"0","num_feature":"5","num_nodes":"71","size_leaf_vector":"1"}},{"base_weights":[2.0954694E-4,-1.4774632E-2,5.8794625E-2,-2.1731602E-2,6.665189E-3,3.724747E-2,8.5633464E-2,-2.4803165E-2,-1.5517504E-2,7.550235E-4,1.629064E-2,2.8738631E-2,4.3149095E-2,7.3342815E-2,9.846098E-2,-2.5547156E-2,-2.0924276E-3,-1.6723732E-2,-1.0417305E-2,-3.5579843E-3,4.804509E-3,1.3248696E-2,1.953332E-2,2.4178817E-3,3.176498E-2,3.953351E-3,4.7865864E-3,6.2851454E-3,7.800647E-3,9.238153E-3,1.20975375E-2,-2.6699924E-3,-2.4795437E-3,-1.7622521E-2,-1.471041E-3,-1.1911644E-3,-8.062551E-3,-5.088402E-3,-1.239317E-3,3.383894E-3,6.5819216E-3,1.0751523E-2,1.4789898E-2,7.1020925E-4,1.9670997E-3,1.520859E-3,3.2285564E-3,-1.8860147E-3,-1.6966762E-3,-8.135038E-3,-1.9291267E-4,-6.17201E-3,-4.142905E-3,-2.2156285E-3,-2.5716092E-4,2.276351E-3,4.20624E-3,5.8148755E-4,7.3558086E-4,5.1495025E-4,1.0959676E-2,1.3318773E-3,1.6902185E-3,-7.308274E-4,-9.6991024E-4,-6.2188134E-4,-1.7287135E-4,-8.0334394E-5,-4.1781302E-4,-2.4979725E-4,-1.2545474E-4,-4.9947277E-5,1.4011115E-4,1.2112651E-4,2.6197237E-4,3.5581822E-4,4.5906962E-4,4.534175E-4,1.1113691E-3],"categories":[],"categories_nodes":[],"categories_segments":[],"categories_sizes":[],"default_left":[0,0,0,0,0,0,0,0,0,0,0,0,0,0,0,0,0,0,0,0,0,0,0,0,0,0,0,0,0,0,0,0,0,0,0,0,0,0,0,0,0,0,0,0,0,0,0,0,0,0,0,0,0,0,0,0,0,0,0,0,0,0,0,0,0,0,0,0,0,0,0,0,0,0,0,0,0,0,0],"id":19,"left_children":[1,3,5,7,9,11,13,15,17,19,21,23,25,27,29,31,-1,33,35,37,39,41,43,-1,45,-1,-1,-1,-1,-1,-1,-1,-1,47,-1,-1,49,51,53,55,57,59,61,-1,-1,-1,-1,-1,-1,63,-1,65,67,69,71,73,75,-1,-1,-1,77,-1,-1,-1,-1,-1,-1,-1,-1,-1,-1,-1,-1,-1,-1,-1,-1,-1,-1],"loss_changes":[3.2497888E0,4.398573E-1,4.3284917E-1,4.2102695E-2,4.1117728E-2,1.9850671E-2,4.5594215E-2,3.7596226E-3,4.37212E-3,7.859087E-3,2.453819E-3,1.6468912E-3,2.3029447E-3,3.6595464E-3,1.086092E-2,4.1598082E-4,0E0,8.1925094E-4,4.1066855E-4,7.6727313E-4,5.635321E-4,3.9904006E-4,8.450076E-5,0E0,3.8811564E-4,0E0,0E0,0E0,0E0,0E0,0E0,0E0,0E0,1.0326505E-5,0E0,0E0,1.0537682E-5,1.0864623E-4,8.3812556E-5,1.0973774E-4,1.7774757E-5,1.236191E-5,4.5230612E-5,0E0,0E0,0E0,0E0,0E0,0E0,4.1171443E-6,0E0,1.5189871E-6,5.231006E-6,8.80583E-6,1.8781673E-5,1.803867E-5,2.1023443E-6,0E0,0E0,0E0,5.027745E-6,0E0,0E0,0E0,0E0,0E0,0E0,0E0,0E0,0E0,0E0,0E0,0E0,0E0,0E0,0E0,0E0,0E0,0E0],"parents":[2147483647,0,0,1,1,2,2,3,3,4,4,5,5,6,6,7,7,8,8,9,9,10,10,11,11,12,12,13,13,14,14,15,15,17,17,18,18,19,19,20,20,21,21,22,22,24,24,33,33,36,36,37,37,38,38,39,39,40,40,41,41,42,42,49,49,51,51,52,52,53,53,54,54,55,55,56,56,60,60],"right_children":[2,4,6,8,10,12,14,16,18,20,22,24,26,28,30,32,-1,34,36,38,40,42,44,-1,46,-1,-1,-1,-1,-1,-1,-1,-1,48,-1,-1,50,52,54,56,58,60,62,-1,-1,-1,-1,-1,-1,64,-1,66,68,70,72,74,76,-1,-1,-1,78,-1,-1,-1,-1,-1,-1,-1,-1,-1,-1,-1,-1,-1,-1,-1,-1,-1,-1],"split_conditions":[3.5877976E-1,1.314001E-1,5.574782E-1,5.0811943E-2,2.5101078E-1,4.641992E-1,8.2375354E-1,2.3921167E-2,9.200101E-2,1.8936561E-1,3.1791884E-1,3.6854345E-1,5.1844424E-1,7.031151E-1,9.477508E-1,2.4832594E-3,-2.0924276E-3,6.863989E-2,1.04766E-1,1.6970007E-1,2.3121154E-1,2.728706E-1,2.9044923E-1,2.4178817E-3,3.856699E-1,3.953351E-3,4.7865864E-3,6.2851454E-3,7.800647E-3,9.238153E-3,1.20975375E-2,-2.6699924E-3,-2.4795437E-3,5.67917E-2,-1.471041E-3,-1.1911644E-3,1.5331057E-1,1.4848158E-1,1.7721954E-1,2.161866E-1,2.3415689E-1,2.3415689E-1,1.9776121E-1,7.1020925E-4,1.9670997E-3,1.520859E-3,3.2285564E-3,-1.8860147E-3,-1.6966762E-3,1.8854502E-1,-1.9291267E-4,1.5551943E-1,1.4919345E-1,2.5415164E-1,2.7198437E-1,2.0644826E-1,2.2119693E-1,5.8148755E-4,7.3558086E-4,5.1495025E-4,1.1053017E-1,1.3318773E-3,1.6902185E-3,-7.308274E-4,-9.6991024E-4,-6.2188134E-4,-1.7287135E-4,-8.0334394E-5,-4.1781302E-4,-2.4979725E-4,-1.2545474E-4,-4.9947277E-5,1.4011115E-4,1.2112651E-4,2.6197237E-4,3.5581822E-4,4.5906962E-4,4.534175E-4,1.1113691E-3],"split_indices":[0,4,4,0,2,0,4,4,0,4,0,4,0,4,4,0,0,4,4,0,0,4,1,0,0,0,0,0,0,0,0,0,0,1,0,0,0,4,4,1,4,4,3,0,0,0,0,0,0,3,0,1,1,3,3,0,0,0,0,0,3,0,0,0,0,0,0,0,0,0,0,0,0,0,0,0,0,0,0],"split_type":[0,0,0,0,0,0,0,0,0,0,0,0,0,0,0,0,0,0,0,0,0,0,0,0,0,0,0,0,0,0,0,0,0,0,0,0,0,0,0,0,0,0,0,0,0,0,0,0,0,0,0,0,0,0,0,0,0,0,0,0,0,0,0,0,0,0,0,0,0,0,0,0,0,0,0,0,0,0,0],"sum_hessian":[3.7E3,2.947E3,7.53E2,2.225E3,7.22E2,4.19E2,3.34E2,1.487E3,7.38E2,4.48E2,2.74E2,1.74E2,2.45E2,1.74E2,1.6E2,1.243E3,2.44E2,5.95E2,1.43E2,2.17E2,2.31E2,1.44E2,1.3E2,7.3E1,1.01E2,1.44E2,1.01E2,5.8E1,1.16E2,1.3E2,3E1,4.77E2,7.66E2,4.06E2,1.89E2,8.5E1,5.8E1,1.3E2,8.7E1,1.3E2,1.01E2,5.8E1,8.6E1,2E0,1.28E2,4E0,9.7E1,1.31E2,2.75E2,5.7E1,1E0,5.8E1,7.2E1,4.3E1,4.4E1,5.7E1,7.3E1,5.5E1,4.6E1,3E0,5.5E1,5.5E1,3.1E1,4.1E1,1.6E1,5.7E1,1E0,1E0,7.1E1,3.2E1,1.1E1,3.9E1,5E0,1.5E1,4.2E1,3.1E1,4.2E1,2E0,5.3E1],"tree_param":{"num_deleted":"0","num_feature":"5","num_nodes":"79","size_leaf_vector":"1"}},{"base_weights":[2.0066275E-4,-1.3783467E-2,5.1171426E-2,-1.980949E-2,4.43035E-3,3.2245595E-2,7.717587E-2,-2.2826012E-2,-1.521323E-2,-6.614775E-4,1.27278045E-2,2.2819325E-2,3.779016E-2,6.925577E-2,9.410171E-2,-2.3443617E-3,-2.122555E-3,-1.6556654E-2,-1.2025431E-2,-4.3558273E-3,3.2731586E-3,8.506627E-3,1.512914E-2,1.9873597E-3,2.5536623E-3,3.3070598E-2,4.1418117E-3,6.02954E-3,7.5703873E-3,8.645202E-3,1.0932673E-2,-1.8231934E-3,-1.5481798E-3,-1.2723812E-3,-9.41871E-3,-6.0460605E-3,-2.6428115E-3,1.4324229E-3,4.5081764E-3,7.101117E-3,1.0129137E-2,1.3572774E-2,1.709654E-2,9.0754183E-4,3.3185363E-2,-7.9959194E-4,-1.0708376E-3,-7.124615E-4,-5.179954E-3,-3.332602E-3,-1.3782278E-3,8.816831E-5,2.1493835E-3,3.448172E-4,5.0104093E-3,9.595603E-5,7.19203E-4,4.9142615E-4,1.0384623E-3,9.325255E-4,1.4035496E-3,4.3402912E-4,1.7213429E-3,3.3295674E-3,9.47769E-4,-2.5821626E-4,-5.389706E-4,-3.707722E-4,-2.6463316E-4,-1.718593E-4,-2.3183904E-5,-6.1759354E-5,5.4250508E-5,1.9623393E-4,4.9244164E-4,1.9679617E-4,5.0594204E-4],"categories":[],"categories_nodes":[],"categories_segments":[],"categories_sizes":[],"default_left":[0,0,0,0,0,0,0,0,0,0,0,0,0,0,0,0,0,0,0,0,0,0,0,0,0,0,0,0,0,0,0,0,0,0,0,0,0,0,0,0,0,0,0,0,0,0,0,0,0,0,0,0,0,0,0,0,0,0,0,0,0,0,0,0,0,0,0,0,0,0,0,0,0,0,0,0,0],"id":20,"left_children":[1,3,5,7,9,11,13,15,17,19,21,23,25,27,29,-1,-1,31,33,35,37,39,41,-1,-1,43,-1,-1,-1,-1,-1,-1,-1,-1,45,47,49,51,53,55,57,59,61,-1,63,-1,-1,-1,65,67,69,71,73,-1,75,-1,-1,-1,-1,-1,-1,-1,-1,-1,-1,-1,-1,-1,-1,-1,-1,-1,-1,-1,-1,-1,-1],"loss_changes":[2.6387107E0,3.189314E-1,3.8975954E-1,2.9919446E-2,3.0554596E-2,2.3336202E-2,3.8390994E-2,8.03113E-4,3.5181642E-3,6.5408866E-3,2.658829E-3,8.8527054E-4,3.5957396E-3,8.839726E-3,2.6610494E-3,0E0,0E0,8.125603E-4,3.5529956E-4,6.5575354E-4,4.891306E-4,1.6067782E-4,3.0073896E-4,0E0,0E0,5.9589744E-5,0E0,0E0,0E0,0E0,0E0,0E0,0E0,0E0,2.2637192E-5,7.145526E-5,9.746582E-5,8.55867E-5,5.1931245E-5,2.5482615E-5,8.92207E-6,6.958842E-5,3.4136698E-5,0E0,2.4408102E-5,0E0,0E0,0E0,2.313545E-5,9.495649E-6,1.6379767E-5,1.0595962E-5,2.0441774E-5,0E0,2.8670765E-6,0E0,0E0,0E0,0E0,0E0,0E0,0E0,0E0,0E0,0E0,0E0,0E0,0E0,0E0,0E0,0E0,0E0,0E0,0E0,0E0,0E0,0E0],"parents":[2147483647,0,0,1,1,2,2,3,3,4,4,5,5,6,6,7,7,8,8,9,9,10,10,11,11,12,12,13,13,14,14,17,17,18,18,19,19,20,20,21,21,22,22,25,25,34,34,35,35,36,36,37,37,38,38,39,39,40,40,41,41,42,42,44,44,48,48,49,49,50,50,51,51,52,52,54,54],"right_children":[2,4,6,8,10,12,14,16,18,20,22,24,26,28,30,-1,-1,32,34,36,38,40,42,-1,-1,44,-1,-1,-1,-1,-1,-1,-1,-1,46,48,50,52,54,56,58,60,62,-1,64,-1,-1,-1,66,68,70,72,74,-1,76,-1,-1,-1,-1,-1,-1,-1,-1,-1,-1,-1,-1,-1,-1,-1,-1,-1,-1,-1,-1,-1,-1],"split_conditions":[3.3253008E-1,1.1701923E-1,5.574782E-1,3.1051725E-2,2.4156004E-1,4.3648332E-1,8.686652E-1,5.2152425E-3,6.976315E-2,1.8587792E-1,2.728706E-1,3.5967472E-1,4.9774918E-1,7.572393E-1,9.393479E-1,-2.3443617E-3,-2.122555E-3,4.601746E-2,9.592663E-2,1.508063E-1,2.1132216E-1,2.4923341E-1,3.056532E-1,1.9873597E-3,2.5536623E-3,3.7522867E-1,4.1418117E-3,6.02954E-3,7.5703873E-3,8.645202E-3,1.0932673E-2,-1.8231934E-3,-1.5481798E-3,-1.2723812E-3,1.5830292E-1,1.3716996E-1,1.6716549E-1,1.8936561E-1,2.2405218E-1,2.22361E-1,1.3138E-1,2.9005918E-1,3.153519E-1,9.0754183E-4,7.1053E-1,-7.9959194E-4,-1.0708376E-3,-7.124615E-4,1.3540064E-1,1.5932451E-1,2.6871762E-1,1.8024766E-1,2.941482E-1,3.448172E-4,2.1518242E-1,9.595603E-5,7.19203E-4,4.9142615E-4,1.0384623E-3,9.325255E-4,1.4035496E-3,4.3402912E-4,1.7213429E-3,3.3295674E-3,9.47769E-4,-2.5821626E-4,-5.389706E-4,-3.707722E-4,-2.6463316E-4,-1.718593E-4,-2.3183904E-5,-6.1759354E-5,5.4250508E-5,1.9623393E-4,4.9244164E-4,1.9679617E-4,5.0594204E-4],"split_indices":[4,4,4,0,0,0,0,0,4,1,4,4,0,4,0,0,0,4,0,4,4,4,4,0,0,4,0,0,0,0,0,0,0,0,3,0,4,4,0,4,3,0,0,0,3,0,0,0,2,4,3,3,3,0,4,0,0,0,0,0,0,0,0,0,0,0,0,0,0,0,0,0,0,0,0,0,0],"split_type":[0,0,0,0,0,0,0,0,0,0,0,0,0,0,0,0,0,0,0,0,0,0,0,0,0,0,0,0,0,0,0,0,0,0,0,0,0,0,0,0,0,0,0,0,0,0,0,0,0,0,0,0,0,0,0,0,0,0,0,0,0,0,0,0,0,0,0,0,0,0,0,0,0,0,0,0,0],"sum_hessian":[3.7E3,2.904E3,7.96E2,2.182E3,7.22E2,4.62E2,3.34E2,1.315E3,8.67E2,4.48E2,2.74E2,1.73E2,2.89E2,2.31E2,1.03E2,9.39E2,3.76E2,6.07E2,2.6E2,2.31E2,2.17E2,1.01E2,1.73E2,8.7E1,8.6E1,1.3E2,1.59E2,1.01E2,1.3E2,7.3E1,3E1,2.31E2,3.76E2,2.02E2,5.8E1,1.15E2,1.16E2,8.8E1,1.29E2,5.7E1,4.4E1,1.01E2,7.2E1,1E0,1.29E2,3.1E1,2.7E1,4.8E1,6.7E1,7.4E1,4.2E1,3.1E1,5.7E1,4.4E1,8.5E1,1E0,5.6E1,3E0,4.1E1,1.2E1,8.9E1,1E0,7.1E1,1.28E2,1E0,6E0,6.1E1,4.5E1,2.9E1,3.2E1,1E1,1.2E1,1.9E1,5.5E1,2E0,2E0,8.3E1],"tree_param":{"num_deleted":"0","num_feature":"5","num_nodes":"77","size_leaf_vector":"1"}},{"base_weights":[1.9202296E-4,-1.2406758E-2,4.611331E-2,-1.783357E-2,3.9959257E-3,2.90393E-2,6.957347E-2,-2.0587116E-2,-1.3748595E-2,-8.0201804E-4,1.1162518E-2,2.0563483E-2,3.4024652E-2,6.310299E-2,8.6749144E-2,-2.1485828E-3,-1.973346E-3,-1.5419563E-2,-1.1610832E-2,-3.9303326E-3,2.7771497E-3,7.379615E-3,1.364204E-2,1.8284351E-3,2.346633E-3,3.0498162E-2,3.8072087E-3,5.4377997E-3,6.8766326E-3,8.100077E-3,1.063305E-2,-1.6445362E-3,-1.4335491E-3,-1.2378567E-2,-9.283885E-3,-5.454469E-3,-2.3856307E-3,7.1582175E-4,3.596744E-3,5.820335E-3,8.865429E-4,1.2238408E-2,1.5416402E-2,8.6216483E-4,3.0581525E-3,-1.2940133E-3,-1.1458152E-3,-9.931733E-4,-7.419587E-3,-6.4267E-4,-4.673678E-3,-3.0078164E-3,-1.2449435E-3,5.139456E-4,3.3631325E-3,2.6727846E-4,4.164845E-3,5.3227914E-4,7.2097004E-4,1.1044433E-2,1.395867E-2,4.1232706E-4,1.5515983E-3,-1.7499104E-4,-7.5547514E-4,-4.3170116E-4,-7.165053E-4,-3.3450118E-4,-2.3905227E-4,-1.5519456E-4,-2.1076068E-5,1.6485962E-4,1.9995108E-5,-1.6792119E-5,4.596124E-4,3.885708E-4,5.476353E-4,8.496063E-4,1.1988241E-3,1.4118281E-3,4.0265472E-4],"categories":[],"categories_nodes":[],"categories_segments":[],"categories_sizes":[],"default_left":[0,0,0,0,0,0,0,0,0,0,0,0,0,0,0,0,0,0,0,0,0,0,0,0,0,0,0,0,0,0,0,0,0,0,0,0,0,0,0,0,0,0,0,0,0,0,0,0,0,0,0,0,0,0,0,0,0,0,0,0,0,0,0,0,0,0,0,0,0,0,0,0,0,0,0,0,0,0,0,0,0],"id":21,"left_children":[1,3,5,7,9,11,13,15,17,19,21,23,25,27,29,-1,-1,31,33,35,37,39,41,-1,-1,43,-1,-1,-1,-1,-1,-1,-1,45,47,49,51,53,55,57,-1,59,61,-1,-1,-1,-1,-1,63,-1,65,67,69,71,73,-1,75,-1,-1,77,79,-1,-1,-1,-1,-1,-1,-1,-1,-1,-1,-1,-1,-1,-1,-1,-1,-1,-1,-1,-1],"loss_changes":[2.141794E0,2.586578E-1,3.1722522E-1,2.4271667E-2,2.4869235E-2,1.8864334E-2,3.1755924E-2,5.749464E-4,2.9715896E-3,4.8703104E-3,2.6194677E-3,7.221177E-4,2.978146E-3,8.465469E-3,1.4050603E-3,0E0,0E0,3.113672E-4,5.835965E-4,5.331936E-4,3.4038443E-4,2.194657E-4,2.4468452E-4,0E0,0E0,2.8133392E-5,0E0,0E0,0E0,0E0,0E0,0E0,0E0,2.1383166E-6,4.8296526E-5,5.8020232E-5,7.929251E-5,2.9802839E-5,6.497919E-5,3.1003729E-6,0E0,5.5337325E-5,1.811795E-5,0E0,0E0,0E0,0E0,0E0,9.7700395E-6,0E0,2.9492425E-5,7.6148426E-6,1.3325254E-5,1.9621708E-5,1.818683E-5,0E0,1.0936405E-5,0E0,0E0,5.4483302E-5,3.3928081E-6,0E0,0E0,0E0,0E0,0E0,0E0,0E0,0E0,0E0,0E0,0E0,0E0,0E0,0E0,0E0,0E0,0E0,0E0,0E0,0E0],"parents":[2147483647,0,0,1,1,2,2,3,3,4,4,5,5,6,6,7,7,8,8,9,9,10,10,11,11,12,12,13,13,14,14,17,17,18,18,19,19,20,20,21,21,22,22,25,25,33,33,34,34,35,35,36,36,37,37,38,38,39,39,41,41,42,42,48,48,50,50,51,51,52,52,53,53,54,54,56,56,59,59,60,60],"right_children":[2,4,6,8,10,12,14,16,18,20,22,24,26,28,30,-1,-1,32,34,36,38,40,42,-1,-1,44,-1,-1,-1,-1,-1,-1,-1,46,48,50,52,54,56,58,-1,60,62,-1,-1,-1,-1,-1,64,-1,66,68,70,72,74,-1,76,-1,-1,78,80,-1,-1,-1,-1,-1,-1,-1,-1,-1,-1,-1,-1,-1,-1,-1,-1,-1,-1,-1,-1],"split_conditions":[3.3253008E-1,1.1701923E-1,5.6748724E-1,2.6865931E-2,2.3129705E-1,4.3648332E-1,8.822923E-1,3.0407247E-3,6.961536E-2,1.8587792E-1,2.728706E-1,3.856699E-1,4.9803016E-1,7.572393E-1,9.589013E-1,-2.1485828E-3,-1.973346E-3,5.2478015E-2,9.200101E-2,1.508063E-1,2.0572789E-1,2.5101078E-1,3.056532E-1,1.8284351E-3,2.346633E-3,3.7522867E-1,3.8072087E-3,5.4377997E-3,6.8766326E-3,8.100077E-3,1.063305E-2,-1.6445362E-3,-1.4335491E-3,7.882683E-2,9.8355986E-2,1.3716996E-1,1.6716549E-1,2.941482E-1,2.1518242E-1,1.8238977E-1,8.865429E-4,2.2143596E-1,3.153519E-1,8.6216483E-4,3.0581525E-3,-1.2940133E-3,-1.1458152E-3,-9.931733E-4,8.211159E-2,-6.4267E-4,3.4673086E-1,1.5932451E-1,2.6871762E-1,9.786829E-2,1.9207337E-1,2.6727846E-4,2.1466999E-1,5.3227914E-4,7.2097004E-4,2.9676926E-1,3.3823648E-1,4.1232706E-4,1.5515983E-3,-1.7499104E-4,-7.5547514E-4,-4.3170116E-4,-7.165053E-4,-3.3450118E-4,-2.3905227E-4,-1.5519456E-4,-2.1076068E-5,1.6485962E-4,1.9995108E-5,-1.6792119E-5,4.596124E-4,3.885708E-4,5.476353E-4,8.496063E-4,1.1988241E-3,1.4118281E-3,4.0265472E-4],"split_indices":[4,4,0,4,4,0,4,1,0,1,4,0,4,4,4,0,0,1,0,4,4,2,4,0,0,4,0,0,0,0,0,0,0,1,4,0,4,3,4,3,0,3,0,0,0,0,0,0,3,0,3,4,3,3,0,0,3,0,0,1,0,0,0,0,0,0,0,0,0,0,0,0,0,0,0,0,0,0,0,0,0],"split_type":[0,0,0,0,0,0,0,0,0,0,0,0,0,0,0,0,0,0,0,0,0,0,0,0,0,0,0,0,0,0,0,0,0,0,0,0,0,0,0,0,0,0,0,0,0,0,0,0,0,0,0,0,0,0,0,0,0,0,0,0,0,0,0,0,0,0,0,0,0,0,0,0,0,0,0,0,0,0,0,0,0],"sum_hessian":[3.7E3,2.904E3,7.96E2,2.182E3,7.22E2,4.62E2,3.34E2,1.301E3,8.81E2,4.33E2,2.89E2,1.73E2,2.89E2,2.46E2,8.8E1,6.22E2,6.79E2,4.91E2,3.9E2,2.31E2,2.02E2,1.16E2,1.73E2,1.01E2,7.2E1,1.59E2,1.3E2,1.01E2,1.45E2,7.2E1,1.6E1,2.45E2,2.46E2,2.9E2,1E2,1.15E2,1.16E2,5.8E1,1.44E2,5.9E1,5.7E1,1.01E2,7.2E1,1E0,1.58E2,1.72E2,1.18E2,7.1E1,2.9E1,4.8E1,6.7E1,7.4E1,4.2E1,5.5E1,3E0,5.7E1,8.7E1,4.7E1,1.2E1,6.4E1,3.7E1,1E0,7.1E1,1E0,2.8E1,6.1E1,6E0,4.5E1,2.9E1,3.2E1,1E1,1.1E1,4.4E1,1E0,2E0,7.5E1,1.2E1,2E1,4.4E1,3.6E1,1E0],"tree_param":{"num_deleted":"0","num_feature":"5","num_nodes":"81","size_leaf_vector":"1"}},{"base_weights":[1.8326148E-4,-1.0777707E-2,4.3038372E-2,-1.5859859E-2,4.884322E-3,2.896563E-2,6.5329485E-2,-1.8098168E-2,-1.1331491E-2,3.6762565E-4,1.16269495E-2,2.2440812E-2,3.533813E-2,6.1201636E-2,8.598429E-3,-1.8854821E-2,-1.5919551E-2,-1.2386673E-2,-8.195317E-3,-2.8215465E-3,3.1565668E-3,8.844629E-3,1.38323065E-2,1.861933E-2,2.524501E-2,3.1852778E-3,4.239648E-3,5.444053E-3,6.553564E-3,-1.9773168E-3,-1.8349882E-3,-1.6894297E-3,-1.5056125E-3,-1.3314481E-3,-1.1505735E-3,-9.340072E-4,-6.2483093E-3,-4.0486995E-3,-1.5667315E-3,1.7875078E-3,4.1984557E-3,7.1419384E-3,1.0140695E-2,8.469955E-4,1.4133331E-3,1.3227231E-3,1.925832E-2,8.860618E-4,2.5430344E-2,-5.469472E-3,-7.7036297E-4,-5.1276834E-4,-3.6696575E-3,-2.2218206E-3,-6.527088E-4,6.0215243E-4,2.2501538E-3,3.3924025E-3,4.79241E-4,5.7605724E-4,7.6886074E-4,6.6979597E-3,1.0587943E-2,1.9368723E-2,4.7715008E-4,1.8328283E-3,2.600211E-3,-5.6892115E-4,-2.8732244E-4,2.110079E-5,-3.7221148E-4,-2.2701018E-4,2.89239E-5,-9.743557E-5,1.0613139E-5,2.2576061E-5,2.4389595E-4,1.7426106E-4,2.5272337E-4,3.1427707E-4,6.03915E-4,1.7587542E-4,7.6001434E-4,8.429571E-4,1.1487852E-3,4.8226267E-4,1.9480486E-3],"categories":[],"categories_nodes":[],"categories_segments":[],"categories_sizes":[],"default_left":[0,0,0,0,0,0,0,0,0,0,0,0,0,0,0,0,0,0,0,0,0,0,0,0,0,0,0,0,0,0,0,0,0,0,0,0,0,0,0,0,0,0,0,0,0,0,0,0,0,0,0,0,0,0,0,0,0,0,0,0,0,0,0,0,0,0,0,0,0,0,0,0,0,0,0,0,0,0,0,0,0,0,0,0,0,0,0],"id":22,"left_children":[1,3,5,7,9,11,13,15,17,19,21,23,25,27,-1,29,31,33,35,37,39,41,43,45,47,-1,-1,-1,-1,-1,-1,-1,-1,-1,-1,-1,49,51,53,55,57,59,61,-1,-1,-1,63,-1,65,67,-1,-1,69,71,73,75,77,79,-1,-1,-1,81,83,85,-1,-1,-1,-1,-1,-1,-1,-1,-1,-1,-1,-1,-1,-1,-1,-1,-1,-1,-1,-1,-1,-1,-1],"loss_changes":[1.7389476E0,2.3472884E-1,2.3463511E-1,2.2357464E-2,2.2014258E-2,1.8499821E-2,1.9548297E-2,2.152741E-3,2.3440123E-3,3.8690816E-3,1.6571023E-3,2.0160973E-3,4.3815374E-3,3.6406517E-3,0E0,1.4677644E-4,7.387251E-5,2.971664E-4,3.6289357E-4,3.0624634E-4,3.234218E-4,2.1666661E-4,1.3856031E-4,9.670481E-5,1.7247349E-4,0E0,0E0,0E0,0E0,0E0,0E0,0E0,0E0,0E0,0E0,0E0,4.0607527E-5,2.2899127E-5,5.962397E-5,5.4581848E-5,4.6459725E-5,1.0181684E-6,3.994489E-5,0E0,0E0,0E0,4.992634E-5,0E0,4.7259033E-5,1.2748991E-5,0E0,0E0,1.6867532E-5,7.809518E-6,1.0842867E-5,2.0190151E-5,5.862006E-6,2.0002422E-5,0E0,0E0,0E0,3.565004E-5,2.3586676E-5,4.9117953E-5,0E0,0E0,0E0,0E0,0E0,0E0,0E0,0E0,0E0,0E0,0E0,0E0,0E0,0E0,0E0,0E0,0E0,0E0,0E0,0E0,0E0,0E0,0E0],"parents":[2147483647,0,0,1,1,2,2,3,3,4,4,5,5,6,6,7,7,8,8,9,9,10,10,11,11,12,12,13,13,15,15,16,16,17,17,18,18,19,19,20,20,21,21,22,22,23,23,24,24,36,36,37,37,38,38,39,39,40,40,41,41,42,42,46,46,48,48,49,49,52,52,53,53,54,54,55,55,56,56,57,57,61,61,62,62,63,63],"right_children":[2,4,6,8,10,12,14,16,18,20,22,24,26,28,-1,30,32,34,36,38,40,42,44,46,48,-1,-1,-1,-1,-1,-1,-1,-1,-1,-1,-1,50,52,54,56,58,60,62,-1,-1,-1,64,-1,66,68,-1,-1,70,72,74,76,78,80,-1,-1,-1,82,84,86,-1,-1,-1,-1,-1,-1,-1,-1,-1,-1,-1,-1,-1,-1,-1,-1,-1,-1,-1,-1,-1,-1,-1],"split_conditions":[3.5877976E-1,1.314001E-1,6.896432E-1,4.4077158E-2,2.3932964E-1,4.707758E-1,9.325779E-1,8.083961E-3,8.667448E-2,1.8919358E-1,2.9431653E-1,4.0863347E-1,5.4510915E-1,7.834148E-1,8.598429E-3,1.8318465E-3,2.5555888E-2,6.52095E-2,9.8355986E-2,1.5648843E-1,2.2119693E-1,2.8244665E-1,3.0511698E-1,3.4342802E-1,3.5967472E-1,3.1852778E-3,4.239648E-3,5.444053E-3,6.553564E-3,-1.9773168E-3,-1.8349882E-3,-1.6894297E-3,-1.5056125E-3,-1.3314481E-3,-1.1505735E-3,-9.340072E-4,1.8854502E-1,1.4210612E-1,1.7386048E-1,2.0132913E-1,2.3251888E-1,2.5101078E-1,2.684991E-1,8.469955E-4,1.4133331E-3,1.3227231E-3,3.939526E-1,8.860618E-4,1.7884122E-1,1.4210612E-1,-7.7036297E-4,-5.1276834E-4,8.696552E-2,1.8501888E-1,2.1786417E-1,2.6649547E-1,2.0839617E-1,3.021301E-1,4.79241E-4,5.7605724E-4,7.6886074E-4,2.8420076E-1,1.7474777E-1,1.1053017E-1,4.7715008E-4,1.8328283E-3,2.600211E-3,-5.6892115E-4,-2.8732244E-4,2.110079E-5,-3.7221148E-4,-2.2701018E-4,2.89239E-5,-9.743557E-5,1.0613139E-5,2.2576061E-5,2.4389595E-4,1.7426106E-4,2.5272337E-4,3.1427707E-4,6.03915E-4,1.7587542E-4,7.6001434E-4,8.429571E-4,1.1487852E-3,4.8226267E-4,1.9480486E-3],"split_indices":[0,4,0,4,4,4,4,0,0,1,4,0,4,4,0,1,4,1,4,4,0,0,0,4,4,0,0,0,0,0,0,0,0,0,0,0,3,0,4,4,1,2,4,0,0,0,4,0,3,0,0,0,3,0,3,3,4,3,0,0,0,2,3,3,0,0,0,0,0,0,0,0,0,0,0,0,0,0,0,0,0,0,0,0,0,0,0],"split_type":[0,0,0,0,0,0,0,0,0,0,0,0,0,0,0,0,0,0,0,0,0,0,0,0,0,0,0,0,0,0,0,0,0,0,0,0,0,0,0,0,0,0,0,0,0,0,0,0,0,0,0,0,0,0,0,0,0,0,0,0,0,0,0,0,0,0,0,0,0,0,0,0,0,0,0,0,0,0,0,0,0,0,0,0,0,0,0],"sum_hessian":[3.7E3,2.947E3,7.53E2,2.225E3,7.22E2,4.63E2,2.9E2,1.487E3,7.38E2,4.33E2,2.89E2,2.31E2,2.32E2,2.45E2,4.5E1,1.098E3,3.89E2,5.5E2,1.88E2,2.02E2,2.31E2,1.3E2,1.59E2,1.01E2,1.3E2,1.59E2,7.3E1,1.01E2,1.44E2,3.76E2,7.22E2,1.74E2,2.15E2,2.61E2,2.89E2,1.16E2,7.2E1,1.01E2,1.01E2,1.01E2,1.3E2,5.9E1,7.1E1,1E1,1.49E2,1.3E1,8.8E1,2E0,1.28E2,5E1,2.2E1,2.3E1,7.8E1,5.8E1,4.3E1,2.9E1,7.2E1,5.8E1,7.2E1,2E1,3.9E1,1E1,6.1E1,8.7E1,1E0,1.2E1,1.16E2,4.5E1,5E0,1E0,7.7E1,5.7E1,1E0,3E1,1.3E1,2.5E1,4E0,2.8E1,4.4E1,5.5E1,3E0,2E0,8E0,2.1E1,4E1,1E0,8.6E1],"tree_param":{"num_deleted":"0","num_feature":"5","num_nodes":"87","size_leaf_vector":"1"}},{"base_weights":[1.7384897E-4,-1.0054433E-2,3.7454884E-2,-1.4455782E-2,3.2487486E-3,2.3563761E-2,5.654185E-2,-1.6717907E-2,-1.11940075E-2,-9.88442E-4,8.61807E-3,1.6717616E-2,2.7590195E-2,5.057753E-2,6.93032E-2,-1.7774086E-3,-1.6237171E-2,-1.2333083E-2,-9.091441E-3,-3.382683E-3,1.7657313E-3,5.317384E-3,1.08602485E-2,1.4509753E-3,1.87587E-2,2.5409415E-2,3.2386617E-3,4.2058392E-3,5.4148277E-3,6.48593E-3,8.823026E-3,-1.6519584E-3,-1.5191698E-3,-1.3187978E-3,-1.124096E-3,-9.6302055E-4,-7.109424E-3,-4.6085925E-3,-2.275567E-3,8.817295E-5,2.507794E-3,4.493653E-3,6.7418086E-4,9.737991E-3,1.2510164E-2,5.0884037E-4,1.885849E-3,2.309798E-2,2.6930757E-3,-5.757738E-3,-8.301173E-3,-4.8546665E-3,-3.2781276E-3,-2.728512E-3,-1.4723729E-3,-1.4822288E-5,3.0309483E-4,2.2901553E-3,5.2035454E-4,3.955997E-3,5.040161E-3,6.151192E-3,1.0052176E-2,8.820665E-3,1.3022483E-2,7.917573E-4,2.3358949E-2,-6.020756E-4,-7.6994795E-5,-1.942251E-4,-8.427364E-4,-4.9329427E-4,-2.0559132E-4,-9.518117E-5,-4.0409682E-4,-2.9703975E-5,-2.758157E-4,-1.6584051E-4,-7.635124E-5,-5.7532332E-5,3.6994476E-5,1.5506822E-4,2.640981E-4,9.582341E-5,3.9993916E-4,5.2369037E-4,2.0094328E-4,1.6415119E-4,6.888977E-4,9.4976573E-4,1.2577738E-3,9.772027E-4,2.7092398E-4,1.3385363E-3,7.40471E-4,2.3488475E-3,6.1746093E-4],"categories":[],"categories_nodes":[],"categories_segments":[],"categories_sizes":[],"default_left":[0,0,0,0,0,0,0,0,0,0,0,0,0,0,0,0,0,0,0,0,0,0,0,0,0,0,0,0,0,0,0,0,0,0,0,0,0,0,0,0,0,0,0,0,0,0,0,0,0,0,0,0,0,0,0,0,0,0,0,0,0,0,0,0,0,0,0,0,0,0,0,0,0,0,0,0,0,0,0,0,0,0,0,0,0,0,0,0,0,0,0,0,0,0,0,0,0],"id":23,"left_children":[1,3,5,7,9,11,13,15,17,19,21,23,25,27,29,-1,31,33,35,37,39,41,43,-1,45,47,-1,-1,-1,-1,-1,-1,-1,-1,-1,-1,49,51,53,55,57,59,-1,61,63,-1,-1,65,-1,67,69,71,73,75,77,79,-1,81,-1,83,85,87,89,91,93,-1,95,-1,-1,-1,-1,-1,-1,-1,-1,-1,-1,-1,-1,-1,-1,-1,-1,-1,-1,-1,-1,-1,-1,-1,-1,-1,-1,-1,-1,-1,-1],"loss_changes":[1.4116453E0,1.7014033E-1,2.0998383E-1,1.5920222E-2,1.6457373E-2,1.2301624E-2,2.1992445E-2,3.6486983E-4,2.0361766E-3,2.6766052E-3,2.3030825E-3,5.1194057E-4,2.2104532E-3,4.7799945E-3,3.0248761E-3,0E0,1.3589859E-5,3.9234012E-4,2.721753E-4,2.8403057E-4,2.3505616E-4,1.2341258E-4,2.2813492E-4,0E0,2.2720546E-5,9.530783E-5,0E0,0E0,0E0,0E0,0E0,0E0,0E0,0E0,0E0,0E0,6.818655E-5,1.747976E-5,3.81837E-5,1.7927343E-5,6.494066E-5,5.3308904E-6,0E0,7.001683E-5,2.3119152E-5,0E0,0E0,1.6367063E-4,0E0,4.3903943E-5,1.2519769E-5,8.260598E-6,2.9871328E-5,4.4426415E-6,4.536094E-6,1.2721251E-5,0E0,2.7814123E-5,0E0,2.4117762E-6,1.2731412E-5,2.8617738E-5,2.899114E-5,4.3295266E-5,2.7276576E-5,0E0,4.639104E-5,0E0,0E0,0E0,0E0,0E0,0E0,0E0,0E0,0E0,0E0,0E0,0E0,0E0,0E0,0E0,0E0,0E0,0E0,0E0,0E0,0E0,0E0,0E0,0E0,0E0,0E0,0E0,0E0,0E0,0E0],"parents":[2147483647,0,0,1,1,2,2,3,3,4,4,5,5,6,6,7,7,8,8,9,9,10,10,11,11,12,12,13,13,14,14,16,16,17,17,18,18,19,19,20,20,21,21,22,22,24,24,25,25,36,36,37,37,38,38,39,39,40,40,41,41,43,43,44,44,47,47,49,49,50,50,51,51,52,52,53,53,54,54,55,55,57,57,59,59,60,60,61,61,62,62,63,63,64,64,66,66],"right_children":[2,4,6,8,10,12,14,16,18,20,22,24,26,28,30,-1,32,34,36,38,40,42,44,-1,46,48,-1,-1,-1,-1,-1,-1,-1,-1,-1,-1,50,52,54,56,58,60,-1,62,64,-1,-1,66,-1,68,70,72,74,76,78,80,-1,82,-1,84,86,88,90,92,94,-1,96,-1,-1,-1,-1,-1,-1,-1,-1,-1,-1,-1,-1,-1,-1,-1,-1,-1,-1,-1,-1,-1,-1,-1,-1,-1,-1,-1,-1,-1,-1],"split_conditions":[3.3253008E-1,1.2663577E-1,5.574782E-1,2.5872823E-2,2.258359E-1,4.3648332E-1,8.738319E-1,2.0182915E-3,7.4147314E-2,1.7721954E-1,2.8244665E-1,3.5967472E-1,5.139639E-1,7.2658825E-1,9.589013E-1,-1.7774086E-3,7.7444157E-3,5.7445496E-2,9.453473E-2,1.4848158E-1,2.0132913E-1,2.4177454E-1,3.056532E-1,1.4509753E-3,3.718454E-1,4.6449158E-1,3.2386617E-3,4.2058392E-3,5.4148277E-3,6.48593E-3,8.823026E-3,-1.6519584E-3,-1.5191698E-3,-1.3187978E-3,-1.124096E-3,-9.6302055E-4,1.6004422E-1,1.5331057E-1,1.6311635E-1,2.097935E-1,2.4600497E-1,2.4156004E-1,6.7418086E-4,2.684991E-1,3.222828E-1,5.0884037E-4,1.885849E-3,1.3818946E-1,2.6930757E-3,1.1701923E-1,8.905868E-2,1.4919345E-1,1.5050413E-1,1.4919345E-1,2.634831E-1,1.8238977E-1,3.0309483E-4,2.161866E-1,5.2035454E-4,2.2209992E-1,2.7602684E-1,2.8420076E-1,3.8046348E-1,3.1769565E-1,3.4945124E-1,7.917573E-4,7.1053E-1,-6.020756E-4,-7.6994795E-5,-1.942251E-4,-8.427364E-4,-4.9329427E-4,-2.0559132E-4,-9.518117E-5,-4.0409682E-4,-2.9703975E-5,-2.758157E-4,-1.6584051E-4,-7.635124E-5,-5.7532332E-5,3.6994476E-5,1.5506822E-4,2.640981E-4,9.582341E-5,3.9993916E-4,5.2369037E-4,2.0094328E-4,1.6415119E-4,6.888977E-4,9.4976573E-4,1.2577738E-3,9.772027E-4,2.7092398E-4,1.3385363E-3,7.40471E-4,2.3488475E-3,6.1746093E-4],"split_indices":[4,1,4,4,4,0,1,0,0,4,0,4,4,0,4,0,0,0,0,4,4,4,4,0,0,4,0,0,0,0,0,0,0,0,0,0,3,0,4,0,3,0,0,4,0,0,0,3,0,4,2,1,2,1,3,3,0,1,0,1,3,2,3,4,2,0,3,0,0,0,0,0,0,0,0,0,0,0,0,0,0,0,0,0,0,0,0,0,0,0,0,0,0,0,0,0,0],"split_type":[0,0,0,0,0,0,0,0,0,0,0,0,0,0,0,0,0,0,0,0,0,0,0,0,0,0,0,0,0,0,0,0,0,0,0,0,0,0,0,0,0,0,0,0,0,0,0,0,0,0,0,0,0,0,0,0,0,0,0,0,0,0,0,0,0,0,0,0,0,0,0,0,0,0,0,0,0,0,0,0,0,0,0,0,0,0,0,0,0,0,0,0,0,0,0,0,0],"sum_hessian":[3.7E3,2.904E3,7.96E2,2.182E3,7.22E2,4.62E2,3.34E2,1.286E3,8.96E2,4.04E2,3.18E2,1.73E2,2.89E2,2.31E2,1.03E2,3.91E2,8.95E2,5.78E2,3.18E2,2.16E2,1.88E2,1.3E2,1.88E2,8.7E1,8.6E1,2.03E2,8.6E1,7.2E1,1.59E2,8.7E1,1.6E1,6.93E2,2.02E2,3.18E2,2.6E2,2.47E2,7.1E1,1.01E2,1.15E2,5.8E1,1.3E2,8.5E1,4.5E1,1.16E2,7.2E1,1E0,8.5E1,8.7E1,1.16E2,3.6E1,3.5E1,8.3E1,1.8E1,7.2E1,4.3E1,5.7E1,1E0,1.22E2,8E0,4.7E1,3.8E1,1.1E1,1.05E2,1.1E1,6.1E1,2E0,8.5E1,3.4E1,2E0,1E0,3.4E1,8E1,3E0,5E0,1.3E1,1E0,7.1E1,3.3E1,1E1,2.3E1,3.4E1,4.1E1,8.1E1,1E0,4.6E1,3.5E1,3E0,2E0,9E0,9E1,1.5E1,9E0,2E0,5.6E1,5E0,8.4E1,1E0],"tree_param":{"num_deleted":"0","num_feature":"5","num_nodes":"97","size_leaf_vector":"1"}},{"base_weights":[1.6623067E-4,-8.732939E-3,3.4960113E-2,-1.2856668E-2,3.975432E-3,2.3512848E-2,5.309266E-2,-1.4644447E-2,-9.11991E-3,4.5863652E-4,9.702944E-3,1.8535355E-2,2.9044624E-2,4.9637716E-2,7.0414916E-3,-1.5279535E-2,-1.2889259E-2,-9.936584E-3,-6.4860545E-3,-2.2953379E-3,2.7201676E-3,7.4838395E-3,1.1251152E-2,1.51321255E-2,2.0786E-2,2.5697479E-3,3.3697255E-3,4.3246704E-3,5.2802595E-3,-1.6108813E-3,-1.4897997E-3,-1.370326E-3,-1.2219691E-3,-1.0594514E-3,-9.1674813E-4,-7.427209E-3,-5.082167E-3,-3.2939925E-3,-1.2741799E-3,1.5971998E-3,3.7023588E-3,6.1289286E-3,8.19798E-3,6.8365445E-4,1.1499882E-3,7.2524726E-4,1.5379739E-2,1.1306629E-3,2.104196E-2,-5.9838174E-3,-7.7493436E-4,-4.640023E-3,-7.1524307E-3,-4.1635503E-4,-2.988127E-3,-1.7991882E-3,-5.412329E-4,1.4369037E-3,4.900453E-4,2.8606271E-3,4.0811524E-3,1.9479493E-4,6.281643E-4,3.8084568E-4,8.3972495E-3,1.5464272E-2,3.5900026E-4,2.110846E-3,5.865872E-4,-6.429336E-4,1.9087941E-4,-4.801374E-4,-2.3069631E-4,-7.496806E-4,-1.8543378E-4,2.4805218E-5,-3.0327967E-4,-1.8410002E-4,3.1295418E-5,-8.1079284E-5,9.430945E-6,5.6322402E-5,1.9457955E-4,2.6035946E-4,4.7800542E-4,3.6925424E-4,5.0188537E-4,7.572574E-4,9.921625E-4,3.6385655E-4,1.5549556E-3],"categories":[],"categories_nodes":[],"categories_segments":[],"categories_sizes":[],"default_left":[0,0,0,0,0,0,0,0,0,0,0,0,0,0,0,0,0,0,0,0,0,0,0,0,0,0,0,0,0,0,0,0,0,0,0,0,0,0,0,0,0,0,0,0,0,0,0,0,0,0,0,0,0,0,0,0,0,0,0,0,0,0,0,0,0,0,0,0,0,0,0,0,0,0,0,0,0,0,0,0,0,0,0,0,0,0,0,0,0,0,0],"id":24,"left_children":[1,3,5,7,9,11,13,15,17,19,21,23,25,27,-1,29,31,33,35,37,39,41,43,45,47,-1,-1,-1,-1,-1,-1,-1,-1,-1,-1,49,51,53,55,57,59,61,63,-1,-1,-1,65,-1,67,69,-1,71,73,-1,75,77,79,81,-1,83,85,-1,-1,-1,87,89,-1,-1,-1,-1,-1,-1,-1,-1,-1,-1,-1,-1,-1,-1,-1,-1,-1,-1,-1,-1,-1,-1,-1,-1,-1],"loss_changes":[1.1462706E0,1.5454362E-1,1.55258E-1,1.4737219E-2,1.45585695E-2,1.2237579E-2,1.3920367E-2,1.4795661E-3,1.4907233E-3,2.8027047E-3,8.605961E-4,1.577355E-3,2.5289804E-3,2.6922822E-3,0E0,1.07735395E-4,5.3830445E-5,1.8118694E-4,1.921556E-4,2.0281912E-4,2.6651984E-4,6.199628E-5,9.706803E-5,8.747168E-5,1.16325915E-4,0E0,0E0,0E0,0E0,0E0,0E0,0E0,0E0,0E0,0E0,1.0561198E-6,3.3633318E-5,1.4687423E-5,3.827615E-5,5.4909848E-5,3.0093826E-5,1.585763E-5,3.1872652E-5,0E0,0E0,0E0,4.2155385E-5,0E0,1.848489E-5,9.314733E-5,0E0,1.26392115E-5,6.168266E-6,0E0,1.2172444E-5,5.786598E-6,7.6144015E-6,4.9144845E-5,0E0,9.262323E-6,1.3534911E-5,0E0,0E0,0E0,1.1608005E-5,4.1246414E-5,0E0,0E0,0E0,0E0,0E0,0E0,0E0,0E0,0E0,0E0,0E0,0E0,0E0,0E0,0E0,0E0,0E0,0E0,0E0,0E0,0E0,0E0,0E0,0E0,0E0],"parents":[2147483647,0,0,1,1,2,2,3,3,4,4,5,5,6,6,7,7,8,8,9,9,10,10,11,11,12,12,13,13,15,15,16,16,17,17,18,18,19,19,20,20,21,21,22,22,23,23,24,24,35,35,36,36,37,37,38,38,39,39,40,40,41,41,42,42,46,46,48,48,49,49,51,51,52,52,54,54,55,55,56,56,57,57,59,59,60,60,64,64,65,65],"right_children":[2,4,6,8,10,12,14,16,18,20,22,24,26,28,-1,30,32,34,36,38,40,42,44,46,48,-1,-1,-1,-1,-1,-1,-1,-1,-1,-1,50,52,54,56,58,60,62,64,-1,-1,-1,66,-1,68,70,-1,72,74,-1,76,78,80,82,-1,84,86,-1,-1,-1,88,90,-1,-1,-1,-1,-1,-1,-1,-1,-1,-1,-1,-1,-1,-1,-1,-1,-1,-1,-1,-1,-1,-1,-1,-1,-1],"split_conditions":[3.5877976E-1,1.314001E-1,6.8686104E-1,4.473729E-2,2.5101078E-1,4.9117216E-1,9.325779E-1,7.886708E-3,8.6323656E-2,1.8919358E-1,2.9431653E-1,4.0863347E-1,5.392914E-1,7.764898E-1,7.0414916E-3,1.6255357E-3,2.5555888E-2,6.961536E-2,9.8355986E-2,1.5648843E-1,2.1825685E-1,2.8244665E-1,3.0511698E-1,3.3727556E-1,3.7522867E-1,2.5697479E-3,3.3697255E-3,4.3246704E-3,5.2802595E-3,-1.6108813E-3,-1.4897997E-3,-1.370326E-3,-1.2219691E-3,-1.0594514E-3,-9.1674813E-4,8.538195E-2,2.2999573E-1,1.4210612E-1,1.7386048E-1,3.021301E-1,2.258359E-1,2.3415689E-1,2.5923234E-1,6.8365445E-4,1.1499882E-3,7.2524726E-4,3.939526E-1,1.1306629E-3,7.1053E-1,8.211159E-2,-7.7493436E-4,1.4210612E-1,1.3475372E-1,-4.1635503E-4,8.696552E-2,1.8501888E-1,2.1786417E-1,2.0572789E-1,4.900453E-4,2.5415164E-1,1.629216E-1,1.9479493E-4,6.281643E-4,3.8084568E-4,3.4673086E-1,1.1053017E-1,3.5900026E-4,2.110846E-3,5.865872E-4,-6.429336E-4,1.9087941E-4,-4.801374E-4,-2.3069631E-4,-7.496806E-4,-1.8543378E-4,2.4805218E-5,-3.0327967E-4,-1.8410002E-4,3.1295418E-5,-8.1079284E-5,9.430945E-6,5.6322402E-5,1.9457955E-4,2.6035946E-4,4.7800542E-4,3.6925424E-4,5.0188537E-4,7.572574E-4,9.921625E-4,3.6385655E-4,1.5549556E-3],"split_indices":[0,4,4,4,2,0,4,1,1,1,4,0,4,4,0,1,4,0,4,4,4,0,0,4,4,0,0,0,0,0,0,0,0,0,0,3,3,0,4,3,4,4,4,0,0,0,4,0,3,3,0,0,1,0,3,0,3,4,0,3,3,0,0,0,3,3,0,0,0,0,0,0,0,0,0,0,0,0,0,0,0,0,0,0,0,0,0,0,0,0,0],"split_type":[0,0,0,0,0,0,0,0,0,0,0,0,0,0,0,0,0,0,0,0,0,0,0,0,